{"learner":{"attributes":{"scikit_learn":"{\"_estimator_type\": \"classifier\"}"},"feature_names":["Return","Volume","RSI_14","MACDh_12_26_9","BBL_20_2.0","BBU_20_2.0","OBV","ATRr_14","SPY_Return","VIX_Change","FinBERT_Score"],"feature_types":["float","int","float","float","float","float","float","float","float","float","float"],"gradient_booster":{"model":{"cats":{"enc":[],"feature_segments":[],"sorted_idx":[]},"gbtree_model_param":{"num_parallel_tree":"1","num_trees":"50"},"iteration_indptr":[0,1,2,3,4,5,6,7,8,9,10,11,12,13,14,15,16,17,18,19,20,21,22,23,24,25,26,27,28,29,30,31,32,33,34,35,36,37,38,39,40,41,42,43,44,45,46,47,48,49,50],"tree_info":[0,0,0,0,0,0,0,0,0,0,0,0,0,0,0,0,0,0,0,0,0,0,0,0,0,0,0,0,0,0,0,0,0,0,0,0,0,0,0,0,0,0,0,0,0,0,0,0,0,0],"trees":[{"base_weights":[-9.694943E-8,7.494047E-2,-1.9038606E-1,1.003219E-1,-6.030606E-1,-2.487287E-1,5.589413E-1,7.908753E-1,7.8660056E-2,-8.7719575E-2,-1.3618644E0,-4.4100443E-1,-7.0829436E-2,1.2656162E0,-1.2845746E-1,1.2159117E0,3.7269312E-1,3.512589E-2,4.2474064E-1,3.1483704E-1,-1.3713524E-2,-1.6773922E-2,-4.332523E-3,-3.6679906E-1,-1.649083E-2,6.165692E-1,-2.6441634E-1,1.4884616E-2,3.1250739E-3,-5.2632326E-1,1.032275E-2,1.4469396E-2,3.1250739E-3,1.1829457E-2,-4.4119486E-4,5.829405E-4,-7.1573392E-3,-3.5506939E-3,5.949228E-3,-3.1940723E-3,8.858386E-3,-4.1341004E-3,4.1161967E-3,-3.6211857E-3,8.195878E-3,-3.3024445E-3,1.0415324E-2,1.8104552E-3,-1.0456877E-2],"categories":[],"categories_nodes":[],"categories_segments":[],"categories_sizes":[],"default_left":[0,0,0,0,0,0,0,0,0,0,0,0,0,0,0,0,0,0,0,0,0,0,0,0,0,0,0,0,0,0,0,0,0,0,0,0,0,0,0,0,0,0,0,0,0,0,0,0,0],"id":0,"left_children":[1,3,5,7,9,11,13,15,17,19,21,23,25,27,29,31,33,35,37,39,-1,-1,-1,41,-1,43,45,-1,-1,47,-1,-1,-1,-1,-1,-1,-1,-1,-1,-1,-1,-1,-1,-1,-1,-1,-1,-1,-1],"loss_changes":[8.829887E0,7.702443E0,7.7808533E0,6.353694E0,6.2025375E0,5.5396614E0,6.4458394E0,1.8458881E0,6.267355E0,5.9592414E0,1.1690187E0,6.3945236E0,1.1578715E1,9.0906334E-1,3.9905965E0,7.944126E-1,2.741117E0,6.50389E0,6.38239E0,3.5265708E0,0E0,0E0,0E0,2.8857975E0,0E0,4.101876E0,6.158457E0,0E0,0E0,2.4749622E0,0E0,0E0,0E0,0E0,0E0,0E0,0E0,0E0,0E0,0E0,0E0,0E0,0E0,0E0,0E0,0E0,0E0,0E0,0E0],"parents":[2147483647,0,0,1,1,2,2,3,3,4,4,5,5,6,6,7,7,8,8,9,9,10,10,11,11,12,12,13,13,14,14,15,15,16,16,17,17,18,18,19,19,23,23,25,25,26,26,29,29],"right_children":[2,4,6,8,10,12,14,16,18,20,22,24,26,28,30,32,34,36,38,40,-1,-1,-1,42,-1,44,46,-1,-1,48,-1,-1,-1,-1,-1,-1,-1,-1,-1,-1,-1,-1,-1,-1,-1,-1,-1,-1,-1],"split_conditions":[2.291697E-1,1.773302E-2,1.4703426E-2,3.1641508E1,4.66077E7,-1.2000084E-1,1.8396243E-2,9.613077E1,9.071881E-3,1.0762118E-1,3.5166326E0,4.6141863E-2,1.3000107E-1,-1.4699993E0,-9.7000027E-1,-4.016621E-1,-1.9202586E0,7.8576055E0,2.47596E7,-3.060639E-1,-1.3713524E-2,-1.6773922E-2,-4.332523E-3,4.196088E-2,-1.649083E-2,2.726478E-1,4.787703E-2,1.4884616E-2,3.1250739E-3,-2.2299995E0,1.032275E-2,1.4469396E-2,3.1250739E-3,1.1829457E-2,-4.4119486E-4,5.829405E-4,-7.1573392E-3,-3.5506939E-3,5.949228E-3,-3.1940723E-3,8.858386E-3,-4.1341004E-3,4.1161967E-3,-3.6211857E-3,8.195878E-3,-3.3024445E-3,1.0415324E-2,1.8104552E-3,-1.0456877E-2],"split_indices":[3,8,8,2,1,9,8,4,8,3,7,10,9,9,9,3,3,7,1,3,0,0,0,10,0,3,10,0,0,9,0,0,0,0,0,0,0,0,0,0,0,0,0,0,0,0,0,0,0],"split_type":[0,0,0,0,0,0,0,0,0,0,0,0,0,0,0,0,0,0,0,0,0,0,0,0,0,0,0,0,0,0,0,0,0,0,0,0,0,0,0,0,0,0,0,0,0,0,0,0,0],"sum_hessian":[6.168754E2,4.430762E2,1.7379924E2,4.2790915E2,1.516703E1,1.6186453E2,1.1934712E1,1.1934712E1,4.1597446E2,9.696954E0,5.4700766E0,7.707835E1,8.478619E1,5.4700766E0,6.464636E0,4.972797E0,6.9619155E0,3.7047336E2,4.550109E1,7.956475E0,1.7404789E0,3.4809577E0,1.9891187E0,7.384603E1,3.232318E0,1.8150707E1,6.6635475E1,3.9782374E0,1.491839E0,5.2214365E0,1.2431992E0,3.4809577E0,1.491839E0,1.7404789E0,5.2214365E0,3.602791E2,1.0194233E1,7.956475E0,3.7544617E1,3.9782374E0,3.9782374E0,7.011643E1,3.7295976E0,2.983678E0,1.516703E1,6.414908E1,2.4863985E0,2.4863985E0,2.7350383E0],"tree_param":{"num_deleted":"0","num_feature":"11","num_nodes":"49","size_leaf_vector":"1"}},{"base_weights":[1.7459628E-5,1.18171815E-2,-1.1613603E0,8.4544814E-1,-2.9897934E-3,-3.0095817E-3,-1.3157994E0,1.1153963E0,-4.9100025E-3,6.968848E-1,-1.7094733E-2,-1.5306142E-2,-4.8719007E-3,1.3432298E-2,8.787869E-4,9.3530715E-1,-7.5016622E-3,-3.029703E-3,-7.994347E-1,2.3812572E-3,1.2053394E-2,-4.1069994E-3,2.2054477E-4,7.1495217E-3,-1.1314258E-2],"categories":[],"categories_nodes":[],"categories_segments":[],"categories_sizes":[],"default_left":[0,0,0,0,0,0,0,0,0,0,0,0,0,0,0,0,0,0,0,0,0,0,0,0,0],"id":1,"left_children":[1,3,5,7,9,-1,11,13,-1,15,17,-1,-1,-1,-1,19,-1,21,23,-1,-1,-1,-1,-1,-1],"loss_changes":[8.481025E0,7.5647945E0,4.3112183E-1,4.406294E0,5.9640846E0,0E0,1.4086533E-1,2.0366E0,0E0,4.819502E0,6.511929E0,0E0,0E0,0E0,0E0,1.725914E0,0E0,5.966425E0,6.0636034E0,0E0,0E0,0E0,0E0,0E0,0E0],"parents":[2147483647,0,0,1,1,2,2,3,3,4,4,6,6,7,7,9,9,10,10,15,15,17,17,18,18],"right_children":[2,4,6,8,10,-1,12,14,-1,16,18,-1,-1,-1,-1,20,-1,22,24,-1,-1,-1,-1,-1,-1],"split_conditions":[2.9492581E-2,-8.92E5,4.9490585E1,6.0322E7,3.1641508E1,-3.0095817E-3,1.0394038E2,4.6133858E1,-4.9100025E-3,3.006639E-3,3.3463638E2,-1.5306142E-2,-4.8719007E-3,1.3432298E-2,8.787869E-4,3.9342E7,-7.5016622E-3,3.9316486E1,2.74883E7,2.3812572E-3,1.2053394E-2,-4.1069994E-3,2.2054477E-4,7.1495217E-3,-1.1314258E-2],"split_indices":[8,6,4,1,2,0,5,2,0,0,5,0,0,0,0,1,0,4,1,0,0,0,0,0,0],"split_type":[0,0,0,0,0,0,0,0,0,0,0,0,0,0,0,0,0,0,0,0,0,0,0,0,0],"sum_hessian":[6.168737E2,6.116491E2,5.2245955E0,9.695501E0,6.019536E2,1.2438194E0,3.980776E0,8.203821E0,1.4916804E0,1.0935523E1,5.9101807E2,2.4884443E0,1.4923317E0,6.4634175E0,1.7404039E0,9.692235E0,1.2432884E0,5.8156647E2,9.45162E0,3.2313175E0,6.4609175E0,3.2818848E1,5.487476E2,1.4920524E0,7.959568E0],"tree_param":{"num_deleted":"0","num_feature":"11","num_nodes":"25","size_leaf_vector":"1"}},{"base_weights":[-6.5577874E-6,7.412488E-2,-1.8829723E-1,9.924667E-2,-5.9660673E-1,-2.4624175E-1,5.5616736E-1,-9.464536E-2,2.2213951E-1,-8.7612644E-2,-1.3451266E0,-4.3665576E-1,-7.0022605E-2,1.2565387E0,-1.24759175E-1,7.5846595E-1,-1.4767385E-1,4.1984278E-1,7.896319E-2,3.1217772E-1,-1.3611335E-2,-1.656463E-2,-4.2813215E-3,-3.6300677E-1,-1.6352326E-2,6.109173E-1,-2.6166818E-1,1.4777794E-2,3.1055096E-3,-5.195813E-1,1.0268922E-2,-2.7962266E-3,1.0128063E-2,-2.5971185E-3,2.6412355E-3,2.9126883E-3,7.044572E-3,-4.2989305E-3,1.7355107E-3,-3.169758E-3,8.790473E-3,-4.091871E-3,4.0852535E-3,-3.5922732E-3,8.123473E-3,-3.269792E-3,1.0348333E-2,-1.2870237E-2,-5.444087E-5],"categories":[],"categories_nodes":[],"categories_segments":[],"categories_sizes":[],"default_left":[0,0,0,0,0,0,0,0,0,0,0,0,0,0,0,0,0,0,0,0,0,0,0,0,0,0,0,0,0,0,0,0,0,0,0,0,0,0,0,0,0,0,0,0,0,0,0,0,0],"id":2,"left_children":[1,3,5,7,9,11,13,15,17,19,21,23,25,27,29,31,33,35,37,39,-1,-1,-1,41,-1,43,45,-1,-1,47,-1,-1,-1,-1,-1,-1,-1,-1,-1,-1,-1,-1,-1,-1,-1,-1,-1,-1,-1],"loss_changes":[8.638355E0,7.5413837E0,7.678459E0,1.0240177E1,6.0441847E0,5.4352264E0,6.323814E0,7.6704416E0,7.4056473E0,5.871119E0,1.1399031E0,6.3007803E0,1.1355474E1,8.9415073E-1,3.9285295E0,2.907785E0,7.364542E0,3.8255615E0,7.469924E0,3.4722662E0,0E0,0E0,0E0,2.8346128E0,0E0,4.0324874E0,6.0665803E0,0E0,0E0,2.4489E0,0E0,0E0,0E0,0E0,0E0,0E0,0E0,0E0,0E0,0E0,0E0,0E0,0E0,0E0,0E0,0E0,0E0,0E0,0E0],"parents":[2147483647,0,0,1,1,2,2,3,3,4,4,5,5,6,6,7,7,8,8,9,9,10,10,11,11,12,12,13,13,14,14,15,15,16,16,17,17,18,18,19,19,23,23,25,25,26,26,29,29],"right_children":[2,4,6,8,10,12,14,16,18,20,22,24,26,28,30,32,34,36,38,40,-1,-1,-1,42,-1,44,46,-1,-1,48,-1,-1,-1,-1,-1,-1,-1,-1,-1,-1,-1,-1,-1,-1,-1,-1,-1,-1,-1],"split_conditions":[2.291697E-1,1.773302E-2,1.4703426E-2,-3.0990106E-3,4.66077E7,-1.2000084E-1,1.8396243E-2,3.1641508E1,1.6829805E-3,1.0762118E-1,3.5166326E0,4.6141863E-2,1.3000107E-1,-1.4699993E0,-9.7000027E-1,3.7914E7,1.8999996E0,0E0,2.8202028E-3,-3.060639E-1,-1.3611335E-2,-1.656463E-2,-4.2813215E-3,4.196088E-2,-1.6352326E-2,2.726478E-1,4.787703E-2,1.4777794E-2,3.1055096E-3,2.1035668E-2,1.0268922E-2,-2.7962266E-3,1.0128063E-2,-2.5971185E-3,2.6412355E-3,2.9126883E-3,7.044572E-3,-4.2989305E-3,1.7355107E-3,-3.169758E-3,8.790473E-3,-4.091871E-3,4.0852535E-3,-3.5922732E-3,8.123473E-3,-3.269792E-3,1.0348333E-2,-1.2870237E-2,-5.444087E-5],"split_indices":[3,8,8,0,1,9,8,2,8,3,7,10,9,9,9,1,9,8,8,3,0,0,0,10,0,3,10,0,0,0,0,0,0,0,0,0,0,0,0,0,0,0,0,0,0,0,0,0,0],"split_type":[0,0,0,0,0,0,0,0,0,0,0,0,0,0,0,0,0,0,0,0,0,0,0,0,0,0,0,0,0,0,0,0,0,0,0,0,0,0,0,0,0,0,0,0,0,0,0,0,0],"sum_hessian":[6.168706E2,4.4304633E2,1.7382431E2,4.2787268E2,1.5173648E1,1.618928E2,1.1931498E1,1.6607716E2,2.617955E2,9.696839E0,5.476809E0,7.7102066E1,8.479074E1,5.4650493E0,6.4664483E0,8.940545E0,1.5713663E2,1.0914778E2,1.5264772E2,7.9545693E0,1.7422698E0,3.48663E0,1.9901791E0,7.386608E1,3.2359862E0,1.814206E1,6.664868E1,3.9735823E0,1.4914668E0,5.22425E0,1.2421985E0,1.7398707E0,7.200674E0,1.2381854E2,3.331808E1,7.657746E1,3.257032E1,2.3371374E1,1.2927635E2,3.9791014E0,3.975468E0,7.013761E1,3.728468E0,2.9844944E0,1.5157566E1,6.4164215E1,2.4844627E0,1.4927632E0,3.7314866E0],"tree_param":{"num_deleted":"0","num_feature":"11","num_nodes":"49","size_leaf_vector":"1"}},{"base_weights":[-1.1557571E-5,1.16396425E-2,-1.1457168E0,7.1924496E-1,-3.8936986E-3,-1.3852154E-2,-4.2323596E-3,9.153707E-1,-4.8804474E-3,1.0047712E-2,-7.914726E-1,1.1949613E0,3.4068316E-1,-1.1685537E-1,7.7947356E-2,7.102149E-3,-1.1204357E0,5.483966E-3,1.4527536E-2,-5.0102985E-3,8.112427E-3,-2.2610857E-3,3.2904977E-3,2.0554503E-3,-1.1755468E-3,1.5070465E-3,-1.3448844E-2],"categories":[],"categories_nodes":[],"categories_segments":[],"categories_sizes":[],"default_left":[0,0,0,0,0,0,0,0,0,0,0,0,0,0,0,0,0,0,0,0,0,0,0,0,0,0,0],"id":3,"left_children":[1,3,5,7,9,-1,-1,11,-1,13,15,17,19,21,23,-1,25,-1,-1,-1,-1,-1,-1,-1,-1,-1,-1],"loss_changes":[8.261088E0,6.7365384E0,4.9174595E-1,3.5639606E0,6.6010647E0,0E0,0E0,1.4684763E0,0E0,5.1016564E0,5.961455E0,4.457121E-1,2.4736407E0,1.0129523E1,9.643449E0,0E0,2.7606678E0,0E0,0E0,0E0,0E0,0E0,0E0,0E0,0E0,0E0,0E0],"parents":[2147483647,0,0,1,1,2,2,3,3,4,4,7,7,9,9,10,10,11,11,12,12,13,13,14,14,16,16],"right_children":[2,4,6,8,10,-1,-1,12,-1,14,16,18,20,22,24,-1,26,-1,-1,-1,-1,-1,-1,-1,-1,-1,-1],"split_conditions":[2.9492581E-2,3.1641508E1,3.3152802E0,3.006639E-3,3.3463638E2,-1.3852154E-2,-4.2323596E-3,2.0999994E0,-4.8804474E-3,-3.0990106E-3,2.74883E7,-1.3250164E-2,-1.3739067E-2,1.8999996E0,6.117735E1,7.102149E-3,-2.1781035E-2,5.483966E-3,1.4527536E-2,-5.0102985E-3,8.112427E-3,-2.2610857E-3,3.2904977E-3,2.0554503E-3,-1.1755468E-3,1.5070465E-3,-1.3448844E-2],"split_indices":[8,2,7,0,5,0,0,9,0,0,1,0,10,9,2,0,0,0,0,0,0,0,0,0,0,0,0],"split_type":[0,0,0,0,0,0,0,0,0,0,0,0,0,0,0,0,0,0,0,0,0,0,0,0,0,0,0],"sum_hessian":[6.1686285E2,6.1163275E2,5.230132E0,1.2165009E1,5.994677E2,3.2390876E0,1.9910446E0,1.0672969E1,1.4920404E0,5.9001086E2,9.456897E0,6.4538097E0,4.2191586E0,2.0540045E2,3.8461038E2,1.4911191E0,7.9657774E0,2.731147E0,3.722663E0,1.489702E0,2.729457E0,1.6537428E2,4.0026173E1,2.3268997E2,1.519204E2,1.2447623E0,6.7210155E0],"tree_param":{"num_deleted":"0","num_feature":"11","num_nodes":"27","size_leaf_vector":"1"}},{"base_weights":[-1.5640175E-5,1.1548654E-2,-1.1366184E0,8.361833E-1,-3.0869043E-3,-1.3738446E-2,-4.203407E-3,1.1041774E0,-4.8809294E-3,-4.0759176E-1,2.0918742E-2,1.3486545E-3,1.2386235E0,3.9790925E-2,-9.600925E-1,3.4304246E-2,-6.652724E-1,1.3880615E-2,4.4747614E-3,3.4157038E-3,-9.179564E-3,-1.1399347E-2,5.8504813E-3,6.7455224E-3,2.0621215E-4,8.084999E-3,-1.03085395E-2],"categories":[],"categories_nodes":[],"categories_segments":[],"categories_sizes":[],"default_left":[0,0,0,0,0,0,0,0,0,0,0,0,0,0,0,0,0,0,0,0,0,0,0,0,0,0,0],"id":4,"left_children":[1,3,5,7,9,-1,-1,11,-1,13,15,-1,17,19,21,23,25,-1,-1,-1,-1,-1,-1,-1,-1,-1,-1],"loss_changes":[8.134254E0,7.396341E0,4.8164368E-1,4.331699E0,5.863293E0,0E0,0E0,1.0312128E0,0E0,8.399307E0,5.259306E0,0E0,3.1908417E-1,5.993337E0,4.883704E0,4.89334E0,6.7371106E0,0E0,0E0,0E0,0E0,0E0,0E0,0E0,0E0,0E0,0E0],"parents":[2147483647,0,0,1,1,2,2,3,3,4,4,7,7,9,9,10,10,12,12,13,13,14,14,15,15,16,16],"right_children":[2,4,6,8,10,-1,-1,12,-1,14,16,-1,18,20,22,24,26,-1,-1,-1,-1,-1,-1,-1,-1,-1,-1],"split_conditions":[2.9492581E-2,-8.92E5,3.3152802E0,6.0322E7,3.9316486E1,-1.3738446E-2,-4.203407E-3,-2.9784964E-2,-4.8809294E-3,1.6829805E-3,3.3463638E2,1.3486545E-3,4.13991E1,4.095854E1,1.8043235E-2,4.269675E1,2.74883E7,1.3880615E-2,4.4747614E-3,3.4157038E-3,-9.179564E-3,-1.1399347E-2,5.8504813E-3,6.7455224E-3,2.0621215E-4,8.084999E-3,-1.03085395E-2],"split_indices":[8,6,7,1,4,0,0,10,0,8,5,0,5,5,0,5,1,0,0,0,0,0,0,0,0,0,0],"split_type":[0,0,0,0,0,0,0,0,0,0,0,0,0,0,0,0,0,0,0,0,0,0,0,0,0,0,0],"sum_hessian":[6.168577E2,6.1162463E2,5.233097E0,9.686892E0,6.0193774E2,3.2415013E0,1.991596E0,8.194727E0,1.4921652E0,3.2826077E1,5.6911163E2,1.2421756E0,6.952551E0,1.8651314E1,1.4174761E1,5.5915424E2,9.957393E0,5.213327E0,1.7392242E0,1.467172E1,3.979595E0,1.2931841E1,1.2429194E0,1.0689285E1,5.4846497E2,1.7382843E0,8.219109E0],"tree_param":{"num_deleted":"0","num_feature":"11","num_nodes":"27","size_leaf_vector":"1"}},{"base_weights":[-3.088944E-5,1.1447044E-2,-1.1276543E0,7.131454E-1,-3.9475253E-3,-1.3626705E-2,-4.1746804E-3,9.083302E-1,-4.8656953E-3,9.7427415E-3,-7.766861E-1,3.1671384E-1,1.1207272E0,-1.1592589E-1,7.699179E-2,7.016442E-3,-1.1001395E0,-4.9265097E-3,8.863017E-3,4.4652675E-3,1.3353668E-2,-1.6852241E-3,5.3488878E-3,2.0332693E-3,-1.1652693E-3,1.5553914E-3,-1.3225589E-2],"categories":[],"categories_nodes":[],"categories_segments":[],"categories_sizes":[],"default_left":[0,0,0,0,0,0,0,0,0,0,0,0,0,0,0,0,0,0,0,0,0,0,0,0,0,0,0],"id":5,"left_children":[1,3,5,7,9,-1,-1,11,-1,13,15,17,19,21,23,-1,25,-1,-1,-1,-1,-1,-1,-1,-1,-1,-1],"loss_changes":[8.009637E0,6.6205087E0,4.7190285E-1,3.5229297E0,6.3598237E0,0E0,0E0,1.1108379E0,0E0,5.0034723E0,5.7760963E0,2.4998417E0,5.888243E-1,7.1557903E0,9.450455E0,0E0,2.7125874E0,0E0,0E0,0E0,0E0,0E0,0E0,0E0,0E0,0E0,0E0],"parents":[2147483647,0,0,1,1,2,2,3,3,4,4,7,7,9,9,10,10,11,11,12,12,13,13,14,14,16,16],"right_children":[2,4,6,8,10,-1,-1,12,-1,14,16,18,20,22,24,-1,26,-1,-1,-1,-1,-1,-1,-1,-1,-1,-1],"split_conditions":[2.9492581E-2,3.1641508E1,3.3152802E0,3.006639E-3,3.3463638E2,-1.3626705E-2,-4.1746804E-3,3.9342E7,-4.8656953E-3,-3.0990106E-3,2.74883E7,-1.3250164E-2,-2.8960895E-2,6.672467E1,6.117735E1,7.016442E-3,-2.1781035E-2,-4.9265097E-3,8.863017E-3,4.4652675E-3,1.3353668E-2,-1.6852241E-3,5.3488878E-3,2.0332693E-3,-1.1652693E-3,1.5553914E-3,-1.3225589E-2],"split_indices":[8,2,7,0,5,0,0,1,0,0,1,0,8,2,2,0,0,0,0,0,0,0,0,0,0,0,0],"split_type":[0,0,0,0,0,0,0,0,0,0,0,0,0,0,0,0,0,0,0,0,0,0,0,0,0,0,0],"sum_hessian":[6.168522E2,6.1161646E2,5.2357163E0,1.2157171E1,5.994593E2,3.2435904E0,1.9921261E0,1.0664942E1,1.4922292E0,5.89994E2,9.465271E0,3.4754548E0,7.189487E0,2.0541331E2,3.8458072E2,1.4892929E0,7.9759784E0,1.4913592E0,1.9840956E0,2.4799917E0,4.7094955E0,1.9073949E2,1.4673825E1,2.3264923E2,1.5193149E2,1.2454472E0,6.730531E0],"tree_param":{"num_deleted":"0","num_feature":"11","num_nodes":"27","size_leaf_vector":"1"}},{"base_weights":[-3.1977157E-5,7.298303E-2,-1.8543184E-1,9.7758524E-2,-5.881844E-1,-2.4293484E-1,5.5366504E-1,-9.166049E-2,2.178762E-1,-9.529794E-1,3.585504E-1,-4.629584E-1,-9.2404865E-2,1.2458578E0,-1.19064406E-1,-2.0458703E-1,2.8739962E-1,4.1516578E-1,7.779794E-2,-1.6655177E-2,-4.2589316E-1,1.2351955E-2,-5.609293E-3,-3.7124813E-1,-1.1573107E0,2.4056411E-1,-2.943539E-1,1.4658669E-2,3.0685316E-3,-5.098685E-1,1.0201584E-2,-8.884555E-4,-4.8237285E-3,-1.4755548E-3,6.1277733E-3,2.8585002E-3,7.127339E-3,-5.887879E-3,1.5704236E-3,5.497777E-3,-1.2588875E-2,-6.9445E-3,-2.1896786E-3,-1.4236201E-2,-8.131211E-4,-1.4178329E-3,7.5514033E-3,-1.8430593E-3,-1.2004771E-2,1.9029056E-3,-1.0266871E-2],"categories":[],"categories_nodes":[],"categories_segments":[],"categories_sizes":[],"default_left":[0,0,0,0,0,0,0,0,0,0,0,0,0,0,0,0,0,0,0,0,0,0,0,0,0,0,0,0,0,0,0,0,0,0,0,0,0,0,0,0,0,0,0,0,0,0,0,0,0,0,0],"id":6,"left_children":[1,3,5,7,9,11,13,15,17,19,21,23,25,27,29,31,33,35,37,-1,39,-1,-1,41,43,45,47,-1,-1,49,-1,-1,-1,-1,-1,-1,-1,-1,-1,-1,-1,-1,-1,-1,-1,-1,-1,-1,-1,-1,-1],"loss_changes":[8.377277E0,7.330397E0,7.5658555E0,9.776535E0,5.9293227E0,5.3533926E0,6.1678605E0,7.211966E0,7.2278013E0,3.7795649E0,4.9058847E0,3.7691412E0,6.659975E0,8.8445663E-1,3.8451698E0,4.115429E0,5.5776386E0,3.9847164E0,8.272553E0,0E0,7.3676486E0,0E0,0E0,2.7869978E0,1.9532833E0,7.4939203E0,5.905927E0,0E0,0E0,2.4488401E0,0E0,0E0,0E0,0E0,0E0,0E0,0E0,0E0,0E0,0E0,0E0,0E0,0E0,0E0,0E0,0E0,0E0,0E0,0E0,0E0,0E0],"parents":[2147483647,0,0,1,1,2,2,3,3,4,4,5,5,6,6,7,7,8,8,9,9,10,10,11,11,12,12,13,13,14,14,15,15,16,16,17,17,18,18,20,20,23,23,24,24,25,25,26,26,29,29],"right_children":[2,4,6,8,10,12,14,16,18,20,22,24,26,28,30,32,34,36,38,-1,40,-1,-1,42,44,46,48,-1,-1,50,-1,-1,-1,-1,-1,-1,-1,-1,-1,-1,-1,-1,-1,-1,-1,-1,-1,-1,-1,-1,-1],"split_conditions":[2.291697E-1,1.773302E-2,1.4703426E-2,-3.0990106E-3,1.1284002E2,-2.5999928E-1,1.8396243E-2,1.8999996E0,1.6134589E-3,-4.3908346E-1,2.928412E9,-3.1000137E-1,2.5E-1,-1.4699993E0,-9.7000027E-1,7.5E-1,-4.706727E-1,0E0,4.2091713E1,-1.6655177E-2,-1.3062787E-1,1.2351955E-2,-5.609293E-3,2.4695048E0,1.5691144E2,1.26986046E2,3.9579067E-3,1.4658669E-2,3.0685316E-3,-2.2299995E0,1.0201584E-2,-8.884555E-4,-4.8237285E-3,-1.4755548E-3,6.1277733E-3,2.8585002E-3,7.127339E-3,-5.887879E-3,1.5704236E-3,5.497777E-3,-1.2588875E-2,-6.9445E-3,-2.1896786E-3,-1.4236201E-2,-8.131211E-4,-1.4178329E-3,7.5514033E-3,-1.8430593E-3,-1.2004771E-2,1.9029056E-3,-1.0266871E-2],"split_indices":[3,8,8,0,4,9,8,9,8,3,6,9,9,9,9,9,3,8,5,0,3,0,0,7,4,4,8,0,0,9,0,0,0,0,0,0,0,0,0,0,0,0,0,0,0,0,0,0,0,0,0],"split_type":[0,0,0,0,0,0,0,0,0,0,0,0,0,0,0,0,0,0,0,0,0,0,0,0,0,0,0,0,0,0,0,0,0,0,0,0,0,0,0,0,0,0,0,0,0,0,0,0,0,0,0],"sum_hessian":[6.168446E2,4.4299048E2,1.7385414E2,4.2781152E2,1.5178961E1,1.6192723E2,1.1926907E1,1.661069E2,2.6170462E2,1.0952253E1,4.226708E0,6.493657E1,9.699066E1,5.4585185E0,6.468388E0,1.2833473E2,3.7772167E1,1.0784679E2,1.5385782E2,3.738511E0,7.213742E0,1.9879777E0,2.2387302E0,5.8716007E1,6.2205615E0,3.654496E1,6.04457E1,3.9677804E0,1.490738E0,5.227548E0,1.2408397E0,9.1521484E1,3.6813248E1,1.639814E1,2.1374027E1,7.6543495E1,3.1303291E1,1.5664197E1,1.3819363E2,3.478932E0,3.73481E0,1.7664423E1,4.1051582E1,4.72745E0,1.4931115E0,2.1381931E1,1.5163027E1,5.497271E1,5.4729943E0,2.4883137E0,2.7392344E0],"tree_param":{"num_deleted":"0","num_feature":"11","num_nodes":"51","size_leaf_vector":"1"}},{"base_weights":[-7.095482E-5,8.2965404E-1,-1.464212E-2,1.0962667E0,-4.859892E-3,6.7555726E-1,-2.8382812E-2,1.3218222E0,8.277116E-4,9.098291E-1,-7.3852413E-3,-5.382681E-3,-4.8114592E-1,5.4921256E-3,1.5017509E-2,2.2801886E-1,1.1749982E0,7.0311474E-3,-7.026396E-1,-8.632997E-1,-2.4801623E-2,-4.8851497E-3,7.974507E-3,1.326137E-2,4.301951E-3,-3.4106004E-3,3.1624356E-4,6.9692866E-3,-1.0303868E-2,-1.3238111E-2,-2.5099036E-3,2.7353172E-3,-8.568388E-3],"categories":[],"categories_nodes":[],"categories_segments":[],"categories_sizes":[],"default_left":[0,0,0,0,0,0,0,0,0,0,0,0,0,0,0,0,0,0,0,0,0,0,0,0,0,0,0,0,0,0,0,0,0],"id":7,"left_children":[1,3,5,7,-1,9,11,13,-1,15,-1,17,19,-1,-1,21,23,25,27,29,31,-1,-1,-1,-1,-1,-1,-1,-1,-1,-1,-1,-1],"loss_changes":[7.481761E0,4.2790008E0,5.7867656E0,1.9908781E0,0E0,4.6178765E0,6.216831E0,2.1064472E-1,0E0,1.6605082E0,0E0,4.9332657E0,5.01184E0,0E0,0E0,2.114477E0,2.6688385E-1,4.8082643E0,5.291248E0,4.088538E0,3.7550552E0,0E0,0E0,0E0,0E0,0E0,0E0,0E0,0E0,0E0,0E0,0E0,0E0],"parents":[2147483647,0,0,1,1,2,2,3,3,5,5,6,6,7,7,9,9,11,11,12,12,15,15,16,16,17,17,18,18,19,19,20,20],"right_children":[2,4,6,8,-1,10,12,14,-1,16,-1,18,20,-1,-1,22,24,26,28,30,32,-1,-1,-1,-1,-1,-1,-1,-1,-1,-1,-1,-1],"split_conditions":[-8.92E5,6.0322E7,3.1641508E1,4.6133858E1,-4.859892E-3,3.006639E-3,6.332E7,-7.5E-1,8.277116E-4,3.9342E7,-7.3852413E-3,3.3463638E2,7.6918E7,5.4921256E-3,1.5017509E-2,-1.3250164E-2,6.9300003E0,4.1672535E1,2.74883E7,1.577656E9,3.4603207E0,-4.8851497E-3,7.974507E-3,1.326137E-2,4.301951E-3,-3.4106004E-3,3.1624356E-4,6.9692866E-3,-1.0303868E-2,-1.3238111E-2,-2.5099036E-3,2.7353172E-3,-8.568388E-3],"split_indices":[6,1,2,2,0,0,1,9,0,1,0,5,1,0,0,0,9,5,1,6,7,0,0,0,0,0,0,0,0,0,0,0,0],"split_type":[0,0,0,0,0,0,0,0,0,0,0,0,0,0,0,0,0,0,0,0,0,0,0,0,0,0,0,0,0,0,0,0,0],"sum_hessian":[6.16831E2,9.680091E0,6.071509E2,8.187628E0,1.4924636E0,1.0911235E1,5.962396E2,6.4483204E0,1.7393068E0,9.666391E0,1.2448437E0,5.6837823E2,2.786143E1,1.9835211E0,4.4647994E0,3.2275426E0,6.438849E0,5.594085E2,8.969686E0,1.4677969E1,1.3183461E1,1.4920948E0,1.735448E0,4.7038093E0,1.7350397E0,3.6065865E1,5.2334265E2,1.4882101E0,7.481476E0,7.714202E0,6.9637666E0,1.0198103E1,2.9853578E0],"tree_param":{"num_deleted":"0","num_feature":"11","num_nodes":"33","size_leaf_vector":"1"}},{"base_weights":[-6.713111E-5,7.2197E-2,-1.8352394E-1,9.673065E-2,-5.8229655E-1,-2.4059078E-1,5.503371E-1,-9.088953E-2,2.1573307E-1,2.1637794E-1,-9.559499E-1,-4.2812407E-1,-6.699693E-2,1.2374206E0,-1.1697451E-1,7.351688E-1,-1.4209996E-1,4.0923226E-1,7.5693935E-2,5.5350876E-1,-4.7608837E-3,-1.3196716E0,-1.1517892E-1,5.956138E-3,-4.524391E-1,6.0414135E-1,-2.55725E-1,1.4560458E-2,3.0487664E-3,-5.0515217E-1,1.014858E-2,1.0872503E-2,2.8520438E-3,-2.5097365E-3,2.5845163E-3,2.8292222E-3,6.8908976E-3,-6.1864513E-3,1.5767026E-3,1.1088662E-2,-9.420318E-4,-1.6547816E-2,-5.9047737E-3,-7.6225256E-3,7.078985E-3,-7.63668E-3,-3.449557E-3,-3.5422705E-3,8.033237E-3,-1.6250056E-3,-1.07631935E-2,-1.2720928E-2,5.71711E-5],"categories":[],"categories_nodes":[],"categories_segments":[],"categories_sizes":[],"default_left":[0,0,0,0,0,0,0,0,0,0,0,0,0,0,0,0,0,0,0,0,0,0,0,0,0,0,0,0,0,0,0,0,0,0,0,0,0,0,0,0,0,0,0,0,0,0,0,0,0,0,0,0,0],"id":8,"left_children":[1,3,5,7,9,11,13,15,17,19,21,23,25,27,29,31,33,35,37,39,-1,41,43,-1,45,47,49,-1,-1,51,-1,-1,-1,-1,-1,-1,-1,-1,-1,-1,-1,-1,-1,-1,-1,-1,-1,-1,-1,-1,-1,-1,-1],"loss_changes":[8.203949E0,7.1848927E0,7.4559326E0,9.592815E0,5.036192E0,5.2761374E0,6.069275E0,7.17375E0,7.0863466E0,1.6579932E0,3.2759E0,2.2146864E0,1.1022924E1,8.7167645E-1,3.7940648E0,1.2610178E0,6.963646E0,3.69524E0,8.840622E0,1.7158947E0,0E0,9.115095E-1,2.9258883E0,0E0,2.309039E0,3.9364014E0,5.0022397E0,0E0,0E0,2.447855E0,0E0,0E0,0E0,0E0,0E0,0E0,0E0,0E0,0E0,0E0,0E0,0E0,0E0,0E0,0E0,0E0,0E0,0E0,0E0,0E0,0E0,0E0,0E0],"parents":[2147483647,0,0,1,1,2,2,3,3,4,4,5,5,6,6,7,7,8,8,9,9,10,10,11,11,12,12,13,13,14,14,15,15,16,16,17,17,18,18,19,19,21,21,22,22,24,24,25,25,26,26,29,29],"right_children":[2,4,6,8,10,12,14,16,18,20,22,24,26,28,30,32,34,36,38,40,-1,42,44,-1,46,48,50,-1,-1,52,-1,-1,-1,-1,-1,-1,-1,-1,-1,-1,-1,-1,-1,-1,-1,-1,-1,-1,-1,-1,-1,-1,-1],"split_conditions":[2.291697E-1,1.773302E-2,1.4703426E-2,-3.0990106E-3,1.969911E-2,-1.2000084E-1,1.8396243E-2,3.1641508E1,1.6829805E-3,-1.3062787E-1,2.522458E9,4.1461697E1,1.3000107E-1,-1.4699993E0,-9.7000027E-1,2.3386903E9,1.8999996E0,0E0,4.2091713E1,1.9400788E-2,-4.7608837E-3,-3.060639E-1,4.9259735E1,5.956138E-3,8.264331E-4,2.726478E-1,4.041811E-3,1.4560458E-2,3.0487664E-3,2.1035668E-2,1.014858E-2,1.0872503E-2,2.8520438E-3,-2.5097365E-3,2.5845163E-3,2.8292222E-3,6.8908976E-3,-6.1864513E-3,1.5767026E-3,1.1088662E-2,-9.420318E-4,-1.6547816E-2,-5.9047737E-3,-7.6225256E-3,7.078985E-3,-7.63668E-3,-3.449557E-3,-3.5422705E-3,8.033237E-3,-1.6250056E-3,-1.07631935E-2,-1.2720928E-2,5.71711E-5],"split_indices":[3,8,8,0,0,9,8,2,8,3,6,2,9,9,9,6,9,8,5,8,0,3,2,0,8,3,8,0,0,0,0,0,0,0,0,0,0,0,0,0,0,0,0,0,0,0,0,0,0,0,0,0,0],"split_type":[0,0,0,0,0,0,0,0,0,0,0,0,0,0,0,0,0,0,0,0,0,0,0,0,0,0,0,0,0,0,0,0,0,0,0,0,0,0,0,0,0,0,0,0,0,0,0,0,0,0,0,0,0],"sum_hessian":[6.168234E2,4.429505E2,1.7387292E2,4.2776785E2,1.5182649E1,1.6195135E2,1.192158E1,1.6611143E2,2.6165643E2,4.9732866E0,1.0209362E1,7.71452E1,8.4806145E1,5.4528394E0,6.4687405E0,8.917086E0,1.5719435E2,1.09051765E2,1.5260466E2,3.479799E0,1.4934876E0,6.728837E0,3.4805255E0,1.2446778E0,7.590053E1,1.813059E1,6.667555E1,3.962502E0,1.4903374E0,5.229051E0,1.2396891E0,4.2080946E0,4.7089915E0,1.2389261E2,3.3301743E1,7.652442E1,3.2527344E1,1.5423243E1,1.3718141E2,1.4901495E0,1.9896497E0,3.7405105E0,2.9883263E0,1.989977E0,1.4905485E0,1.7916504E1,5.7984024E1,2.9858308E0,1.514476E1,6.0949368E1,5.7261844E0,1.494853E0,3.7341983E0],"tree_param":{"num_deleted":"0","num_feature":"11","num_nodes":"53","size_leaf_vector":"1"}},{"base_weights":[-6.031416E-5,7.148403E-2,-1.8165858E-1,9.5816255E-2,-5.7745266E-1,-2.3823054E-1,5.462725E-1,7.5198483E-1,7.5302415E-2,-9.3694025E-1,3.558903E-1,-2.0088841E-1,-1.0757935E0,1.2289543E-2,-1.161421E-1,1.170704E0,3.4377852E-1,8.903545E-2,-1.0758E0,6.832546E-3,-1.365922E0,1.2264539E-2,-5.562542E-3,8.338392E-1,-2.246105E-1,-2.6547413E-3,-1.3058498E0,3.6335036E-1,-8.535368E-3,1.4001924E-2,2.8829938E-3,1.1512563E-2,-6.6854473E-4,4.7524172E-4,4.153362E-3,-3.995896E-3,-1.3926044E-2,-7.197758E-3,4.7302404E-3,-1.6181989E-2,-2.7068527E-3,1.463318E-3,1.118306E-2,-6.219962E-3,-1.6034511E-3,-1.563446E-2,-2.9502097E-3,1.021762E-2,-9.797E-4],"categories":[],"categories_nodes":[],"categories_segments":[],"categories_sizes":[],"default_left":[0,0,0,0,0,0,0,0,0,0,0,0,0,0,0,0,0,0,0,0,0,0,0,0,0,0,0,0,0,0,0,0,0,0,0,0,0,0,0,0,0,0,0,0,0,0,0,0,0],"id":9,"left_children":[1,3,5,7,9,11,13,15,17,19,21,23,25,-1,27,29,31,33,35,37,39,-1,-1,41,43,-1,45,47,-1,-1,-1,-1,-1,-1,-1,-1,-1,-1,-1,-1,-1,-1,-1,-1,-1,-1,-1,-1,-1],"loss_changes":[8.039722E0,7.0647993E0,7.332175E0,5.714319E0,5.764138E0,4.881131E0,5.9832606E0,1.8000321E0,6.6853228E0,4.851595E0,4.831555E0,4.0470786E0,9.072504E-1,0E0,2.9508429E0,8.0025196E-1,2.709872E0,5.5724354E0,5.127144E-1,1.9435797E0,1.8353205E0,0E0,0E0,5.6710744E-1,3.8462029E0,0E0,8.3645916E-1,1.6877863E0,0E0,0E0,0E0,0E0,0E0,0E0,0E0,0E0,0E0,0E0,0E0,0E0,0E0,0E0,0E0,0E0,0E0,0E0,0E0,0E0,0E0],"parents":[2147483647,0,0,1,1,2,2,3,3,4,4,5,5,6,6,7,7,8,8,9,9,10,10,11,11,12,12,14,14,15,15,16,16,17,17,18,18,19,19,20,20,23,23,24,24,26,26,27,27],"right_children":[2,4,6,8,10,12,14,16,18,20,22,24,26,-1,28,30,32,34,36,38,40,-1,-1,42,44,-1,46,48,-1,-1,-1,-1,-1,-1,-1,-1,-1,-1,-1,-1,-1,-1,-1,-1,-1,-1,-1,-1,-1],"split_conditions":[2.291697E-1,1.773302E-2,1.4703426E-2,3.1641508E1,1.1284002E2,1.239773E-2,1.8396243E-2,9.613077E1,3.4265363E2,-1.8339831E-2,2.928412E9,-4.790025E-2,4.1057578E-1,1.2289543E-2,7.7164245E-1,-4.016621E-1,-1.9202586E0,9.071881E-3,9.423094E0,-3.5774553E-1,3.8046575E0,1.2264539E-2,-5.562542E-3,5.6698353E1,2.769734E-1,-2.6547413E-3,1.8312827E-2,2.9372933E0,-8.535368E-3,1.4001924E-2,2.8829938E-3,1.1512563E-2,-6.6854473E-4,4.7524172E-4,4.153362E-3,-3.995896E-3,-1.3926044E-2,-7.197758E-3,4.7302404E-3,-1.6181989E-2,-2.7068527E-3,1.463318E-3,1.118306E-2,-6.219962E-3,-1.6034511E-3,-1.563446E-2,-2.9502097E-3,1.021762E-2,-9.797E-4],"split_indices":[3,8,8,2,4,8,8,4,5,10,6,10,3,0,3,3,3,8,7,3,7,0,0,2,3,0,10,7,0,0,0,0,0,0,0,0,0,0,0,0,0,0,0,0,0,0,0,0,0],"split_type":[0,0,0,0,0,0,0,0,0,0,0,0,0,0,0,0,0,0,0,0,0,0,0,0,0,0,0,0,0,0,0,0,0,0,0,0,0,0,0,0,0,0,0,0,0,0,0,0,0],"sum_hessian":[6.1680585E2,4.429163E2,1.7388954E2,4.2773065E2,1.5185638E1,1.6197426E2,1.19152775E1,1.1885823E1,4.1584482E2,1.09603E1,4.225338E0,1.5624791E2,5.726349E0,5.446683E0,6.468594E0,4.9452705E0,6.940552E0,4.118539E2,3.9909043E0,3.7325811E0,7.227719E0,1.985636E0,2.239702E0,2.736463E0,1.5351146E2,1.7425561E0,3.9837928E0,4.2271395E0,2.2414548E0,3.4589136E0,1.4863569E0,1.731695E0,5.2088575E0,3.6638843E2,4.5465504E1,1.994664E0,1.9962403E0,1.2462386E0,2.4863424E0,5.4864755E0,1.7412432E0,1.2440984E0,1.4923646E0,2.0161858E1,1.333496E2,2.7390785E0,1.2447144E0,1.2410325E0,2.9861069E0],"tree_param":{"num_deleted":"0","num_feature":"11","num_nodes":"49","size_leaf_vector":"1"}},{"base_weights":[-6.518779E-5,1.1106249E-2,-1.0963465E0,8.2252383E-1,-3.275383E-3,-1.32905E-2,-4.001406E-3,1.0879599E0,-4.849936E-3,5.5666417E-1,-2.0118847E-2,1.3114129E0,8.400965E-4,7.1217634E-2,1.2091175E0,-6.115648E-1,9.260719E-4,5.452853E-3,1.4897637E-2,-3.4564831E-3,7.7186283E-3,1.4424744E-3,1.3988769E-2,-7.914502E-3,8.195075E-3,1.3607774E-4,-6.4340117E-3],"categories":[],"categories_nodes":[],"categories_segments":[],"categories_sizes":[],"default_left":[0,0,0,0,0,0,0,0,0,0,0,0,0,0,0,0,0,0,0,0,0,0,0,0,0,0,0],"id":10,"left_children":[1,3,5,7,9,-1,-1,11,-1,13,15,17,-1,19,21,23,25,-1,-1,-1,-1,-1,-1,-1,-1,-1,-1],"loss_changes":[7.5782943E0,7.1508474E0,4.7945738E-1,4.231422E0,5.697135E0,0E0,0E0,1.9490614E0,0E0,5.501148E0,7.297425E0,2.0420647E-1,0E0,3.531403E0,1.3062725E0,5.8343453E0,4.6425676E0,0E0,0E0,0E0,0E0,0E0,0E0,0E0,0E0,0E0,0E0],"parents":[2147483647,0,0,1,1,2,2,3,3,4,4,7,7,9,9,10,10,11,11,13,13,14,14,15,15,16,16],"right_children":[2,4,6,8,10,-1,-1,12,-1,14,16,18,-1,20,22,24,26,-1,-1,-1,-1,-1,-1,-1,-1,-1,-1],"split_conditions":[2.9492581E-2,-8.92E5,3.3152802E0,6.0322E7,-2.2285886E-2,-1.32905E-2,-4.001406E-3,4.6133858E1,-4.849936E-3,4.038654E1,-2.6030894E-2,-7.5E-1,8.400965E-4,-3.670878E-2,2.17E0,4.8346524E0,3.3463638E2,5.452853E-3,1.4897637E-2,-3.4564831E-3,7.7186283E-3,1.4424744E-3,1.3988769E-2,-7.914502E-3,8.195075E-3,1.3607774E-4,-6.4340117E-3],"split_indices":[8,6,7,1,8,0,0,2,0,2,0,9,0,0,9,7,5,0,0,0,0,0,0,0,0,0,0],"split_type":[0,0,0,0,0,0,0,0,0,0,0,0,0,0,0,0,0,0,0,0,0,0,0,0,0,0,0],"sum_hessian":[6.167916E2,6.115496E2,5.242006E0,9.67177E0,6.0187787E2,3.247541E0,1.994465E0,8.179241E0,1.4925292E0,1.6640379E1,5.852375E2,6.439683E0,1.739558E0,1.0177296E1,6.463084E0,1.9144377E1,5.6609314E2,1.9822146E0,4.4574685E0,6.698519E0,3.4787757E0,1.2437432E0,5.2193413E0,1.740369E1,1.7406853E0,5.561263E2,9.966844E0],"tree_param":{"num_deleted":"0","num_feature":"11","num_nodes":"27","size_leaf_vector":"1"}},{"base_weights":[-4.3689863E-5,1.1044555E-2,-1.0879418E0,8.16393E-1,-3.2197875E-3,-1.3186324E-2,-3.974238E-3,-2.9938975E-3,9.955041E-1,5.5240786E-1,-1.9927632E-2,1.1911706E0,8.347968E-4,7.0888795E-2,1.2000545E0,-6.051699E-1,9.0570934E-4,2.9525014E-3,1.3587552E-2,-3.4255274E-3,7.662344E-3,1.4754947E-2,4.6268506E-3,-7.835453E-3,8.146203E-3,-4.1457275E-3,2.7020613E-4],"categories":[],"categories_nodes":[],"categories_segments":[],"categories_sizes":[],"default_left":[0,0,0,0,0,0,0,0,0,0,0,0,0,0,0,0,0,0,0,0,0,0,0,0,0,0,0],"id":11,"left_children":[1,3,5,7,9,-1,-1,-1,11,13,15,17,-1,19,21,23,25,-1,-1,-1,-1,-1,-1,-1,-1,-1,-1],"loss_changes":[7.4642935E0,7.039376E0,4.7046375E-1,2.4293299E0,5.6077323E0,0E0,0E0,0E0,1.5816841E0,5.4142528E0,7.148358E0,7.520895E-1,0E0,3.475731E0,8.3186626E-1,5.7421875E0,6.1642394E0,0E0,0E0,0E0,0E0,0E0,0E0,0E0,0E0,0E0,0E0],"parents":[2147483647,0,0,1,1,2,2,3,3,4,4,8,8,9,9,10,10,11,11,13,13,14,14,15,15,16,16],"right_children":[2,4,6,8,10,-1,-1,-1,12,14,16,18,-1,20,22,24,26,-1,-1,-1,-1,-1,-1,-1,-1,-1,-1],"split_conditions":[2.9492581E-2,-8.92E5,3.3152802E0,-2.3390563E-2,-2.2285886E-2,-1.3186324E-2,-3.974238E-3,-2.9938975E-3,4.6133858E1,4.038654E1,-2.6030894E-2,-1.05391545E-2,8.347968E-4,-3.670878E-2,8.455329E1,4.8346524E0,3.9316486E1,2.9525014E-3,1.3587552E-2,-3.4255274E-3,7.662344E-3,1.4754947E-2,4.6268506E-3,-7.835453E-3,8.146203E-3,-4.1457275E-3,2.7020613E-4],"split_indices":[8,6,7,0,8,0,0,0,2,2,0,0,0,0,5,7,4,0,0,0,0,0,0,0,0,0,0],"split_type":[0,0,0,0,0,0,0,0,0,0,0,0,0,0,0,0,0,0,0,0,0,0,0,0,0,0,0],"sum_hessian":[6.167859E2,6.1154266E2,5.2432137E0,9.664474E0,6.018782E2,3.2483613E0,1.9948523E0,1.2439133E0,8.42056E0,1.6634277E1,5.852439E2,6.681115E0,1.7394451E0,1.0177133E1,6.4571447E0,1.9153137E1,5.6609076E2,1.4879919E0,5.193123E0,6.70049E0,3.4766424E0,3.972292E0,2.4848528E0,1.7413517E1,1.7396215E0,3.2597748E1,5.3349304E2],"tree_param":{"num_deleted":"0","num_feature":"11","num_nodes":"27","size_leaf_vector":"1"}},{"base_weights":[-1.5014501E-5,7.0863985E-2,-1.7989242E-1,9.484171E-2,-5.6846976E-1,-2.3612925E-1,5.441027E-1,-9.020006E-2,2.1224569E-1,-9.2396575E-1,3.5447633E-1,-1.990297E-1,-1.0680722E0,1.2195559E0,-1.1106678E-1,7.274564E-1,-1.4083782E-1,4.0635973E-1,7.449982E-2,-1.6183618E-2,-4.105771E-1,1.218932E-2,-5.5070827E-3,-7.7394915E-1,-1.4213142E-1,-7.482378E-4,-1.3372612E0,4.152485E-3,1.4269753E-2,3.6416462E-1,-8.427337E-3,-2.8148054E-3,9.767155E-3,4.4555413E-3,-1.9383891E-3,4.521061E-3,-3.5614823E-3,-5.771644E-3,1.5206481E-3,5.503575E-3,-1.2317712E-2,-9.5221065E-3,5.806789E-3,-5.0653135E-3,-5.5363757E-4,-1.5939657E-2,-2.8588613E-3,-2.7588042E-3,7.6272814E-3],"categories":[],"categories_nodes":[],"categories_segments":[],"categories_sizes":[],"default_left":[0,0,0,0,0,0,0,0,0,0,0,0,0,0,0,0,0,0,0,0,0,0,0,0,0,0,0,0,0,0,0,0,0,0,0,0,0,0,0,0,0,0,0,0,0,0,0,0,0],"id":12,"left_children":[1,3,5,7,9,11,13,15,17,19,21,23,25,27,29,31,33,35,37,-1,39,-1,-1,41,43,-1,45,-1,-1,47,-1,-1,-1,-1,-1,-1,-1,-1,-1,-1,-1,-1,-1,-1,-1,-1,-1,-1,-1],"loss_changes":[7.8891425E0,6.8584085E0,7.24975E0,9.332199E0,5.6389933E0,4.818225E0,5.8482604E0,7.0215254E0,6.990595E0,3.6007023E0,4.7591925E0,5.0344715E0,1.6991572E0,4.817791E-1,2.9041371E0,2.7666168E0,5.0031977E0,3.9549065E0,7.9129734E0,0E0,7.1632786E0,0E0,0E0,3.9185562E0,4.535351E0,0E0,9.5722866E-1,0E0,0E0,1.5437155E0,0E0,0E0,0E0,0E0,0E0,0E0,0E0,0E0,0E0,0E0,0E0,0E0,0E0,0E0,0E0,0E0,0E0,0E0,0E0],"parents":[2147483647,0,0,1,1,2,2,3,3,4,4,5,5,6,6,7,7,8,8,9,9,10,10,11,11,12,12,13,13,14,14,15,15,16,16,17,17,18,18,20,20,23,23,24,24,26,26,29,29],"right_children":[2,4,6,8,10,12,14,16,18,20,22,24,26,28,30,32,34,36,38,-1,40,-1,-1,42,44,-1,46,-1,-1,48,-1,-1,-1,-1,-1,-1,-1,-1,-1,-1,-1,-1,-1,-1,-1,-1,-1,-1,-1],"split_conditions":[2.291697E-1,1.773302E-2,1.4703426E-2,-3.0990106E-3,1.1284002E2,1.239773E-2,1.8396243E-2,3.1641508E1,1.6134589E-3,-4.3908346E-1,2.928412E9,1.95691E7,2.97573E7,1.9344836E-2,7.7164245E-1,3.7914E7,-2.0822339E-2,7.238691E1,4.2091713E1,-1.6183618E-2,-1.3062787E-1,1.218932E-2,-5.5070827E-3,1.05575E0,6.1658047E1,-7.482378E-4,4.9932E7,4.152485E-3,1.4269753E-2,2.6662828E-2,-8.427337E-3,-2.8148054E-3,9.767155E-3,4.4555413E-3,-1.9383891E-3,4.521061E-3,-3.5614823E-3,-5.771644E-3,1.5206481E-3,5.503575E-3,-1.2317712E-2,-9.5221065E-3,5.806789E-3,-5.0653135E-3,-5.5363757E-4,-1.5939657E-2,-2.8588613E-3,-2.7588042E-3,7.6272814E-3],"split_indices":[3,8,8,0,4,8,8,2,8,3,6,1,1,0,3,1,8,2,5,0,3,0,0,3,5,0,1,0,0,0,0,0,0,0,0,0,0,0,0,0,0,0,0,0,0,0,0,0,0],"split_type":[0,0,0,0,0,0,0,0,0,0,0,0,0,0,0,0,0,0,0,0,0,0,0,0,0,0,0,0,0,0,0,0,0,0,0,0,0,0,0,0,0,0,0,0,0,0,0,0,0],"sum_hessian":[6.167791E2,4.428746E2,1.7390453E2,4.2768622E2,1.5188388E1,1.6199529E2,1.1909243E1,1.6611002E2,2.615762E2,1.096416E1,4.224228E0,1.56266E2,5.7292714E0,5.439699E0,6.469544E0,8.907835E0,1.572022E2,1.07763626E2,1.5381256E2,3.7456193E0,7.2185407E0,1.9834306E0,2.2407973E0,1.2937615E1,1.433284E2,1.4941491E0,4.235122E0,1.7306726E0,3.7090266E0,4.226581E0,2.242963E0,1.7391074E0,7.168727E0,1.2416988E1,1.447852E2,1.02048355E2,5.7152734E0,1.5675279E1,1.3813728E2,3.4782336E0,3.740307E0,1.1695607E1,1.2420084E0,2.6634241E1,1.1669415E2,2.9892E0,1.2459221E0,1.7400627E0,2.4865181E0],"tree_param":{"num_deleted":"0","num_feature":"11","num_nodes":"49","size_leaf_vector":"1"}},{"base_weights":[-5.3373624E-5,7.013929E-2,-1.7815638E-1,-8.6263545E-2,1.6422787E-1,-7.2075397E-1,-1.2944025E-1,-1.948548E-1,2.792977E-1,2.8363353E-1,-1.542915E-1,-8.898131E-1,5.776127E-3,-5.0559825E-1,-3.4139592E-2,-1.2403543E-1,-6.590397E-1,-1.2569289E-1,6.234745E-1,1.9186844E-4,4.2587352E-1,-3.2485348E-1,2.3403691E-1,-3.159751E-1,-1.3739716E0,3.9413907E-2,-8.227191E-1,3.9633137E-1,-1.5663609E-1,1.1678544E-4,-4.2830915E-3,-1.1707541E-2,3.4788933E-3,-4.9016774E-3,9.065187E-3,8.101159E-3,-7.8072106E-3,2.8508543E-3,-2.3981896E-3,5.5811414E-3,1.8870109E-3,-2.1260518E-3,-1.3176168E-2,1.1359555E-2,5.09286E-4,-6.0374336E-3,5.9184027E-3,-2.6666366E-3,-1.7075641E-2,7.5751124E-3,-3.9601685E-3,-1.33724045E-2,-2.9205247E-3,6.892937E-3,7.206343E-4,-6.2135393E-3,2.2171864E-4],"categories":[],"categories_nodes":[],"categories_segments":[],"categories_sizes":[],"default_left":[0,0,0,0,0,0,0,0,0,0,0,0,0,0,0,0,0,0,0,0,0,0,0,0,0,0,0,0,0,0,0,0,0,0,0,0,0,0,0,0,0,0,0,0,0,0,0,0,0,0,0,0,0,0,0,0,0],"id":13,"left_children":[1,3,5,7,9,11,13,15,17,19,21,23,-1,25,27,29,31,33,35,37,39,41,43,45,47,49,51,53,55,-1,-1,-1,-1,-1,-1,-1,-1,-1,-1,-1,-1,-1,-1,-1,-1,-1,-1,-1,-1,-1,-1,-1,-1,-1,-1,-1,-1],"loss_changes":[7.735383E0,6.54552E0,4.530429E0,6.6983547E0,1.0596699E1,3.6291575E0,5.780401E0,4.1794705E0,5.478505E0,8.150557E0,5.129865E0,3.1639423E0,0E0,5.670189E0,6.9228897E0,4.7000933E0,9.129043E0,7.453471E0,6.1652822E0,4.7558684E0,4.1166325E0,5.6744947E0,3.8837993E0,2.24482E0,2.0290174E0,4.3500805E0,5.2522564E0,2.7153263E0,8.489772E0,0E0,0E0,0E0,0E0,0E0,0E0,0E0,0E0,0E0,0E0,0E0,0E0,0E0,0E0,0E0,0E0,0E0,0E0,0E0,0E0,0E0,0E0,0E0,0E0,0E0,0E0,0E0,0E0],"parents":[2147483647,0,0,1,1,2,2,3,3,4,4,5,5,6,6,7,7,8,8,9,9,10,10,11,11,13,13,14,14,15,15,16,16,17,17,18,18,19,19,20,20,21,21,22,22,23,23,24,24,25,25,26,26,27,27,28,28],"right_children":[2,4,6,8,10,12,14,16,18,20,22,24,-1,26,28,30,32,34,36,38,40,42,44,46,48,50,52,54,56,-1,-1,-1,-1,-1,-1,-1,-1,-1,-1,-1,-1,-1,-1,-1,-1,-1,-1,-1,-1,-1,-1,-1,-1,-1,-1,-1,-1],"split_conditions":[2.291697E-1,-3.0990106E-3,1.95691E7,1.8999996E0,1.3225127E-2,1.05575E0,6.449076E1,-4.4939006E-3,-4.016621E-1,2.35762E7,-1.7222089E-3,5.999516E-1,5.776127E-3,9.837337E-1,1.0222564E2,7.5E-1,4.077782E-2,5.5344E7,5.5344E7,-1.7000008E-1,2.1420639E-2,6.0322E7,2.4137685E-2,1.835682E2,-6.499996E-1,-9.912304E-3,1.2833557E0,5.670075E-1,1.2548043E2,1.1678544E-4,-4.2830915E-3,-1.1707541E-2,3.4788933E-3,-4.9016774E-3,9.065187E-3,8.101159E-3,-7.8072106E-3,2.8508543E-3,-2.3981896E-3,5.5811414E-3,1.8870109E-3,-2.1260518E-3,-1.3176168E-2,1.1359555E-2,5.09286E-4,-6.0374336E-3,5.9184027E-3,-2.6666366E-3,-1.7075641E-2,7.5751124E-3,-3.9601685E-3,-1.33724045E-2,-2.9205247E-3,6.892937E-3,7.206343E-4,-6.2135393E-3,2.2171864E-4],"split_indices":[3,0,1,9,0,3,5,0,3,1,3,3,0,7,5,9,3,1,1,9,3,1,3,5,9,10,7,3,5,0,0,0,0,0,0,0,0,0,0,0,0,0,0,0,0,0,0,0,0,0,0,0,0,0,0,0,0],"split_type":[0,0,0,0,0,0,0,0,0,0,0,0,0,0,0,0,0,0,0,0,0,0,0,0,0,0,0,0,0,0,0,0,0,0,0,0,0,0,0,0,0,0,0,0,0,0,0,0,0,0,0,0,0,0,0,0,0],"sum_hessian":[6.167557E2,4.4283496E2,1.739207E2,1.6636714E2,2.764678E2,1.31921625E1,1.6072855E2,1.2862547E2,3.774168E1,2.0116513E2,7.53027E1,1.1950736E1,1.2414268E0,3.1619392E1,1.2910915E2,1.1269858E2,1.5926889E1,1.7630629E1,2.011105E1,6.75532E1,1.3361192E2,5.2435417E1,2.2867275E1,6.225147E0,5.725589E0,1.1952767E1,1.9666626E1,2.8105783E1,1.0100337E2,7.860177E1,3.409681E1,1.045237E1,5.47452E0,1.341789E1,4.2127404E0,1.8125002E1,1.9860464E0,3.080261E1,3.675059E1,8.49134E1,4.869852E1,4.819979E1,4.2356267E0,2.9808855E0,1.988639E1,4.9811287E0,1.2440183E0,1.7421541E0,3.983435E0,4.2326856E0,7.7200813E0,9.213509E0,1.0453117E1,1.4174254E1,1.3931529E1,2.7376772E1,7.3626595E1],"tree_param":{"num_deleted":"0","num_feature":"11","num_nodes":"57","size_leaf_vector":"1"}},{"base_weights":[-9.835285E-5,1.0815159E-2,-1.0706131E0,8.090334E-1,-3.310629E-3,-2.5330957E-3,-1.2240765E0,1.0717255E0,-4.807817E-3,-3.9236036E-1,1.9804563E-2,-1.4649297E-2,-2.7733867E-3,1.2923323E-2,8.2706433E-4,4.383029E-2,-9.305126E-1,9.6078664E-1,1.02924295E-2,3.4146542E-3,-9.0061575E-3,-1.1081242E-2,5.8923583E-3,1.1348393E-2,2.7901228E-3,6.6553317E-3,-3.5248748E-5],"categories":[],"categories_nodes":[],"categories_segments":[],"categories_sizes":[],"default_left":[0,0,0,0,0,0,0,0,0,0,0,0,0,0,0,0,0,0,0,0,0,0,0,0,0,0,0],"id":14,"left_children":[1,3,5,7,9,-1,11,13,-1,15,17,-1,-1,-1,-1,19,21,23,25,-1,-1,-1,-1,-1,-1,-1,-1],"loss_changes":[7.228651E0,6.908823E0,4.7309923E-1,4.125329E0,5.429075E0,0E0,7.3293734E-1,1.8920183E0,0E0,7.9882E0,5.091876E0,0E0,0E0,0E0,0E0,5.8325143E0,4.756303E0,3.5896015E-1,5.120278E0,0E0,0E0,0E0,0E0,0E0,0E0,0E0,0E0],"parents":[2147483647,0,0,1,1,2,2,3,3,4,4,6,6,7,7,9,9,10,10,15,15,16,16,17,17,18,18],"right_children":[2,4,6,8,10,-1,12,14,-1,16,18,-1,-1,-1,-1,20,22,24,26,-1,-1,-1,-1,-1,-1,-1,-1],"split_conditions":[2.9492581E-2,-8.92E5,4.9490585E1,6.0322E7,3.9316486E1,-2.5330957E-3,3.3152802E0,4.6133858E1,-4.807817E-3,1.6829805E-3,2.8695461E1,-1.4649297E-2,-2.7733867E-3,1.2923323E-2,8.2706433E-4,4.095854E1,1.8043235E-2,1.5038509E2,4.269675E1,3.4146542E-3,-9.0061575E-3,-1.1081242E-2,5.8923583E-3,1.1348393E-2,2.7901228E-3,6.6553317E-3,-3.5248748E-5],"split_indices":[8,6,4,1,4,0,7,2,0,8,2,0,0,0,0,5,0,4,5,0,0,0,0,0,0,0,0],"split_type":[0,0,0,0,0,0,0,0,0,0,0,0,0,0,0,0,0,0,0,0,0,0,0,0,0,0,0],"sum_hessian":[6.167374E2,6.1149335E2,5.244057E0,9.6546755E0,6.018387E2,1.2480279E0,3.9960291E0,8.1615305E0,1.4931448E0,3.285668E1,5.68982E2,2.749263E0,1.246766E0,6.4223137E0,1.7392169E0,1.865485E1,1.4201834E1,4.6933045E0,5.642887E2,1.467012E1,3.9847295E0,1.2958262E1,1.2435709E0,3.2094216E0,1.4838831E0,1.0679541E1,5.5360913E2],"tree_param":{"num_deleted":"0","num_feature":"11","num_nodes":"27","size_leaf_vector":"1"}},{"base_weights":[-9.876285E-5,6.936954E-2,-1.763277E-1,-8.5752785E-2,1.6270341E-1,-7.143118E-1,-1.2801464E-1,7.1747047E-1,-1.3536696E-1,2.8079122E-1,-1.521936E-1,-8.820978E-1,5.745864E-3,-5.001362E-1,-3.3711575E-2,-2.779073E-3,9.638886E-1,-1.0489771E0,-1.0040932E-1,1.7232761E-4,4.216677E-1,-5.615E-1,5.0653975E-2,-1.0669411E0,3.2156582E-3,4.0030416E-2,-8.143432E-1,3.9279023E-1,-1.5503527E-1,1.1012376E-2,1.077863E-3,-1.1955734E-2,-2.8868797E-3,-3.8823768E-4,-5.9572957E-3,-2.2058152E-3,2.9882973E-3,4.705378E-3,-1.8877329E-3,5.6665717E-3,-6.815726E-3,-3.1452419E-3,4.4594174E-3,-8.6419657E-4,-1.3294796E-2,7.5147906E-3,-3.9119176E-3,-1.3241913E-2,-2.8834515E-3,6.832491E-3,7.14271E-4,-6.1493027E-3,2.1988177E-4],"categories":[],"categories_nodes":[],"categories_segments":[],"categories_sizes":[],"default_left":[0,0,0,0,0,0,0,0,0,0,0,0,0,0,0,0,0,0,0,0,0,0,0,0,0,0,0,0,0,0,0,0,0,0,0,0,0,0,0,0,0,0,0,0,0,0,0,0,0,0,0,0,0],"id":15,"left_children":[1,3,5,7,9,11,13,15,17,19,21,23,-1,25,27,-1,29,31,33,35,37,39,41,43,-1,45,47,49,51,-1,-1,-1,-1,-1,-1,-1,-1,-1,-1,-1,-1,-1,-1,-1,-1,-1,-1,-1,-1,-1,-1,-1,-1],"loss_changes":[7.574624E0,6.439183E0,4.455477E0,6.766866E0,1.0358795E1,3.5771084E0,5.6589694E0,2.6949863E0,4.9558544E0,7.9899426E0,6.3641853E0,3.2257357E0,0E0,5.570505E0,6.7934914E0,0E0,8.402653E-1,2.9396915E-1,4.6665344E0,4.585557E0,4.1030483E0,3.8227534E0,7.637878E0,2.8359985E0,0E0,4.2678046E0,5.1630573E0,2.6672902E0,8.318667E0,0E0,0E0,0E0,0E0,0E0,0E0,0E0,0E0,0E0,0E0,0E0,0E0,0E0,0E0,0E0,0E0,0E0,0E0,0E0,0E0,0E0,0E0,0E0,0E0],"parents":[2147483647,0,0,1,1,2,2,3,3,4,4,5,5,6,6,7,7,8,8,9,9,10,10,11,11,13,13,14,14,16,16,17,17,18,18,19,19,20,20,21,21,22,22,23,23,25,25,26,26,27,27,28,28],"right_children":[2,4,6,8,10,12,14,16,18,20,22,24,-1,26,28,-1,30,32,34,36,38,40,42,44,-1,46,48,50,52,-1,-1,-1,-1,-1,-1,-1,-1,-1,-1,-1,-1,-1,-1,-1,-1,-1,-1,-1,-1,-1,-1,-1,-1],"split_conditions":[2.291697E-1,-3.0990106E-3,1.95691E7,3.1641508E1,1.3225127E-2,1.05575E0,6.449076E1,3.7914E7,-1.7272766E0,2.35762E7,4.740757E1,1.6509836E2,5.745864E-3,9.837337E-1,1.0222564E2,-2.779073E-3,-4.016621E-1,2.8430318E-2,-4.4939006E-3,1.09703926E2,1.8250743E2,3.5462185E1,3.34289E7,1.2243735E2,3.2156582E-3,-9.912304E-3,1.2833557E0,5.670075E-1,1.2548043E2,1.1012376E-2,1.077863E-3,-1.1955734E-2,-2.8868797E-3,-3.8823768E-4,-5.9572957E-3,-2.2058152E-3,2.9882973E-3,4.705378E-3,-1.8877329E-3,5.6665717E-3,-6.815726E-3,-3.1452419E-3,4.4594174E-3,-8.6419657E-4,-1.3294796E-2,7.5147906E-3,-3.9119176E-3,-1.3241913E-2,-2.8834515E-3,6.832491E-3,7.14271E-4,-6.1493027E-3,2.1988177E-4],"split_indices":[3,0,1,2,0,3,5,1,3,1,2,4,0,7,5,0,3,10,0,4,5,2,1,5,0,10,7,3,5,0,0,0,0,0,0,0,0,0,0,0,0,0,0,0,0,0,0,0,0,0,0,0,0],"split_type":[0,0,0,0,0,0,0,0,0,0,0,0,0,0,0,0,0,0,0,0,0,0,0,0,0,0,0,0,0,0,0,0,0,0,0,0,0,0,0,0,0,0,0,0,0,0,0,0,0,0,0,0,0],"sum_hessian":[6.167252E2,4.427876E2,1.7393762E2,1.66366E2,2.764216E2,1.3197166E1,1.6074045E2,8.895312E0,1.5747069E2,2.01112E2,7.53096E1,1.1956334E1,1.2408316E0,3.162887E1,1.2911159E2,1.7398006E0,7.1555114E0,4.7342772E0,1.527364E2,6.7552345E1,1.3355965E2,2.4369225E1,5.094038E1,1.0463128E1,1.4932061E0,1.1952837E1,1.9676031E1,2.809805E1,1.01013535E2,5.919479E0,1.2360322E0,3.4890134E0,1.2452636E0,1.3680515E2,1.5931262E1,3.8992386E1,2.855996E1,1.2387201E2,9.687643E0,1.9864063E0,2.2382818E1,2.6584848E1,2.4355532E1,2.4905736E0,7.9725547E0,4.230502E0,7.722335E0,9.22083E0,1.0455202E1,1.4167177E1,1.3930872E1,2.7387897E1,7.362563E1],"tree_param":{"num_deleted":"0","num_feature":"11","num_nodes":"53","size_leaf_vector":"1"}},{"base_weights":[-1.362914E-4,6.8663776E-2,-1.7464168E-1,9.2194185E-2,-5.5849916E-1,-2.3036268E-1,5.42979E-1,-8.7935284E-2,2.0654827E-1,-9.095063E-1,3.5265484E-1,-4.1536617E-1,-5.914151E-2,1.2115839E0,-1.0547821E-1,7.117766E-1,-1.3735287E-1,3.976943E-1,7.098677E-2,-1.5921226E-2,-4.04641E-1,8.951686E-3,-2.5675439E-3,-2.741809E-1,-6.3140625E-1,6.0510385E-1,-2.4591634E-1,1.4292151E-2,2.917951E-3,-4.8814052E-1,1.0073764E-2,-2.7610632E-3,9.566528E-3,-2.4321005E-3,2.5248728E-3,4.4304873E-3,-3.5700025E-3,-5.716034E-3,1.4753379E-3,5.467961E-3,-1.2173706E-2,-4.612025E-3,4.5990977E-3,1.1497497E-3,-9.048989E-3,-3.3311152E-3,7.996192E-3,-1.5423975E-3,-1.0531614E-2,-1.2490962E-2,1.6231276E-4],"categories":[],"categories_nodes":[],"categories_segments":[],"categories_sizes":[],"default_left":[0,0,0,0,0,0,0,0,0,0,0,0,0,0,0,0,0,0,0,0,0,0,0,0,0,0,0,0,0,0,0,0,0,0,0,0,0,0,0,0,0,0,0,0,0,0,0,0,0,0,0],"id":16,"left_children":[1,3,5,7,9,11,13,15,17,19,21,23,25,27,29,31,33,35,37,-1,39,-1,-1,41,43,45,47,-1,-1,49,-1,-1,-1,-1,-1,-1,-1,-1,-1,-1,-1,-1,-1,-1,-1,-1,-1,-1,-1,-1,-1],"loss_changes":[7.4281216E0,6.6001077E0,7.120789E0,8.84593E0,5.498223E0,5.1402273E0,5.722271E0,6.702366E0,6.7721624E0,3.4795933E0,1.9565177E0,2.2122288E0,1.0799006E1,8.7071705E-1,3.6729817E0,2.6561007E0,6.591282E0,3.87809E0,7.696885E0,0E0,7.021342E0,0E0,0E0,6.948017E0,6.256672E0,3.7574143E0,4.8488297E0,0E0,0E0,2.412338E0,0E0,0E0,0E0,0E0,0E0,0E0,0E0,0E0,0E0,0E0,0E0,0E0,0E0,0E0,0E0,0E0,0E0,0E0,0E0,0E0,0E0],"parents":[2147483647,0,0,1,1,2,2,3,3,4,4,5,5,6,6,7,7,8,8,9,9,10,10,11,11,12,12,13,13,14,14,15,15,16,16,17,17,18,18,20,20,23,23,24,24,25,25,26,26,29,29],"right_children":[2,4,6,8,10,12,14,16,18,20,22,24,26,28,30,32,34,36,38,-1,40,-1,-1,42,44,46,48,-1,-1,50,-1,-1,-1,-1,-1,-1,-1,-1,-1,-1,-1,-1,-1,-1,-1,-1,-1,-1,-1,-1,-1],"split_conditions":[2.291697E-1,1.773302E-2,1.4703426E-2,-3.0990106E-3,1.1284002E2,-1.2000084E-1,1.8396243E-2,3.1641508E1,1.6134589E-3,-4.3908346E-1,4.725555E1,6.595822E1,1.3000107E-1,-1.4699993E0,-9.7000027E-1,3.7914E7,1.8999996E0,7.238691E1,4.2091713E1,-1.5921226E-2,-1.3062787E-1,8.951686E-3,-2.5675439E-3,6.2913483E1,3.107795E-3,2.726478E-1,4.041811E-3,1.4292151E-2,2.917951E-3,2.1035668E-2,1.0073764E-2,-2.7610632E-3,9.566528E-3,-2.4321005E-3,2.5248728E-3,4.4304873E-3,-3.5700025E-3,-5.716034E-3,1.4753379E-3,5.467961E-3,-1.2173706E-2,-4.612025E-3,4.5990977E-3,1.1497497E-3,-9.048989E-3,-3.3311152E-3,7.996192E-3,-1.5423975E-3,-1.0531614E-2,-1.2490962E-2,1.6231276E-4],"split_indices":[3,8,8,0,4,9,8,2,8,3,2,2,9,9,9,1,9,2,5,0,3,0,0,2,0,3,8,0,0,0,0,0,0,0,0,0,0,0,0,0,0,0,0,0,0,0,0,0,0,0,0],"split_type":[0,0,0,0,0,0,0,0,0,0,0,0,0,0,0,0,0,0,0,0,0,0,0,0,0,0,0,0,0,0,0,0,0,0,0,0,0,0,0,0,0,0,0,0,0,0,0,0,0,0,0],"sum_hessian":[6.167029E2,4.4275134E2,1.7395154E2,4.275627E2,1.5188651E1,1.62048E2,1.1903529E1,1.661212E2,2.614415E2,1.096599E1,4.2226605E0,7.720382E1,8.4844185E1,5.4331555E0,6.470373E0,8.887866E0,1.5723334E2,1.07678185E2,1.5376332E2,3.7466612E0,7.219329E0,1.9858698E0,2.236791E0,4.8063046E1,2.9140774E1,1.8129333E1,6.671485E1,3.9457095E0,1.4874461E0,5.2325044E0,1.2378689E0,1.7401582E0,7.1477075E0,1.2395164E2,3.3281696E1,1.01963486E2,5.7147007E0,1.5678602E1,1.3808472E2,3.4765966E0,3.7427325E0,3.8600636E1,9.462408E0,7.9699125E0,2.117086E1,2.9908593E0,1.5138475E1,6.0980534E1,5.7343206E0,1.4971647E0,3.7353399E0],"tree_param":{"num_deleted":"0","num_feature":"11","num_nodes":"51","size_leaf_vector":"1"}},{"base_weights":[-1.5543538E-4,6.795585E-2,-1.7288645E-1,9.129031E-2,-5.539453E-1,-2.2812746E-1,5.390371E-1,-8.7011516E-2,2.0450863E-1,-9.0228444E-1,3.5042414E-1,-4.4163185E-1,-8.203551E-2,1.2034899E0,-1.0473233E-1,2.56943E-1,-2.00719E-1,3.9203113E-1,6.8951085E-2,2.231843E-2,-1.3240138E0,1.2093948E-2,-5.475073E-3,-3.6288723E-1,-1.5739469E-2,2.4317044E-1,-2.7922726E-1,1.4197626E-2,2.900971E-3,-4.8518592E-1,1.0023694E-2,-9.427651E-4,5.093023E-3,-7.319542E-3,-1.2420055E-3,1.2768706E-3,5.203421E-3,-6.0242414E-3,1.4836972E-3,-6.956635E-3,4.7858716E-3,-1.6105577E-2,1.5896804E-3,-1.1768498E-2,-2.8037943E-3,-1.3019209E-3,7.459103E-3,-3.5189274E-3,1.0320341E-2,-1.2412651E-2,1.6103355E-4],"categories":[],"categories_nodes":[],"categories_segments":[],"categories_sizes":[],"default_left":[0,0,0,0,0,0,0,0,0,0,0,0,0,0,0,0,0,0,0,0,0,0,0,0,0,0,0,0,0,0,0,0,0,0,0,0,0,0,0,0,0,0,0,0,0,0,0,0,0,0,0],"id":17,"left_children":[1,3,5,7,9,11,13,15,17,19,21,23,25,27,29,31,33,35,37,39,41,-1,-1,43,-1,45,47,-1,-1,49,-1,-1,-1,-1,-1,-1,-1,-1,-1,-1,-1,-1,-1,-1,-1,-1,-1,-1,-1,-1,-1],"loss_changes":[7.2785687E0,6.489518E0,7.0037436E0,8.668315E0,5.4157796E0,5.0499964E0,5.6422653E0,6.587916E0,6.643008E0,4.6955595E0,4.689546E0,5.31542E0,6.355365E0,8.575344E-1,3.632608E0,3.7672188E0,5.0375967E0,3.6605225E0,8.274571E0,1.8830243E0,3.7551718E0,0E0,0E0,3.902814E0,0E0,7.1443243E0,6.223234E0,0E0,0E0,2.382444E0,0E0,0E0,0E0,0E0,0E0,0E0,0E0,0E0,0E0,0E0,0E0,0E0,0E0,0E0,0E0,0E0,0E0,0E0,0E0,0E0,0E0],"parents":[2147483647,0,0,1,1,2,2,3,3,4,4,5,5,6,6,7,7,8,8,9,9,10,10,11,11,12,12,13,13,14,14,15,15,16,16,17,17,18,18,19,19,20,20,23,23,25,25,26,26,29,29],"right_children":[2,4,6,8,10,12,14,16,18,20,22,24,26,28,30,32,34,36,38,40,42,-1,-1,44,-1,46,48,-1,-1,50,-1,-1,-1,-1,-1,-1,-1,-1,-1,-1,-1,-1,-1,-1,-1,-1,-1,-1,-1,-1,-1],"split_conditions":[2.291697E-1,1.773302E-2,1.4703426E-2,-3.0990106E-3,1.1284002E2,-2.5999928E-1,1.8396243E-2,-1.1974631E-2,1.6829805E-3,-1.8339831E-2,2.928412E9,4.6141863E-2,2.5E-1,-1.4699993E0,-9.7000027E-1,-6.5412424E-3,-8.786422E-3,2.3254E7,3.9450825E1,-3.5774553E-1,-9.2999935E-1,1.2093948E-2,-5.475073E-3,1.96614E7,-1.5739469E-2,1.26986046E2,4.787703E-2,1.4197626E-2,2.900971E-3,2.1035668E-2,1.0023694E-2,-9.427651E-4,5.093023E-3,-7.319542E-3,-1.2420055E-3,1.2768706E-3,5.203421E-3,-6.0242414E-3,1.4836972E-3,-6.956635E-3,4.7858716E-3,-1.6105577E-2,1.5896804E-3,-1.1768498E-2,-2.8037943E-3,-1.3019209E-3,7.459103E-3,-3.5189274E-3,1.0320341E-2,-1.2412651E-2,1.6103355E-4],"split_indices":[3,8,8,0,4,9,8,8,8,10,6,10,9,9,9,10,8,1,4,3,9,0,0,1,0,4,10,0,0,0,0,0,0,0,0,0,0,0,0,0,0,0,0,0,0,0,0,0,0,0,0],"split_type":[0,0,0,0,0,0,0,0,0,0,0,0,0,0,0,0,0,0,0,0,0,0,0,0,0,0,0,0,0,0,0,0,0,0,0,0,0,0,0,0,0,0,0,0,0,0,0,0,0,0,0],"sum_hessian":[6.1666785E2,4.4270645E2,1.7396141E2,4.2751865E2,1.5187796E1,1.6206564E2,1.1895765E1,1.6612627E2,2.613924E2,1.09662075E1,4.221587E0,6.501997E1,9.704566E1,5.425997E0,6.4697685E0,4.0961594E1,1.25164665E2,1.08880875E2,1.5251152E2,3.7317557E0,7.2344522E0,1.9803226E0,2.2412648E0,6.2026917E1,2.9930587E0,3.6544235E1,6.050143E1,3.9389505E0,1.4870462E0,5.233155E0,1.2366134E0,1.7388157E1,2.3573437E1,1.4680242E1,1.1048443E2,3.6231823E1,7.2649055E1,1.5435999E1,1.3707552E2,1.2461468E0,2.485609E0,5.9908624E0,1.2435898E0,4.4880023E0,5.7538914E1,2.1395664E1,1.5148572E1,5.8017918E1,2.4835107E0,1.4978493E0,3.7353055E0],"tree_param":{"num_deleted":"0","num_feature":"11","num_nodes":"51","size_leaf_vector":"1"}},{"base_weights":[-1.7759953E-4,6.725501E-2,-1.711621E-1,9.038096E-2,-5.4905033E-1,-2.2592816E-1,5.351481E-1,7.2701186E-1,7.0537165E-2,-7.493035E-2,-1.245417E0,-4.081945E-1,-5.7195935E-2,1.1955187E0,-1.0399275E-1,1.1416508E0,3.25431E-1,8.406748E-2,-1.0617223E0,3.0977327E-1,-1.3000541E-2,-1.5362808E-2,-3.930448E-3,-2.6826623E-1,-6.223974E-1,5.974623E-1,-2.4110177E-1,1.4104758E-2,2.8840962E-3,-4.8225793E-1,9.974142E-3,1.3762578E-2,2.6057377E-3,1.1319295E-2,-8.1607356E-4,4.2934495E-4,4.0755398E-3,-5.463653E-4,-1.47697395E-2,-3.0805005E-3,8.665961E-3,-4.5329235E-3,4.5810626E-3,-9.956862E-4,-7.754789E-3,-3.2957743E-3,7.899104E-3,-1.5029886E-3,-1.040769E-2,2.0060246E-3,-9.8951245E-3],"categories":[],"categories_nodes":[],"categories_segments":[],"categories_sizes":[],"default_left":[0,0,0,0,0,0,0,0,0,0,0,0,0,0,0,0,0,0,0,0,0,0,0,0,0,0,0,0,0,0,0,0,0,0,0,0,0,0,0,0,0,0,0,0,0,0,0,0,0,0,0],"id":18,"left_children":[1,3,5,7,9,11,13,15,17,19,21,23,25,27,29,31,33,35,37,39,-1,-1,-1,41,43,45,47,-1,-1,49,-1,-1,-1,-1,-1,-1,-1,-1,-1,-1,-1,-1,-1,-1,-1,-1,-1,-1,-1,-1,-1],"loss_changes":[7.132785E0,6.3730016E0,6.8890753E0,5.3617363E0,5.2510257E0,4.992134E0,5.563745E0,1.7672157E0,6.471983E0,5.4430547E0,1.0058823E0,2.1779518E0,1.0479817E1,8.4474564E-1,3.5927703E0,8.6524916E-1,2.693526E0,5.4730563E0,2.0074558E0,3.344626E0,0E0,0E0,0E0,6.8037734E0,2.336278E0,3.6705837E0,4.761846E0,0E0,0E0,2.357748E0,0E0,0E0,0E0,0E0,0E0,0E0,0E0,0E0,0E0,0E0,0E0,0E0,0E0,0E0,0E0,0E0,0E0,0E0,0E0,0E0,0E0],"parents":[2147483647,0,0,1,1,2,2,3,3,4,4,5,5,6,6,7,7,8,8,9,9,10,10,11,11,12,12,13,13,14,14,15,15,16,16,17,17,18,18,19,19,23,23,24,24,25,25,26,26,29,29],"right_children":[2,4,6,8,10,12,14,16,18,20,22,24,26,28,30,32,34,36,38,40,-1,-1,-1,42,44,46,48,-1,-1,50,-1,-1,-1,-1,-1,-1,-1,-1,-1,-1,-1,-1,-1,-1,-1,-1,-1,-1,-1,-1,-1],"split_conditions":[2.291697E-1,1.773302E-2,1.4703426E-2,3.1641508E1,4.66077E7,-1.2000084E-1,1.8396243E-2,2.3386903E9,3.4265363E2,1.0762118E-1,2.2415258E9,6.595822E1,1.3000107E-1,-1.4699993E0,-9.7000027E-1,6.9300003E0,-1.9202586E0,9.071881E-3,3.6462E7,-3.060639E-1,-1.3000541E-2,-1.5362808E-2,-3.930448E-3,6.2913483E1,-9.5000076E-1,2.726478E-1,4.041811E-3,1.4104758E-2,2.8840962E-3,-2.2299995E0,9.974142E-3,1.3762578E-2,2.6057377E-3,1.1319295E-2,-8.1607356E-4,4.2934495E-4,4.0755398E-3,-5.463653E-4,-1.47697395E-2,-3.0805005E-3,8.665961E-3,-4.5329235E-3,4.5810626E-3,-9.956862E-4,-7.754789E-3,-3.2957743E-3,7.899104E-3,-1.5029886E-3,-1.040769E-2,2.0060246E-3,-9.8951245E-3],"split_indices":[3,8,8,2,1,9,8,6,5,3,6,2,9,9,9,9,3,8,1,3,0,0,0,2,9,3,8,0,0,9,0,0,0,0,0,0,0,0,0,0,0,0,0,0,0,0,0,0,0,0,0],"split_type":[0,0,0,0,0,0,0,0,0,0,0,0,0,0,0,0,0,0,0,0,0,0,0,0,0,0,0,0,0,0,0,0,0,0,0,0,0,0,0,0,0,0,0,0,0,0,0,0,0,0,0],"sum_hessian":[6.166336E2,4.4266336E2,1.7397026E2,4.2747632E2,1.5187069E1,1.6208278E2,1.1887488E1,1.1844458E1,4.1563184E2,9.694314E0,5.492755E0,7.723429E1,8.484848E1,5.418499E0,6.46899E0,4.920779E0,6.923678E0,4.1163858E2,3.993261E0,7.9462466E0,1.7480674E0,3.4970584E0,1.9956964E0,4.8079018E1,2.9155273E1,1.8114983E1,6.67335E1,3.9318562E0,1.4866428E0,5.233686E0,1.2353039E0,3.4421973E0,1.4785821E0,1.7249671E0,5.198711E0,3.662063E2,4.54323E1,1.4961967E0,2.4970644E0,3.9785805E0,3.9676661E0,3.8617958E1,9.461058E0,6.9769373E0,2.2178335E1,2.991604E0,1.512338E1,6.0995373E1,5.7381268E0,2.488384E0,2.745302E0],"tree_param":{"num_deleted":"0","num_feature":"11","num_nodes":"51","size_leaf_vector":"1"}},{"base_weights":[-1.8761738E-4,6.656436E-2,-1.6942613E-1,8.952223E-2,-5.452906E-1,-2.2374642E-1,5.31634E-1,-8.678255E-2,2.0150419E-1,-8.8966316E-1,3.485775E-1,-1.8708356E-1,-1.0470335E0,1.1876669E0,-1.0268186E-1,7.007667E-1,-1.3536674E-1,3.8970253E-1,6.810876E-2,2.2325203E-2,-1.3054242E0,1.2016024E-2,-5.423563E-3,-7.4496365E-1,-1.3186634E-1,-6.785168E-4,-1.3134195E0,3.9208345E-3,1.3963552E-2,3.652305E-1,-8.243962E-3,-2.76354E-3,9.437996E-3,-6.7337966E-3,-7.768514E-4,2.6239716E-3,6.8341047E-3,-5.610721E-3,1.431435E-3,-6.8725785E-3,4.7344556E-3,-1.5485347E-2,-2.5404256E-3,1.3296972E-3,-1.0500565E-2,1.0474669E-2,-1.5991839E-3,-1.5670367E-2,-2.7789837E-3,-2.6672285E-3,7.575443E-3],"categories":[],"categories_nodes":[],"categories_segments":[],"categories_sizes":[],"default_left":[0,0,0,0,0,0,0,0,0,0,0,0,0,0,0,0,0,0,0,0,0,0,0,0,0,0,0,0,0,0,0,0,0,0,0,0,0,0,0,0,0,0,0,0,0,0,0,0,0,0,0],"id":19,"left_children":[1,3,5,7,9,11,13,15,17,19,21,23,25,27,29,31,33,35,37,39,41,-1,-1,43,45,-1,47,-1,-1,49,-1,-1,-1,-1,-1,-1,-1,-1,-1,-1,-1,-1,-1,-1,-1,-1,-1,-1,-1,-1,-1],"loss_changes":[6.98833E0,6.280376E0,6.7823586E0,8.476181E0,5.2921343E0,4.7270536E0,5.4812946E0,6.4893713E0,6.558917E0,4.565896E0,4.6185904E0,4.7492166E0,1.6678734E0,5.1686954E-1,2.8231246E0,2.605311E0,4.8587236E0,3.8811665E0,7.384808E0,1.8394247E0,1.7115307E0,0E0,0E0,3.878109E0,4.94479E0,0E0,9.409027E-1,0E0,0E0,1.497157E0,0E0,0E0,0E0,0E0,0E0,0E0,0E0,0E0,0E0,0E0,0E0,0E0,0E0,0E0,0E0,0E0,0E0,0E0,0E0,0E0,0E0],"parents":[2147483647,0,0,1,1,2,2,3,3,4,4,5,5,6,6,7,7,8,8,9,9,10,10,11,11,12,12,13,13,14,14,15,15,16,16,17,17,18,18,19,19,20,20,23,23,24,24,26,26,29,29],"right_children":[2,4,6,8,10,12,14,16,18,20,22,24,26,28,30,32,34,36,38,40,42,-1,-1,44,46,-1,48,-1,-1,50,-1,-1,-1,-1,-1,-1,-1,-1,-1,-1,-1,-1,-1,-1,-1,-1,-1,-1,-1,-1,-1],"split_conditions":[2.291697E-1,1.773302E-2,1.4703426E-2,-3.0990106E-3,1.1284002E2,1.239773E-2,1.8396243E-2,3.1641508E1,1.6134589E-3,-1.8339831E-2,2.928412E9,1.95691E7,2.97573E7,1.9344836E-2,7.7164245E-1,3.7914E7,-1.0211391E0,0E0,3.9450825E1,-3.5774553E-1,1.0362011E2,1.2016024E-2,-5.423563E-3,-3.4953047E-2,-4.790025E-2,-6.785168E-4,4.9932E7,3.9208345E-3,1.3963552E-2,2.6662828E-2,-8.243962E-3,-2.76354E-3,9.437996E-3,-6.7337966E-3,-7.768514E-4,2.6239716E-3,6.8341047E-3,-5.610721E-3,1.431435E-3,-6.8725785E-3,4.7344556E-3,-1.5485347E-2,-2.5404256E-3,1.3296972E-3,-1.0500565E-2,1.0474669E-2,-1.5991839E-3,-1.5670367E-2,-2.7789837E-3,-2.6672285E-3,7.575443E-3],"split_indices":[3,8,8,0,4,8,8,2,8,10,6,1,1,0,3,1,3,8,4,3,4,0,0,10,10,0,1,0,0,0,0,0,0,0,0,0,0,0,0,0,0,0,0,0,0,0,0,0,0,0,0],"split_type":[0,0,0,0,0,0,0,0,0,0,0,0,0,0,0,0,0,0,0,0,0,0,0,0,0,0,0,0,0,0,0,0,0,0,0,0,0,0,0,0,0,0,0,0,0,0,0,0,0,0,0],"sum_hessian":[6.16602E2,4.4262576E2,1.739762E2,4.2744113E2,1.5184651E1,1.6209724E2,1.1878947E1,1.6612244E2,2.613187E2,1.0964976E1,4.219674E0,1.5636136E2,5.735891E0,5.410671E0,6.4682755E0,8.872675E0,1.5724976E2,1.0759665E2,1.5372203E2,3.7298052E0,7.2351713E0,1.9775591E0,2.242115E0,1.2957312E1,1.4340404E2,1.4950597E0,4.2408314E0,1.7225573E0,3.6881142E0,4.2237883E0,2.2444875E0,1.73997E0,7.1327047E0,1.4193045E1,1.4305672E2,7.6382614E1,3.1214037E1,1.5689027E1,1.38033E2,1.2461871E0,2.4836183E0,5.4923267E0,1.7428449E0,3.4870796E0,9.470232E0,2.4874954E0,1.4091655E2,2.9942126E0,1.2466185E0,1.7404066E0,2.4833815E0],"tree_param":{"num_deleted":"0","num_feature":"11","num_nodes":"51","size_leaf_vector":"1"}},{"base_weights":[-2.0791647E-4,8.004129E-1,-1.4220414E-2,-2.9988196E-3,9.7791916E-1,-3.5974628E-3,-1.0379357E0,1.2608436E-3,1.0919966E0,5.369945E-1,-1.9828793E-2,-2.3804896E-3,-1.1900307E0,1.3410247E-2,2.0970227E-3,7.771679E-2,1.0266024E0,-5.9562373E-1,6.8295543E-4,-1.4259611E-2,-2.6741256E-3,9.9181365E-3,-3.4404236E-3,1.3122848E-2,3.7631106E-3,-7.72781E-3,8.133409E-3,-4.011376E-3,2.5962817E-4],"categories":[],"categories_nodes":[],"categories_segments":[],"categories_sizes":[],"default_left":[0,0,0,0,0,0,0,0,0,0,0,0,0,0,0,0,0,0,0,0,0,0,0,0,0,0,0,0,0],"id":20,"left_children":[1,3,5,-1,7,9,11,-1,13,15,17,-1,19,-1,-1,21,23,25,27,-1,-1,-1,-1,-1,-1,-1,-1,-1,-1],"loss_changes":[6.939663E0,2.371389E0,6.607381E0,0E0,7.754507E-1,5.2989264E0,4.7587538E-1,0E0,1.5108919E0,3.878714E0,6.9223576E0,0E0,7.055421E-1,0E0,0E0,4.260184E0,1.0738802E0,5.6609282E0,5.769172E0,0E0,0E0,0E0,0E0,0E0,0E0,0E0,0E0,0E0,0E0],"parents":[2147483647,0,0,1,1,2,2,4,4,5,5,6,6,8,8,9,9,10,10,12,12,15,15,16,16,17,17,18,18],"right_children":[2,4,6,-1,8,10,12,-1,14,16,18,-1,20,-1,-1,22,24,26,28,-1,-1,-1,-1,-1,-1,-1,-1,-1,-1],"split_conditions":[-8.92E5,-2.3390563E-2,2.9492581E-2,-2.9988196E-3,-2.9784964E-2,-2.2285886E-2,4.9490585E1,1.2608436E-3,4.13991E1,-3.670878E-2,-2.6030894E-2,-2.3804896E-3,3.3152802E0,1.3410247E-2,2.0970227E-3,-5.117073E-2,2.2779484E9,4.8346524E0,3.9316486E1,-1.4259611E-2,-2.6741256E-3,9.9181365E-3,-3.4404236E-3,1.3122848E-2,3.7631106E-3,-7.72781E-3,8.133409E-3,-4.011376E-3,2.5962817E-4],"split_indices":[6,0,8,0,10,8,4,0,5,0,0,0,7,0,0,0,6,7,4,0,0,0,0,0,0,0,0,0,0],"split_type":[0,0,0,0,0,0,0,0,0,0,0,0,0,0,0,0,0,0,0,0,0,0,0,0,0,0,0,0,0],"sum_hessian":[6.165656E2,9.640195E0,6.069254E2,1.243401E0,8.396793E0,6.016853E2,5.2400904E0,1.2403259E0,7.156468E0,1.6603811E1,5.850815E2,1.2470145E0,3.9930758E0,5.1756945E0,1.9807732E0,9.165152E0,7.438658E0,1.9161167E1,5.6592035E2,2.7454534E0,1.2476225E0,2.4669065E0,6.6982455E0,4.4609175E0,2.9777408E0,1.742211E1,1.7390571E0,3.2616524E1,5.3330383E2],"tree_param":{"num_deleted":"0","num_feature":"11","num_nodes":"29","size_leaf_vector":"1"}},{"base_weights":[-1.8211963E-4,7.943453E-1,-1.4076943E-2,1.0551225E0,-4.8031304E-3,-3.5280748E-3,-1.0308343E0,1.272782E0,8.1791385E-4,5.331797E-1,-1.9635929E-2,-2.3672371E-3,-1.1817927E0,5.1971627E-3,1.4507519E-2,5.094514E-2,1.1839931E0,-5.894348E-1,6.695762E-4,-1.415991E-2,-2.659125E-3,-3.5950693E-3,7.4563865E-3,1.3689875E-3,1.3716408E-2,-7.6512466E-3,8.085114E-3,1.3158457E-4,-6.3355905E-3],"categories":[],"categories_nodes":[],"categories_segments":[],"categories_sizes":[],"default_left":[0,0,0,0,0,0,0,0,0,0,0,0,0,0,0,0,0,0,0,0,0,0,0,0,0,0,0,0,0],"id":21,"left_children":[1,3,5,7,-1,9,11,13,-1,15,17,-1,19,-1,-1,21,23,25,27,-1,-1,-1,-1,-1,-1,-1,-1,-1,-1],"loss_changes":[6.8288574E0,4.0407705E0,6.5167103E0,1.831996E0,0E0,5.2207875E0,4.6815825E-1,2.3778725E-1,0E0,5.462214E0,6.781444E0,0E0,6.9422865E-1,0E0,0E0,3.4479783E0,1.2748995E0,5.5720654E0,4.4987826E0,0E0,0E0,0E0,0E0,0E0,0E0,0E0,0E0,0E0,0E0],"parents":[2147483647,0,0,1,1,2,2,3,3,5,5,6,6,7,7,9,9,10,10,12,12,15,15,16,16,17,17,18,18],"right_children":[2,4,6,8,-1,10,12,14,-1,16,18,-1,20,-1,-1,22,24,26,28,-1,-1,-1,-1,-1,-1,-1,-1,-1,-1],"split_conditions":[-8.92E5,6.0322E7,2.9492581E-2,4.6133858E1,-4.8031304E-3,-2.2285886E-2,8.8028E8,-7.5E-1,8.1791385E-4,4.038654E1,-2.6030894E-2,-2.3672371E-3,3.3152802E0,5.1971627E-3,1.4507519E-2,-3.670878E-2,2.17E0,4.8346524E0,3.3463638E2,-1.415991E-2,-2.659125E-3,-3.5950693E-3,7.4563865E-3,1.3689875E-3,1.3716408E-2,-7.6512466E-3,8.085114E-3,1.3158457E-4,-6.3355905E-3],"split_indices":[6,1,8,2,0,8,6,9,0,2,0,0,7,0,0,0,9,7,5,0,0,0,0,0,0,0,0,0,0],"split_type":[0,0,0,0,0,0,0,0,0,0,0,0,0,0,0,0,0,0,0,0,0,0,0,0,0,0,0,0,0],"sum_hessian":[6.165532E2,9.631659E0,6.069216E2,8.138805E0,1.4928534E0,6.0168256E2,5.2389927E0,6.3999677E0,1.7388377E0,1.659639E1,5.850862E2,1.2470539E0,3.9919386E0,1.972737E0,4.4272304E0,1.0152184E1,6.444206E0,1.9168375E1,5.659178E2,2.7441838E0,1.247755E0,6.68495E0,3.467234E0,1.2421926E0,5.2020135E0,1.7430447E1,1.7379292E0,5.559496E2,9.968202E0],"tree_param":{"num_deleted":"0","num_feature":"11","num_nodes":"29","size_leaf_vector":"1"}},{"base_weights":[-1.6434341E-4,6.5927885E-2,-1.6769692E-1,-8.267671E-2,1.5542036E-1,-4.4952866E-1,-1.0112196E-1,6.961997E-1,-1.3062906E-1,2.7043983E-1,-1.5108573E-1,1.17852986E-1,-7.968367E-1,3.719379E-1,-2.2145523E-1,8.9749664E-1,2.2186236E-5,-2.3343973E-1,2.4893609E-1,3.6571977E-1,-2.5194386E-2,-5.502854E-1,4.682849E-2,8.0498946E-1,-3.1470624E-1,-1.3001919E0,-2.7777985E-1,6.7954814E-1,4.0300783E-2,-6.2281245E-1,-7.222158E-2,1.793095E-3,1.115352E-2,-8.225618E-3,-1.7111767E-3,-3.8977768E-3,6.4216903E-3,1.0337043E-3,4.782175E-3,-6.638728E-3,8.447796E-4,-1.06090475E-2,-1.6634898E-3,3.0591988E-3,-5.0844206E-3,1.3796966E-2,-2.727521E-3,-9.901365E-3,5.812363E-3,-3.8930876E-3,-1.4737377E-2,-7.5574643E-3,1.0737859E-3,1.21984305E-2,4.1423705E-3,3.224365E-3,-8.317926E-3,-7.960035E-3,8.48064E-3,6.420451E-3,-1.7061757E-3],"categories":[],"categories_nodes":[],"categories_segments":[],"categories_sizes":[],"default_left":[0,0,0,0,0,0,0,0,0,0,0,0,0,0,0,0,0,0,0,0,0,0,0,0,0,0,0,0,0,0,0,0,0,0,0,0,0,0,0,0,0,0,0,0,0,0,0,0,0,0,0,0,0,0,0,0,0,0,0,0,0],"id":22,"left_children":[1,3,5,7,9,11,13,15,17,19,21,23,25,27,29,31,-1,33,35,37,39,41,43,45,47,49,51,53,55,57,59,-1,-1,-1,-1,-1,-1,-1,-1,-1,-1,-1,-1,-1,-1,-1,-1,-1,-1,-1,-1,-1,-1,-1,-1,-1,-1,-1,-1,-1,-1],"loss_changes":[6.848824E0,5.9116964E0,3.2377472E0,6.3420434E0,9.812815E0,6.625595E0,8.21335E0,1.3760705E0,6.2435226E0,5.696615E0,6.052115E0,4.253069E0,5.0443754E0,2.9656234E0,6.813005E0,9.9602795E-1,0E0,4.457417E0,8.856872E0,4.4591312E0,3.5687397E0,4.7952595E0,7.624433E0,3.7703536E0,6.0079885E0,1.0437241E0,2.190407E0,1.6675081E0,4.0035E0,8.547316E0,6.054999E0,0E0,0E0,0E0,0E0,0E0,0E0,0E0,0E0,0E0,0E0,0E0,0E0,0E0,0E0,0E0,0E0,0E0,0E0,0E0,0E0,0E0,0E0,0E0,0E0,0E0,0E0,0E0,0E0,0E0,0E0],"parents":[2147483647,0,0,1,1,2,2,3,3,4,4,5,5,6,6,7,7,8,8,9,9,10,10,11,11,12,12,13,13,14,14,15,15,17,17,18,18,19,19,20,20,21,21,22,22,23,23,24,24,25,25,26,26,27,27,28,28,29,29,30,30],"right_children":[2,4,6,8,10,12,14,16,18,20,22,24,26,28,30,32,-1,34,36,38,40,42,44,46,48,50,52,54,56,58,60,-1,-1,-1,-1,-1,-1,-1,-1,-1,-1,-1,-1,-1,-1,-1,-1,-1,-1,-1,-1,-1,-1,-1,-1,-1,-1,-1,-1,-1,-1],"split_conditions":[2.291697E-1,-3.0990106E-3,6.449076E1,3.1641508E1,1.3225127E-2,9.837337E-1,1.0222564E2,1.5038509E2,1.8999996E0,6.3201405E1,4.740757E1,-9.912304E-3,1.2833557E0,5.670075E-1,1.2548043E2,-1.3739067E-2,2.2186236E-5,-2.6030894E-2,-4.706727E-1,5.5704643E1,4.0869236E1,-1.6999998E0,-3.0999947E-1,4.1170242E1,4.977558E1,5.3455532E1,5.028205E1,5.707227E1,6.890742E1,4.115494E0,-3.925515E-2,1.793095E-3,1.115352E-2,-8.225618E-3,-1.7111767E-3,-3.8977768E-3,6.4216903E-3,1.0337043E-3,4.782175E-3,-6.638728E-3,8.447796E-4,-1.06090475E-2,-1.6634898E-3,3.0591988E-3,-5.0844206E-3,1.3796966E-2,-2.727521E-3,-9.901365E-3,5.812363E-3,-3.8930876E-3,-1.4737377E-2,-7.5574643E-3,1.0737859E-3,1.21984305E-2,4.1423705E-3,3.224365E-3,-8.317926E-3,-7.960035E-3,8.48064E-3,6.420451E-3,-1.7061757E-3],"split_indices":[3,0,5,2,0,7,5,4,9,2,2,10,7,3,5,10,0,0,3,5,4,9,9,4,5,2,4,2,2,7,10,0,0,0,0,0,0,0,0,0,0,0,0,0,0,0,0,0,0,0,0,0,0,0,0,0,0,0,0,0,0],"split_type":[0,0,0,0,0,0,0,0,0,0,0,0,0,0,0,0,0,0,0,0,0,0,0,0,0,0,0,0,0,0,0,0,0,0,0,0,0,0,0,0,0,0,0,0,0,0,0,0,0,0,0,0,0,0,0,0,0,0,0,0,0],"sum_hessian":[6.1653937E2,4.425559E2,1.7398349E2,1.6637012E2,2.761858E2,3.2146313E1,1.4183717E2,8.864703E0,1.5750542E2,2.0090997E2,7.527581E1,1.2456821E1,1.968949E1,2.8338928E1,1.13498245E2,6.6442165E0,2.2204864E0,1.24238594E2,3.326682E1,1.5176166E2,4.9148315E1,2.4360147E1,5.0915665E1,4.4796844E0,7.9771376E0,9.231922E0,1.0457567E1,1.4157789E1,1.4181139E1,2.9902746E1,8.35955E1,1.9706833E0,4.673533E0,1.0718593E1,1.1352E2,1.2679982E1,2.0586838E1,4.6122055E1,1.0563961E2,6.462224E0,4.2686092E1,9.698422E0,1.4661725E1,3.5022903E1,1.5892761E1,2.7389574E0,1.7407267E0,4.488345E0,3.4887927E0,1.9964575E0,7.235465E0,4.237199E0,6.220368E0,3.4777377E0,1.0680052E1,1.1190962E1,2.9901767E0,2.7163189E1,2.7395582E0,9.452646E0,7.414285E1],"tree_param":{"num_deleted":"0","num_feature":"11","num_nodes":"61","size_leaf_vector":"1"}},{"base_weights":[-1.7874611E-4,6.525611E-2,-1.660186E-1,8.77792E-2,-5.3507525E-1,-2.1992783E-1,5.301668E-1,-8.480286E-2,1.9744103E-1,-8.757557E-1,3.48321E-1,-3.997847E-1,-5.341765E-2,1.1797234E0,-9.779121E-2,2.5212905E-1,-1.9609065E-1,3.819326E-1,6.417003E-2,2.7463451E-2,-1.2880678E0,8.871778E-3,-2.5600882E-3,-3.2742918E-1,-1.5840828E-2,5.945002E-1,-2.353617E-1,1.3940799E-2,2.8061199E-3,-4.7195217E-1,9.904478E-3,6.312513E-4,8.546277E-3,-7.2221016E-3,-1.2030818E-3,2.5740971E-3,6.586352E-3,-5.921541E-3,1.4190797E-3,-6.7435824E-3,4.7206003E-3,-1.5695471E-2,1.6325946E-3,-3.7330836E-3,4.322688E-3,-3.2518234E-3,7.85443E-3,-2.991548E-3,1.0279745E-2,-1.2208672E-2,2.2949858E-4],"categories":[],"categories_nodes":[],"categories_segments":[],"categories_sizes":[],"default_left":[0,0,0,0,0,0,0,0,0,0,0,0,0,0,0,0,0,0,0,0,0,0,0,0,0,0,0,0,0,0,0,0,0,0,0,0,0,0,0,0,0,0,0,0,0,0,0,0,0,0,0],"id":23,"left_children":[1,3,5,7,9,11,13,15,17,19,21,23,25,27,29,31,33,35,37,39,41,-1,-1,43,-1,45,47,-1,-1,49,-1,-1,-1,-1,-1,-1,-1,-1,-1,-1,-1,-1,-1,-1,-1,-1,-1,-1,-1,-1,-1],"loss_changes":[6.711822E0,6.0438304E0,6.684258E0,8.123227E0,5.1741457E0,4.863876E0,5.3649597E0,6.31592E0,6.4225645E0,4.4895725E0,1.9264381E0,6.1878815E0,1.026139E1,8.4280777E-1,3.5079284E0,4.7210417E0,4.944393E0,3.6126862E0,7.9127545E0,1.7935339E0,3.6194782E0,0E0,0E0,2.7761068E0,0E0,3.6108818E0,5.7677317E0,0E0,0E0,2.3385825E0,0E0,0E0,0E0,0E0,0E0,0E0,0E0,0E0,0E0,0E0,0E0,0E0,0E0,0E0,0E0,0E0,0E0,0E0,0E0,0E0,0E0],"parents":[2147483647,0,0,1,1,2,2,3,3,4,4,5,5,6,6,7,7,8,8,9,9,10,10,11,11,12,12,13,13,14,14,15,15,16,16,17,17,18,18,19,19,20,20,23,23,25,25,26,26,29,29],"right_children":[2,4,6,8,10,12,14,16,18,20,22,24,26,28,30,32,34,36,38,40,42,-1,-1,44,-1,46,48,-1,-1,50,-1,-1,-1,-1,-1,-1,-1,-1,-1,-1,-1,-1,-1,-1,-1,-1,-1,-1,-1,-1,-1],"split_conditions":[2.291697E-1,1.773302E-2,1.4703426E-2,-3.0990106E-3,1.1284002E2,-1.2000084E-1,1.8396243E-2,-1.1974631E-2,1.6829805E-3,-1.8339831E-2,4.725555E1,4.6141863E-2,1.3000107E-1,-1.4699993E0,-9.7000027E-1,4.8048866E1,-8.786422E-3,0E0,3.9450825E1,-3.5774553E-1,-9.2999935E-1,8.871778E-3,-2.5600882E-3,4.196088E-2,-1.5840828E-2,2.726478E-1,4.787703E-2,1.3940799E-2,2.8061199E-3,2.1035668E-2,9.904478E-3,6.312513E-4,8.546277E-3,-7.2221016E-3,-1.2030818E-3,2.5740971E-3,6.586352E-3,-5.921541E-3,1.4190797E-3,-6.7435824E-3,4.7206003E-3,-1.5695471E-2,1.6325946E-3,-3.7330836E-3,4.322688E-3,-3.2518234E-3,7.85443E-3,-2.991548E-3,1.0279745E-2,-1.2208672E-2,2.2949858E-4],"split_indices":[3,8,8,0,4,9,8,8,8,10,2,10,9,9,9,2,8,8,4,3,9,0,0,10,0,3,10,0,0,0,0,0,0,0,0,0,0,0,0,0,0,0,0,0,0,0,0,0,0,0,0],"split_type":[0,0,0,0,0,0,0,0,0,0,0,0,0,0,0,0,0,0,0,0,0,0,0,0,0,0,0,0,0,0,0,0,0,0,0,0,0,0,0,0,0,0,0,0,0,0,0,0,0,0,0],"sum_hessian":[6.165054E2,4.4251163E2,1.7399376E2,4.2733282E2,1.5178791E1,1.6212378E2,1.1869984E1,1.6612213E2,2.612107E2,1.0960528E1,4.2182627E0,7.726481E1,8.485896E1,5.4027457E0,6.4672384E0,4.093199E1,1.2519015E2,1.08770355E2,1.5244034E2,3.7277768E0,7.232752E0,1.9825057E0,2.235757E0,7.4019035E1,3.2457712E0,1.8107866E1,6.67511E1,3.9181209E0,1.484625E0,5.2339907E0,1.2332475E0,3.199875E1,8.93324E0,1.4688091E1,1.1050205E2,7.634399E1,3.2426373E1,1.5442811E1,1.3699753E2,1.2452655E0,2.4825113E0,5.9896293E0,1.2431223E0,7.028315E1,3.7358842E0,2.992303E0,1.5115563E1,6.426899E1,2.4821093E0,1.4988917E0,3.735099E0],"tree_param":{"num_deleted":"0","num_feature":"11","num_nodes":"51","size_leaf_vector":"1"}},{"base_weights":[-1.65139E-4,7.8975284E-1,-1.396969E-2,-2.944225E-3,9.6495056E-1,4.669651E-2,-1.6429003E-1,1.154924E0,8.275967E-4,-3.9859053E-1,7.9732135E-2,-4.431675E-1,-9.841513E-2,2.835373E-3,1.3190636E-2,-1.212886E-1,-1.1218251E0,-7.255722E-2,1.7279066E-1,1.1917315E-1,-7.8738064E-1,3.6987904E-1,-2.174996E-1,5.4760086E-3,-5.1429695E-3,-1.3412197E-2,-7.892627E-4,6.862737E-3,-1.1810753E-3,2.975893E-3,-1.4531509E-3,8.009072E-3,-3.1004085E-3,-1.2857214E-2,-2.7344765E-3,6.745935E-3,4.1421226E-4,-6.141824E-3,-6.997431E-4],"categories":[],"categories_nodes":[],"categories_segments":[],"categories_sizes":[],"default_left":[0,0,0,0,0,0,0,0,0,0,0,0,0,0,0,0,0,0,0,0,0,0,0,0,0,0,0,0,0,0,0,0,0,0,0,0,0,0,0],"id":24,"left_children":[1,3,5,-1,7,9,11,13,-1,15,17,19,21,-1,-1,23,25,27,29,31,33,35,37,-1,-1,-1,-1,-1,-1,-1,-1,-1,-1,-1,-1,-1,-1,-1,-1],"loss_changes":[6.7441144E0,2.3018427E0,5.550771E0,0E0,1.4762306E0,6.413739E0,3.1712542E0,7.187052E-1,0E0,5.9066825E0,5.7480364E0,6.5110383E0,8.046368E0,0E0,0E0,6.30176E0,1.7770958E0,5.4112577E0,1.0027717E1,4.1857967E0,4.9490232E0,2.9076066E0,6.658448E0,0E0,0E0,0E0,0E0,0E0,0E0,0E0,0E0,0E0,0E0,0E0,0E0,0E0,0E0,0E0,0E0],"parents":[2147483647,0,0,1,1,2,2,4,4,5,5,6,6,7,7,9,9,10,10,11,11,12,12,15,15,16,16,17,17,18,18,19,19,20,20,21,21,22,22],"right_children":[2,4,6,-1,8,10,12,14,-1,16,18,20,22,-1,-1,24,26,28,30,32,34,36,38,-1,-1,-1,-1,-1,-1,-1,-1,-1,-1,-1,-1,-1,-1,-1,-1],"split_conditions":[-8.92E5,-2.3390563E-2,2.291697E-1,-2.944225E-3,4.6133858E1,3.9316486E1,6.449076E1,-1.05391545E-2,8.275967E-4,4.095854E1,-3.0990106E-3,9.837337E-1,1.0222564E2,2.835373E-3,1.3190636E-2,-1.5202988E-3,4.1672535E1,3.1641508E1,1.3225127E-2,-9.912304E-3,1.2833557E0,5.670075E-1,1.2548043E2,5.4760086E-3,-5.1429695E-3,-1.3412197E-2,-7.892627E-4,6.862737E-3,-1.1810753E-3,2.975893E-3,-1.4531509E-3,8.009072E-3,-3.1004085E-3,-1.2857214E-2,-2.7344765E-3,6.745935E-3,4.1421226E-4,-6.141824E-3,-6.997431E-4],"split_indices":[6,0,3,0,2,4,5,0,0,5,0,7,5,0,0,0,5,2,0,10,7,3,5,0,0,0,0,0,0,0,0,0,0,0,0,0,0,0,0],"split_type":[0,0,0,0,0,0,0,0,0,0,0,0,0,0,0,0,0,0,0,0,0,0,0,0,0,0,0,0,0,0,0,0,0,0,0,0,0,0,0],"sum_hessian":[6.164612E2,9.62275E0,6.0683844E2,1.2439995E0,8.378751E0,4.3284174E2,1.7399667E2,6.63977E0,1.738981E0,2.9130219E1,4.0371152E2,3.2152702E1,1.4184398E2,1.4847772E0,5.1549926E0,2.1900753E1,7.229464E0,1.5320816E2,2.5050336E2,1.2456428E1,1.9696276E1,2.8330313E1,1.1351366E2,7.9598875E0,1.3940866E1,5.736605E0,1.492859E0,7.879296E0,1.4532887E2,1.7996452E2,7.053883E1,4.4779587E0,7.978469E0,9.237399E0,1.0458876E1,1.4149667E1,1.4180647E1,2.9914068E1,8.3599594E1],"tree_param":{"num_deleted":"0","num_feature":"11","num_nodes":"39","size_leaf_vector":"1"}},{"base_weights":[-1.6804747E-4,7.838669E-1,-1.3858145E-2,-2.9275983E-3,9.5809245E-1,-3.4740237E-3,-1.0152943E0,1.1469153E0,8.223768E-4,5.6639392E-2,-1.5245701E-1,-2.33493E-3,-1.1638179E0,2.8189062E-3,1.3099713E-2,-9.2453234E-2,1.472449E-1,-2.1611719E-1,7.7497154E-1,-1.3967075E-2,-2.587303E-3,2.5606633E-3,-2.0933677E-3,3.5148168E-3,9.761257E-5,-1.796769E-3,-1.03528965E-2,-1.3884199E-3,1.1928764E-2],"categories":[],"categories_nodes":[],"categories_segments":[],"categories_sizes":[],"default_left":[0,0,0,0,0,0,0,0,0,0,0,0,0,0,0,0,0,0,0,0,0,0,0,0,0,0,0,0,0],"id":25,"left_children":[1,3,5,-1,7,9,11,13,-1,15,17,-1,19,-1,-1,21,23,25,27,-1,-1,-1,-1,-1,-1,-1,-1,-1,-1],"loss_changes":[6.6380334E0,2.2712927E0,6.317157E0,0E0,1.4551525E0,5.4052677E0,4.521761E-1,7.069521E-1,0E0,5.823297E0,1.0411409E1,0E0,6.900611E-1,0E0,0E0,6.70098E0,7.518753E0,4.68399E0,4.5049624E0,0E0,0E0,0E0,0E0,0E0,0E0,0E0,0E0,0E0,0E0],"parents":[2147483647,0,0,1,1,2,2,4,4,5,5,6,6,7,7,9,9,10,10,12,12,15,15,16,16,17,17,18,18],"right_children":[2,4,6,-1,8,10,12,14,-1,16,18,-1,20,-1,-1,22,24,26,28,-1,-1,-1,-1,-1,-1,-1,-1,-1,-1],"split_conditions":[-8.92E5,-2.3390563E-2,2.9492581E-2,-2.9275983E-3,4.6133858E1,2.291697E-1,8.8028E8,-1.05391545E-2,8.223768E-4,-3.0990106E-3,1.4703426E-2,-2.33493E-3,3.3152802E0,2.8189062E-3,1.3099713E-2,-1.1974631E-2,1.6829805E-3,1.239773E-2,1.9344836E-2,-1.3967075E-2,-2.587303E-3,2.5606633E-3,-2.0933677E-3,3.5148168E-3,9.761257E-5,-1.796769E-3,-1.03528965E-2,-1.3884199E-3,1.1928764E-2],"split_indices":[6,0,8,0,2,3,6,0,0,0,8,0,7,0,0,8,8,8,0,0,0,0,0,0,0,0,0,0,0],"split_type":[0,0,0,0,0,0,0,0,0,0,0,0,0,0,0,0,0,0,0,0,0,0,0,0,0,0,0,0,0],"sum_hessian":[6.164278E2,9.613312E0,6.0681445E2,1.2442319E0,8.36908E0,6.0158E2,5.234452E0,6.6302114E0,1.7388685E0,4.2907257E2,1.7250745E2,1.2462915E0,3.9881604E0,1.48436E0,5.1458516E0,1.6218103E2,2.6689154E2,1.6214456E2,1.0362888E1,2.739962E0,1.2481982E0,4.0431858E1,1.2174917E2,1.0675167E2,1.601399E2,1.5640628E2,5.738278E0,3.4615164E0,6.901372E0],"tree_param":{"num_deleted":"0","num_feature":"11","num_nodes":"29","size_leaf_vector":"1"}},{"base_weights":[-1.702398E-4,7.780543E-1,-1.3746839E-2,1.0352881E0,-4.7367155E-3,-3.4350208E-3,-1.0084841E0,1.2491384E-2,8.1718934E-4,5.6086678E-2,-1.50933E-1,-2.3219474E-3,-1.1559526E0,-3.9557076E-1,8.9893945E-2,-2.1400602E-1,7.687665E-1,-1.3872394E-2,-2.5728191E-3,4.7763777E-5,-8.906483E-3,-7.090737E-4,1.8965066E-3,-1.7787311E-3,-1.0261204E-2,-1.3775168E-3,1.1838832E-2],"categories":[],"categories_nodes":[],"categories_segments":[],"categories_sizes":[],"default_left":[0,0,0,0,0,0,0,0,0,0,0,0,0,0,0,0,0,0,0,0,0,0,0,0,0,0,0],"id":26,"left_children":[1,3,5,7,-1,9,11,-1,-1,13,15,-1,17,19,21,23,25,-1,-1,-1,-1,-1,-1,-1,-1,-1,-1],"loss_changes":[6.5338693E0,3.904571E0,6.230987E0,1.7556057E0,0E0,5.2985287E0,4.4508266E-1,0E0,0E0,6.602001E0,1.0229929E1,0E0,6.794772E-1,5.9766726E0,6.444436E0,4.6053457E0,4.435655E0,0E0,0E0,0E0,0E0,0E0,0E0,0E0,0E0,0E0,0E0],"parents":[2147483647,0,0,1,1,2,2,3,3,5,5,6,6,9,9,10,10,12,12,13,13,14,14,15,15,16,16],"right_children":[2,4,6,8,-1,10,12,-1,-1,14,16,-1,18,20,22,24,26,-1,-1,-1,-1,-1,-1,-1,-1,-1,-1],"split_conditions":[-8.92E5,6.0322E7,2.9492581E-2,4.6133858E1,-4.7367155E-3,2.291697E-1,4.9490585E1,1.2491384E-2,8.1718934E-4,3.9316486E1,1.4703426E-2,-2.3219474E-3,3.3152802E0,1.6829805E-3,-3.0990106E-3,1.239773E-2,1.9344836E-2,-1.3872394E-2,-2.5728191E-3,4.7763777E-5,-8.906483E-3,-7.090737E-4,1.8965066E-3,-1.7787311E-3,-1.0261204E-2,-1.3775168E-3,1.1838832E-2],"split_indices":[6,1,8,2,0,3,4,0,0,4,8,0,7,8,0,8,0,0,0,0,0,0,0,0,0,0,0],"split_type":[0,0,0,0,0,0,0,0,0,0,0,0,0,0,0,0,0,0,0,0,0,0,0,0,0,0,0],"sum_hessian":[6.1639496E2,9.60351E0,6.0679144E2,8.109825E0,1.4936844E0,6.015589E2,5.232531E0,6.3710694E0,1.738756E0,4.29042E2,1.7251692E2,1.246318E0,3.9862127E0,2.913286E1,3.9990912E2,1.6216309E2,1.0353841E1,2.7379112E0,1.2483015E0,1.6655031E1,1.2477828E1,1.5321912E2,2.4669002E2,1.564225E2,5.7405825E0,3.4619377E0,6.8919034E0],"tree_param":{"num_deleted":"0","num_feature":"11","num_nodes":"27","size_leaf_vector":"1"}},{"base_weights":[-1.9970887E-4,7.718808E-1,-1.3655789E-2,1.0276784E0,-4.7075497E-3,-3.4158938E-3,-1.0017627E0,1.2402333E0,8.1203453E-4,4.9169734E-1,-2.0434706E-2,-2.3090409E-3,-1.1482006E0,4.9593714E-3,1.4190868E-2,9.226961E-1,-1.476903E-1,-5.481769E-1,-2.4901049E-3,-1.3436115E-2,-4.154697E-3,3.4501466E-3,1.3787888E-2,-5.078489E-3,6.463166E-3,-7.695127E-3,1.891008E-3,3.657037E-3,-2.4033309E-4],"categories":[],"categories_nodes":[],"categories_segments":[],"categories_sizes":[],"default_left":[0,0,0,0,0,0,0,0,0,0,0,0,0,0,0,0,0,0,0,0,0,0,0,0,0,0,0,0,0],"id":27,"left_children":[1,3,5,7,-1,9,11,13,-1,15,17,-1,19,-1,-1,21,23,25,27,-1,-1,-1,-1,-1,-1,-1,-1,-1,-1],"loss_changes":[6.4243994E0,3.850791E0,6.1460333E0,1.7297125E0,0E0,5.087166E0,4.3817663E-1,2.759695E-1,0E0,5.665134E0,5.524203E0,0E0,1.5539932E-1,0E0,0E0,2.718277E0,2.8849387E0,3.2758527E0,4.4927206E0,0E0,0E0,0E0,0E0,0E0,0E0,0E0,0E0,0E0,0E0],"parents":[2147483647,0,0,1,1,2,2,3,3,5,5,6,6,7,7,9,9,10,10,12,12,15,15,16,16,17,17,18,18],"right_children":[2,4,6,8,-1,10,12,14,-1,16,18,-1,20,-1,-1,22,24,26,28,-1,-1,-1,-1,-1,-1,-1,-1,-1,-1],"split_conditions":[-8.92E5,6.0322E7,2.9492581E-2,4.6133858E1,-4.7075497E-3,-2.0822339E-2,8.8028E8,-7.5E-1,8.1203453E-4,2.049688E9,-2.6030894E-2,-2.3090409E-3,1.0394038E2,4.9593714E-3,1.4190868E-2,-3.670878E-2,3.039036E-2,3.3604104E-2,-4.4331975E-2,-1.3436115E-2,-4.154697E-3,3.4501466E-3,1.3787888E-2,-5.078489E-3,6.463166E-3,-7.695127E-3,1.891008E-3,3.657037E-3,-2.4033309E-4],"split_indices":[6,1,8,2,0,8,6,9,0,6,0,0,5,0,0,0,10,10,10,0,0,0,0,0,0,0,0,0,0],"split_type":[0,0,0,0,0,0,0,0,0,0,0,0,0,0,0,0,0,0,0,0,0,0,0,0,0,0,0,0,0],"sum_hessian":[6.163597E2,9.5926285E0,6.067671E2,8.098526E0,1.4941028E0,6.0153674E2,5.230355E0,6.359882E0,1.7386435E0,1.9062977E1,5.8247375E2,1.246341E0,3.9840138E0,1.9631468E0,4.396735E0,1.1122454E1,7.940523E0,1.818264E1,5.642911E2,2.4870439E0,1.4969698E0,5.6820707E0,5.440383E0,5.710609E0,2.2299142E0,1.3950793E1,4.231846E0,3.0308844E1,5.3398224E2],"tree_param":{"num_deleted":"0","num_feature":"11","num_nodes":"29","size_leaf_vector":"1"}},{"base_weights":[-1.7869052E-4,7.6636887E-1,-1.3525233E-2,1.0208267E0,-4.678596E-3,-3.354642E-3,-9.952798E-1,1.1318744E0,2.6844824E-3,5.5528887E-2,-1.4925201E-1,-2.2962093E-3,-1.1407403E0,1.3611735E-2,5.754404E-1,-9.077525E-2,1.4447117E-1,-2.1172969E-1,7.626105E-1,-1.3695505E-2,-2.5351825E-3,-1.2876232E-3,1.0491118E-2,-2.0364309E-3,2.8099562E-3,3.464735E-3,8.549271E-5,-3.8946422E-3,-4.721883E-4,-1.3670011E-3,1.1750082E-2],"categories":[],"categories_nodes":[],"categories_segments":[],"categories_sizes":[],"default_left":[0,0,0,0,0,0,0,0,0,0,0,0,0,0,0,0,0,0,0,0,0,0,0,0,0,0,0,0,0,0,0],"id":28,"left_children":[1,3,5,7,-1,9,11,13,-1,15,17,-1,19,-1,21,23,25,27,29,-1,-1,-1,-1,-1,-1,-1,-1,-1,-1,-1,-1],"loss_changes":[6.3262653E0,3.8010159E0,6.0651803E0,4.554205E-1,0E0,5.184628E0,4.3172026E-1,1.8742085E-1,0E0,5.608642E0,1.0047436E1,0E0,6.641426E-1,0E0,1.4535073E0,6.9049172E0,7.3503294E0,4.7529263E0,4.367937E0,0E0,0E0,0E0,0E0,0E0,0E0,0E0,0E0,0E0,0E0,0E0,0E0],"parents":[2147483647,0,0,1,1,2,2,3,3,5,5,6,6,7,7,9,9,10,10,12,12,14,14,15,15,16,16,17,17,18,18],"right_children":[2,4,6,8,-1,10,12,14,-1,16,18,-1,20,-1,22,24,26,28,30,-1,-1,-1,-1,-1,-1,-1,-1,-1,-1,-1,-1],"split_conditions":[-8.92E5,6.0322E7,2.9492581E-2,6.2378184E-3,-4.678596E-3,2.291697E-1,8.8028E8,-1.0280616E-1,2.6844824E-3,-3.0990106E-3,1.4703426E-2,-2.2962093E-3,3.3152802E0,1.3611735E-2,-1.8919338E-2,1.8999996E0,1.6829805E-3,-1.2000084E-1,1.9344836E-2,-1.3695505E-2,-2.5351825E-3,-1.2876232E-3,1.0491118E-2,-2.0364309E-3,2.8099562E-3,3.464735E-3,8.549271E-5,-3.8946422E-3,-4.721883E-4,-1.3670011E-3,1.1750082E-2],"split_indices":[6,1,8,0,0,3,6,3,0,0,8,0,7,0,3,9,8,9,0,0,0,0,0,0,0,0,0,0,0,0,0],"split_type":[0,0,0,0,0,0,0,0,0,0,0,0,0,0,0,0,0,0,0,0,0,0,0,0,0,0,0,0,0,0,0],"sum_hessian":[6.1634424E2,9.582124E0,6.067621E2,8.087622E0,1.4945023E0,6.015339E2,5.2282367E0,6.607926E0,1.4796959E0,4.290077E2,1.7252618E2,1.2463605E0,3.9818764E0,3.6553578E0,2.9525678E0,1.62192E2,2.6681567E2,1.6218185E2,1.0344335E1,2.7333255E0,1.2485508E0,1.4801718E0,1.472396E0,1.2476591E2,3.7426086E1,1.0669711E2,1.6011858E2,7.7300446E1,8.488141E1,3.4624143E0,6.881921E0],"tree_param":{"num_deleted":"0","num_feature":"11","num_nodes":"31","size_leaf_vector":"1"}},{"base_weights":[-1.5606737E-4,7.613874E-1,-1.34037845E-2,1.0145733E0,-4.649852E-3,-3.3037618E-3,-9.887255E-1,1.0126898E-3,1.1453794E0,5.498797E-2,-1.4771844E-1,-2.2834528E-3,-1.1332012E0,1.29145365E-2,3.9580474E-3,-8.985936E-2,1.4306012E-1,-2.0961748E-1,7.565606E-1,-1.3260607E-2,-4.103683E-3,-2.0159832E-3,2.783272E-3,3.4315826E-3,8.464396E-5,-4.1472404E-3,-6.9273944E-4,-1.3562697E-3,1.1662717E-2],"categories":[],"categories_nodes":[],"categories_segments":[],"categories_sizes":[],"default_left":[0,0,0,0,0,0,0,0,0,0,0,0,0,0,0,0,0,0,0,0,0,0,0,0,0,0,0,0,0],"id":29,"left_children":[1,3,5,7,-1,9,11,-1,13,15,17,-1,19,-1,-1,21,23,25,27,-1,-1,-1,-1,-1,-1,-1,-1,-1,-1],"loss_changes":[6.238035E0,3.754458E0,5.9833856E0,9.684458E-1,0E0,5.080152E0,4.2515993E-1,0E0,3.476143E-1,5.4980617E0,9.87193E0,0E0,1.4995384E-1,0E0,0E0,6.770195E0,7.208986E0,4.6690035E0,4.301383E0,0E0,0E0,0E0,0E0,0E0,0E0,0E0,0E0,0E0,0E0],"parents":[2147483647,0,0,1,1,2,2,3,3,5,5,6,6,8,8,9,9,10,10,12,12,15,15,16,16,17,17,18,18],"right_children":[2,4,6,8,-1,10,12,-1,14,16,18,-1,20,-1,-1,22,24,26,28,-1,-1,-1,-1,-1,-1,-1,-1,-1,-1],"split_conditions":[-8.92E5,6.0322E7,2.9492581E-2,-2.9784964E-2,-4.649852E-3,2.291697E-1,8.8028E8,1.0126898E-3,4.13991E1,-3.0990106E-3,1.4703426E-2,-2.2834528E-3,1.0394038E2,1.29145365E-2,3.9580474E-3,1.8999996E0,1.6829805E-3,-2.5999928E-1,1.9344836E-2,-1.3260607E-2,-4.103683E-3,-2.0159832E-3,2.783272E-3,3.4315826E-3,8.464396E-5,-4.1472404E-3,-6.9273944E-4,-1.3562697E-3,1.1662717E-2],"split_indices":[6,1,8,10,0,3,6,0,5,0,8,0,5,0,0,9,8,9,0,0,0,0,0,0,0,0,0,0,0],"split_type":[0,0,0,0,0,0,0,0,0,0,0,0,0,0,0,0,0,0,0,0,0,0,0,0,0,0,0,0,0],"sum_hessian":[6.163067E2,9.572278E0,6.067344E2,8.0773945E0,1.4948832E0,6.015088E2,5.2255855E0,1.2342054E0,6.8431892E0,4.289757E2,1.725331E2,1.2463768E0,3.9792087E0,5.122099E0,1.7210906E0,1.621978E2,2.6677792E2,1.621986E2,1.0334504E1,2.482357E0,1.4968519E0,1.24781105E2,3.741669E1,1.0666047E2,1.6011746E2,6.510099E1,9.70976E1,3.4628227E0,6.871681E0],"tree_param":{"num_deleted":"0","num_feature":"11","num_nodes":"29","size_leaf_vector":"1"}},{"base_weights":[-1.4874553E-4,9.838666E-3,-9.824008E-1,6.5277827E-1,-4.1576154E-3,-2.27077E-3,-1.1259416E0,8.454544E-1,-5.0801323E-3,5.530277E-3,-1.0074915E0,-1.3524202E-2,-2.4980728E-3,1.1302881E0,2.7570665E-1,6.982809E-2,-1.0329782E-1,-2.4390493E-3,-1.16547765E-2,1.3878499E-2,5.012563E-3,-5.2293586E-3,7.378457E-3,-9.26456E-4,1.9948147E-3,5.241209E-3,-1.3832771E-3],"categories":[],"categories_nodes":[],"categories_segments":[],"categories_sizes":[],"default_left":[0,0,0,0,0,0,0,0,0,0,0,0,0,0,0,0,0,0,0,0,0,0,0,0,0,0,0],"id":30,"left_children":[1,3,5,7,9,-1,11,13,-1,15,17,-1,-1,19,21,23,25,-1,-1,-1,-1,-1,-1,-1,-1,-1,-1],"loss_changes":[6.065145E0,5.510348E0,4.19024E-1,3.3473635E0,5.83766E0,0E0,6.4964724E-1,1.5650635E0,0E0,4.1724477E0,4.0860176E-1,0E0,0E0,5.011759E-1,2.2966008E0,7.9132614E0,4.9402065E0,0E0,0E0,0E0,0E0,0E0,0E0,0E0,0E0,0E0,0E0],"parents":[2147483647,0,0,1,1,2,2,3,3,4,4,6,6,7,7,9,9,10,10,13,13,14,14,15,15,16,16],"right_children":[2,4,6,8,10,-1,12,14,-1,16,18,-1,-1,20,22,24,26,-1,-1,-1,-1,-1,-1,-1,-1,-1,-1],"split_conditions":[2.9492581E-2,3.1641508E1,4.9490585E1,3.006639E-3,3.4265363E2,-2.27077E-3,3.3152802E0,2.0999994E0,-5.0801323E-3,5.959836E1,-1.7582636E-2,-1.3524202E-2,-2.4980728E-3,1.2482012E2,-1.3739067E-2,-3.0990106E-3,-4.4331975E-2,-2.4390493E-3,-1.16547765E-2,1.3878499E-2,5.012563E-3,-5.2293586E-3,7.378457E-3,-9.26456E-4,1.9948147E-3,5.241209E-3,-1.3832771E-3],"split_indices":[8,2,4,0,5,0,7,9,0,2,0,0,0,4,10,0,10,0,0,0,0,0,0,0,0,0,0],"split_type":[0,0,0,0,0,0,0,0,0,0,0,0,0,0,0,0,0,0,0,0,0,0,0,0,0,0,0],"sum_hessian":[6.162664E2,6.110434E2,5.2230268E0,1.2046158E1,5.9899725E2,1.2463896E0,3.976637E0,1.0564283E1,1.481875E0,5.942538E2,4.7434497E0,2.7278678E0,1.248769E0,6.3872623E0,4.177021E0,3.7377716E2,2.2047665E2,1.2492673E0,3.494182E0,3.6758363E0,2.7114258E0,1.4828641E0,2.694157E0,1.6601843E2,2.0775871E2,1.0920369E1,2.0955629E2],"tree_param":{"num_deleted":"0","num_feature":"11","num_nodes":"27","size_leaf_vector":"1"}},{"base_weights":[-1.6570152E-4,7.545879E-1,-1.3279725E-2,-2.8119697E-3,9.2330706E-1,9.149036E-1,-2.1962395E-2,1.1084714E0,7.3279516E-4,1.1316043E-2,7.3005084E-4,-3.7413257E-1,-1.0014026E-3,2.8051168E-3,1.396226E-2,-7.4045736E-1,9.842987E-2,6.481737E-1,-1.4525009E-2,8.118595E-4,-1.0341868E-2,5.0493297E-3,-8.731222E-3,9.738269E-3,-3.9506336E-3,-2.3377523E-5,-6.2371143E-3],"categories":[],"categories_nodes":[],"categories_segments":[],"categories_sizes":[],"default_left":[0,0,0,0,0,0,0,0,0,0,0,0,0,0,0,0,0,0,0,0,0,0,0,0,0,0,0],"id":31,"left_children":[1,3,5,-1,7,9,11,13,-1,-1,-1,15,17,-1,-1,19,21,23,25,-1,-1,-1,-1,-1,-1,-1,-1],"loss_changes":[6.119411E0,2.104868E0,4.9174924E0,0E0,1.3846402E0,9.4914675E-1,4.451091E0,1.413477E0,0E0,0E0,0E0,5.936695E0,5.014926E0,0E0,0E0,4.7173986E0,6.631274E0,4.3450065E0,4.1524396E0,0E0,0E0,0E0,0E0,0E0,0E0,0E0,0E0],"parents":[2147483647,0,0,1,1,2,2,4,4,5,5,6,6,7,7,11,11,12,12,15,15,16,16,17,17,18,18],"right_children":[2,4,6,-1,8,10,12,14,-1,-1,-1,16,18,-1,-1,20,22,24,26,-1,-1,-1,-1,-1,-1,-1,-1],"split_conditions":[-8.92E5,-2.3390563E-2,2.8695461E1,-2.8119697E-3,4.6133858E1,9.900627E-3,3.9316486E1,-5.5999947E-1,7.3279516E-4,1.1316043E-2,7.3005084E-4,5.000019E-2,4.269675E1,2.8051168E-3,1.396226E-2,3.4808575E1,4.081804E1,5.199995E-1,3.3463638E2,8.118595E-4,-1.0341868E-2,5.0493297E-3,-8.731222E-3,9.738269E-3,-3.9506336E-3,-2.3377523E-5,-6.2371143E-3],"split_indices":[6,0,2,0,2,10,4,9,0,0,0,9,5,0,0,4,5,9,5,0,0,0,0,0,0,0,0],"split_type":[0,0,0,0,0,0,0,0,0,0,0,0,0,0,0,0,0,0,0,0,0,0,0,0,0,0,0],"sum_hessian":[6.162438E2,9.558888E0,6.066849E2,1.2455661E0,8.313322E0,4.655334E0,6.0202954E2,6.576664E0,1.7366587E0,3.428694E0,1.22664E0,3.2873066E1,5.691565E2,2.2055216E0,4.3711424E0,1.8198729E1,1.46743355E1,1.0657027E1,5.5849945E2,4.9831285E0,1.32156E1,1.068426E1,3.9900753E0,8.172471E0,2.4845567E0,5.4852954E2,9.96993E0],"tree_param":{"num_deleted":"0","num_feature":"11","num_nodes":"27","size_leaf_vector":"1"}},{"base_weights":[-1.4258E-4,9.77532E-3,-9.7598785E-1,7.113102E-2,-1.456526E-1,-4.684353E-1,-1.2999002E-2,-7.695004E-2,1.6163217E-1,-2.068881E-1,7.498704E-1,1.8952618E-3,-1.0624215E-2,6.755797E-1,-1.2312548E-1,3.6254415E-1,2.690505E-2,-4.0996724E-1,-6.792232E-2,-1.3591461E-1,1.1573801E0,8.748702E-3,-6.10968E-5,-2.2155396E-3,2.407303E-3,2.3887805E-3,6.3794875E-3,-4.3953336E-3,1.0714008E-3,-3.325585E-3,-1.5293254E-2,2.497569E-3,-2.6060161E-3,6.696721E-3,-7.58797E-3,1.3459836E-2,7.475388E-4],"categories":[],"categories_nodes":[],"categories_segments":[],"categories_sizes":[],"default_left":[0,0,0,0,0,0,0,0,0,0,0,0,0,0,0,0,0,0,0,0,0,0,0,0,0,0,0,0,0,0,0,0,0,0,0,0,0],"id":32,"left_children":[1,3,5,7,9,11,-1,13,15,17,19,-1,-1,21,23,25,27,29,31,33,35,-1,-1,-1,-1,-1,-1,-1,-1,-1,-1,-1,-1,-1,-1,-1,-1],"loss_changes":[5.983265E0,5.846693E0,4.1365147E-1,5.9019146E0,9.671839E0,1.7593484E0,0E0,5.899327E0,7.382189E0,4.578371E0,4.2447042E0,0E0,0E0,1.3409014E0,5.7315383E0,3.5782566E0,6.205233E0,5.220063E0,6.0701265E0,2.7475545E0,1.5044222E0,0E0,0E0,0E0,0E0,0E0,0E0,0E0,0E0,0E0,0E0,0E0,0E0,0E0,0E0,0E0,0E0],"parents":[2147483647,0,0,1,1,2,2,3,3,4,4,5,5,7,7,8,8,9,9,10,10,13,13,14,14,15,15,16,16,17,17,18,18,19,19,20,20],"right_children":[2,4,6,8,10,12,-1,14,16,18,20,-1,-1,22,24,26,28,30,32,34,36,-1,-1,-1,-1,-1,-1,-1,-1,-1,-1,-1,-1,-1,-1,-1,-1],"split_conditions":[2.9492581E-2,2.291697E-1,4.35592E-4,-3.0990106E-3,1.4703426E-2,5.026461E1,-1.2999002E-2,3.1641508E1,1.6829805E-3,-2.5999928E-1,1.9344836E-2,1.8952618E-3,-1.0624215E-2,1.5038509E2,1.8999996E0,0E0,2.8202028E-3,4.6141863E-2,2.5E-1,1.3225127E-2,1.1995645E0,8.748702E-3,-6.10968E-5,-2.2155396E-3,2.407303E-3,2.3887805E-3,6.3794875E-3,-4.3953336E-3,1.0714008E-3,-3.325585E-3,-1.5293254E-2,2.497569E-3,-2.6060161E-3,6.696721E-3,-7.58797E-3,1.3459836E-2,7.475388E-4],"split_indices":[8,3,10,0,8,2,0,2,8,9,0,0,0,4,9,8,8,10,9,0,3,0,0,0,0,0,0,0,0,0,0,0,0,0,0,0,0],"split_type":[0,0,0,0,0,0,0,0,0,0,0,0,0,0,0,0,0,0,0,0,0,0,0,0,0,0,0,0,0,0,0,0,0,0,0,0,0],"sum_hessian":[6.1622644E2,6.1100653E2,5.219917E0,4.384638E2,1.7254271E2,2.9864678E0,2.233449E0,1.6637883E2,2.7208496E2,1.622192E2,1.0323505E1,1.7399935E0,1.2464744E0,8.830807E0,1.5754803E2,1.0853744E2,1.6354753E2,6.511401E1,9.710519E1,3.4628794E0,6.8606257E0,6.6138706E0,2.2169366E0,1.243111E2,3.3236935E1,7.6192E1,3.234544E1,2.3346558E1,1.4020097E2,6.2115536E1,2.9984756E0,3.6548977E1,6.055621E1,1.4772296E0,1.9856498E0,5.635595E0,1.2250308E0],"tree_param":{"num_deleted":"0","num_feature":"11","num_nodes":"37","size_leaf_vector":"1"}},{"base_weights":[-1.6148448E-4,7.4841475E-1,-1.3152877E-2,-2.808489E-3,9.1644615E-1,4.371542E-2,-1.5394911E-1,9.727098E-4,1.0295991E0,-3.906266E-1,7.596464E-2,2.6771447E-1,-1.9496939E-1,1.27441175E-2,1.7934237E-3,-7.933313E-1,1.1865669E-1,-6.695745E-2,1.6340306E-1,-8.903032E-2,8.7868255E-1,-1.264197E0,-1.2107299E-1,6.0582897E-3,-9.427456E-3,5.8934814E-3,-8.654272E-3,-1.698275E-3,2.6466234E-3,2.8514958E-3,-1.4660654E-3,8.483601E-3,-6.89782E-3,1.2018941E-3,1.0519316E-2,-1.3776065E-2,-2.4837893E-3,-1.663187E-3,4.578666E-3],"categories":[],"categories_nodes":[],"categories_segments":[],"categories_sizes":[],"default_left":[0,0,0,0,0,0,0,0,0,0,0,0,0,0,0,0,0,0,0,0,0,0,0,0,0,0,0,0,0,0,0,0,0,0,0,0,0,0,0],"id":33,"left_children":[1,3,5,-1,7,9,11,-1,13,15,17,19,21,-1,-1,23,25,27,29,31,33,35,37,-1,-1,-1,-1,-1,-1,-1,-1,-1,-1,-1,-1,-1,-1,-1,-1],"loss_changes":[6.011941E0,2.0812259E0,4.871957E0,0E0,7.619009E-1,6.1031294E0,3.0797858E0,0E0,1.4506407E0,6.273822E0,5.065483E0,3.5524569E0,1.24966345E1,0E0,0E0,4.1159763E0,7.0758905E0,5.306401E0,9.5239315E0,6.763727E0,6.5783453E-1,8.3791924E-1,4.0277224E0,0E0,0E0,0E0,0E0,0E0,0E0,0E0,0E0,0E0,0E0,0E0,0E0,0E0,0E0,0E0,0E0],"parents":[2147483647,0,0,1,1,2,2,4,4,5,5,6,6,8,8,9,9,10,10,11,11,12,12,15,15,16,16,17,17,18,18,19,19,20,20,21,21,22,22],"right_children":[2,4,6,-1,8,10,12,-1,14,16,18,20,22,-1,-1,24,26,28,30,32,34,36,38,-1,-1,-1,-1,-1,-1,-1,-1,-1,-1,-1,-1,-1,-1,-1,-1],"split_conditions":[-8.92E5,-2.3390563E-2,2.291697E-1,-2.808489E-3,-2.9784964E-2,3.9316486E1,9.837337E-1,9.727098E-4,4.13991E1,5.000019E-2,-3.0990106E-3,8.426076E-1,1.2833557E0,1.27441175E-2,1.7934237E-3,-1.5262692E-1,4.081804E1,1.8999996E0,1.3225127E-2,-9.912304E-3,-2.8108953E-2,1.3989588E-2,1.75E0,6.0582897E-3,-9.427456E-3,5.8934814E-3,-8.654272E-3,-1.698275E-3,2.6466234E-3,2.8514958E-3,-1.4660654E-3,8.483601E-3,-6.89782E-3,1.2018941E-3,1.0519316E-2,-1.3776065E-2,-2.4837893E-3,-1.663187E-3,4.578666E-3],"split_indices":[6,0,3,0,10,4,7,0,5,9,0,7,7,0,0,3,5,9,0,10,10,0,9,0,0,0,0,0,0,0,0,0,0,0,0,0,0,0,0],"split_type":[0,0,0,0,0,0,0,0,0,0,0,0,0,0,0,0,0,0,0,0,0,0,0,0,0,0,0,0,0,0,0,0,0,0,0,0,0,0,0],"sum_hessian":[6.1617926E2,9.545578E0,6.0663367E2,1.2454234E0,8.300155E0,4.3259564E2,1.7403801E2,1.2330536E0,7.067101E0,2.9131477E1,4.0346417E2,1.4939773E1,1.5909824E2,5.099854E0,1.9672468E0,1.5956489E1,1.3174988E1,1.5323267E2,2.502315E2,9.971617E0,4.9681563E0,9.243515E0,1.4985472E2,1.2448314E0,1.4711658E1,9.183568E0,3.9914193E0,1.1732559E2,3.5907074E1,1.7972885E2,7.050265E1,3.7336323E0,6.237984E0,1.2387195E0,3.7294366E0,7.9947944E0,1.2487211E0,1.3965317E2,1.0201562E1],"tree_param":{"num_deleted":"0","num_feature":"11","num_nodes":"39","size_leaf_vector":"1"}},{"base_weights":[-1.4505435E-4,7.429311E-1,-1.3027934E-2,-2.7926865E-3,9.1007113E-1,-3.1393375E-3,-9.6907085E-1,9.6739735E-4,1.0225399E0,5.157238E-1,-1.868244E-2,-2.227424E-3,-1.111346E0,1.266018E-2,1.7817816E-3,6.2282328E-2,1.0012237E0,-5.6947005E-1,9.675506E-4,-1.3026468E-2,-3.999019E-3,9.672723E-3,-3.5231018E-3,1.24683315E-2,-8.226966E-4,-7.826842E-3,1.8952803E-3,6.4599066E-4,-1.5321922E-3],"categories":[],"categories_nodes":[],"categories_segments":[],"categories_sizes":[],"default_left":[0,0,0,0,0,0,0,0,0,0,0,0,0,0,0,0,0,0,0,0,0,0,0,0,0,0,0,0,0],"id":34,"left_children":[1,3,5,-1,7,9,11,-1,13,15,17,-1,19,-1,-1,21,23,25,27,-1,-1,-1,-1,-1,-1,-1,-1,-1,-1],"loss_changes":[5.917525E0,2.053956E0,5.741203E0,0E0,7.507639E-1,4.8677354E0,4.1260433E-1,0E0,1.4305744E0,3.8023634E0,6.3409953E0,0E0,1.5561342E-1,0E0,0E0,4.1467056E0,2.3410425E0,3.4143753E0,5.5693808E0,0E0,0E0,0E0,0E0,0E0,0E0,0E0,0E0,0E0,0E0],"parents":[2147483647,0,0,1,1,2,2,4,4,5,5,6,6,8,8,9,9,10,10,12,12,15,15,16,16,17,17,18,18],"right_children":[2,4,6,-1,8,10,12,-1,14,16,18,-1,20,-1,-1,22,24,26,28,-1,-1,-1,-1,-1,-1,-1,-1,-1,-1],"split_conditions":[-8.92E5,-2.3390563E-2,2.9492581E-2,-2.7926865E-3,-2.9784964E-2,-2.2285886E-2,4.9490585E1,9.6739735E-4,4.13991E1,-3.670878E-2,-2.6030894E-2,-2.227424E-3,1.0394038E2,1.266018E-2,1.7817816E-3,-5.117073E-2,4.2604157E-1,3.3604104E-2,2.291697E-1,-1.3026468E-2,-3.999019E-3,9.672723E-3,-3.5231018E-3,1.24683315E-2,-8.226966E-4,-7.826842E-3,1.8952803E-3,6.4599066E-4,-1.5321922E-3],"split_indices":[6,0,8,0,10,8,4,0,5,0,0,0,5,0,0,0,3,10,3,0,0,0,0,0,0,0,0,0,0],"split_type":[0,0,0,0,0,0,0,0,0,0,0,0,0,0,0,0,0,0,0,0,0,0,0,0,0,0,0,0,0],"sum_hessian":[6.161388E2,9.53437E0,6.066044E2,1.2456033E0,8.288767E0,6.013874E2,5.2170205E0,1.2329178E0,7.055849E0,1.655528E1,5.848321E2,1.246079E0,3.9709415E0,5.089014E0,1.966835E0,9.143668E0,7.411612E0,1.9181986E1,5.656501E2,2.4745643E0,1.4963772E0,2.4539704E0,6.6896977E0,5.9191003E0,1.4925117E0,1.4950854E1,4.2311316E0,4.0081735E2,1.6483275E2],"tree_param":{"num_deleted":"0","num_feature":"11","num_nodes":"29","size_leaf_vector":"1"}},{"base_weights":[-1.3629906E-4,7.3751235E-1,-1.2911428E-2,-2.7769792E-3,9.0377414E-1,-3.089582E-3,-9.6296954E-1,1.0874554E0,6.6783157E-4,4.7807992E-1,-1.9602234E-2,-4.5926228E-1,-1.2862288E-2,2.6628368E-3,1.37534905E-2,9.047294E-1,-1.5287955E-1,-5.3455144E-1,-2.081276E-3,1.9299474E-3,-1.0506097E-2,3.3244735E-3,1.3582282E-2,-5.098043E-3,6.3659763E-3,-7.1473354E-3,8.095533E-3,-3.8371927E-3,2.2023317E-4],"categories":[],"categories_nodes":[],"categories_segments":[],"categories_sizes":[],"default_left":[0,0,0,0,0,0,0,0,0,0,0,0,0,0,0,0,0,0,0,0,0,0,0,0,0,0,0,0,0],"id":35,"left_children":[1,3,5,-1,7,9,11,13,-1,15,17,19,-1,-1,-1,21,23,25,27,-1,-1,-1,-1,-1,-1,-1,-1,-1,-1],"loss_changes":[5.8249154E0,2.0271373E0,5.66664E0,0E0,1.3536291E0,4.795477E0,4.2107534E-1,1.4168043E0,0E0,5.529198E0,5.262107E0,1.7395647E0,0E0,0E0,0E0,2.6866055E0,2.841997E0,5.2264194E0,5.207475E0,0E0,0E0,0E0,0E0,0E0,0E0,0E0,0E0,0E0,0E0],"parents":[2147483647,0,0,1,1,2,2,4,4,5,5,6,6,7,7,9,9,10,10,11,11,15,15,16,16,17,17,18,18],"right_children":[2,4,6,-1,8,10,12,14,-1,16,18,20,-1,-1,-1,22,24,26,28,-1,-1,-1,-1,-1,-1,-1,-1,-1,-1],"split_conditions":[-8.92E5,-2.3390563E-2,2.9492581E-2,-2.7769792E-3,4.6133858E1,-2.0822339E-2,4.35592E-4,-5.5999947E-1,6.6783157E-4,2.049688E9,-2.6030894E-2,5.026461E1,-1.2862288E-2,2.6628368E-3,1.37534905E-2,-3.670878E-2,3.039036E-2,4.8346524E0,3.9316486E1,1.9299474E-3,-1.0506097E-2,3.3244735E-3,1.3582282E-2,-5.098043E-3,6.3659763E-3,-7.1473354E-3,8.095533E-3,-3.8371927E-3,2.2023317E-4],"split_indices":[6,0,8,0,2,8,10,9,0,6,0,2,0,0,0,0,10,7,4,0,0,0,0,0,0,0,0,0,0],"split_type":[0,0,0,0,0,0,0,0,0,0,0,0,0,0,0,0,0,0,0,0,0,0,0,0,0,0,0,0,0],"sum_hessian":[6.1611237E2,9.522857E0,6.0658954E2,1.2457775E0,8.277079E0,6.013757E2,5.2138615E0,6.542136E0,1.7349429E0,1.9025677E1,5.8235E2,2.984342E0,2.2295194E0,2.197902E0,4.344234E0,1.1091681E1,7.933996E0,1.8191252E1,5.6415875E2,1.739408E0,1.2449341E0,5.6698365E0,5.421844E0,5.707755E0,2.2262409E0,1.6453806E1,1.7374457E0,3.262956E1,5.315292E2],"tree_param":{"num_deleted":"0","num_feature":"11","num_nodes":"29","size_leaf_vector":"1"}},{"base_weights":[-1.2110291E-4,7.323318E-1,-1.27921775E-2,9.807754E-1,-4.5877043E-3,9.024679E-1,-2.1336988E-2,1.1895436E-2,6.636208E-4,1.0771953E-2,2.4279316E-3,4.4394657E-4,-4.3964648E-1,-4.2644432E-1,2.2829508E-2,-8.657843E-1,6.0613714E-2,2.61404E-3,-6.2922835E-3,1.1918704E-2,1.3174534E-4,-1.5058791E-2,-3.431202E-3,1.1525734E-2,-1.745546E-3],"categories":[],"categories_nodes":[],"categories_segments":[],"categories_sizes":[],"default_left":[0,0,0,0,0,0,0,0,0,0,0,0,0,0,0,0,0,0,0,0,0,0,0,0,0],"id":36,"left_children":[1,3,5,7,-1,9,11,-1,-1,-1,-1,13,15,17,19,21,23,-1,-1,-1,-1,-1,-1,-1,-1],"loss_changes":[5.7365484E0,3.5603743E0,4.770955E0,1.6421461E0,0E0,3.8888788E-1,5.4936395E0,0E0,0E0,0E0,0E0,5.4958506E0,6.4140697E0,4.1615076E0,6.151976E0,4.896388E0,3.9661672E0,0E0,0E0,0E0,0E0,0E0,0E0,0E0,0E0],"parents":[2147483647,0,0,1,1,2,2,3,3,5,5,6,6,11,11,12,12,13,13,14,14,15,15,16,16],"right_children":[2,4,6,8,-1,10,12,-1,-1,-1,-1,14,16,18,20,22,24,-1,-1,-1,-1,-1,-1,-1,-1],"split_conditions":[-8.92E5,6.0322E7,2.8695461E1,4.6133858E1,-4.5877043E-3,1.5038509E2,6.332E7,1.1895436E-2,6.636208E-4,1.0771953E-2,2.4279316E-3,3.902779E1,7.6918E7,3.4219204E1,7.186E7,-1.0745728E-1,3.3789333E1,2.61404E-3,-6.2922835E-3,1.1918704E-2,1.3174534E-4,-1.5058791E-2,-3.431202E-3,1.1525734E-2,-1.745546E-3],"split_indices":[6,1,2,2,0,4,1,0,0,0,0,4,1,4,6,3,2,0,0,0,0,0,0,0,0],"split_type":[0,0,0,0,0,0,0,0,0,0,0,0,0,0,0,0,0,0,0,0,0,0,0,0,0],"sum_hessian":[6.1608887E2,9.510964E0,6.0657794E2,8.015623E0,1.4953406E0,4.6429396E0,6.01935E2,6.2807856E0,1.7348378E0,3.1703055E0,1.472634E0,5.7309357E2,2.8841438E1,2.7655657E1,5.454379E2,1.5179976E1,1.3661462E1,6.2309723E0,2.1424685E1,3.4648237E0,5.419731E2,5.977863E0,9.202113E0,1.7295525E0,1.1931909E1],"tree_param":{"num_deleted":"0","num_feature":"11","num_nodes":"25","size_leaf_vector":"1"}},{"base_weights":[-8.5796804E-5,9.613251E-3,-9.5565546E-1,6.910297E-2,-1.4101034E-1,-2.1734543E-3,-1.0970867E-2,-7.615848E-2,1.5791012E-1,-2.0169297E-1,7.4683493E-1,6.6498476E-1,-1.2154013E-1,3.559084E-1,2.5220023E-2,-1.6599703E-1,-1.0053589E0,-1.3252734E-1,1.151548E0,8.619088E-3,-6.711501E-5,-2.1779733E-3,2.346045E-3,2.3318804E-3,6.294293E-3,-4.3693194E-3,1.0476233E-3,-3.399366E-3,-1.2291828E-4,-4.0225624E-3,-1.4499379E-2,6.6755E-3,-7.5152647E-3,1.3389166E-2,7.6098845E-4],"categories":[],"categories_nodes":[],"categories_segments":[],"categories_sizes":[],"default_left":[0,0,0,0,0,0,0,0,0,0,0,0,0,0,0,0,0,0,0,0,0,0,0,0,0,0,0,0,0,0,0,0,0,0,0],"id":37,"left_children":[1,3,5,7,9,-1,-1,11,13,15,17,19,21,23,25,27,29,31,33,-1,-1,-1,-1,-1,-1,-1,-1,-1,-1,-1,-1,-1,-1,-1,-1],"loss_changes":[5.7282634E0,5.4923472E0,4.1003323E-1,5.6790314E0,9.50179E0,0E0,0E0,5.7093763E0,7.162035E0,4.5163403E0,4.180071E0,1.3034096E0,5.4859276E0,3.5269327E0,6.0930076E0,4.206764E0,1.2252159E0,2.7122386E0,1.4805441E0,0E0,0E0,0E0,0E0,0E0,0E0,0E0,0E0,0E0,0E0,0E0,0E0,0E0,0E0,0E0,0E0],"parents":[2147483647,0,0,1,1,2,2,3,3,4,4,7,7,8,8,9,9,10,10,11,11,12,12,13,13,14,14,15,15,16,16,17,17,18,18],"right_children":[2,4,6,8,10,-1,-1,12,14,16,18,20,22,24,26,28,30,32,34,-1,-1,-1,-1,-1,-1,-1,-1,-1,-1,-1,-1,-1,-1,-1,-1],"split_conditions":[2.9492581E-2,2.291697E-1,4.9490585E1,-3.0990106E-3,1.4703426E-2,-2.1734543E-3,-1.0970867E-2,3.1641508E1,1.6829805E-3,1.239773E-2,1.9344836E-2,1.5038509E2,1.8999996E0,0E0,2.8202028E-3,-1.2000084E-1,-9.899998E-1,1.3225127E-2,1.1995645E0,8.619088E-3,-6.711501E-5,-2.1779733E-3,2.346045E-3,2.3318804E-3,6.294293E-3,-4.3693194E-3,1.0476233E-3,-3.399366E-3,-1.2291828E-4,-4.0225624E-3,-1.4499379E-2,6.6755E-3,-7.5152647E-3,1.3389166E-2,7.6098845E-4],"split_indices":[8,3,4,0,8,0,0,2,8,8,0,4,9,8,8,9,9,0,3,0,0,0,0,0,0,0,0,0,0,0,0,0,0,0,0],"split_type":[0,0,0,0,0,0,0,0,0,0,0,0,0,0,0,0,0,0,0,0,0,0,0,0,0,0,0,0,0,0,0,0,0,0,0],"sum_hessian":[6.1607E2,6.108597E2,5.2102966E0,4.38294E2,1.7256569E2,1.2454525E0,3.9648442E0,1.6634564E2,2.7194836E2,1.622491E2,1.0316602E1,8.810194E0,1.5753545E2,1.0844542E2,1.6350293E2,1.5650429E2,5.7448034E0,3.4635425E0,6.8530593E0,6.5938616E0,2.2163324E0,1.24322556E2,3.32129E1,7.613745E1,3.2307972E1,2.3348986E1,1.4015395E2,7.285113E1,8.365316E1,3.2460756E0,2.4987278E0,1.4765793E0,1.9869633E0,5.627613E0,1.2254463E0],"tree_param":{"num_deleted":"0","num_feature":"11","num_nodes":"35","size_leaf_vector":"1"}},{"base_weights":[-9.725662E-5,7.25917E-1,