{"learner":{"attributes":{"scikit_learn":"{\"_estimator_type\": \"regressor\"}"},"feature_names":["Return","Volume","RSI_14","MACDh_12_26_9","BBL_20_2.0","BBU_20_2.0","OBV","ATRr_14","SPY_Return","VIX_Change","FinBERT_Score"],"feature_types":["float","int","float","float","float","float","float","float","float","float","float"],"gradient_booster":{"model":{"cats":{"enc":[],"feature_segments":[],"sorted_idx":[]},"gbtree_model_param":{"num_parallel_tree":"1","num_trees":"50"},"iteration_indptr":[0,1,2,3,4,5,6,7,8,9,10,11,12,13,14,15,16,17,18,19,20,21,22,23,24,25,26,27,28,29,30,31,32,33,34,35,36,37,38,39,40,41,42,43,44,45,46,47,48,49,50],"tree_info":[0,0,0,0,0,0,0,0,0,0,0,0,0,0,0,0,0,0,0,0,0,0,0,0,0,0,0,0,0,0,0,0,0,0,0,0,0,0,0,0,0,0,0,0,0,0,0,0,0,0],"trees":[{"base_weights":[-2.2607648E-11,1.5211073E-2,-3.1259915E-4,9.704997E-3,3.0135676E-2,-1.6434513E-4,-3.0209152E-2,1.5751142E-2,2.8298437E-3,-3.0970477E-5,3.645954E-2,3.3316706E-4,-2.25333E-3,-4.3332417E-2,6.8704854E-3,1.8315895E-2,-4.8877573E-5,1.3729201E-2,-4.672215E-3,4.45834E-4,-6.523356E-5,-7.206785E-4,1.3079315E-3,-1.0074004E-2,-1.7871377E-3,-4.8395674E-4,-1.7074011E-4,1.2630361E-4,7.4040616E-4,2.1059804E-4,-2.4235835E-5,1.7867706E-4,5.1237694E-5,6.784928E-5,-1.1248902E-4,-3.530565E-5,3.432715E-5,-1.2256512E-4,-4.440382E-6,1.0754555E-6,4.1495485E-5,1.9655513E-4,-1.3370442E-4,-8.459767E-5,-1.1910741E-5,1.8932207E-5,-7.8261155E-6],"categories":[],"categories_nodes":[],"categories_segments":[],"categories_sizes":[],"default_left":[0,0,0,0,0,0,0,0,0,0,0,0,0,0,0,0,0,0,0,0,0,0,0,0,0,0,0,0,0,0,0,0,0,0,0,0,0,0,0,0,0,0,0,0,0,0,0],"id":0,"left_children":[1,3,5,7,9,11,13,15,17,-1,19,21,23,25,27,29,-1,31,33,-1,35,37,39,41,43,-1,-1,-1,45,-1,-1,-1,-1,-1,-1,-1,-1,-1,-1,-1,-1,-1,-1,-1,-1,-1,-1],"loss_changes":[1.1806585E-2,3.8163345E-3,1.0778783E-2,1.5350175E-3,2.8449856E-3,2.5179242E-3,6.1369864E-3,1.1481973E-3,1.6177305E-3,0E0,3.2668551E-3,2.0112733E-3,1.681004E-3,3.7026964E-4,1.3188238E-4,1.0753702E-3,0E0,1.9335898E-4,9.805236E-4,0E0,4.848408E-5,2.997548E-3,3.4685787E-3,2.810843E-3,1.7439182E-3,0E0,0E0,0E0,6.748928E-6,0E0,0E0,0E0,0E0,0E0,0E0,0E0,0E0,0E0,0E0,0E0,0E0,0E0,0E0,0E0,0E0,0E0,0E0],"parents":[2147483647,0,0,1,1,2,2,3,3,4,4,5,5,6,6,7,7,8,8,10,10,11,11,12,12,13,13,14,14,15,15,17,17,18,18,20,20,21,21,22,22,23,23,24,24,28,28],"right_children":[2,4,6,8,10,12,14,16,18,-1,20,22,24,26,28,30,-1,32,34,-1,36,38,40,42,44,-1,-1,-1,46,-1,-1,-1,-1,-1,-1,-1,-1,-1,-1,-1,-1,-1,-1,-1,-1,-1,-1],"split_conditions":[3.1641508E1,3.4500008E0,4.2032834E-2,1.2482012E2,1.3078377E0,4.2604157E-1,4.740757E1,2.0999994E0,-1.9202586E0,-3.0970477E-5,1.4598505E2,-7.439352E-2,4.6323143E1,2.4650943E-2,4.9063015E1,4.6726126E-2,-4.8877573E-5,-2.602033E-3,2.8695461E1,4.45834E-4,5.4284E7,-4.790025E-2,2.0497844E0,-3.8400002E0,2.077074E0,-4.8395674E-4,-1.7074011E-4,1.2630361E-4,4.66077E7,2.1059804E-4,-2.4235835E-5,1.7867706E-4,5.1237694E-5,6.784928E-5,-1.1248902E-4,-3.530565E-5,3.432715E-5,-1.2256512E-4,-4.440382E-6,1.0754555E-6,4.1495485E-5,1.9655513E-4,-1.3370442E-4,-8.459767E-5,-1.1910741E-5,1.8932207E-5,-7.8261155E-6],"split_indices":[2,9,8,4,7,3,2,9,3,0,4,3,2,10,2,10,0,8,2,0,1,10,7,9,7,0,0,0,1,0,0,0,0,0,0,0,0,0,0,0,0,0,0,0,0,0,0],"split_type":[0,0,0,0,0,0,0,0,0,0,0,0,0,0,0,0,0,0,0,0,0,0,0,0,0,0,0,0,0,0,0,0,0,0,0,0,0,0,0,0,0,0,0,0,0,0,0],"sum_hessian":[2.481E3,4.9E1,2.432E3,3.7E1,1.2E1,2.421E3,1.1E1,1.9E1,1.8E1,2E0,1E1,1.956E3,4.65E2,8E0,3E0,1.7E1,2E0,7E0,1.1E1,8E0,2E0,9.4E2,1.016E3,2.5E1,4.4E2,6E0,2E0,1E0,2E0,1.5E1,2E0,4E0,3E0,4E0,7E0,1E0,1E0,2.1E1,9.19E2,7.15E2,3.01E2,2E0,2.3E1,3.5E1,4.05E2,1E0,1E0],"tree_param":{"num_deleted":"0","num_feature":"11","num_nodes":"47","size_leaf_vector":"1"}},{"base_weights":[4.085303E-8,1.5073695E-2,-3.0973423E-4,4.4702677E-4,1.2231363E-2,-1.6275037E-4,-2.9950166E-2,1.5232326E-2,-7.0930487E-3,-9.649262E-3,-6.3782245E-5,-4.297184E-2,6.836133E-3,1.9342013E-2,5.9249313E-3,8.7369976E-5,-1.5172466E-4,9.066291E-3,-1.3645858E-2,5.8448026E-3,-2.2570329E-4,-4.7980854E-4,-1.6960184E-4,1.256721E-4,7.3670415E-4,1.5461029E-4,3.876266E-4,1.1379856E-4,-6.169906E-5,1.1505792E-4,-3.4585605E-6,-3.9320404E-4,-7.182299E-5,2.2241504E-5,4.047375E-4,-1.2197233E-6,-6.492757E-5,1.8837547E-5,-7.7869845E-6],"categories":[],"categories_nodes":[],"categories_segments":[],"categories_sizes":[],"default_left":[0,0,0,0,0,0,0,0,0,0,0,0,0,0,0,0,0,0,0,0,0,0,0,0,0,0,0,0,0,0,0,0,0,0,0,0,0,0,0],"id":1,"left_children":[1,3,5,-1,7,9,11,13,15,17,19,21,23,25,27,-1,-1,29,31,33,35,-1,-1,-1,37,-1,-1,-1,-1,-1,-1,-1,-1,-1,-1,-1,-1,-1,-1],"loss_changes":[1.1594226E-2,3.6639962E-3,1.0594893E-2,0E0,2.8336612E-3,2.2733086E-3,6.0419897E-3,1.4536688E-3,1.0278446E-3,1.9936797E-3,2.2955441E-3,3.5887025E-4,1.3056687E-4,1.5110848E-3,9.938828E-4,0E0,0E0,1.18784024E-4,3.2025166E-3,7.934261E-3,1.5171622E-3,0E0,0E0,0E0,6.6816074E-6,0E0,0E0,0E0,0E0,0E0,0E0,0E0,0E0,0E0,0E0,0E0,0E0,0E0,0E0],"parents":[2147483647,0,0,1,1,2,2,4,4,5,5,6,6,7,7,8,8,9,9,10,10,11,11,12,12,13,13,14,14,17,17,18,18,19,19,20,20,24,24],"right_children":[2,4,6,-1,8,10,12,14,16,18,20,22,24,26,28,-1,-1,30,32,34,36,-1,-1,-1,38,-1,-1,-1,-1,-1,-1,-1,-1,-1,-1,-1,-1,-1,-1],"split_conditions":[3.1641508E1,-6.1238166E-2,4.2032834E-2,4.4702677E-4,3.006639E-3,-4.7075517E-2,4.740757E1,1.4598505E2,-5.321846E-3,5.3740196E1,-1.993161E-2,2.4650943E-2,4.9063015E1,2.675875E9,1.594376E-2,8.7369976E-5,-1.5172466E-4,8.51651E7,5.916871E1,-1.7772764E-2,3.3463638E2,-4.7980854E-4,-1.6960184E-4,1.256721E-4,7.282504E-2,1.5461029E-4,3.876266E-4,1.1379856E-4,-6.169906E-5,1.1505792E-4,-3.4585605E-6,-3.9320404E-4,-7.182299E-5,2.2241504E-5,4.047375E-4,-1.2197233E-6,-6.492757E-5,1.8837547E-5,-7.7869845E-6],"split_indices":[2,0,8,0,0,0,2,4,8,4,8,10,2,6,10,0,0,1,4,0,5,0,0,0,0,0,0,0,0,0,0,0,0,0,0,0,0,0,0],"split_type":[0,0,0,0,0,0,0,0,0,0,0,0,0,0,0,0,0,0,0,0,0,0,0,0,0,0,0,0,0,0,0,0,0,0,0,0,0,0,0],"sum_hessian":[2.481E3,4.9E1,2.432E3,3E0,4.6E1,2.421E3,1.1E1,4E1,6E0,2.4E1,2.397E3,8E0,3E0,2.7E1,1.3E1,2E0,4E0,4E0,2E1,6.3E1,2.334E3,6E0,2E0,1E0,2E0,2.4E1,3E0,9E0,4E0,3E0,1E0,3E0,1.7E1,5.8E1,5E0,2.297E3,3.7E1,1E0,1E0],"tree_param":{"num_deleted":"0","num_feature":"11","num_nodes":"39","size_leaf_vector":"1"}},{"base_weights":[2.3038585E-7,1.4942499E-2,-3.0684468E-4,9.521221E-3,2.9639889E-2,-1.6111991E-4,-2.969339E-2,1.2844549E-2,-7.0313117E-3,-3.1794745E-5,3.589609E-2,3.316361E-4,-2.230138E-3,-4.2614277E-2,6.8019526E-3,1.5406211E-2,-8.236891E-4,8.67875E-5,-1.5051087E-4,-3.4820627E-5,4.018211E-2,-7.408588E-3,4.970078E-4,-9.971422E-3,-1.7686788E-3,-4.756959E-4,-1.6847116E-4,1.2504373E-4,7.330207E-4,1.9014694E-4,6.0765E-5,-7.3112365E-5,8.100938E-5,1.761968E-4,4.7334624E-4,-2.6751024E-4,-1.9088755E-5,1.2970917E-4,2.2427084E-6,1.9525291E-4,-1.3243034E-4,4.023166E-5,-2.4370025E-5,1.874336E-5,-7.74805E-6],"categories":[],"categories_nodes":[],"categories_segments":[],"categories_sizes":[],"default_left":[0,0,0,0,0,0,0,0,0,0,0,0,0,0,0,0,0,0,0,0,0,0,0,0,0,0,0,0,0,0,0,0,0,0,0,0,0,0,0,0,0,0,0,0,0],"id":2,"left_children":[1,3,5,7,9,11,13,15,17,-1,19,21,23,25,27,29,31,-1,-1,-1,33,35,37,39,41,-1,-1,-1,43,-1,-1,-1,-1,-1,-1,-1,-1,-1,-1,-1,-1,-1,-1,-1,-1],"loss_changes":[1.1392988E-2,3.701725E-3,1.0414168E-2,2.180675E-3,2.7833488E-3,2.4700197E-3,5.9484867E-3,1.1331188E-3,1.0125628E-3,0E0,1.9964501E-3,2.5086696E-3,1.6470491E-3,3.4775026E-4,1.2926443E-4,7.9344166E-4,4.0662158E-4,0E0,0E0,0E0,7.7975914E-4,4.310427E-3,6.518909E-3,2.7676225E-3,1.7168391E-3,0E0,0E0,0E0,6.614959E-6,0E0,0E0,0E0,0E0,0E0,0E0,0E0,0E0,0E0,0E0,0E0,0E0,0E0,0E0,0E0,0E0],"parents":[2147483647,0,0,1,1,2,2,3,3,4,4,5,5,6,6,7,7,8,8,10,10,11,11,12,12,13,13,14,14,15,15,16,16,20,20,21,21,22,22,23,23,24,24,28,28],"right_children":[2,4,6,8,10,12,14,16,18,-1,20,22,24,26,28,30,32,-1,-1,-1,34,36,38,40,42,-1,-1,-1,44,-1,-1,-1,-1,-1,-1,-1,-1,-1,-1,-1,-1,-1,-1,-1,-1],"split_conditions":[3.1641508E1,3.4500008E0,4.2032834E-2,3.006639E-3,1.3078377E0,4.2604157E-1,4.740757E1,2.0999994E0,-5.321846E-3,-3.1794745E-5,-1.7272766E0,-3.8541522E-2,4.6323143E1,2.4650943E-2,4.9063015E1,2.4650943E-2,3.7914E7,8.67875E-5,-1.5051087E-4,-3.4820627E-5,-1.2900694E-3,-8.183395E-1,-1.993161E-2,-3.8400002E0,5.2164593E1,-4.756959E-4,-1.6847116E-4,1.2504373E-4,7.282504E-2,1.9014694E-4,6.0765E-5,-7.3112365E-5,8.100938E-5,1.761968E-4,4.7334624E-4,-2.6751024E-4,-1.9088755E-5,1.2970917E-4,2.2427084E-6,1.9525291E-4,-1.3243034E-4,4.023166E-5,-2.4370025E-5,1.874336E-5,-7.74805E-6],"split_indices":[2,9,8,0,7,3,2,9,8,0,3,0,2,10,2,10,1,0,0,0,10,3,8,9,2,0,0,0,0,0,0,0,0,0,0,0,0,0,0,0,0,0,0,0,0],"split_type":[0,0,0,0,0,0,0,0,0,0,0,0,0,0,0,0,0,0,0,0,0,0,0,0,0,0,0,0,0,0,0,0,0,0,0,0,0,0,0,0,0,0,0,0,0],"sum_hessian":[2.481E3,4.9E1,2.432E3,3.7E1,1.2E1,2.421E3,1.1E1,3.1E1,6E0,2E0,1E1,1.956E3,4.65E2,8E0,3E0,2.6E1,5E0,2E0,4E0,1E0,9E0,4E1,1.916E3,2.5E1,4.4E2,6E0,2E0,1E0,2E0,1.8E1,8E0,3E0,2E0,3E0,6E0,8E0,3.2E1,4E1,1.876E3,2E0,2.3E1,4.5E1,3.95E2,1E0,1E0],"tree_param":{"num_deleted":"0","num_feature":"11","num_nodes":"45","size_leaf_vector":"1"}},{"base_weights":[3.061999E-7,1.4808634E-2,-3.040163E-4,9.431142E-3,2.938833E-2,-1.595401E-4,-2.94388E-2,1.2724191E-2,-6.9701015E-3,-3.158278E-5,3.559301E-2,-9.475148E-3,-6.235505E-5,-4.2259708E-2,6.7679426E-3,1.52614415E-2,-8.1413623E-4,8.620892E-5,-1.4930677E-4,3.9845243E-2,-3.4646524E-5,6.776385E-3,-1.387685E-2,5.729526E-3,-2.2107798E-4,-4.716185E-4,-1.6734803E-4,1.2441851E-4,7.293556E-4,1.8834556E-4,6.0224862E-5,-7.256403E-5,8.046931E-5,1.7487533E-4,4.69289E-4,-6.052003E-6,1.4359703E-4,-7.841967E-5,-2.665125E-4,2.1417849E-5,4.005406E-4,-1.1833973E-6,-6.42822E-5,1.8649644E-5,-7.709309E-6],"categories":[],"categories_nodes":[],"categories_segments":[],"categories_sizes":[],"default_left":[0,0,0,0,0,0,0,0,0,0,0,0,0,0,0,0,0,0,0,0,0,0,0,0,0,0,0,0,0,0,0,0,0,0,0,0,0,0,0,0,0,0,0,0,0],"id":3,"left_children":[1,3,5,7,9,11,13,15,17,-1,19,21,23,25,27,29,31,-1,-1,33,-1,35,37,39,41,-1,-1,-1,43,-1,-1,-1,-1,-1,-1,-1,-1,-1,-1,-1,-1,-1,-1,-1,-1],"loss_changes":[1.11896545E-2,3.6429446E-3,1.023649E-2,2.1410722E-3,2.7376506E-3,2.192137E-3,5.8564516E-3,1.1116294E-3,9.975089E-4,0E0,1.9649547E-3,1.8823955E-3,2.2057586E-3,3.3689663E-4,1.2797504E-4,7.778886E-4,4.0090398E-4,0E0,0E0,7.630717E-4,0E0,3.44552E-4,1.3328418E-3,7.7956547E-3,1.488294E-3,0E0,0E0,0E0,6.5489744E-6,0E0,0E0,0E0,0E0,0E0,0E0,0E0,0E0,0E0,0E0,0E0,0E0,0E0,0E0,0E0,0E0],"parents":[2147483647,0,0,1,1,2,2,3,3,4,4,5,5,6,6,7,7,8,8,10,10,11,11,12,12,13,13,14,14,15,15,16,16,19,19,21,21,22,22,23,23,24,24,28,28],"right_children":[2,4,6,8,10,12,14,16,18,-1,20,22,24,26,28,30,32,-1,-1,34,-1,36,38,40,42,-1,-1,-1,44,-1,-1,-1,-1,-1,-1,-1,-1,-1,-1,-1,-1,-1,-1,-1,-1],"split_conditions":[3.1641508E1,3.4500008E0,4.2032834E-2,3.006639E-3,6.1247414E1,-4.7075517E-2,4.740757E1,2.0999994E0,-5.321846E-3,-3.158278E-5,1.7444775E2,4.87115E7,-1.993161E-2,2.4650943E-2,4.9063015E1,2.4650943E-2,3.7914E7,8.620892E-5,-1.4930677E-4,-1.2900694E-3,-3.4646524E-5,3.9924084E1,3.6699991E0,-1.7772764E-2,3.3463638E2,-4.716185E-4,-1.6734803E-4,1.2441851E-4,7.282504E-2,1.8834556E-4,6.0224862E-5,-7.256403E-5,8.046931E-5,1.7487533E-4,4.69289E-4,-6.052003E-6,1.4359703E-4,-7.841967E-5,-2.665125E-4,2.1417849E-5,4.005406E-4,-1.1833973E-6,-6.42822E-5,1.8649644E-5,-7.709309E-6],"split_indices":[2,9,8,0,5,0,2,9,8,0,5,1,8,10,2,10,1,0,0,10,0,2,9,0,5,0,0,0,0,0,0,0,0,0,0,0,0,0,0,0,0,0,0,0,0],"split_type":[0,0,0,0,0,0,0,0,0,0,0,0,0,0,0,0,0,0,0,0,0,0,0,0,0,0,0,0,0,0,0,0,0,0,0,0,0,0,0,0,0,0,0,0,0],"sum_hessian":[2.481E3,4.9E1,2.432E3,3.7E1,1.2E1,2.421E3,1.1E1,3.1E1,6E0,2E0,1E1,2.4E1,2.397E3,8E0,3E0,2.6E1,5E0,2E0,4E0,9E0,1E0,5E0,1.9E1,6.3E1,2.334E3,6E0,2E0,1E0,2E0,1.8E1,8E0,3E0,2E0,3E0,6E0,3E0,2E0,1.4E1,5E0,5.8E1,5E0,2.297E3,3.7E1,1E0,1E0],"tree_param":{"num_deleted":"0","num_feature":"11","num_nodes":"45","size_leaf_vector":"1"}},{"base_weights":[4.710795E-7,1.4221197E-4,-2.918638E-2,7.2441264E-3,-6.177234E-5,7.257088E-4,-3.524137E-2,2.1077557E-2,-1.3079612E-4,1.16611234E-4,-4.1711126E-3,1.8556395E-5,-7.670763E-6,-4.261743E-2,-3.824748E-3,7.867069E-3,3.597476E-2,1.6222216E-2,-2.9893033E-3,-1.6269977E-4,4.905767E-3,-1.2493065E-2,1.8236863E-3,-4.851162E-4,-1.6623236E-4,1.2379642E-4,-1.8116765E-4,1.7997535E-4,2.3930581E-6,4.4107143E-4,-4.1396665E-6,-1.1446605E-5,2.3397898E-4,-3.176747E-4,1.0907011E-5,-4.330428E-7,-9.672936E-5,-8.789682E-6,1.0613849E-4,2.1742155E-6,-2.945246E-4,5.2475152E-5,-9.556301E-5],"categories":[],"categories_nodes":[],"categories_segments":[],"categories_sizes":[],"default_left":[0,0,0,0,0,0,0,0,0,0,0,0,0,0,0,0,0,0,0,0,0,0,0,0,0,0,0,0,0,0,0,0,0,0,0,0,0,0,0,0,0,0,0],"id":4,"left_children":[1,3,5,7,9,11,13,15,17,19,21,-1,-1,23,25,27,29,31,33,35,37,39,41,-1,-1,-1,-1,-1,-1,-1,-1,-1,-1,-1,-1,-1,-1,-1,-1,-1,-1,-1,-1],"loss_changes":[1.027211E-2,3.5801334E-3,2.198983E-3,7.0421696E-3,1.7619786E-3,6.4836486E-6,2.1543074E-3,4.440168E-3,2.1987723E-3,3.0827755E-3,5.0116265E-3,0E0,0E0,4.1929912E-4,9.190593E-4,1.0775122E-3,3.2734554E-3,8.991171E-4,4.7312514E-3,2.4726551E-3,4.202837E-3,9.060014E-3,2.3489716E-3,0E0,0E0,0E0,0E0,0E0,0E0,0E0,0E0,0E0,0E0,0E0,0E0,0E0,0E0,0E0,0E0,0E0,0E0,0E0,0E0],"parents":[2147483647,0,0,1,1,2,2,3,3,4,4,5,5,6,6,7,7,8,8,9,9,10,10,13,13,14,14,15,15,16,16,17,17,18,18,19,19,20,20,21,21,22,22],"right_children":[2,4,6,8,10,12,14,16,18,20,22,-1,-1,24,26,28,30,32,34,36,38,40,42,-1,-1,-1,-1,-1,-1,-1,-1,-1,-1,-1,-1,-1,-1,-1,-1,-1,-1,-1,-1],"split_conditions":[4.2032834E-2,-2.2285886E-2,6.1535847E1,9.52666E8,6.464E7,7.282504E-2,6.63383E1,1.7125542E0,-5.117073E-2,5.06221E7,-1.4525181E-2,1.8556395E-5,-7.670763E-6,2.4650943E-2,5.1684E7,-4.44618E-2,3.756181E-2,3.8354E7,-4.7075517E-2,3.6154673E-2,2.645046E0,-2.5451275E-2,2.836872E9,-4.851162E-4,-1.6623236E-4,1.2379642E-4,-1.8116765E-4,1.7997535E-4,2.3930581E-6,4.4107143E-4,-4.1396665E-6,-1.1446605E-5,2.3397898E-4,-3.176747E-4,1.0907011E-5,-4.330428E-7,-9.672936E-5,-8.789682E-6,1.0613849E-4,2.1742155E-6,-2.945246E-4,5.2475152E-5,-9.556301E-5],"split_indices":[8,8,5,6,1,0,4,7,0,1,10,0,0,10,1,0,10,1,0,0,7,10,6,0,0,0,0,0,0,0,0,0,0,0,0,0,0,0,0,0,0,0,0],"split_type":[0,0,0,0,0,0,0,0,0,0,0,0,0,0,0,0,0,0,0,0,0,0,0,0,0,0,0,0,0,0,0,0,0,0,0,0,0,0,0,0,0,0,0],"sum_hessian":[2.481E3,2.47E3,1.1E1,6.8E1,2.402E3,2E0,9E0,2.3E1,4.5E1,2.303E3,9.9E1,1E0,1E0,7E0,2E0,1.3E1,1E1,6E0,3.9E1,2.177E3,1.26E2,4.1E1,5.8E1,5E0,2E0,1E0,1E0,5E0,8E0,8E0,2E0,2E0,4E0,4E0,3.5E1,2.151E3,2.6E1,6.3E1,6.3E1,2.4E1,1.7E1,4.5E1,1.3E1],"tree_param":{"num_deleted":"0","num_feature":"11","num_nodes":"43","size_leaf_vector":"1"}},{"base_weights":[2.65767E-7,1.4633328E-2,-3.0045488E-4,4.352929E-4,1.1862749E-2,-1.5837107E-4,-2.8952667E-2,1.4768453E-2,-6.851053E-3,-9.36725E-3,-6.22992E-5,-4.1581526E-2,6.7004324E-3,1.2381302E-2,3.3754278E-2,8.566494E-5,-1.473137E-4,9.020242E-3,-1.3299165E-2,5.6357062E-3,-2.1844912E-4,-4.6385213E-4,-1.6512416E-4,1.2317744E-4,7.2208024E-4,1.7350729E-4,3.604798E-5,4.4085184E-4,1.3807792E-5,1.14235314E-4,-2.9645967E-6,-3.865629E-4,-6.9254056E-5,2.088888E-5,3.9573468E-4,-1.1665804E-6,-6.3683816E-5,1.8463612E-5,-7.6324095E-6],"categories":[],"categories_nodes":[],"categories_segments":[],"categories_sizes":[],"default_left":[0,0,0,0,0,0,0,0,0,0,0,0,0,0,0,0,0,0,0,0,0,0,0,0,0,0,0,0,0,0,0,0,0,0,0,0,0,0,0],"id":5,"left_children":[1,3,5,-1,7,9,11,13,15,17,19,21,23,25,27,-1,-1,29,31,33,35,-1,-1,-1,37,-1,-1,-1,-1,-1,-1,-1,-1,-1,-1,-1,-1,-1,-1],"loss_changes":[1.0926349E-2,3.4865486E-3,9.900196E-3,0E0,2.6568873E-3,2.1421944E-3,5.6817094E-3,1.4402829E-3,9.766623E-4,1.927413E-3,2.134835E-3,3.1788647E-4,1.2543467E-4,1.594793E-3,1.2769187E-3,0E0,0E0,1.15340285E-4,3.1263137E-3,7.6210843E-3,1.4609863E-3,0E0,0E0,0E0,6.418974E-6,0E0,0E0,0E0,0E0,0E0,0E0,0E0,0E0,0E0,0E0,0E0,0E0,0E0,0E0],"parents":[2147483647,0,0,1,1,2,2,4,4,5,5,6,6,7,7,8,8,9,9,10,10,11,11,12,12,13,13,14,14,17,17,18,18,19,19,20,20,24,24],"right_children":[2,4,6,-1,8,10,12,14,16,18,20,22,24,26,28,-1,-1,30,32,34,36,-1,-1,-1,38,-1,-1,-1,-1,-1,-1,-1,-1,-1,-1,-1,-1,-1,-1],"split_conditions":[3.1641508E1,-6.1238166E-2,4.2032834E-2,4.352929E-4,3.006639E-3,-4.7075517E-2,4.740757E1,5.3405256E0,-5.321846E-3,5.3740196E1,-1.993161E-2,2.4650943E-2,4.9063015E1,1.2482012E2,2.9720123E2,8.566494E-5,-1.473137E-4,8.51651E7,5.916871E1,-1.7772764E-2,3.3463638E2,-4.6385213E-4,-1.6512416E-4,1.2317744E-4,7.282504E-2,1.7350729E-4,3.604798E-5,4.4085184E-4,1.3807792E-5,1.14235314E-4,-2.9645967E-6,-3.865629E-4,-6.9254056E-5,2.088888E-5,3.9573468E-4,-1.1665804E-6,-6.3683816E-5,1.8463612E-5,-7.6324095E-6],"split_indices":[2,0,8,0,0,0,2,7,8,4,8,10,2,4,4,0,0,1,4,0,5,0,0,0,0,0,0,0,0,0,0,0,0,0,0,0,0,0,0],"split_type":[0,0,0,0,0,0,0,0,0,0,0,0,0,0,0,0,0,0,0,0,0,0,0,0,0,0,0,0,0,0,0,0,0,0,0,0,0,0,0],"sum_hessian":[2.481E3,4.9E1,2.432E3,3E0,4.6E1,2.421E3,1.1E1,4E1,6E0,2.4E1,2.397E3,8E0,3E0,3.7E1,3E0,2E0,4E0,4E0,2E1,6.3E1,2.334E3,6E0,2E0,1E0,2E0,2.3E1,1.4E1,2E0,1E0,3E0,1E0,3E0,1.7E1,5.8E1,5E0,2.297E3,3.7E1,1E0,1E0],"tree_param":{"num_deleted":"0","num_feature":"11","num_nodes":"39","size_leaf_vector":"1"}},{"base_weights":[4.846757E-7,1.3988491E-4,-2.870439E-2,3.7164264E-5,2.1185962E-2,-4.095814E-2,-3.3575075E-3,5.689656E-4,-2.2517247E-3,4.320282E-4,9.046696E-3,-1.6402334E-4,-4.6409687E-4,-2.1727629E-4,6.6669304E-3,-2.4848405E-2,6.19668E-4,-1.2546487E-2,-1.9271607E-3,1.2692879E-2,-2.4766293E-3,7.184698E-4,1.2256156E-4,-3.8832758E-4,8.552325E-5,6.9490125E-5,4.0618247E-6,-2.845824E-4,-5.4459633E-6,2.8807175E-4,-2.1282203E-5,1.3755145E-4,3.159638E-5,-3.4708064E-5,-2.4413748E-6,1.8371295E-5,-7.5942476E-6],"categories":[],"categories_nodes":[],"categories_segments":[],"categories_sizes":[],"default_left":[0,0,0,0,0,0,0,0,0,0,0,0,0,0,0,0,0,0,0,0,0,0,0,0,0,0,0,0,0,0,0,0,0,0,0,0,0],"id":6,"left_children":[1,3,5,7,9,11,13,15,17,-1,19,-1,-1,-1,21,23,25,27,29,31,33,35,-1,-1,-1,-1,-1,-1,-1,-1,-1,-1,-1,-1,-1,-1,-1],"loss_changes":[9.935655E-3,5.341186E-3,3.5896162E-3,2.9956775E-3,2.816379E-3,3.0970946E-4,1.0656072E-3,2.5889734E-3,1.5261888E-3,0E0,4.0958094E-4,0E0,0E0,0E0,1.2418345E-4,2.2004608E-3,2.691517E-3,2.6580975E-3,2.848235E-3,2.7426518E-5,5.811122E-6,6.354945E-6,0E0,0E0,0E0,0E0,0E0,0E0,0E0,0E0,0E0,0E0,0E0,0E0,0E0,0E0,0E0],"parents":[2147483647,0,0,1,1,2,2,3,3,4,4,5,5,6,6,7,7,8,8,10,10,14,14,15,15,16,16,17,17,18,18,19,19,20,20,21,21],"right_children":[2,4,6,8,10,12,14,16,18,-1,20,-1,-1,-1,22,24,26,28,30,32,34,36,-1,-1,-1,-1,-1,-1,-1,-1,-1,-1,-1,-1,-1,-1,-1],"split_conditions":[4.2032834E-2,1.0040001E1,-2.0268954E-1,4.2604157E-1,-6.1238166E-2,5.2884483E1,4.890823E1,-4.3819163E-2,5.028205E1,4.320282E-4,1.5038509E2,-1.6402334E-4,-4.6409687E-4,-2.1727629E-4,5.0790768E1,-3.8541522E-2,-1.993161E-2,-5.300007E-1,5.0790768E1,1.4290538E2,-4.1908443E-2,7.282504E-2,1.2256156E-4,-3.8832758E-4,8.552325E-5,6.9490125E-5,4.0618247E-6,-2.845824E-4,-5.4459633E-6,2.8807175E-4,-2.1282203E-5,1.3755145E-4,3.159638E-5,-3.4708064E-5,-2.4413748E-6,1.8371295E-5,-7.5942476E-6],"split_indices":[8,9,3,3,0,4,4,8,4,0,4,0,0,0,4,0,8,9,4,4,0,0,0,0,0,0,0,0,0,0,0,0,0,0,0,0,0],"split_type":[0,0,0,0,0,0,0,0,0,0,0,0,0,0,0,0,0,0,0,0,0,0,0,0,0,0,0,0,0,0,0,0,0,0,0,0,0],"sum_hessian":[2.481E3,2.47E3,1.1E1,2.459E3,1.1E1,7E0,4E0,1.996E3,4.63E2,3E0,8E0,2E0,5E0,1E0,3E0,3E0,1.993E3,1.3E1,4.5E2,6E0,2E0,2E0,1E0,2E0,1E0,6.4E1,1.929E3,5E0,8E0,2E0,4.48E2,5E0,1E0,1E0,1E0,1E0,1E0],"tree_param":{"num_deleted":"0","num_feature":"11","num_nodes":"37","size_leaf_vector":"1"}},{"base_weights":[3.184909E-7,1.4467796E-2,-2.9699932E-4,9.243612E-3,2.8625581E-2,-3.0237896E-2,-1.7335825E-4,1.2463159E-2,-6.7948303E-3,-3.3600107E-5,3.47466E-2,-1.5013503E-2,-4.932111E-4,-9.303653E-3,-7.8178775E-5,1.4971445E-2,-9.0132304E-4,8.9400346E-5,-1.0907314E-2,3.891195E-2,-3.4534525E-5,-1.9833689E-4,-1.9753566E-3,6.635662E-3,-1.3620265E-2,-3.229894E-4,2.7229611E-3,1.850586E-4,5.8464062E-5,-7.3004674E-5,7.9313104E-5,3.81998E-5,-1.4616769E-4,1.6925154E-4,4.5916982E-4,-9.1932896E-5,6.230255E-5,-5.9500667E-6,1.4064666E-4,-7.6927085E-5,-2.616911E-4,-9.1650465E-5,-2.4612998E-6,4.514417E-4,2.2668915E-5],"categories":[],"categories_nodes":[],"categories_segments":[],"categories_sizes":[],"default_left":[0,0,0,0,0,0,0,0,0,0,0,0,0,0,0,0,0,0,0,0,0,0,0,0,0,0,0,0,0,0,0,0,0,0,0,0,0,0,0,0,0,0,0,0,0],"id":7,"left_children":[1,3,5,7,9,11,13,15,17,-1,19,21,-1,23,25,27,29,-1,31,33,-1,-1,35,37,39,41,43,-1,-1,-1,-1,-1,-1,-1,-1,-1,-1,-1,-1,-1,-1,-1,-1,-1,-1],"loss_changes":[1.0680468E-2,3.4335405E-3,9.001541E-3,2.0468722E-3,2.6619462E-3,2.1648202E-3,2.1057688E-3,1.0861964E-3,5.504774E-4,0E0,1.8846644E-3,4.0074566E-4,0E0,1.8104753E-3,1.6466767E-3,7.626028E-4,3.9703003E-4,0E0,3.8361707E-4,7.630307E-4,0E0,0E0,2.3495923E-4,3.306686E-4,1.2863684E-3,1.4982905E-3,3.6316398E-3,0E0,0E0,0E0,0E0,0E0,0E0,0E0,0E0,0E0,0E0,0E0,0E0,0E0,0E0,0E0,0E0,0E0,0E0],"parents":[2147483647,0,0,1,1,2,2,3,3,4,4,5,5,6,6,7,7,8,8,10,10,11,11,13,13,14,14,15,15,16,16,18,18,19,19,22,22,23,23,24,24,25,25,26,26],"right_children":[2,4,6,8,10,12,14,16,18,-1,20,22,-1,24,26,28,30,-1,32,34,-1,-1,36,38,40,42,44,-1,-1,-1,-1,-1,-1,-1,-1,-1,-1,-1,-1,-1,-1,-1,-1,-1,-1],"split_conditions":[3.1641508E1,3.4500008E0,-6.1500015E0,3.006639E-3,6.1247414E1,4.261558E-2,-4.7075517E-2,2.0999994E0,2.518E7,-3.3600107E-5,1.7444775E2,3.3152802E0,-4.932111E-4,4.87115E7,1.75E0,2.4650943E-2,3.7914E7,8.9400346E-5,3.993931E1,-1.2900694E-3,-3.4534525E-5,-1.9833689E-4,1.2295659E-2,3.9924084E1,3.6699991E0,-4.9101375E-2,-4.9629148E-2,1.850586E-4,5.8464062E-5,-7.3004674E-5,7.9313104E-5,3.81998E-5,-1.4616769E-4,1.6925154E-4,4.5916982E-4,-9.1932896E-5,6.230255E-5,-5.9500667E-6,1.4064666E-4,-7.6927085E-5,-2.616911E-4,-9.1650465E-5,-2.4612998E-6,4.514417E-4,2.2668915E-5],"split_indices":[2,9,9,0,5,0,0,9,1,0,5,7,0,1,9,10,1,0,5,10,0,0,0,2,9,10,10,0,0,0,0,0,0,0,0,0,0,0,0,0,0,0,0,0,0],"split_type":[0,0,0,0,0,0,0,0,0,0,0,0,0,0,0,0,0,0,0,0,0,0,0,0,0,0,0,0,0,0,0,0,0,0,0,0,0,0,0,0,0,0,0,0,0],"sum_hessian":[2.481E3,4.9E1,2.432E3,3.7E1,1.2E1,9E0,2.423E3,3.1E1,6E0,2E0,1E1,6E0,3E0,2.4E1,2.399E3,2.6E1,5E0,1E0,5E0,9E0,1E0,4E0,2E0,5E0,1.9E1,2.207E3,1.92E2,1.8E1,8E0,3E0,2E0,1E0,4E0,3E0,6E0,1E0,1E0,3E0,2E0,1.4E1,5E0,1.8E1,2.189E3,1E0,1.91E2],"tree_param":{"num_deleted":"0","num_feature":"11","num_nodes":"45","size_leaf_vector":"1"}},{"base_weights":[4.1461539E-7,1.433895E-2,-2.9425335E-4,9.157262E-3,2.8382424E-2,-1.5531728E-4,-2.831166E-2,1.2346334E-2,-6.729535E-3,-3.3376105E-5,3.4453124E-2,3.2703712E-4,-2.1806655E-3,-4.0697966E-2,6.6354414E-3,1.48307495E-2,-8.9125836E-4,8.4641426E-5,-1.4499834E-4,-3.4361852E-5,3.8585674E-2,-7.252907E-3,4.8898323E-4,-9.822638E-3,-1.7251736E-3,-1.184777E-4,-4.282327E-2,1.2196105E-4,7.165184E-4,1.793676E-4,5.2118776E-5,7.8784346E-5,-7.245714E-5,4.867117E-4,2.3750143E-4,-3.157911E-4,-2.9970695E-5,1.2601692E-4,2.2414035E-6,3.1238756E-4,-1.4546035E-4,-8.305755E-5,-1.13742435E-5,-4.5371935E-4,-1.2491307E-4,1.8291745E-5,-7.54397E-6],"categories":[],"categories_nodes":[],"categories_segments":[],"categories_sizes":[],"default_left":[0,0,0,0,0,0,0,0,0,0,0,0,0,0,0,0,0,0,0,0,0,0,0,0,0,0,0,0,0,0,0,0,0,0,0,0,0,0,0,0,0,0,0,0,0,0,0],"id":8,"left_children":[1,3,5,7,9,11,13,15,17,-1,19,21,23,25,27,29,31,-1,-1,-1,33,35,37,39,41,-1,43,-1,45,-1,-1,-1,-1,-1,-1,-1,-1,-1,-1,-1,-1,-1,-1,-1,-1,-1,-1],"loss_changes":[1.0490934E-2,3.3785412E-3,9.466368E-3,2.0083224E-3,2.6183072E-3,2.3668513E-3,5.4644356E-3,1.065624E-3,9.491446E-4,0E0,1.8549608E-3,2.405847E-3,1.6051335E-3,4.4478104E-5,1.2291383E-4,7.131761E-4,3.9144466E-4,0E0,0E0,0E0,3.4028944E-4,4.150018E-3,6.146844E-3,5.4970817E-3,1.6962223E-3,0E0,5.169306E-5,0E0,6.2897934E-6,0E0,0E0,0E0,0E0,0E0,0E0,0E0,0E0,0E0,0E0,0E0,0E0,0E0,0E0,0E0,0E0,0E0,0E0],"parents":[2147483647,0,0,1,1,2,2,3,3,4,4,5,5,6,6,7,7,8,8,10,10,11,11,12,12,13,13,14,14,15,15,16,16,20,20,21,21,22,22,23,23,24,24,26,26,28,28],"right_children":[2,4,6,8,10,12,14,16,18,-1,20,22,24,26,28,30,32,-1,-1,-1,34,36,38,40,42,-1,44,-1,46,-1,-1,-1,-1,-1,-1,-1,-1,-1,-1,-1,-1,-1,-1,-1,-1,-1,-1],"split_conditions":[3.1641508E1,3.4500008E0,4.2032834E-2,3.006639E-3,6.1247414E1,4.2604157E-1,4.740757E1,2.0999994E0,-5.321846E-3,-3.3376105E-5,-1.7272766E0,-3.8541522E-2,4.6323143E1,3.5702503E1,4.9063015E1,4.2121544E0,2.8695461E1,8.4641426E-5,-1.4499834E-4,-3.4361852E-5,-1.1217552E0,-8.9859235E-1,-1.993161E-2,8.8028E8,2.077074E0,-1.184777E-4,-2.9099998E0,1.2196105E-4,7.282504E-2,1.793676E-4,5.2118776E-5,7.8784346E-5,-7.245714E-5,4.867117E-4,2.3750143E-4,-3.157911E-4,-2.9970695E-5,1.2601692E-4,2.2414035E-6,3.1238756E-4,-1.4546035E-4,-8.305755E-5,-1.13742435E-5,-4.5371935E-4,-1.2491307E-4,1.8291745E-5,-7.54397E-6],"split_indices":[2,9,8,0,5,3,2,9,8,0,3,0,2,2,2,7,2,0,0,0,3,3,8,6,7,0,9,0,0,0,0,0,0,0,0,0,0,0,0,0,0,0,0,0,0,0,0],"split_type":[0,0,0,0,0,0,0,0,0,0,0,0,0,0,0,0,0,0,0,0,0,0,0,0,0,0,0,0,0,0,0,0,0,0,0,0,0,0,0,0,0,0,0,0,0,0,0],"sum_hessian":[2.481E3,4.9E1,2.432E3,3.7E1,1.2E1,2.421E3,1.1E1,3.1E1,6E0,2E0,1E1,1.956E3,4.65E2,8E0,3E0,2.6E1,5E0,2E0,4E0,1E0,9E0,4E1,1.916E3,2.5E1,4.4E2,1E0,7E0,1E0,2E0,1.9E1,7E0,2E0,3E0,4E0,5E0,5E0,3.5E1,4E1,1.876E3,2E0,2.3E1,3.5E1,4.05E2,6E0,1E0,1E0,1E0],"tree_param":{"num_deleted":"0","num_feature":"11","num_nodes":"47","size_leaf_vector":"1"}},{"base_weights":[4.6055607E-7,1.4212239E-2,-2.9160248E-4,1.912003E-2,3.5606413E-3,-1.5382406E-4,-2.8075578E-2,3.3580232E-2,9.706273E-3,1.3021561E-2,-4.364159E-3,3.2365555E-4,-2.1587035E-3,-4.0368445E-2,6.602264E-3,4.207224E-2,1.6660852E-2,4.377665E-3,2.3186281E-2,1.7136795E-2,4.622129E-3,-1.2923643E-2,1.1504265E-3,-7.1992294E-4,1.2889296E-3,-9.717992E-3,-1.708136E-3,-4.4983032E-4,-1.6144922E-4,1.21351244E-4,7.1293575E-4,1.6704331E-4,4.7744153E-4,2.1690741E-4,4.4007174E-5,-5.4108717E-5,1.0208765E-4,1.21838675E-5,2.733618E-4,4.2915668E-5,1.9275211E-4,1.7731392E-5,6.584548E-5,-3.419004E-5,-1.4952187E-4,-5.255031E-5,4.7636157E-5,-1.2053277E-4,-4.481254E-6,1.0510221E-6,4.0913517E-5,3.1030498E-4,-1.4406636E-4,4.000726E-5,-2.3669732E-5,1.8200286E-5,-7.5062503E-6],"categories":[],"categories_nodes":[],"categories_segments":[],"categories_sizes":[],"default_left":[0,0,0,0,0,0,0,0,0,0,0,0,0,0,0,0,0,0,0,0,0,0,0,0,0,0,0,0,0,0,0,0,0,0,0,0,0,0,0,0,0,0,0,0,0,0,0,0,0,0,0,0,0,0,0,0,0],"id":9,"left_children":[1,3,5,7,9,11,13,15,17,19,21,23,25,27,29,31,33,35,37,39,41,43,45,47,49,51,53,-1,-1,-1,55,-1,-1,-1,-1,-1,-1,-1,-1,-1,-1,-1,-1,-1,-1,-1,-1,-1,-1,-1,-1,-1,-1,-1,-1,-1,-1],"loss_changes":[1.0306268E-2,2.5457116E-3,9.3092825E-3,4.302306E-3,1.3314185E-3,2.3192526E-3,5.382004E-3,1.1668745E-3,1.478751E-3,1.9731652E-4,4.8688785E-4,1.9722912E-3,1.5705815E-3,2.79787E-4,1.2168777E-4,3.5354216E-4,2.7454784E-4,1.0255633E-3,5.1368144E-4,5.462137E-5,1.0688338E-5,2.6000722E-5,1.8704185E-4,2.8932337E-3,3.3735528E-3,5.4144803E-3,1.6681637E-3,0E0,0E0,0E0,6.2270524E-6,0E0,0E0,0E0,0E0,0E0,0E0,0E0,0E0,0E0,0E0,0E0,0E0,0E0,0E0,0E0,0E0,0E0,0E0,0E0,0E0,0E0,0E0,0E0,0E0,0E0,0E0],"parents":[2147483647,0,0,1,1,2,2,3,3,4,4,5,5,6,6,7,7,8,8,9,9,10,10,11,11,12,12,13,13,14,14,15,15,16,16,17,17,18,18,19,19,20,20,21,21,22,22,23,23,24,24,25,25,26,26,30,30],"right_children":[2,4,6,8,10,12,14,16,18,20,22,24,26,28,30,32,34,36,38,40,42,44,46,48,50,52,54,-1,-1,-1,56,-1,-1,-1,-1,-1,-1,-1,-1,-1,-1,-1,-1,-1,-1,-1,-1,-1,-1,-1,-1,-1,-1,-1,-1,-1,-1],"split_conditions":[3.1641508E1,1.4598505E2,4.2032834E-2,-9.976223E-1,-1.9202586E0,4.2604157E-1,4.740757E1,-1.5391546E-2,3.0786366E1,-2.602033E-3,-1.7272766E0,-7.439352E-2,4.6323143E1,2.4650943E-2,4.9063015E1,1.7125542E0,1.24027985E2,-1.3739067E-2,3.4808575E1,2.7487864E1,3.0786366E1,2.8695461E1,1.702214E2,-4.790025E-2,2.0497844E0,8.8028E8,5.2164593E1,-4.4983032E-4,-1.6144922E-4,1.21351244E-4,4.939099E1,1.6704331E-4,4.7744153E-4,2.1690741E-4,4.4007174E-5,-5.4108717E-5,1.0208765E-4,1.21838675E-5,2.733618E-4,4.2915668E-5,1.9275211E-4,1.7731392E-5,6.584548E-5,-3.419004E-5,-1.4952187E-4,-5.255031E-5,4.7636157E-5,-1.2053277E-4,-4.481254E-6,1.0510221E-6,4.0913517E-5,3.1030498E-4,-1.4406636E-4,4.000726E-5,-2.3669732E-5,1.8200286E-5,-7.5062503E-6],"split_indices":[2,4,8,3,3,3,2,8,2,8,3,3,2,10,2,7,4,10,4,2,2,2,5,10,7,6,2,0,0,0,2,0,0,0,0,0,0,0,0,0,0,0,0,0,0,0,0,0,0,0,0,0,0,0,0,0,0],"split_type":[0,0,0,0,0,0,0,0,0,0,0,0,0,0,0,0,0,0,0,0,0,0,0,0,0,0,0,0,0,0,0,0,0,0,0,0,0,0,0,0,0,0,0,0,0,0,0,0,0,0,0,0,0,0,0,0,0],"sum_hessian":[2.481E3,4.9E1,2.432E3,3.3E1,1.6E1,2.421E3,1.1E1,1.2E1,2.1E1,7E0,9E0,1.956E3,4.65E2,8E0,3E0,7E0,5E0,1.6E1,5E0,4E0,3E0,3E0,6E0,9.4E2,1.016E3,2.5E1,4.4E2,6E0,2E0,1E0,2E0,2E0,5E0,3E0,2E0,6E0,1E1,1E0,4E0,1E0,3E0,2E0,1E0,1E0,2E0,2E0,4E0,2.1E1,9.19E2,7.15E2,3.01E2,2E0,2.3E1,4.5E1,3.95E2,1E0,1E0],"tree_param":{"num_deleted":"0","num_feature":"11","num_nodes":"57","size_leaf_vector":"1"}},{"base_weights":[8.5479354E-7,1.4097507E-2,-2.8884248E-4,8.995709E-3,2.7926032E-2,-1.522447E-4,-2.7834758E-2,1.2144304E-2,-6.6829673E-3,-3.2792872E-5,3.3897843E-2,-9.1456985E-3,-5.842127E-5,-4.0032677E-2,6.569253E-3,1.4599842E-2,-9.296693E-4,8.361501E-5,-1.4373055E-4,3.796801E-4,-3.4019093E-5,6.652048E-3,-1.3427738E-2,1.480274E-3,-6.158484E-4,-4.2109814E-2,-1.1707806E-4,1.2074449E-4,7.093711E-4,1.7649111E-4,5.1516872E-5,-7.190228E-5,7.727632E-5,-5.0459894E-6,1.3976893E-4,-1.6828373E-4,4.381896E-5,3.3834454E-4,1.27413705E-5,-6.3962296E-5,-2.750472E-6,-4.459746E-4,-1.2348125E-4,1.8109286E-5,-7.468719E-6],"categories":[],"categories_nodes":[],"categories_segments":[],"categories_sizes":[],"default_left":[0,0,0,0,0,0,0,0,0,0,0,0,0,0,0,0,0,0,0,0,0,0,0,0,0,0,0,0,0,0,0,0,0,0,0,0,0,0,0,0,0,0,0,0,0],"id":10,"left_children":[1,3,5,7,9,11,13,15,17,-1,19,21,23,25,27,29,31,-1,-1,-1,-1,33,35,37,39,41,-1,-1,43,-1,-1,-1,-1,-1,-1,-1,-1,-1,-1,-1,-1,-1,-1,-1,-1],"loss_changes":[1.0139969E-2,3.2763025E-3,9.150438E-3,1.95706E-3,2.5337404E-3,2.0431413E-3,5.2988734E-3,1.0408894E-3,9.300332E-4,0E0,1.799141E-3,1.7804862E-3,2.0577013E-3,3.649667E-5,1.20473924E-4,6.869468E-4,3.807607E-4,0E0,0E0,0E0,0E0,3.2158077E-4,1.2850212E-3,4.211963E-3,3.4673417E-3,4.1598454E-5,0E0,0E0,6.164938E-6,0E0,0E0,0E0,0E0,0E0,0E0,0E0,0E0,0E0,0E0,0E0,0E0,0E0,0E0,0E0,0E0],"parents":[2147483647,0,0,1,1,2,2,3,3,4,4,5,5,6,6,7,7,8,8,10,10,11,11,12,12,13,13,14,14,15,15,16,16,21,21,22,22,23,23,24,24,25,25,28,28],"right_children":[2,4,6,8,10,12,14,16,18,-1,20,22,24,26,28,30,32,-1,-1,-1,-1,34,36,38,40,42,-1,-1,44,-1,-1,-1,-1,-1,-1,-1,-1,-1,-1,-1,-1,-1,-1,-1,-1],"split_conditions":[3.1641508E1,3.4500008E0,4.2032834E-2,3.006639E-3,6.1247414E1,-4.7075517E-2,4.740757E1,2.0999994E0,-5.321846E-3,-3.2792872E-5,1.7444775E2,4.87115E7,-2.9193282E-3,8.129E7,4.9063015E1,4.2121544E0,3.7914E7,8.361501E-5,-1.4373055E-4,3.796801E-4,-3.4019093E-5,3.9924084E1,4.514468E0,-3.8400002E0,-1.1299668E-2,-2.9099998E0,-1.1707806E-4,1.2074449E-4,7.282504E-2,1.7649111E-4,5.1516872E-5,-7.190228E-5,7.727632E-5,-5.0459894E-6,1.3976893E-4,-1.6828373E-4,4.381896E-5,3.3834454E-4,1.27413705E-5,-6.3962296E-5,-2.750472E-6,-4.459746E-4,-1.2348125E-4,1.8109286E-5,-7.468719E-6],"split_indices":[2,9,8,0,5,0,2,9,8,0,5,1,8,1,2,7,1,0,0,0,0,2,7,9,0,9,0,0,0,0,0,0,0,0,0,0,0,0,0,0,0,0,0,0,0],"split_type":[0,0,0,0,0,0,0,0,0,0,0,0,0,0,0,0,0,0,0,0,0,0,0,0,0,0,0,0,0,0,0,0,0,0,0,0,0,0,0,0,0,0,0,0,0],"sum_hessian":[2.481E3,4.9E1,2.432E3,3.7E1,1.2E1,2.421E3,1.1E1,3.1E1,6E0,2E0,1E1,2.4E1,2.397E3,8E0,3E0,2.6E1,5E0,2E0,4E0,9E0,1E0,5E0,1.9E1,6.37E2,1.76E3,7E0,1E0,1E0,2E0,1.9E1,7E0,3E0,2E0,3E0,2E0,1.6E1,3E0,3E0,6.34E2,9.7E1,1.663E3,6E0,1E0,1E0,1E0],"tree_param":{"num_deleted":"0","num_feature":"11","num_nodes":"45","size_leaf_vector":"1"}},{"base_weights":[9.3708877E-7,1.3966255E-2,-2.860612E-4,4.166133E-4,1.1312073E-2,-1.5060067E-4,-2.7602673E-2,1.4098548E-2,-6.624725E-3,-9.053831E-3,-5.7718524E-5,-3.9708633E-2,6.5364065E-3,1.1750578E-2,3.2879636E-2,8.3057574E-5,-1.425807E-4,8.933078E-3,-1.2905294E-2,1.4660215E-3,-6.0972787E-4,-4.4215197E-4,-1.5957102E-4,1.20140765E-4,7.058242E-4,1.6563665E-4,3.2662647E-5,4.3027094E-4,1.2186316E-5,-1.5994307E-6,1.1246319E-4,-3.7915472E-4,-6.630516E-5,1.1166717E-5,1.4977201E-4,-6.33292E-5,-2.722984E-6,1.8018738E-5,-7.4313753E-6],"categories":[],"categories_nodes":[],"categories_segments":[],"categories_sizes":[],"default_left":[0,0,0,0,0,0,0,0,0,0,0,0,0,0,0,0,0,0,0,0,0,0,0,0,0,0,0,0,0,0,0,0,0,0,0,0,0,0,0],"id":11,"left_children":[1,3,5,-1,7,9,11,13,15,17,19,21,23,25,27,-1,-1,29,31,33,35,-1,-1,-1,37,-1,-1,-1,-1,-1,-1,-1,-1,-1,-1,-1,-1,-1,-1],"loss_changes":[9.951906E-3,3.204112E-3,8.998728E-3,0E0,2.4424815E-3,2.0023528E-3,5.2189883E-3,1.4216397E-3,9.162107E-4,1.8471815E-3,2.0178969E-3,2.577938E-4,1.1927221E-4,1.4976575E-3,1.2326809E-3,0E0,0E0,1.0697052E-4,3.0442008E-3,2.9947164E-3,3.3990722E-3,0E0,0E0,0E0,6.103442E-6,0E0,0E0,0E0,0E0,0E0,0E0,0E0,0E0,0E0,0E0,0E0,0E0,0E0,0E0],"parents":[2147483647,0,0,1,1,2,2,4,4,5,5,6,6,7,7,8,8,9,9,10,10,11,11,12,12,13,13,14,14,17,17,18,18,19,19,20,20,24,24],"right_children":[2,4,6,-1,8,10,12,14,16,18,20,22,24,26,28,-1,-1,30,32,34,36,-1,-1,-1,38,-1,-1,-1,-1,-1,-1,-1,-1,-1,-1,-1,-1,-1,-1],"split_conditions":[3.1641508E1,-6.1238166E-2,4.2032834E-2,4.166133E-4,3.006639E-3,-4.7075517E-2,4.740757E1,5.3405256E0,-5.321846E-3,5.3740196E1,-2.9193282E-3,2.4650943E-2,4.9063015E1,1.2482012E2,2.9720123E2,8.3057574E-5,-1.425807E-4,4.905454E1,5.916871E1,1.5743183E-2,-1.1299668E-2,-4.4215197E-4,-1.5957102E-4,1.20140765E-4,7.282504E-2,1.6563665E-4,3.2662647E-5,4.3027094E-4,1.2186316E-5,-1.5994307E-6,1.1246319E-4,-3.7915472E-4,-6.630516E-5,1.1166717E-5,1.4977201E-4,-6.33292E-5,-2.722984E-6,1.8018738E-5,-7.4313753E-6],"split_indices":[2,0,8,0,0,0,2,7,8,4,8,10,2,4,4,0,0,4,4,0,0,0,0,0,0,0,0,0,0,0,0,0,0,0,0,0,0,0,0],"split_type":[0,0,0,0,0,0,0,0,0,0,0,0,0,0,0,0,0,0,0,0,0,0,0,0,0,0,0,0,0,0,0,0,0,0,0,0,0,0,0],"sum_hessian":[2.481E3,4.9E1,2.432E3,3E0,4.6E1,2.421E3,1.1E1,4E1,6E0,2.4E1,2.397E3,8E0,3E0,3.7E1,3E0,2E0,4E0,4E0,2E1,6.37E2,1.76E3,6E0,2E0,1E0,2E0,2.3E1,1.4E1,2E0,1E0,1E0,3E0,3E0,1.7E1,6.22E2,1.5E1,9.7E1,1.663E3,1E0,1E0],"tree_param":{"num_deleted":"0","num_feature":"11","num_nodes":"39","size_leaf_vector":"1"}},{"base_weights":[1.04341E-6,1.3846549E-2,-2.834927E-4,4.134887E-4,1.1211319E-2,-1.4919363E-4,-2.7365895E-2,1.3973191E-2,-6.5669813E-3,3.235664E-4,-2.1342626E-3,-3.9378405E-2,6.5037245E-3,1.782787E-2,5.2657505E-3,8.250385E-5,-1.4144005E-4,-6.4140796E-3,4.9995986E-4,-1.6693877E-3,-9.346615E-3,-4.1408333E-4,-1.1569482E-4,1.1954006E-4,7.0229504E-4,1.5109348E-4,4.561396E-4,-1.1482388E-5,1.4009108E-4,-2.042452E-4,-2.4008565E-5,1.5065301E-4,2.2766164E-6,-1.4379472E-7,-3.393608E-5,-2.1252695E-4,-2.5883292E-5,1.7928644E-5,-7.394218E-6],"categories":[],"categories_nodes":[],"categories_segments":[],"categories_sizes":[],"default_left":[0,0,0,0,0,0,0,0,0,0,0,0,0,0,0,0,0,0,0,0,0,0,0,0,0,0,0,0,0,0,0,0,0,0,0,0,0,0,0],"id":12,"left_children":[1,3,5,-1,7,9,11,13,15,17,19,21,23,25,27,-1,-1,29,31,33,35,-1,-1,-1,37,-1,-1,-1,-1,-1,-1,-1,-1,-1,-1,-1,-1,-1,-1],"loss_changes":[9.781879E-3,3.1601721E-3,8.845082E-3,0E0,2.399528E-3,2.2736439E-3,5.138416E-3,1.2822626E-3,9.0259424E-4,2.3290557E-3,1.5468213E-3,2.8979033E-5,1.1808249E-4,1.42584E-3,8.012032E-4,0E0,0E0,2.7623146E-3,7.563921E-3,1.2526814E-3,2.1980028E-3,0E0,0E0,0E0,6.0425596E-6,0E0,0E0,0E0,0E0,0E0,0E0,0E0,0E0,0E0,0E0,0E0,0E0,0E0,0E0],"parents":[2147483647,0,0,1,1,2,2,4,4,5,5,6,6,7,7,8,8,9,9,10,10,11,11,12,12,13,13,14,14,17,17,18,18,19,19,20,20,24,24],"right_children":[2,4,6,-1,8,10,12,14,16,18,20,22,24,26,28,-1,-1,30,32,34,36,-1,-1,-1,38,-1,-1,-1,-1,-1,-1,-1,-1,-1,-1,-1,-1,-1,-1],"split_conditions":[3.1641508E1,-6.1238166E-2,4.2032834E-2,4.134887E-4,3.006639E-3,4.2604157E-1,4.740757E1,1.4598505E2,-5.321846E-3,-3.670878E-2,6.464E7,8.129E7,4.9063015E1,1.3019373E2,-1.1915528E-2,8.250385E-5,-1.4144005E-4,-8.183395E-1,-1.993161E-2,3.214841E-3,7.1342E7,-4.1408333E-4,-1.1569482E-4,1.1954006E-4,7.282504E-2,1.5109348E-4,4.561396E-4,-1.1482388E-5,1.4009108E-4,-2.042452E-4,-2.4008565E-5,1.5065301E-4,2.2766164E-6,-1.4379472E-7,-3.393608E-5,-2.1252695E-4,-2.5883292E-5,1.7928644E-5,-7.394218E-6],"split_indices":[2,0,8,0,0,3,2,4,8,0,1,1,2,4,0,0,0,3,8,0,1,0,0,0,0,0,0,0,0,0,0,0,0,0,0,0,0,0,0],"split_type":[0,0,0,0,0,0,0,0,0,0,0,0,0,0,0,0,0,0,0,0,0,0,0,0,0,0,0,0,0,0,0,0,0,0,0,0,0,0,0],"sum_hessian":[2.481E3,4.9E1,2.432E3,3E0,4.6E1,2.421E3,1.1E1,4E1,6E0,1.956E3,4.65E2,8E0,3E0,2.7E1,1.3E1,2E0,4E0,4.9E1,1.907E3,4.38E2,2.7E1,7E0,1E0,1E0,2E0,2.6E1,1E0,8E0,5E0,1E1,3.9E1,3.4E1,1.873E3,2.24E2,2.14E2,9E0,1.8E1,1E0,1E0],"tree_param":{"num_deleted":"0","num_feature":"11","num_nodes":"39","size_leaf_vector":"1"}},{"base_weights":[1.1711254E-6,-2.618853E-2,1.1771059E-4,-1.2360789E-2,-4.729688E-4,1.9514418E-5,2.0246299E-2,-1.9106318E-4,-8.386789E-4,5.1714136E-4,-2.1233265E-3,4.103875E-4,8.75562E-3,-9.141935E-5,4.976385E-3,6.0947554E-4,-9.132269E-3,1.4231718E-2,-2.3686583E-3,1.3442725E-2,-4.63943E-4,1.2854522E-5,6.179125E-5,2.110819E-6,2.7798387E-5,-1.5714974E-4,4.3973665E-5,-7.259307E-6,3.4417227E-4,-1.8458368E-5,-1.0984548E-4,1.480117E-4,3.3252472E-5,-2.4294008E-5,2.7162152E-5],"categories":[],"categories_nodes":[],"categories_segments":[],"categories_sizes":[],"default_left":[0,0,0,0,0,0,0,0,0,0,0,0,0,0,0,0,0,0,0,0,0,0,0,0,0,0,0,0,0,0,0,0,0,0,0],"id":13,"left_children":[1,3,5,7,-1,9,11,-1,13,15,17,-1,19,-1,21,23,25,27,29,31,33,-1,-1,-1,-1,-1,-1,-1,-1,-1,-1,-1,-1,-1,-1],"loss_changes":[7.5784787E-3,2.6260628E-3,4.885637E-3,6.057577E-4,0E0,2.6253497E-3,2.5077136E-3,0E0,2.3862964E-4,1.7857247E-3,1.8954701E-3,0E0,3.9515423E-4,0E0,5.3747353E-6,1.7114382E-3,1.7612751E-3,2.1384787E-3,2.042819E-3,3.3246703E-5,3.1600648E-5,0E0,0E0,0E0,0E0,0E0,0E0,0E0,0E0,0E0,0E0,0E0,0E0,0E0,0E0],"parents":[2147483647,0,0,1,1,2,2,3,3,5,5,6,6,8,8,9,9,10,10,12,12,14,14,15,15,16,16,17,17,18,18,19,19,20,20],"right_children":[2,4,6,8,-1,10,12,-1,14,16,18,-1,20,-1,22,24,26,28,30,32,34,-1,-1,-1,-1,-1,-1,-1,-1,-1,-1,-1,-1,-1,-1],"split_conditions":[-6.1500015E0,4.261558E-2,1.0040001E1,3.3152802E0,-4.729688E-4,4.2604157E-1,-6.1238166E-2,-1.9106318E-4,3.04261E7,4.9266994E-2,-3.8400002E0,4.103875E-4,1.4989098E2,-9.141935E-5,-5.9251646E-3,3.8986008E0,-2.2999954E-1,-4.83E0,6.464E7,8.759596E-3,5.4284E7,1.2854522E-5,6.179125E-5,2.110819E-6,2.7798387E-5,-1.5714974E-4,4.3973665E-5,-7.259307E-6,3.4417227E-4,-1.8458368E-5,-1.0984548E-4,1.480117E-4,3.3252472E-5,-2.4294008E-5,2.7162152E-5],"split_indices":[9,0,9,7,0,3,0,0,1,10,9,0,5,0,0,7,9,9,1,10,1,0,0,0,0,0,0,0,0,0,0,0,0,0,0],"split_type":[0,0,0,0,0,0,0,0,0,0,0,0,0,0,0,0,0,0,0,0,0,0,0,0,0,0,0,0,0,0,0,0,0,0,0],"sum_hessian":[2.481E3,1E1,2.471E3,7E0,3E0,2.46E3,1.1E1,4E0,3E0,1.997E3,4.63E2,3E0,8E0,1E0,2E0,1.979E3,1.8E1,6E0,4.57E2,5E0,3E0,1E0,1E0,1.673E3,3.06E2,1.2E1,6E0,4E0,2E0,4.32E2,2.5E1,4E0,1E0,2E0,1E0],"tree_param":{"num_deleted":"0","num_feature":"11","num_nodes":"35","size_leaf_vector":"1"}},{"base_weights":[1.1751159E-6,1.3691164E-2,-2.8016503E-4,4.073096E-4,1.1098603E-2,-1.4778857E-4,-2.6974801E-2,1.3836394E-2,-6.5225493E-3,-8.903474E-3,-5.644582E-5,-3.8844075E-2,6.474765E-3,1.1508276E-2,3.249442E-2,8.185414E-5,-1.4042816E-4,8.8535985E-3,-1.2707373E-2,1.4432142E-3,-5.9973187E-4,-4.0845558E-4,-1.1416103E-4,1.18931806E-4,7.0423284E-4,1.6248146E-4,3.1572657E-5,4.252297E-4,1.20438035E-5,1.1141095E-4,-1.4819449E-6,-3.7569623E-4,-6.476463E-5,4.891423E-6,6.6953544E-5,-6.272188E-5,-2.6529644E-6,1.7828448E-5,-7.264955E-6],"categories":[],"categories_nodes":[],"categories_segments":[],"categories_sizes":[],"default_left":[0,0,0,0,0,0,0,0,0,0,0,0,0,0,0,0,0,0,0,0,0,0,0,0,0,0,0,0,0,0,0,0,0,0,0,0,0,0,0],"id":14,"left_children":[1,3,5,-1,7,9,11,13,15,17,19,21,23,25,27,-1,-1,29,31,33,35,-1,-1,-1,37,-1,-1,-1,-1,-1,-1,-1,-1,-1,-1,-1,-1,-1,-1],"loss_changes":[9.563366E-3,3.0530598E-3,8.593606E-3,0E0,2.3576715E-3,1.9365363E-3,5.015772E-3,1.4070068E-3,8.8920095E-4,1.801159E-3,1.9546226E-3,2.777204E-5,1.1669303E-4,1.4528432E-3,1.2039612E-3,0E0,0E0,1.04608946E-4,3.0098844E-3,3.1936918E-3,3.3390764E-3,0E0,0E0,0E0,5.924831E-6,0E0,0E0,0E0,0E0,0E0,0E0,0E0,0E0,0E0,0E0,0E0,0E0,0E0,0E0],"parents":[2147483647,0,0,1,1,2,2,4,4,5,5,6,6,7,7,8,8,9,9,10,10,11,11,12,12,13,13,14,14,17,17,18,18,19,19,20,20,24,24],"right_children":[2,4,6,-1,8,10,12,14,16,18,20,22,24,26,28,-1,-1,30,32,34,36,-1,-1,-1,38,-1,-1,-1,-1,-1,-1,-1,-1,-1,-1,-1,-1,-1,-1],"split_conditions":[3.1641508E1,-6.1238166E-2,4.2032834E-2,4.073096E-4,3.006639E-3,-4.7075517E-2,4.740757E1,5.3405256E0,-5.321846E-3,5.3740196E1,-2.9193282E-3,8.129E7,4.9063015E1,1.2482012E2,2.9720123E2,8.185414E-5,-1.4042816E-4,8.51651E7,5.916871E1,4.7282E7,-1.1299668E-2,-4.0845558E-4,-1.1416103E-4,1.18931806E-4,7.282504E-2,1.6248146E-4,3.1572657E-5,4.252297E-4,1.20438035E-5,1.1141095E-4,-1.4819449E-6,-3.7569623E-4,-6.476463E-5,4.891423E-6,6.6953544E-5,-6.272188E-5,-2.6529644E-6,1.7828448E-5,-7.264955E-6],"split_indices":[2,0,8,0,0,0,2,7,8,4,8,1,2,4,4,0,0,1,4,1,0,0,0,0,0,0,0,0,0,0,0,0,0,0,0,0,0,0,0],"split_type":[0,0,0,0,0,0,0,0,0,0,0,0,0,0,0,0,0,0,0,0,0,0,0,0,0,0,0,0,0,0,0,0,0,0,0,0,0,0,0],"sum_hessian":[2.481E3,4.9E1,2.432E3,3E0,4.6E1,2.421E3,1.1E1,4E1,6E0,2.4E1,2.397E3,8E0,3E0,3.7E1,3E0,2E0,4E0,4E0,2E1,6.37E2,1.76E3,7E0,1E0,1E0,2E0,2.3E1,1.4E1,2E0,1E0,3E0,1E0,3E0,1.7E1,5.4E2,9.7E1,9.7E1,1.663E3,1E0,1E0],"tree_param":{"num_deleted":"0","num_feature":"11","num_nodes":"39","size_leaf_vector":"1"}},{"base_weights":[1.2692949E-6,1.3573852E-2,-2.7765814E-4,4.042548E-4,1.09998025E-2,-1.3368088E-4,-1.1076274E-2,1.3713428E-2,-6.4656916E-3,-8.82766E-3,-4.2224543E-5,-4.179324E-2,-3.8400495E-3,1.13983E-2,3.227879E-2,8.5772226E-5,-1.0402381E-2,-3.6508322E-4,-4.8333276E-3,3.733173E-4,-1.8381634E-3,-4.5433335E-4,-1.1796386E-4,-7.4411863E-3,1.8726785E-2,1.6092435E-4,3.1277974E-5,4.2239483E-4,1.1983586E-5,3.619043E-5,-1.3930474E-4,6.0334474E-5,-9.964633E-5,-6.3697257E-6,1.3019719E-5,-1.4169262E-4,-1.465422E-5,-2.0102667E-5,-2.3398902E-4,2.7014568E-4,6.959333E-5],"categories":[],"categories_nodes":[],"categories_segments":[],"categories_sizes":[],"default_left":[0,0,0,0,0,0,0,0,0,0,0,0,0,0,0,0,0,0,0,0,0,0,0,0,0,0,0,0,0,0,0,0,0,0,0,0,0,0,0,0,0],"id":15,"left_children":[1,3,5,-1,7,9,11,13,15,17,19,21,23,25,27,-1,29,-1,31,33,35,-1,-1,37,39,-1,-1,-1,-1,-1,-1,-1,-1,-1,-1,-1,-1,-1,-1,-1,-1],"loss_changes":[9.40004E-3,3.0112006E-3,3.7812386E-3,0E0,2.3162235E-3,1.9095042E-3,6.952308E-3,1.3943049E-3,5.0375855E-4,2.5876872E-3,1.7753585E-3,1.19198114E-4,2.3335386E-3,1.4249342E-3,1.1877124E-3,0E0,3.4722837E-4,0E0,1.3426179E-3,1.8134516E-3,2.0337868E-3,0E0,0E0,2.0329235E-3,2.0210096E-4,0E0,0E0,0E0,0E0,0E0,0E0,0E0,0E0,0E0,0E0,0E0,0E0,0E0,0E0,0E0,0E0],"parents":[2147483647,0,0,1,1,2,2,4,4,5,5,6,6,7,7,8,8,9,9,10,10,11,11,12,12,13,13,14,14,16,16,18,18,19,19,20,20,23,23,24,24],"right_children":[2,4,6,-1,8,10,12,14,16,18,20,22,24,26,28,-1,30,-1,32,34,36,-1,-1,38,40,-1,-1,-1,-1,-1,-1,-1,-1,-1,-1,-1,-1,-1,-1,-1,-1],"split_conditions":[3.1641508E1,-6.1238166E-2,4.60641E-2,4.042548E-4,3.006639E-3,-4.7075517E-2,4.740757E1,5.3405256E0,2.518E7,-1.0211391E0,4.2604157E-1,2.4650943E-2,1.5988943E2,1.2482012E2,2.9720123E2,8.5772226E-5,3.5309845E1,-3.6508322E-4,5.25096E7,-7.439352E-2,5.028205E1,-4.5433335E-4,-1.1796386E-4,8.6144775E-1,5.5344E7,1.6092435E-4,3.1277974E-5,4.2239483E-4,1.1983586E-5,3.619043E-5,-1.3930474E-4,6.0334474E-5,-9.964633E-5,-6.3697257E-6,1.3019719E-5,-1.4169262E-4,-1.465422E-5,-2.0102667E-5,-2.3398902E-4,2.7014568E-4,6.959333E-5],"split_indices":[2,0,0,0,0,0,2,7,1,3,3,10,4,4,4,0,4,0,1,3,4,0,0,3,1,0,0,0,0,0,0,0,0,0,0,0,0,0,0,0,0],"split_type":[0,0,0,0,0,0,0,0,0,0,0,0,0,0,0,0,0,0,0,0,0,0,0,0,0,0,0,0,0,0,0,0,0,0,0,0,0,0,0,0,0],"sum_hessian":[2.481E3,4.9E1,2.432E3,3E0,4.6E1,2.401E3,3.1E1,4E1,6E0,2.4E1,2.377E3,5E0,2.6E1,3.7E1,3E0,1E0,5E0,2E0,2.2E1,1.931E3,4.46E2,4E0,1E0,2.3E1,3E0,2.3E1,1.4E1,2E0,1E0,1E0,4E0,7E0,1.5E1,9.25E2,1.006E3,1.2E1,4.34E2,1.8E1,5E0,1E0,2E0],"tree_param":{"num_deleted":"0","num_feature":"11","num_nodes":"41","size_leaf_vector":"1"}},{"base_weights":[1.2456234E-6,1.3458384E-2,-2.753093E-4,8.560174E-3,2.6740968E-2,-1.4491682E-4,-2.656992E-2,1.1565975E-2,-6.4035123E-3,-3.6855898E-5,3.260812E-2,3.138419E-4,-2.0711955E-3,-3.8296547E-2,6.457468E-3,1.397722E-2,-1.2122885E-3,8.09019E-5,-1.381903E-4,4.001961E-2,-4.957064E-4,-6.31366E-3,4.8735412E-4,-9.547106E-3,-1.6257424E-3,-4.0244654E-2,-1.1355837E-4,1.1843766E-4,7.1411347E-4,1.8726147E-4,6.480547E-5,-7.485382E-5,7.555932E-5,1.16167765E-4,4.2117864E-4,-3.414768E-5,2.6712087E-5,-2.0090038E-4,-2.367315E-5,1.4886653E-4,2.1816368E-6,3.9815938E-4,-1.3114265E-4,3.9976494E-5,-2.2748593E-5,-4.2640345E-4,-1.1737404E-4,1.7839819E-5,-7.128117E-6],"categories":[],"categories_nodes":[],"categories_segments":[],"categories_sizes":[],"default_left":[0,0,0,0,0,0,0,0,0,0,0,0,0,0,0,0,0,0,0,0,0,0,0,0,0,0,0,0,0,0,0,0,0,0,0,0,0,0,0,0,0,0,0,0,0,0,0,0,0],"id":16,"left_children":[1,3,5,7,9,11,13,15,17,-1,19,21,23,25,27,29,31,-1,-1,33,35,37,39,41,43,45,-1,-1,47,-1,-1,-1,-1,-1,-1,-1,-1,-1,-1,-1,-1,-1,-1,-1,-1,-1,-1,-1,-1],"loss_changes":[9.240811E-3,3.0241366E-3,8.337982E-3,1.783222E-3,2.4409061E-3,2.1409646E-3,4.8948973E-3,1.0029133E-3,8.6414674E-4,0E0,2.7186722E-3,2.2535338E-3,1.5363374E-3,1.5338883E-5,1.15283896E-4,8.398751E-4,3.8658228E-4,0E0,0E0,4.709419E-5,3.6854824E-5,2.6707577E-3,7.392454E-3,5.1003885E-3,1.6188492E-3,4.587043E-5,0E0,0E0,5.8515097E-6,0E0,0E0,0E0,0E0,0E0,0E0,0E0,0E0,0E0,0E0,0E0,0E0,0E0,0E0,0E0,0E0,0E0,0E0,0E0,0E0],"parents":[2147483647,0,0,1,1,2,2,3,3,4,4,5,5,6,6,7,7,8,8,10,10,11,11,12,12,13,13,14,14,15,15,16,16,19,19,20,20,21,21,22,22,23,23,24,24,25,25,28,28],"right_children":[2,4,6,8,10,12,14,16,18,-1,20,22,24,26,28,30,32,-1,-1,34,36,38,40,42,44,46,-1,-1,48,-1,-1,-1,-1,-1,-1,-1,-1,-1,-1,-1,-1,-1,-1,-1,-1,-1,-1,-1,-1],"split_conditions":[3.1641508E1,3.4500008E0,4.2032834E-2,3.006639E-3,6.1247414E1,4.2604157E-1,4.740757E1,2.0999994E0,-5.321846E-3,-3.6855898E-5,1.4598505E2,-3.670878E-2,4.6323143E1,8.129E7,4.9063015E1,1.2482012E2,3.7914E7,8.09019E-5,-1.381903E-4,-1.4001901E0,-4.1908443E-2,-8.183395E-1,-1.993161E-2,6.177445E1,5.2164593E1,-2.9099998E0,-1.1355837E-4,1.1843766E-4,7.282504E-2,1.8726147E-4,6.480547E-5,-7.485382E-5,7.555932E-5,1.16167765E-4,4.2117864E-4,-3.414768E-5,2.6712087E-5,-2.0090038E-4,-2.367315E-5,1.4886653E-4,2.1816368E-6,3.9815938E-4,-1.3114265E-4,3.9976494E-5,-2.2748593E-5,-4.2640345E-4,-1.1737404E-4,1.7839819E-5,-7.128117E-6],"split_indices":[2,9,8,0,5,3,2,9,8,0,4,0,2,1,2,4,1,0,0,3,0,3,8,5,2,9,0,0,0,0,0,0,0,0,0,0,0,0,0,0,0,0,0,0,0,0,0,0,0],"split_type":[0,0,0,0,0,0,0,0,0,0,0,0,0,0,0,0,0,0,0,0,0,0,0,0,0,0,0,0,0,0,0,0,0,0,0,0,0,0,0,0,0,0,0,0,0,0,0,0,0],"sum_hessian":[2.481E3,4.9E1,2.432E3,3.7E1,1.2E1,2.421E3,1.1E1,3.1E1,6E0,2E0,1E1,1.956E3,4.65E2,8E0,3E0,2.6E1,5E0,2E0,4E0,8E0,2E0,4.9E1,1.907E3,2.5E1,4.4E2,7E0,1E0,1E0,2E0,1.5E1,1.1E1,3E0,2E0,1E0,7E0,1E0,1E0,1E1,3.9E1,3.4E1,1.873E3,1E0,2.4E1,4.5E1,3.95E2,6E0,1E0,1E0,1E0],"tree_param":{"num_deleted":"0","num_feature":"11","num_nodes":"49","size_leaf_vector":"1"}},{"base_weights":[1.3826643E-6,1.2934464E-4,-2.6348237E-2,3.3804274E-5,1.9704342E-2,-3.7767112E-2,-2.808391E-3,5.2850356E-4,-2.0953948E-3,3.9806403E-4,8.58072E-3,-1.5318517E-4,-4.2696888E-4,6.425181E-3,-1.9871339E-4,-2.4231311E-2,5.7790714E-4,-1.5986431E-3,-1.00762015E-2,1.3191097E-2,-4.8002522E-4,7.1054284E-4,1.1784548E-4,-3.7813056E-4,8.256964E-5,6.5728505E-5,3.7570546E-6,8.874235E-5,-1.9653755E-5,-2.7962698E-4,-4.7400565E-5,1.4500838E-4,3.3211967E-5,-2.4119354E-5,2.6578526E-5,1.7750619E-5,-7.0924766E-6],"categories":[],"categories_nodes":[],"categories_segments":[],"categories_sizes":[],"default_left":[0,0,0,0,0,0,0,0,0,0,0,0,0,0,0,0,0,0,0,0,0,0,0,0,0,0,0,0,0,0,0,0,0,0,0,0,0],"id":17,"left_children":[1,3,5,7,9,11,13,15,17,-1,19,-1,-1,21,-1,23,25,27,29,31,33,35,-1,-1,-1,-1,-1,-1,-1,-1,-1,-1,-1,-1,-1,-1,-1],"loss_changes":[8.37209E-3,4.620604E-3,3.1195171E-3,2.5922577E-3,2.3417254E-3,2.3127999E-4,9.154368E-4,2.456781E-3,1.8234097E-3,0E0,3.8229307E-4,0E0,0E0,1.1413396E-4,0E0,2.0772112E-3,2.414633E-3,1.6996872E-3,2.444469E-3,2.940197E-5,3.065896E-5,5.7931406E-6,0E0,0E0,0E0,0E0,0E0,0E0,0E0,0E0,0E0,0E0,0E0,0E0,0E0,0E0,0E0],"parents":[2147483647,0,0,1,1,2,2,3,3,4,4,5,5,6,6,7,7,8,8,10,10,13,13,15,15,16,16,17,17,18,18,19,19,20,20,21,21],"right_children":[2,4,6,8,10,12,14,16,18,-1,20,-1,-1,22,-1,24,26,28,30,32,34,36,-1,-1,-1,-1,-1,-1,-1,-1,-1,-1,-1,-1,-1,-1,-1],"split_conditions":[4.2032834E-2,1.0040001E1,-2.0268954E-1,4.2604157E-1,-6.1238166E-2,5.2884483E1,6.464E7,-4.3819163E-2,6.464E7,3.9806403E-4,1.4290538E2,-1.5318517E-4,-4.2696888E-4,5.0790768E1,-1.9871339E-4,-3.8541522E-2,-1.993161E-2,-3.0900002E0,5.999516E-1,8.759596E-3,5.4284E7,7.282504E-2,1.1784548E-4,-3.7813056E-4,8.256964E-5,6.5728505E-5,3.7570546E-6,8.874235E-5,-1.9653755E-5,-2.7962698E-4,-4.7400565E-5,1.4500838E-4,3.3211967E-5,-2.4119354E-5,2.6578526E-5,1.7750619E-5,-7.0924766E-6],"split_indices":[8,9,3,3,0,4,1,8,1,0,4,0,0,4,0,0,8,9,3,10,1,0,0,0,0,0,0,0,0,0,0,0,0,0,0,0,0],"split_type":[0,0,0,0,0,0,0,0,0,0,0,0,0,0,0,0,0,0,0,0,0,0,0,0,0,0,0,0,0,0,0,0,0,0,0,0,0],"sum_hessian":[2.481E3,2.47E3,1.1E1,2.459E3,1.1E1,7E0,4E0,1.996E3,4.63E2,3E0,8E0,2E0,5E0,3E0,1E0,3E0,1.993E3,4.37E2,2.6E1,5E0,3E0,2E0,1E0,2E0,1E0,6.4E1,1.929E3,1.4E1,4.23E2,5E0,2.1E1,4E0,1E0,2E0,1E0,1E0,1E0],"tree_param":{"num_deleted":"0","num_feature":"11","num_nodes":"37","size_leaf_vector":"1"}},{"base_weights":[1.1449733E-6,1.3300071E-2,-2.7215853E-4,8.474428E-3,2.6382713E-2,-1.4388698E-4,-2.6138952E-2,1.3251118E-2,1.794333E-3,-3.7048383E-5,3.218998E-2,3.0526472E-4,-2.0298227E-3,-3.7693292E-2,6.393055E-3,1.5360891E-2,-5.2310694E-5,1.2475619E-2,-6.930129E-3,-3.3856344E-5,3.6086105E-2,-7.188903E-4,1.2525849E-3,-9.413909E-3,-1.5898768E-3,-3.9599337E-2,-1.12224654E-4,1.1725625E-4,7.069902E-4,7.231638E-5,2.0177756E-4,1.649347E-4,4.3344004E-5,2.151685E-5,-1.3343286E-4,4.5845407E-4,2.1939E-4,-3.7537702E-5,-1.5681946E-6,8.469235E-7,4.017348E-5,3.043054E-4,-1.4002218E-4,-8.06253E-5,-1.01203095E-5,-4.1941492E-4,-1.1602124E-4,1.7661867E-5,-7.057014E-6],"categories":[],"categories_nodes":[],"categories_segments":[],"categories_sizes":[],"default_left":[0,0,0,0,0,0,0,0,0,0,0,0,0,0,0,0,0,0,0,0,0,0,0,0,0,0,0,0,0,0,0,0,0,0,0,0,0,0,0,0,0,0,0,0,0,0,0,0,0],"id":18,"left_children":[1,3,5,7,9,11,13,15,17,-1,19,21,23,25,27,29,-1,31,33,-1,35,37,39,41,43,45,-1,-1,47,-1,-1,-1,-1,-1,-1,-1,-1,-1,-1,-1,-1,-1,-1,-1,-1,-1,-1,-1,-1],"loss_changes":[9.0248035E-3,2.933029E-3,8.068868E-3,1.1887553E-3,2.3907023E-3,2.052226E-3,4.751606E-3,9.3820435E-4,1.6706616E-3,0E0,1.646853E-3,1.8995869E-3,1.4988795E-3,9.68948E-6,1.1299546E-4,6.372323E-4,0E0,1.9019225E-4,6.1114156E-4,0E0,3.7485547E-4,1.6045858E-3,3.2834976E-3,5.179381E-3,1.6412669E-3,3.7979335E-5,0E0,0E0,5.7353545E-6,0E0,0E0,0E0,0E0,0E0,0E0,0E0,0E0,0E0,0E0,0E0,0E0,0E0,0E0,0E0,0E0,0E0,0E0,0E0,0E0],"parents":[2147483647,0,0,1,1,2,2,3,3,4,4,5,5,6,6,7,7,8,8,10,10,11,11,12,12,13,13,14,14,15,15,17,17,18,18,20,20,21,21,22,22,23,23,24,24,25,25,28,28],"right_children":[2,4,6,8,10,12,14,16,18,-1,20,22,24,26,28,30,-1,32,34,-1,36,38,40,42,44,46,-1,-1,48,-1,-1,-1,-1,-1,-1,-1,-1,-1,-1,-1,-1,-1,-1,-1,-1,-1,-1,-1,-1],"split_conditions":[3.1641508E1,3.4500008E0,4.2032834E-2,1.4906546E2,6.1247414E1,4.2604157E-1,4.740757E1,2.0999994E0,-1.9202586E0,-3.7048383E-5,-1.7272766E0,-7.439352E-2,4.6323143E1,8.129E7,4.9063015E1,6.0348164E1,-5.2310694E-5,-2.602033E-3,-3.600006E-1,-3.3856344E-5,-1.1217552E0,-1.3999996E0,2.0497844E0,8.8028E8,2.077074E0,-2.9099998E0,-1.12224654E-4,1.1725625E-4,4.66077E7,7.231638E-5,2.0177756E-4,1.649347E-4,4.3344004E-5,2.151685E-5,-1.3343286E-4,4.5845407E-4,2.1939E-4,-3.7537702E-5,-1.5681946E-6,8.469235E-7,4.017348E-5,3.043054E-4,-1.4002218E-4,-8.06253E-5,-1.01203095E-5,-4.1941492E-4,-1.1602124E-4,1.7661867E-5,-7.057014E-6],"split_indices":[2,9,8,5,5,3,2,9,3,0,3,3,2,1,2,5,0,8,9,0,3,9,7,6,7,9,0,0,1,0,0,0,0,0,0,0,0,0,0,0,0,0,0,0,0,0,0,0,0],"split_type":[0,0,0,0,0,0,0,0,0,0,0,0,0,0,0,0,0,0,0,0,0,0,0,0,0,0,0,0,0,0,0,0,0,0,0,0,0,0,0,0,0,0,0,0,0,0,0,0,0],"sum_hessian":[2.481E3,4.9E1,2.432E3,3.7E1,1.2E1,2.421E3,1.1E1,2.1E1,1.6E1,2E0,1E1,1.956E3,4.65E2,8E0,3E0,1.9E1,2E0,7E0,9E0,1E0,9E0,9.4E2,1.016E3,2.5E1,4.4E2,7E0,1E0,1E0,2E0,8E0,1.1E1,4E0,3E0,4E0,5E0,4E0,5E0,1.46E2,7.94E2,7.15E2,3.01E2,2E0,2.3E1,3.5E1,4.05E2,6E0,1E0,1E0,1E0],"tree_param":{"num_deleted":"0","num_feature":"11","num_nodes":"49","size_leaf_vector":"1"}},{"base_weights":[1.3272278E-6,1.3185571E-2,-2.6961954E-4,1.599543E-2,-6.3600554E-3,-1.4241695E-4,-2.592088E-2,3.9223782E-4,1.3339117E-2,7.954667E-5,-1.3676878E-4,3.0221307E-4,-2.0093664E-3,-3.738832E-2,6.3610896E-3,1.7031321E-2,5.0019166E-3,-6.282171E-3,4.746014E-4,-9.313451E-3,-1.5741838E-3,-4.1581996E-4,-1.5140312E-4,1.1666996E-4,7.034551E-4,1.4365333E-4,4.4506483E-4,1.0179604E-4,-6.353843E-5,-1.991084E-4,-2.377232E-5,1.4673018E-4,2.0916962E-6,3.022767E-4,-1.386803E-4,3.9821323E-5,-2.2156391E-5,1.7573557E-5,-7.0217293E-6],"categories":[],"categories_nodes":[],"categories_segments":[],"categories_sizes":[],"default_left":[0,0,0,0,0,0,0,0,0,0,0,0,0,0,0,0,0,0,0,0,0,0,0,0,0,0,0,0,0,0,0,0,0,0,0,0,0,0,0],"id":19,"left_children":[1,3,5,7,9,11,13,-1,15,-1,-1,17,19,21,23,25,27,29,31,33,35,-1,-1,-1,37,-1,-1,-1,-1,-1,-1,-1,-1,-1,-1,-1,-1,-1,-1],"loss_changes":[8.869826E-3,2.8477553E-3,7.9349615E-3,2.1916674E-3,8.41963E-4,2.0111138E-3,4.6801297E-3,0E0,1.1768993E-3,0E0,0E0,2.2243157E-3,1.4665718E-3,2.1014363E-4,1.1186833E-4,1.4116047E-3,8.878317E-4,2.6136232E-3,7.1876314E-3,5.101621E-3,1.5806039E-3,0E0,0E0,0E0,5.678144E-6,0E0,0E0,0E0,0E0,0E0,0E0,0E0,0E0,0E0,0E0,0E0,0E0,0E0,0E0],"parents":[2147483647,0,0,1,1,2,2,3,3,4,4,5,5,6,6,8,8,11,11,12,12,13,13,14,14,15,15,16,16,17,17,18,18,19,19,20,20,24,24],"right_children":[2,4,6,8,10,12,14,-1,16,-1,-1,18,20,22,24,26,28,30,32,34,36,-1,-1,-1,38,-1,-1,-1,-1,-1,-1,-1,-1,-1,-1,-1,-1,-1,-1],"split_conditions":[3.1641508E1,3.006639E-3,4.2032834E-2,-6.1238166E-2,-5.321846E-3,4.2604157E-1,4.740757E1,3.9223782E-4,1.4598505E2,7.954667E-5,-1.3676878E-4,-3.670878E-2,4.6323143E1,2.4650943E-2,4.9063015E1,1.3019373E2,1.594376E-2,-8.183395E-1,-1.993161E-2,8.8028E8,5.2164593E1,-4.1581996E-4,-1.5140312E-4,1.1666996E-4,7.282504E-2,1.4365333E-4,4.4506483E-4,1.0179604E-4,-6.353843E-5,-1.991084E-4,-2.377232E-5,1.4673018E-4,2.0916962E-6,3.022767E-4,-1.386803E-4,3.9821323E-5,-2.2156391E-5,1.7573557E-5,-7.0217293E-6],"split_indices":[2,0,8,0,8,3,2,0,4,0,0,0,2,10,2,4,10,3,8,6,2,0,0,0,0,0,0,0,0,0,0,0,0,0,0,0,0,0,0],"split_type":[0,0,0,0,0,0,0,0,0,0,0,0,0,0,0,0,0,0,0,0,0,0,0,0,0,0,0,0,0,0,0,0,0,0,0,0,0,0,0],"sum_hessian":[2.481E3,4.9E1,2.432E3,4.3E1,6E0,2.421E3,1.1E1,3E0,4E1,2E0,4E0,1.956E3,4.65E2,8E0,3E0,2.7E1,1.3E1,4.9E1,1.907E3,2.5E1,4.4E2,6E0,2E0,1E0,2E0,2.6E1,1E0,9E0,4E0,1E1,3.9E1,3.4E1,1.873E3,2E0,2.3E1,4.5E1,3.95E2,1E0,1E0],"tree_param":{"num_deleted":"0","num_feature":"11","num_nodes":"39","size_leaf_vector":"1"}},{"base_weights":[1.5674256E-6,1.2637409E-4,-2.5698336E-2,3.2737327E-5,1.931138E-2,-3.4140356E-2,-2.7920617E-4,1.4885778E-3,-5.20876E-4,3.8929604E-4,8.44646E-3,1.7485689E-5,-3.8845044E-2,-8.111383E-3,1.16086616E-4,3.3193924E-2,1.2984889E-3,-5.3492547E-3,-2.0942865E-4,1.3018016E-2,-5.224889E-4,-4.122558E-4,-1.1090652E-4,-1.14684124E-4,-6.9866205E-6,-6.935478E-5,4.888222E-4,-3.094233E-4,1.5367985E-5,-5.9107137E-5,2.7363416E-4,-1.2981208E-4,-1.3268766E-6,1.4294713E-4,3.317261E-5,-3.336937E-5,1.5279731E-5],"categories":[],"categories_nodes":[],"categories_segments":[],"categories_sizes":[],"default_left":[0,0,0,0,0,0,0,0,0,0,0,0,0,0,0,0,0,0,0,0,0,0,0,0,0,0,0,0,0,0,0,0,0,0,0,0,0],"id":20,"left_children":[1,3,5,7,9,11,13,15,17,-1,19,-1,21,23,-1,25,27,29,31,33,35,-1,-1,-1,-1,-1,-1,-1,-1,-1,-1,-1,-1,-1,-1,-1,-1],"loss_changes":[7.96431E-3,4.438326E-3,2.5655339E-3,1.9834682E-3,2.2289879E-3,1.587538E-3,4.6659383E-4,4.04309E-3,2.6801298E-3,0E0,3.758202E-4,0E0,7.1343035E-5,6.6641645E-5,0E0,2.8572693E-3,5.233773E-3,2.1453535E-3,1.6409568E-3,2.689031E-5,2.8182427E-5,0E0,0E0,0E0,0E0,0E0,0E0,0E0,0E0,0E0,0E0,0E0,0E0,0E0,0E0,0E0,0E0],"parents":[2147483647,0,0,1,1,2,2,3,3,4,4,5,5,6,6,7,7,8,8,10,10,12,12,13,13,15,15,16,16,17,17,18,18,19,19,20,20],"right_children":[2,4,6,8,10,12,14,16,18,-1,20,-1,22,24,-1,26,28,30,32,34,36,-1,-1,-1,-1,-1,-1,-1,-1,-1,-1,-1,-1,-1,-1,-1,-1],"split_conditions":[4.2032834E-2,1.0040001E1,-2.9099998E0,-2.9193282E-3,-6.1238166E-2,5.5704643E1,5.0790768E1,-3.8400002E0,-1.1299668E-2,3.8929604E-4,1.4290538E2,1.7485689E-5,2.4650943E-2,7.282504E-2,1.16086616E-4,-3.8541522E-2,-2.0800009E0,1.5800009E0,-2.8521097E-3,8.759596E-3,-4.1908443E-2,-4.122558E-4,-1.1090652E-4,-1.14684124E-4,-6.9866205E-6,-6.935478E-5,4.888222E-4,-3.094233E-4,1.5367985E-5,-5.9107137E-5,2.7363416E-4,-1.2981208E-4,-1.3268766E-6,1.4294713E-4,3.317261E-5,-3.336937E-5,1.5279731E-5],"split_indices":[8,9,9,8,0,5,4,9,0,0,4,0,10,0,0,0,9,9,8,10,0,0,0,0,0,0,0,0,0,0,0,0,0,0,0,0,0],"split_type":[0,0,0,0,0,0,0,0,0,0,0,0,0,0,0,0,0,0,0,0,0,0,0,0,0,0,0,0,0,0,0,0,0,0,0,0,0],"sum_hessian":[2.481E3,2.47E3,1.1E1,2.459E3,1.1E1,8E0,3E0,6.77E2,1.782E3,3E0,8E0,1E0,7E0,2E0,1E0,3E0,6.74E2,1.07E2,1.675E3,5E0,3E0,6E0,1E0,1E0,1E0,1E0,2E0,4E0,6.7E2,1.06E2,1E0,9E0,1.666E3,4E0,1E0,1E0,2E0],"tree_param":{"num_deleted":"0","num_feature":"11","num_nodes":"37","size_leaf_vector":"1"}},{"base_weights":[1.6504234E-6,1.3046828E-2,-2.6643858E-4,8.3183125E-3,2.586504E-2,-1.4138628E-4,-2.5483958E-2,1.1257928E-2,-6.3082622E-3,-3.7861537E-5,3.1600364E-2,-8.619106E-3,-5.294408E-5,-3.677756E-4,6.2976377E-3,1.36288E-2,-1.2873186E-3,7.89139E-5,-1.35664E-4,3.542445E-4,-3.3202527E-5,6.669485E-3,-1.2774728E-2,1.4011748E-3,-5.797328E-4,1.15506184E-4,6.964382E-4,1.6517189E-4,4.704224E-5,-7.481348E-5,7.400492E-5,-3.390591E-6,1.3791048E-4,-6.966487E-5,-2.5166207E-4,3.296685E-4,1.2001294E-5,-6.135205E-5,-2.5219908E-6,1.739826E-5,-6.9516873E-6],"categories":[],"categories_nodes":[],"categories_segments":[],"categories_sizes":[],"default_left":[0,0,0,0,0,0,0,0,0,0,0,0,0,0,0,0,0,0,0,0,0,0,0,0,0,0,0,0,0,0,0,0,0,0,0,0,0,0,0,0,0],"id":21,"left_children":[1,3,5,7,9,11,13,15,17,-1,19,21,23,-1,25,27,29,-1,-1,-1,-1,31,33,35,37,-1,39,-1,-1,-1,-1,-1,-1,-1,-1,-1,-1,-1,-1,-1,-1],"loss_changes":[8.683697E-3,2.815403E-3,7.6688835E-3,1.7048852E-3,2.3304122E-3,1.8155306E-3,4.5387563E-3,9.693266E-4,8.284992E-4,0E0,1.5865518E-3,1.6735409E-3,1.8377125E-3,0E0,1.0964769E-4,6.182962E-4,3.7824098E-4,0E0,0E0,0E0,0E0,3.0414676E-4,1.264134E-3,4.0092706E-3,3.2027764E-3,0E0,5.5654295E-6,0E0,0E0,0E0,0E0,0E0,0E0,0E0,0E0,0E0,0E0,0E0,0E0,0E0,0E0],"parents":[2147483647,0,0,1,1,2,2,3,3,4,4,5,5,6,6,7,7,8,8,10,10,11,11,12,12,14,14,15,15,16,16,21,21,22,22,23,23,24,24,26,26],"right_children":[2,4,6,8,10,12,14,16,18,-1,20,22,24,-1,26,28,30,-1,-1,-1,-1,32,34,36,38,-1,40,-1,-1,-1,-1,-1,-1,-1,-1,-1,-1,-1,-1,-1,-1],"split_conditions":[3.1641508E1,3.4500008E0,4.2032834E-2,3.006639E-3,6.1247414E1,-4.7075517E-2,4.740757E1,2.0999994E0,-5.321846E-3,-3.7861537E-5,1.7444775E2,4.87115E7,-2.9193282E-3,-3.677756E-4,4.9063015E1,4.2121544E0,3.7914E7,7.89139E-5,-1.35664E-4,3.542445E-4,-3.3202527E-5,3.9924084E1,3.6699991E0,-3.8400002E0,-1.1299668E-2,1.15506184E-4,7.282504E-2,1.6517189E-4,4.704224E-5,-7.481348E-5,7.400492E-5,-3.390591E-6,1.3791048E-4,-6.966487E-5,-2.5166207E-4,3.296685E-4,1.2001294E-5,-6.135205E-5,-2.5219908E-6,1.739826E-5,-6.9516873E-6],"split_indices":[2,9,8,0,5,0,2,9,8,0,5,1,8,0,2,7,1,0,0,0,0,2,9,9,0,0,0,0,0,0,0,0,0,0,0,0,0,0,0,0,0],"split_type":[0,0,0,0,0,0,0,0,0,0,0,0,0,0,0,0,0,0,0,0,0,0,0,0,0,0,0,0,0,0,0,0,0,0,0,0,0,0,0,0,0],"sum_hessian":[2.481E3,4.9E1,2.432E3,3.7E1,1.2E1,2.421E3,1.1E1,3.1E1,6E0,2E0,1E1,2.4E1,2.397E3,8E0,3E0,2.6E1,5E0,2E0,4E0,9E0,1E0,5E0,1.9E1,6.37E2,1.76E3,1E0,2E0,1.9E1,7E0,3E0,2E0,3E0,2E0,1.4E1,5E0,3E0,6.34E2,9.7E1,1.663E3,1E0,1E0],"tree_param":{"num_deleted":"0","num_feature":"11","num_nodes":"41","size_leaf_vector":"1"}},{"base_weights":[1.7495697E-6,1.2925116E-2,-2.6383615E-4,8.2391985E-3,2.5628174E-2,-2.7462896E-2,-1.5151998E-4,1.1151955E-2,-6.2532867E-3,-3.7609123E-5,3.1313546E-2,-3.6260556E-2,-5.2012648E-3,2.7650516E-4,-1.9505537E-3,1.3500372E-2,-1.2745804E-3,8.322625E-5,-1.0069709E-2,3.849532E-2,-6.6962885E-4,-1.9012387E-4,-4.4443583E-4,-1.1015598E-4,6.120868E-5,-6.2121833E-3,4.4622135E-4,1.3937012E-2,-2.1880807E-3,1.8116782E-4,6.220125E-5,7.351156E-5,-7.425237E-5,3.435546E-5,-1.345787E-4,1.10399684E-4,4.0547244E-4,-3.3036515E-5,2.299208E-5,-1.9697509E-4,-2.348414E-5,1.3733172E-6,4.4115477E-5,-6.0548177E-6,3.352883E-4,-1.2298979E-4,-1.6277841E-5],"categories":[],"categories_nodes":[],"categories_segments":[],"categories_sizes":[],"default_left":[0,0,0,0,0,0,0,0,0,0,0,0,0,0,0,0,0,0,0,0,0,0,0,0,0,0,0,0,0,0,0,0,0,0,0,0,0,0,0,0,0,0,0,0,0,0,0],"id":22,"left_children":[1,3,5,7,9,11,13,15,17,-1,19,21,23,25,27,29,31,-1,33,35,37,-1,-1,-1,-1,39,41,43,45,-1,-1,-1,-1,-1,-1,-1,-1,-1,-1,-1,-1,-1,-1,-1,-1,-1,-1],"loss_changes":[8.522284E-3,2.7651181E-3,7.4283965E-3,1.673833E-3,2.2899099E-3,1.7699027E-3,1.867096E-3,9.510536E-4,4.7320136E-4,0E0,2.552433E-3,1.4301669E-4,3.307477E-4,2.1600924E-3,1.7890517E-3,7.9474365E-4,3.7290776E-4,0E0,3.2078294E-4,5.9385784E-5,3.1055733E-5,0E0,0E0,0E0,0E0,2.5589513E-3,2.3388544E-3,2.0146987E-3,2.5859266E-3,0E0,0E0,0E0,0E0,0E0,0E0,0E0,0E0,0E0,0E0,0E0,0E0,0E0,0E0,0E0,0E0,0E0,0E0],"parents":[2147483647,0,0,1,1,2,2,3,3,4,4,5,5,6,6,7,7,8,8,10,10,11,11,12,12,13,13,14,14,15,15,16,16,18,18,19,19,20,20,25,25,26,26,27,27,28,28],"right_children":[2,4,6,8,10,12,14,16,18,-1,20,22,24,26,28,30,32,-1,34,36,38,-1,-1,-1,-1,40,42,44,46,-1,-1,-1,-1,-1,-1,-1,-1,-1,-1,-1,-1,-1,-1,-1,-1,-1,-1],"split_conditions":[3.1641508E1,3.4500008E0,-6.1500015E0,3.006639E-3,6.1247414E1,-2.0268954E-1,4.2604157E-1,2.0999994E0,2.8695461E1,-3.7609123E-5,1.4598505E2,4.261558E-2,1.9344836E-2,-3.670878E-2,-3.8400002E0,1.2482012E2,2.8695461E1,8.322625E-5,3.5309845E1,-1.4001901E0,-4.1908443E-2,-1.9012387E-4,-4.4443583E-4,-1.1015598E-4,6.120868E-5,-8.183395E-1,1.8100004E0,-4.83E0,4.6323143E1,1.8116782E-4,6.220125E-5,7.351156E-5,-7.425237E-5,3.435546E-5,-1.345787E-4,1.10399684E-4,4.0547244E-4,-3.3036515E-5,2.299208E-5,-1.9697509E-4,-2.348414E-5,1.3733172E-6,4.4115477E-5,-6.0548177E-6,3.352883E-4,-1.2298979E-4,-1.6277841E-5],"split_indices":[2,9,9,0,5,3,3,9,2,0,4,0,0,0,9,4,2,0,4,3,0,0,0,0,0,3,9,9,2,0,0,0,0,0,0,0,0,0,0,0,0,0,0,0,0,0,0],"split_type":[0,0,0,0,0,0,0,0,0,0,0,0,0,0,0,0,0,0,0,0,0,0,0,0,0,0,0,0,0,0,0,0,0,0,0,0,0,0,0,0,0,0,0,0,0,0,0],"sum_hessian":[2.481E3,4.9E1,2.432E3,3.7E1,1.2E1,9E0,2.423E3,3.1E1,6E0,2E0,1E1,6E0,3E0,1.958E3,4.65E2,2.6E1,5E0,1E0,5E0,8E0,2E0,3E0,3E0,2E0,1E0,4.9E1,1.909E3,6E0,4.59E2,1.5E1,1.1E1,2E0,3E0,1E0,4E0,1E0,7E0,1E0,1E0,1E1,3.9E1,1.772E3,1.37E2,4E0,2E0,2.3E1,4.36E2],"tree_param":{"num_deleted":"0","num_feature":"11","num_nodes":"47","size_leaf_vector":"1"}},{"base_weights":[1.7422421E-6,1.2809742E-2,-2.614726E-4,8.162744E-3,2.5407908E-2,-1.3827192E-4,-2.5105689E-2,1.1048018E-2,-6.193182E-3,-3.7358397E-5,3.1046394E-2,2.9720817E-4,-1.9668047E-3,-3.6260713E-2,6.2695323E-3,1.3374382E-2,-1.2619583E-3,7.7995865E-5,-1.3350206E-4,3.8167685E-2,-6.6628057E-4,-6.1544706E-3,4.6612156E-4,-1.1963658E-2,-1.6535093E-3,-4.0339737E-4,-1.4656078E-4,1.14921786E-4,6.979241E-4,1.7946938E-4,6.163108E-5,1.041833E-4,-5.6816818E-5,1.09847686E-4,4.0192454E-4,-3.287133E-5,2.287712E-5,-1.951844E-4,-2.3255168E-5,1.444578E-4,2.0477994E-6,-2.7468527E-4,-2.9778466E-6,1.0899432E-4,-2.1082891E-5,1.73044E-5,-6.83554E-6],"categories":[],"categories_nodes":[],"categories_segments":[],"categories_sizes":[],"default_left":[0,0,0,0,0,0,0,0,0,0,0,0,0,0,0,0,0,0,0,0,0,0,0,0,0,0,0,0,0,0,0,0,0,0,0,0,0,0,0,0,0,0,0,0,0,0,0],"id":23,"left_children":[1,3,5,7,9,11,13,15,17,-1,19,21,23,25,27,29,31,-1,-1,33,35,37,39,41,43,-1,-1,-1,45,-1,-1,-1,-1,-1,-1,-1,-1,-1,-1,-1,-1,-1,-1,-1,-1,-1,-1],"loss_changes":[8.3708055E-3,2.7197842E-3,7.4435147E-3,1.6424116E-3,2.2522304E-3,1.9291979E-3,4.4272323E-3,9.3327765E-4,8.0515223E-4,0E0,2.5096172E-3,2.135558E-3,1.4397147E-3,2.0191073E-4,1.083735E-4,7.7968836E-4,3.6893555E-4,0E0,0E0,5.384721E-5,3.074595E-5,2.5131109E-3,6.9678556E-3,2.5241098E-3,2.6090767E-3,0E0,0E0,0E0,5.4620446E-6,0E0,0E0,0E0,0E0,0E0,0E0,0E0,0E0,0E0,0E0,0E0,0E0,0E0,0E0,0E0,0E0,0E0,0E0],"parents":[2147483647,0,0,1,1,2,2,3,3,4,4,5,5,6,6,7,7,8,8,10,10,11,11,12,12,13,13,14,14,15,15,16,16,19,19,20,20,21,21,22,22,23,23,24,24,28,28],"right_children":[2,4,6,8,10,12,14,16,18,-1,20,22,24,26,28,30,32,-1,-1,34,36,38,40,42,44,-1,-1,-1,46,-1,-1,-1,-1,-1,-1,-1,-1,-1,-1,-1,-1,-1,-1,-1,-1,-1,-1],"split_conditions":[3.1641508E1,3.4500008E0,4.2032834E-2,3.006639E-3,1.3078377E0,4.2604157E-1,4.740757E1,2.0999994E0,-5.321846E-3,-3.7358397E-5,1.4598505E2,-3.670878E-2,5.028205E1,2.4650943E-2,4.9063015E1,1.2482012E2,-1.9202586E0,7.7995865E-5,-1.3350206E-4,-1.4001901E0,-4.1908443E-2,-8.183395E-1,-1.993161E-2,-5.300007E-1,-3.0900002E0,-4.0339737E-4,-1.4656078E-4,1.14921786E-4,7.282504E-2,1.7946938E-4,6.163108E-5,1.041833E-4,-5.6816818E-5,1.09847686E-4,4.0192454E-4,-3.287133E-5,2.287712E-5,-1.951844E-4,-2.3255168E-5,1.444578E-4,2.0477994E-6,-2.7468527E-4,-2.9778466E-6,1.0899432E-4,-2.1082891E-5,1.73044E-5,-6.83554E-6],"split_indices":[2,9,8,0,7,3,2,9,8,0,4,0,4,10,2,4,3,0,0,3,0,3,8,9,9,0,0,0,0,0,0,0,0,0,0,0,0,0,0,0,0,0,0,0,0,0,0],"split_type":[0,0,0,0,0,0,0,0,0,0,0,0,0,0,0,0,0,0,0,0,0,0,0,0,0,0,0,0,0,0,0,0,0,0,0,0,0,0,0,0,0,0,0,0,0,0,0],"sum_hessian":[2.481E3,4.9E1,2.432E3,3.7E1,1.2E1,2.421E3,1.1E1,3.1E1,6E0,2E0,1E1,1.956E3,4.65E2,8E0,3E0,2.6E1,5E0,2E0,4E0,8E0,2E0,4.9E1,1.907E3,1.3E1,4.52E2,6E0,2E0,1E0,2E0,1.5E1,1.1E1,1E0,4E0,1E0,7E0,1E0,1E0,1E1,3.9E1,3.4E1,1.873E3,5E0,8E0,1.5E1,4.37E2,1E0,1E0],"tree_param":{"num_deleted":"0","num_feature":"11","num_nodes":"47","size_leaf_vector":"1"}},{"base_weights":[1.7293839E-6,1.2695593E-2,-2.5913987E-4,1.5403497E-2,-6.1391797E-3,-1.2237197E-4,-1.0517182E-2,3.7766402E-4,1.2846055E-2,8.242015E-5,-9.909715E-3,-8.402036E-3,-3.527611E-5,-3.9177783E-2,-3.758634E-3,1.057278E-2,3.1230656E-2,3.37937E-5,-1.3243406E-4,-3.5534776E-4,-4.4976766E-3,3.498488E-4,-1.6997638E-3,-4.2551503E-4,-1.1154588E-4,-7.348036E-3,1.8717438E-2,1.499836E-4,2.786998E-5,4.095445E-4,1.0296318E-5,-1.4671648E-5,-2.4212035E-4,-6.4133324E-6,1.26095565E-5,-1.3678022E-4,-1.33788535E-5,-1.9890573E-5,-2.3093462E-4,2.6921832E-4,7.008694E-5],"categories":[],"categories_nodes":[],"categories_segments":[],"categories_sizes":[],"default_left":[0,0,0,0,0,0,0,0,0,0,0,0,0,0,0,0,0,0,0,0,0,0,0,0,0,0,0,0,0,0,0,0,0,0,0,0,0,0,0,0,0],"id":24,"left_children":[1,3,5,7,9,11,13,-1,15,-1,17,19,21,23,25,27,29,-1,-1,-1,31,33,35,-1,-1,37,39,-1,-1,-1,-1,-1,-1,-1,-1,-1,-1,-1,-1,-1,-1],"loss_changes":[8.22228E-3,2.6447037E-3,3.4121408E-3,2.0312918E-3,4.6124958E-4,1.7318447E-3,6.051274E-3,0E0,1.3833288E-3,0E0,3.105646E-4,2.488575E-3,1.5249775E-3,9.2609785E-5,2.3157792E-3,1.26755E-3,1.1325064E-3,0E0,0E0,0E0,1.3386029E-3,1.7455453E-3,1.9192996E-3,0E0,0E0,1.9791713E-3,1.9556575E-4,0E0,0E0,0E0,0E0,0E0,0E0,0E0,0E0,0E0,0E0,0E0,0E0,0E0,0E0],"parents":[2147483647,0,0,1,1,2,2,3,3,4,4,5,5,6,6,8,8,10,10,11,11,12,12,13,13,14,14,15,15,16,16,20,20,21,21,22,22,25,25,26,26],"right_children":[2,4,6,8,10,12,14,-1,16,-1,18,20,22,24,26,28,30,-1,-1,-1,32,34,36,-1,-1,38,40,-1,-1,-1,-1,-1,-1,-1,-1,-1,-1,-1,-1,-1,-1],"split_conditions":[3.1641508E1,3.006639E-3,4.60641E-2,-6.1238166E-2,2.8695461E1,-4.7075517E-2,4.740757E1,3.7766402E-4,5.3405256E0,8.242015E-5,3.5309845E1,-1.0211391E0,4.2604157E-1,2.4650943E-2,1.5988943E2,1.2482012E2,2.9720123E2,3.37937E-5,-1.3243406E-4,-3.5534776E-4,4.662762E1,-7.439352E-2,5.028205E1,-4.2551503E-4,-1.1154588E-4,8.6144775E-1,6.829745E1,1.499836E-4,2.786998E-5,4.095445E-4,1.0296318E-5,-1.4671648E-5,-2.4212035E-4,-6.4133324E-6,1.26095565E-5,-1.3678022E-4,-1.33788535E-5,-1.9890573E-5,-2.3093462E-4,2.6921832E-4,7.008694E-5],"split_indices":[2,0,0,0,2,0,2,0,7,0,4,3,3,10,4,4,4,0,0,0,2,3,4,0,0,3,2,0,0,0,0,0,0,0,0,0,0,0,0,0,0],"split_type":[0,0,0,0,0,0,0,0,0,0,0,0,0,0,0,0,0,0,0,0,0,0,0,0,0,0,0,0,0,0,0,0,0,0,0,0,0,0,0,0,0],"sum_hessian":[2.481E3,4.9E1,2.432E3,4.3E1,6E0,2.401E3,3.1E1,3E0,4E1,1E0,5E0,2.4E1,2.377E3,5E0,2.6E1,3.7E1,3E0,1E0,4E0,2E0,2.2E1,1.931E3,4.46E2,4E0,1E0,2.3E1,3E0,2.3E1,1.4E1,2E0,1E0,2E1,2E0,9.25E2,1.006E3,1.2E1,4.34E2,1.8E1,5E0,1E0,2E0],"tree_param":{"num_deleted":"0","num_feature":"11","num_nodes":"41","size_leaf_vector":"1"}},{"base_weights":[1.6131589E-6,1.2587819E-2,-2.570436E-4,1.5271629E-2,-6.080105E-3,-1.3567277E-4,-2.4732303E-2,3.7483155E-4,1.2732172E-2,7.708852E-5,-1.3137457E-4,2.9143458E-4,-1.9290493E-3,-3.575556E-2,6.253103E-3,1.0471732E-2,3.102331E-2,-6.071813E-3,4.580336E-4,-2.059484E-2,-1.7636233E-3,-3.9748984E-4,-1.4519051E-4,1.1444664E-4,7.076949E-4,1.4126241E-4,2.3571958E-5,4.0681424E-4,1.0244837E-5,-1.9268725E-4,-2.2908667E-5,1.4307875E-4,1.9912086E-6,-2.5181772E-4,-3.417024E-5,1.9829995E-4,-1.9950056E-5,1.7317332E-5,-6.7019096E-6],"categories":[],"categories_nodes":[],"categories_segments":[],"categories_sizes":[],"default_left":[0,0,0,0,0,0,0,0,0,0,0,0,0,0,0,0,0,0,0,0,0,0,0,0,0,0,0,0,0,0,0,0,0,0,0,0,0,0,0],"id":25,"left_children":[1,3,5,7,9,11,13,-1,15,-1,-1,17,19,21,23,25,27,29,31,33,35,-1,-1,-1,37,-1,-1,-1,-1,-1,-1,-1,-1,-1,-1,-1,-1,-1,-1],"loss_changes":[8.083405E-3,2.5979113E-3,7.224072E-3,2.004587E-3,7.824696E-4,1.8557278E-3,4.322305E-3,0E0,1.3703187E-3,0E0,0E0,2.077418E-3,1.4025966E-3,1.8614065E-4,1.0705793E-4,1.0935785E-3,1.1172513E-3,2.4506988E-3,6.839049E-3,2.2912712E-4,2.3528852E-3,0E0,0E0,0E0,5.3936164E-6,0E0,0E0,0E0,0E0,0E0,0E0,0E0,0E0,0E0,0E0,0E0,0E0,0E0,0E0],"parents":[2147483647,0,0,1,1,2,2,3,3,4,4,5,5,6,6,8,8,11,11,12,12,13,13,14,14,15,15,16,16,17,17,18,18,19,19,20,20,24,24],"right_children":[2,4,6,8,10,12,14,-1,16,-1,-1,18,20,22,24,26,28,30,32,34,36,-1,-1,-1,38,-1,-1,-1,-1,-1,-1,-1,-1,-1,-1,-1,-1,-1,-1],"split_conditions":[3.1641508E1,3.006639E-3,4.2032834E-2,-6.1238166E-2,-5.321846E-3,4.2604157E-1,4.740757E1,3.7483155E-4,5.3405256E0,7.708852E-5,-1.3137457E-4,-3.670878E-2,3.962569E1,2.4650943E-2,4.9063015E1,1.4906546E2,9.423094E0,-8.183395E-1,-1.993161E-2,-1.6540531E-2,4.1461697E1,-3.9748984E-4,-1.4519051E-4,1.1444664E-4,7.282504E-2,1.4126241E-4,2.3571958E-5,4.0681424E-4,1.0244837E-5,-1.9268725E-4,-2.2908667E-5,1.4307875E-4,1.9912086E-6,-2.5181772E-4,-3.417024E-5,1.9829995E-4,-1.9950056E-5,1.7317332E-5,-6.7019096E-6],"split_indices":[2,0,8,0,8,3,2,0,7,0,0,0,2,10,2,5,7,3,8,0,2,0,0,0,0,0,0,0,0,0,0,0,0,0,0,0,0,0,0],"split_type":[0,0,0,0,0,0,0,0,0,0,0,0,0,0,0,0,0,0,0,0,0,0,0,0,0,0,0,0,0,0,0,0,0,0,0,0,0,0,0],"sum_hessian":[2.481E3,4.9E1,2.432E3,4.3E1,6E0,2.421E3,1.1E1,3E0,4E1,2E0,4E0,1.956E3,4.65E2,8E0,3E0,3.7E1,3E0,4.9E1,1.907E3,3E0,4.62E2,6E0,2E0,1E0,2E0,2.5E1,1.2E1,2E0,1E0,1E1,3.9E1,3.4E1,1.873E3,2E0,1E0,4E0,4.58E2,1E0,1E0],"tree_param":{"num_deleted":"0","num_feature":"11","num_nodes":"39","size_leaf_vector":"1"}},{"base_weights":[1.7205872E-6,1.247999E-2,-2.5471803E-4,1.5140656E-2,-6.027059E-3,-1.343896E-4,-2.4519783E-2,3.720203E-4,1.2619044E-2,7.657459E-5,-1.3032358E-4,2.8848424E-4,-1.9099897E-3,-3.5458304E-2,6.221837E-3,1.0371353E-2,3.0817341E-2,-6.6918754E-3,4.3762676E-4,-1.465074E-3,-8.8174185E-3,-3.72388E-4,-1.0607166E-4,1.1387439E-4,7.041564E-4,1.471925E-4,2.7232938E-5,4.0410212E-4,1.0193613E-5,-2.9711338E-4,-2.6694126E-5,1.1729352E-4,1.9074432E-6,1.7753451E-6,-3.1772684E-5,-2.050946E-4,-2.1996371E-5,1.7230746E-5,-6.6683997E-6],"categories":[],"categories_nodes":[],"categories_segments":[],"categories_sizes":[],"default_left":[0,0,0,0,0,0,0,0,0,0,0,0,0,0,0,0,0,0,0,0,0,0,0,0,0,0,0,0,0,0,0,0,0,0,0,0,0,0,0],"id":26,"left_children":[1,3,5,7,9,11,13,-1,15,-1,-1,17,19,21,23,25,27,29,31,33,35,-1,-1,-1,37,-1,-1,-1,-1,-1,-1,-1,-1,-1,-1,-1,-1,-1,-1],"loss_changes":[7.945356E-3,2.5533084E-3,7.1005234E-3,1.9782772E-3,7.708438E-4,1.8191213E-3,4.255831E-3,0E0,1.357452E-3,0E0,0E0,2.0402998E-3,1.4192039E-3,3.227964E-6,1.05990024E-4,1.2235283E-3,1.1022007E-3,3.7170807E-3,5.3418386E-3,1.2352364E-3,2.121397E-3,0E0,0E0,0E0,5.339815E-6,0E0,0E0,0E0,0E0,0E0,0E0,0E0,0E0,0E0,0E0,0E0,0E0,0E0,0E0],"parents":[2147483647,0,0,1,1,2,2,3,3,4,4,5,5,6,6,8,8,11,11,12,12,13,13,14,14,15,15,16,16,17,17,18,18,19,19,20,20,24,24],"right_children":[2,4,6,8,10,12,14,-1,16,-1,-1,18,20,22,24,26,28,30,32,34,36,-1,-1,-1,38,-1,-1,-1,-1,-1,-1,-1,-1,-1,-1,-1,-1,-1,-1],"split_conditions":[3.1641508E1,3.006639E-3,4.2032834E-2,-6.1238166E-2,-5.321846E-3,4.2604157E-1,4.740757E1,3.720203E-4,5.3405256E0,7.657459E-5,-1.3032358E-4,-3.8541522E-2,6.464E7,8.129E7,4.9063015E1,1.2482012E2,2.9720123E2,-8.9859235E-1,-1.993161E-2,3.214841E-3,7.1342E7,-3.72388E-4,-1.0607166E-4,1.1387439E-4,7.282504E-2,1.471925E-4,2.7232938E-5,4.0410212E-4,1.0193613E-5,-2.9711338E-4,-2.6694126E-5,1.1729352E-4,1.9074432E-6,1.7753451E-6,-3.1772684E-5,-2.050946E-4,-2.1996371E-5,1.7230746E-5,-6.6683997E-6],"split_indices":[2,0,8,0,8,3,2,0,7,0,0,0,1,1,2,4,4,3,8,0,1,0,0,0,0,0,0,0,0,0,0,0,0,0,0,0,0,0,0],"split_type":[0,0,0,0,0,0,0,0,0,0,0,0,0,0,0,0,0,0,0,0,0,0,0,0,0,0,0,0,0,0,0,0,0,0,0,0,0,0,0],"sum_hessian":[2.481E3,4.9E1,2.432E3,4.3E1,6E0,2.421E3,1.1E1,3E0,4E1,2E0,4E0,1.956E3,4.65E2,8E0,3E0,3.7E1,3E0,4E1,1.916E3,4.38E2,2.7E1,7E0,1E0,1E0,2E0,2.3E1,1.4E1,2E0,1E0,5E0,3.5E1,4E1,1.876E3,2.24E2,2.14E2,9E0,1.8E1,1E0,1E0],"tree_param":{"num_deleted":"0","num_feature":"11","num_nodes":"39","size_leaf_vector":"1"}},{"base_weights":[1.7401267E-6,1.237333E-2,-2.5250617E-4,7.857481E-3,2.462171E-2,-2.662664E-2,-1.435978E-4,1.0637673E-2,-5.974467E-3,-4.003226E-5,3.0190174E-2,-1.3517394E-2,-4.2911164E-2,-8.212499E-3,-5.9486913E-5,1.29247075E-2,-1.4269279E-3,7.606409E-5,-1.2928099E-2,3.3871196E-2,-3.310035E-5,-1.8473697E-4,-5.1817405E-3,-4.8355613E-4,-1.328891E-4,6.848658E-3,-1.2320222E-2,1.3709922E-3,-5.7711947E-4,1.6354444E-4,4.2480733E-5,-7.565823E-5,7.233909E-5,-1.419675E-4,-3.9267474E-5,1.3512671E-4,4.0665898E-4,-1.0962978E-4,6.080986E-5,-5.685119E-7,1.3773117E-4,-6.605967E-5,-2.4552486E-4,3.2616395E-4,1.1720117E-5,-6.0604063E-5,-2.5422676E-6],"categories":[],"categories_nodes":[],"categories_segments":[],"categories_sizes":[],"default_left":[0,0,0,0,0,0,0,0,0,0,0,0,0,0,0,0,0,0,0,0,0,0,0,0,0,0,0,0,0,0,0,0,0,0,0,0,0,0,0,0,0,0,0,0,0,0,0],"id":27,"left_children":[1,3,5,7,9,11,13,15,17,-1,19,21,23,25,27,29,31,-1,33,35,-1,-1,37,-1,-1,39,41,43,45,-1,-1,-1,-1,-1,-1,-1,-1,-1,-1,-1,-1,-1,-1,-1,-1,-1,-1],"loss_changes":[7.8100837E-3,2.5721272E-3,6.984637E-3,1.5248626E-3,2.1930179E-3,1.5547317E-3,1.6446379E-3,9.0139173E-4,7.5939135E-4,0E0,1.4685811E-3,1.9347249E-4,2.5136396E-6,1.6310532E-3,1.7779014E-3,7.340065E-4,3.7373832E-4,0E0,1.3508834E-6,8.3379634E-4,0E0,0E0,3.2711567E-4,0E0,0E0,2.8768447E-4,1.2357729E-3,3.9283624E-3,3.1198743E-3,0E0,0E0,0E0,0E0,0E0,0E0,0E0,0E0,0E0,0E0,0E0,0E0,0E0,0E0,0E0,0E0,0E0,0E0],"parents":[2147483647,0,0,1,1,2,2,3,3,4,4,5,5,6,6,7,7,8,8,10,10,11,11,12,12,13,13,14,14,15,15,16,16,18,18,19,19,22,22,25,25,26,26,27,27,28,28],"right_children":[2,4,6,8,10,12,14,16,18,-1,20,22,24,26,28,30,32,-1,34,36,-1,-1,38,-1,-1,40,42,44,46,-1,-1,-1,-1,-1,-1,-1,-1,-1,-1,-1,-1,-1,-1,-1,-1,-1,-1],"split_conditions":[3.1641508E1,3.4500008E0,-6.1500015E0,3.006639E-3,6.1247414E1,4.261558E-2,-4.7075517E-2,2.0999994E0,-5.321846E-3,-4.003226E-5,1.7444775E2,4.1877666E1,3.8975857E1,4.87115E7,-2.9193282E-3,2.4650943E-2,3.7914E7,7.606409E-5,1.0745959E-2,-1.2900694E-3,-3.310035E-5,-1.8473697E-4,1.9344836E-2,-4.8355613E-4,-1.328891E-4,3.9924084E1,3.6699991E0,-3.8400002E0,-1.1299668E-2,1.6354444E-4,4.2480733E-5,-7.565823E-5,7.233909E-5,-1.419675E-4,-3.9267474E-5,1.3512671E-4,4.0665898E-4,-1.0962978E-4,6.080986E-5,-5.685119E-7,1.3773117E-4,-6.605967E-5,-2.4552486E-4,3.2616395E-4,1.1720117E-5,-6.0604063E-5,-2.5422676E-6],"split_indices":[2,9,9,0,5,0,0,9,8,0,5,2,2,1,8,10,1,0,0,10,0,0,0,0,0,2,9,9,0,0,0,0,0,0,0,0,0,0,0,0,0,0,0,0,0,0,0],"split_type":[0,0,0,0,0,0,0,0,0,0,0,0,0,0,0,0,0,0,0,0,0,0,0,0,0,0,0,0,0,0,0,0,0,0,0,0,0,0,0,0,0,0,0,0,0,0,0],"sum_hessian":[2.481E3,4.9E1,2.432E3,3.7E1,1.2E1,9E0,2.423E3,3.1E1,6E0,2E0,1E1,6E0,3E0,2.4E1,2.399E3,2.6E1,5E0,2E0,4E0,9E0,1E0,3E0,3E0,2E0,1E0,5E0,1.9E1,6.37E2,1.762E3,1.8E1,8E0,3E0,2E0,3E0,1E0,3E0,6E0,2E0,1E0,3E0,2E0,1.4E1,5E0,3E0,6.34E2,9.7E1,1.665E3],"tree_param":{"num_deleted":"0","num_feature":"11","num_nodes":"47","size_leaf_vector":"1"}},{"base_weights":[1.6488286E-6,1.19084056E-4,-2.418036E-2,3.0104695E-5,1.834993E-2,-3.4825765E-2,-2.3116404E-3,4.8650743E-4,-1.9342626E-3,3.6685905E-4,8.161726E-3,-1.7083396E-4,-4.2054502E-4,6.1926343E-3,-1.816437E-4,-2.3706693E-2,5.3479546E-4,-1.451451E-3,-9.6948985E-3,1.2676312E-4,-6.50583E-4,7.023305E-4,1.1331773E-4,-3.6891364E-4,7.923659E-5,2.1209487E-6,3.866941E-5,8.689234E-5,-1.8067785E-5,-2.714144E-4,-4.496073E-5,-3.2934848E-5,1.3282124E-5,1.7157303E-5,-6.6223465E-6],"categories":[],"categories_nodes":[],"categories_segments":[],"categories_sizes":[],"default_left":[0,0,0,0,0,0,0,0,0,0,0,0,0,0,0,0,0,0,0,0,0,0,0,0,0,0,0,0,0,0,0,0,0,0,0],"id":28,"left_children":[1,3,5,7,9,11,13,15,17,-1,19,-1,-1,21,-1,23,25,27,29,-1,31,33,-1,-1,-1,-1,-1,-1,-1,-1,-1,-1,-1,-1,-1],"loss_changes":[7.0513124E-3,4.0078275E-3,2.7131117E-3,2.2064357E-3,1.9423068E-3,3.0760653E-4,7.865651E-4,2.345657E-3,1.7245013E-3,0E0,3.6630227E-4,0E0,0E0,1.0490308E-4,0E0,1.960458E-3,2.1432985E-3,1.593929E-3,2.3269118E-3,0E0,2.5293493E-5,5.2847668E-6,0E0,0E0,0E0,0E0,0E0,0E0,0E0,0E0,0E0,0E0,0E0,0E0,0E0],"parents":[2147483647,0,0,1,1,2,2,3,3,4,4,5,5,6,6,7,7,8,8,10,10,13,13,15,15,16,16,17,17,18,18,20,20,21,21],"right_children":[2,4,6,8,10,12,14,16,18,-1,20,-1,-1,22,-1,24,26,28,30,-1,32,34,-1,-1,-1,-1,-1,-1,-1,-1,-1,-1,-1,-1,-1],"split_conditions":[4.2032834E-2,1.0040001E1,-2.0268954E-1,4.2604157E-1,-6.1238166E-2,7.878297E1,6.464E7,-4.3819163E-2,6.464E7,3.6685905E-4,1.4989098E2,-1.7083396E-4,-4.2054502E-4,6.1535847E1,-1.816437E-4,-3.8541522E-2,1.8100004E0,-3.0900002E0,5.999516E-1,1.2676312E-4,-4.1908443E-2,7.282504E-2,1.1331773E-4,-3.6891364E-4,7.923659E-5,2.1209487E-6,3.866941E-5,8.689234E-5,-1.8067785E-5,-2.714144E-4,-4.496073E-5,-3.2934848E-5,1.3282124E-5,1.7157303E-5,-6.6223465E-6],"split_indices":[8,9,3,3,0,5,1,8,1,0,5,0,0,5,0,0,9,9,3,0,0,0,0,0,0,0,0,0,0,0,0,0,0,0,0],"split_type":[0,0,0,0,0,0,0,0,0,0,0,0,0,0,0,0,0,0,0,0,0,0,0,0,0,0,0,0,0,0,0,0,0,0,0],"sum_hessian":[2.481E3,2.47E3,1.1E1,2.459E3,1.1E1,7E0,4E0,1.996E3,4.63E2,3E0,8E0,3E0,4E0,3E0,1E0,3E0,1.993E3,4.37E2,2.6E1,5E0,3E0,2E0,1E0,2E0,1E0,1.818E3,1.75E2,1.4E1,4.23E2,5E0,2.1E1,1E0,2E0,1E0,1E0],"tree_param":{"num_deleted":"0","num_feature":"11","num_nodes":"35","size_leaf_vector":"1"}},{"base_weights":[1.3617009E-6,1.1788408E-4,-2.3992652E-2,2.9601804E-5,1.8205928E-2,-3.4551427E-2,-2.300082E-3,4.815177E-4,-1.9154535E-3,3.641076E-4,8.092011E-3,-1.6955269E-4,-4.1718068E-4,6.161671E-3,-1.8073547E-4,-2.3542047E-2,5.294679E-4,-1.4367794E-3,-9.609667E-3,1.2570676E-2,-6.4899033E-4,6.988188E-4,1.1275114E-4,-3.6645422E-4,7.88404E-5,6.139321E-5,3.4026068E-6,8.6081345E-5,-1.7887533E-5,-2.6915263E-4,-4.4531556E-5,1.3774088E-4,3.2768105E-5,-3.277017E-5,1.3193578E-5,1.7071518E-5,-6.589235E-6],"categories":[],"categories_nodes":[],"categories_segments":[],"categories_sizes":[],"default_left":[0,0,0,0,0,0,0,0,0,0,0,0,0,0,0,0,0,0,0,0,0,0,0,0,0,0,0,0,0,0,0,0,0,0,0,0,0],"id":29,"left_children":[1,3,5,7,9,11,13,15,17,-1,19,-1,-1,21,-1,23,25,27,29,31,33,35,-1,-1,-1,-1,-1,-1,-1,-1,-1,-1,-1,-1,-1,-1,-1],"loss_changes":[6.9421027E-3,3.9452864E-3,2.6690923E-3,2.1632658E-3,1.9148304E-3,3.0150078E-4,7.7871914E-4,2.3128795E-3,1.6951142E-3,0E0,3.6049046E-4,0E0,0E0,1.038567E-4,0E0,1.9360653E-3,2.1143924E-3,1.5639677E-3,2.2895273E-3,2.1970947E-5,2.5015046E-5,5.2320515E-6,0E0,0E0,0E0,0E0,0E0,0E0,0E0,0E0,0E0,0E0,0E0,0E0,0E0,0E0,0E0],"parents":[2147483647,0,0,1,1,2,2,3,3,4,4,5,5,6,6,7,7,8,8,10,10,13,13,15,15,16,16,17,17,18,18,19,19,20,20,21,21],"right_children":[2,4,6,8,10,12,14,16,18,-1,20,-1,-1,22,-1,24,26,28,30,32,34,36,-1,-1,-1,-1,-1,-1,-1,-1,-1,-1,-1,-1,-1,-1,-1],"split_conditions":[4.2032834E-2,1.0040001E1,-2.0268954E-1,4.2604157E-1,-6.1238166E-2,7.878297E1,6.464E7,-4.3819163E-2,6.464E7,3.641076E-4,1.4989098E2,-1.6955269E-4,-4.1718068E-4,6.1535847E1,-1.8073547E-4,-3.8541522E-2,-1.993161E-2,-3.0900002E0,5.999516E-1,8.759596E-3,-4.1908443E-2,7.282504E-2,1.1275114E-4,-3.6645422E-4,7.88404E-5,6.139321E-5,3.4026068E-6,8.6081345E-5,-1.7887533E-5,-2.6915263E-4,-4.4531556E-5,1.3774088E-4,3.2768105E-5,-3.277017E-5,1.3193578E-5,1.7071518E-5,-6.589235E-6],"split_indices":[8,9,3,3,0,5,1,8,1,0,5,0,0,5,0,0,8,9,3,10,0,0,0,0,0,0,0,0,0,0,0,0,0,0,0,0,0],"split_type":[0,0,0,0,0,0,0,0,0,0,0,0,0,0,0,0,0,0,0,0,0,0,0,0,0,0,0,0,0,0,0,0,0,0,0,0,0],"sum_hessian":[2.481E3,2.47E3,1.1E1,2.459E3,1.1E1,7E0,4E0,1.996E3,4.63E2,3E0,8E0,3E0,4E0,3E0,1E0,3E0,1.993E3,4.37E2,2.6E1,5E0,3E0,2E0,1E0,2E0,1E0,6.4E1,1.929E3,1.4E1,4.23E2,5E0,2.1E1,4E0,1E0,1E0,2E0,1E0,1E0],"tree_param":{"num_deleted":"0","num_feature":"11","num_nodes":"37","size_leaf_vector":"1"}},{"base_weights":[1.1073348E-6,1.2191345E-2,-2.4941177E-4,7.7678356E-3,2.4183806E-2,-2.6144935E-2,-1.4247916E-4,1.0522473E-2,-5.9344815E-3,-4.043247E-5,2.9683566E-2,6.0478193E-5,-3.0393887E-2,-4.4706436E-3,1.0970944E-5,1.2792917E-2,-1.4482717E-3,7.5520176E-5,-1.2839485E-4,3.6525358E-2,-7.3633157E-4,-1.7585582E-4,-4.200787E-2,-9.519811E-3,4.6486434E-6,1.2964073E-2,-1.5703772E-4,1.7241071E-4,5.7959664E-5,-5.845804E-5,1.02696955E-4,2.1204166E-4,4.4541477E-4,-3.2606324E-5,2.1561349E-5,-4.747476E-4,-1.2803602E-4,-3.6401118E-4,-7.082953E-5,8.95358E-5,-5.7484023E-5,6.399071E-5,3.815757E-4,-8.950513E-7,-9.8465905E-5],"categories":[],"categories_nodes":[],"categories_segments":[],"categories_sizes":[],"default_left":[0,0,0,0,0,0,0,0,0,0,0,0,0,0,0,0,0,0,0,0,0,0,0,0,0,0,0,0,0,0,0,0,0,0,0,0,0,0,0,0,0,0,0,0,0],"id":30,"left_children":[1,3,5,7,9,11,13,15,17,-1,19,-1,21,23,25,27,29,-1,-1,31,33,-1,35,37,39,41,43,-1,-1,-1,-1,-1,-1,-1,-1,-1,-1,-1,-1,-1,-1,-1,-1,-1,-1],"loss_changes":[7.5827893E-3,2.4645813E-3,6.733436E-3,1.496752E-3,2.1381648E-3,1.5516719E-3,1.6099663E-3,8.8825286E-4,7.488343E-4,0E0,2.3162859E-3,0E0,6.0006604E-4,1.8755536E-3,5.0987746E-3,7.4040657E-4,3.6921553E-4,0E0,0E0,1.6088411E-4,2.8934728E-5,0E0,3.077835E-5,2.2969036E-3,2.3682336E-3,4.717687E-3,1.5126546E-3,0E0,0E0,0E0,0E0,0E0,0E0,0E0,0E0,0E0,0E0,0E0,0E0,0E0,0E0,0E0,0E0,0E0,0E0],"parents":[2147483647,0,0,1,1,2,2,3,3,4,4,5,5,6,6,7,7,8,8,10,10,12,12,13,13,14,14,15,15,16,16,19,19,20,20,22,22,23,23,24,24,25,25,26,26],"right_children":[2,4,6,8,10,12,14,16,18,-1,20,-1,22,24,26,28,30,-1,-1,32,34,-1,36,38,40,42,44,-1,-1,-1,-1,-1,-1,-1,-1,-1,-1,-1,-1,-1,-1,-1,-1,-1,-1],"split_conditions":[3.1641508E1,3.4500008E0,-6.1500015E0,3.006639E-3,6.1247414E1,4.890823E1,-3.0738046E-2,2.0999994E0,-5.321846E-3,-4.043247E-5,1.4598505E2,6.0478193E-5,4.261558E-2,3.9924084E1,-1.993161E-2,1.2482012E2,1.5419957E2,7.5520176E-5,-1.2839485E-4,7.878297E1,-4.1908443E-2,-1.7585582E-4,3.8975857E1,-4.3819163E-2,-2.2285886E-2,-1.7772764E-2,2.9492581E-2,1.7241071E-4,5.7959664E-5,-5.845804E-5,1.02696955E-4,2.1204166E-4,4.4541477E-4,-3.2606324E-5,2.1561349E-5,-4.747476E-4,-1.2803602E-4,-3.6401118E-4,-7.082953E-5,8.95358E-5,-5.7484023E-5,6.399071E-5,3.815757E-4,-8.950513E-7,-9.8465905E-5],"split_indices":[2,9,9,0,5,4,0,9,8,0,4,0,0,2,8,4,4,0,0,5,0,0,2,8,8,0,8,0,0,0,0,0,0,0,0,0,0,0,0,0,0,0,0,0,0],"split_type":[0,0,0,0,0,0,0,0,0,0,0,0,0,0,0,0,0,0,0,0,0,0,0,0,0,0,0,0,0,0,0,0,0,0,0,0,0,0,0,0,0,0,0,0,0],"sum_hessian":[2.481E3,4.9E1,2.432E3,3.7E1,1.2E1,9E0,2.423E3,3.1E1,6E0,2E0,1E1,1E0,8E0,8.2E1,2.341E3,2.6E1,5E0,2E0,4E0,8E0,2E0,5E0,3E0,3.8E1,4.4E1,2.9E1,2.312E3,1.5E1,1.1E1,4E0,1E0,4E0,4E0,1E0,1E0,2E0,1E0,2E0,3.6E1,1.7E1,2.7E1,2.4E1,5E0,2.297E3,1.5E1],"tree_param":{"num_deleted":"0","num_feature":"11","num_nodes":"45","size_leaf_vector":"1"}},{"base_weights":[1.1175948E-6,1.2085985E-2,-2.472361E-4,7.6959925E-3,2.3988582E-2,-2.59553E-2,-1.4107772E-4,1.0425829E-2,-5.8826897E-3,-4.016292E-5,2.9445495E-2,6.01758E-5,-3.0176464E-2,-8.0692E-3,-5.8434332E-5,1.26735205E-2,-1.4264159E-3,8.045419E-5,-9.544944E-3,3.6233153E-2,-7.326499E-4,-1.7439037E-4,-4.1738488E-2,8.77934E-3,-1.169651E-2,-2.7643525E-4,2.435889E-3,1.7079437E-4,5.7428366E-5,7.142888E-5,-7.49679E-5,3.207088E-5,-1.2736768E-4,2.1034532E-4,4.4185144E-4,-3.2443288E-5,2.1453541E-5,-4.7158258E-4,-1.2739583E-4,6.5455794E-7,1.09414475E-4,-3.6013653E-4,-5.6428933E-5,-2.0275343E-6,-9.229791E-5,4.473432E-4,1.9825937E-5],"categories":[],"categories_nodes":[],"categories_segments":[],"categories_sizes":[],"default_left":[0,0,0,0,0,0,0,0,0,0,0,0,0,0,0,0,0,0,0,0,0,0,0,0,0,0,0,0,0,0,0,0,0,0,0,0,0,0,0,0,0,0,0,0,0,0,0],"id":31,"left_children":[1,3,5,7,9,11,13,15,17,-1,19,-1,21,23,25,27,29,-1,31,33,35,-1,37,39,41,43,45,-1,-1,-1,-1,-1,-1,-1,-1,-1,-1,-1,-1,-1,-1,-1,-1,-1,-1,-1,-1],"loss_changes":[7.452268E-3,2.4279999E-3,6.636303E-3,1.4699004E-3,2.1049236E-3,1.5312163E-3,1.58775E-3,8.705633E-4,4.33851E-4,0E0,2.2797752E-3,0E0,5.975552E-4,1.6305596E-3,1.3057089E-3,7.263883E-4,3.6566207E-4,0E0,2.8506143E-4,1.5831925E-4,2.8646102E-5,0E0,2.7893111E-5,9.348555E-5,2.888119E-3,1.4547451E-3,3.611833E-3,0E0,0E0,0E0,0E0,0E0,0E0,0E0,0E0,0E0,0E0,0E0,0E0,0E0,0E0,0E0,0E0,0E0,0E0,0E0,0E0],"parents":[2147483647,0,0,1,1,2,2,3,3,4,4,5,5,6,6,7,7,8,8,10,10,12,12,13,13,14,14,15,15,16,16,18,18,19,19,20,20,22,22,23,23,24,24,25,25,26,26],"right_children":[2,4,6,8,10,12,14,16,18,-1,20,-1,22,24,26,28,30,-1,32,34,36,-1,38,40,42,44,46,-1,-1,-1,-1,-1,-1,-1,-1,-1,-1,-1,-1,-1,-1,-1,-1,-1,-1,-1,-1],"split_conditions":[3.1641508E1,3.4500008E0,-6.1500015E0,3.006639E-3,6.1247414E1,4.890823E1,-4.7075517E-2,2.0999994E0,2.8695461E1,-4.016292E-5,1.4598505E2,6.01758E-5,4.261558E-2,5.3740196E1,1.75E0,1.2482012E2,2.8695461E1,8.045419E-5,3.5309845E1,7.878297E1,-4.1908443E-2,-1.7439037E-4,3.8975857E1,4.905454E1,5.916871E1,4.9266994E-2,-4.9629148E-2,1.7079437E-4,5.7428366E-5,7.142888E-5,-7.49679E-5,3.207088E-5,-1.2736768E-4,2.1034532E-4,4.4185144E-4,-3.2443288E-5,2.1453541E-5,-4.7158258E-4,-1.2739583E-4,6.5455794E-7,1.09414475E-4,-3.6013653E-4,-5.6428933E-5,-2.0275343E-6,-9.229791E-5,4.473432E-4,1.9825937E-5],"split_indices":[2,9,9,0,5,4,0,9,2,0,4,0,0,4,9,4,2,0,4,5,0,0,2,4,4,10,10,0,0,0,0,0,0,0,0,0,0,0,0,0,0,0,0,0,0,0,0],"split_type":[0,0,0,0,0,0,0,0,0,0,0,0,0,0,0,0,0,0,0,0,0,0,0,0,0,0,0,0,0,0,0,0,0,0,0,0,0,0,0,0,0,0,0,0,0,0,0],"sum_hessian":[2.481E3,4.9E1,2.432E3,3.7E1,1.2E1,9E0,2.423E3,3.1E1,6E0,2E0,1E1,1E0,8E0,2.4E1,2.399E3,2.6E1,5E0,1E0,5E0,8E0,2E0,5E0,3E0,4E0,2E1,2.207E3,1.92E2,1.5E1,1.1E1,2E0,3E0,1E0,4E0,4E0,4E0,1E0,1E0,2E0,1E0,1E0,3E0,3E0,1.7E1,2.19E3,1.7E1,1E0,1.91E2],"tree_param":{"num_deleted":"0","num_feature":"11","num_nodes":"47","size_leaf_vector":"1"}},{"base_weights":[1.1724965E-6,1.1981344E-2,-2.450296E-4,7.624555E-3,2.379493E-2,-2.5767067E-2,-1.396396E-4,1.0328593E-2,-5.8259834E-3,-3.9895167E-5,2.9209333E-2,-3.3928283E-2,-5.043173E-3,2.589367E-4,-1.8148998E-3,1.2555238E-2,-1.4127415E-3,7.4641626E-5,-1.2634874E-2,3.594329E-2,-7.289865E-4,-1.7903648E-4,-4.1470848E-2,-1.0715892E-4,5.987492E-5,-5.912201E-3,4.203492E-4,1.3690014E-2,-2.0468987E-3,1.5958156E-4,3.9762705E-5,1.0182633E-4,-5.7683428E-5,-1.3902596E-4,-3.7819944E-5,1.0013632E-4,3.7932795E-4,-3.2281074E-5,2.1346275E-5,-4.6843875E-4,-1.2675885E-4,-1.8788889E-4,-2.223307E-5,1.384708E-4,1.6962645E-6,-6.1650294E-6,3.297087E-4,-1.20342746E-4,-1.493709E-5],"categories":[],"categories_nodes":[],"categories_segments":[],"categories_sizes":[],"default_left":[0,0,0,0,0,0,0,0,0,0,0,0,0,0,0,0,0,0,0,0,0,0,0,0,0,0,0,0,0,0,0,0,0,0,0,0,0,0,0,0,0,0,0,0,0,0,0,0,0],"id":32,"left_children":[1,3,5,7,9,11,13,15,17,-1,19,21,23,25,27,29,31,-1,33,35,37,-1,39,-1,-1,41,43,45,47,-1,-1,-1,-1,-1,-1,-1,-1,-1,-1,-1,-1,-1,-1,-1,-1,-1,-1,-1,-1],"loss_changes":[7.3237023E-3,2.3920396E-3,6.540608E-3,1.4422634E-3,2.072201E-3,1.5202146E-3,1.6190207E-3,8.5433805E-4,7.2774687E-4,0E0,2.2438401E-3,1.03588216E-4,3.1445682E-4,1.9538433E-3,1.7042815E-3,7.247715E-4,3.617659E-4,0E0,3.5353587E-6,8.443836E-5,2.8360362E-5,0E0,2.5076792E-5,0E0,0E0,2.3332634E-3,6.427451E-3,1.9512203E-3,2.5234846E-3,0E0,0E0,0E0,0E0,0E0,0E0,0E0,0E0,0E0,0E0,0E0,0E0,0E0,0E0,0E0,0E0,0E0,0E0,0E0,0E0],"parents":[2147483647,0,0,1,1,2,2,3,3,4,4,5,5,6,6,7,7,8,8,10,10,11,11,12,12,13,13,14,14,15,15,16,16,18,18,19,19,20,20,22,22,25,25,26,26,27,27,28,28],"right_children":[2,4,6,8,10,12,14,16,18,-1,20,22,24,26,28,30,32,-1,34,36,38,-1,40,-1,-1,42,44,46,48,-1,-1,-1,-1,-1,-1,-1,-1,-1,-1,-1,-1,-1,-1,-1,-1,-1,-1,-1,-1],"split_conditions":[3.1641508E1,3.4500008E0,-6.1500015E0,3.006639E-3,1.3078377E0,-2.0268954E-1,4.2604157E-1,2.0999994E0,-5.321846E-3,-3.9895167E-5,1.4598505E2,4.261558E-2,1.9344836E-2,-3.670878E-2,-3.8400002E0,2.4650943E-2,-1.9202586E0,7.4641626E-5,1.0745959E-2,-1.4001901E0,-4.1908443E-2,-1.7903648E-4,3.8975857E1,-1.0715892E-4,5.987492E-5,-8.183395E-1,-1.993161E-2,-4.83E0,4.6323143E1,1.5958156E-4,3.9762705E-5,1.0182633E-4,-5.7683428E-5,-1.3902596E-4,-3.7819944E-5,1.0013632E-4,3.7932795E-4,-3.2281074E-5,2.1346275E-5,-4.6843875E-4,-1.2675885E-4,-1.8788889E-4,-2.223307E-5,1.384708E-4,1.6962645E-6,-6.1650294E-6,3.297087E-4,-1.20342746E-4,-1.493709E-5],"split_indices":[2,9,9,0,7,3,3,9,8,0,4,0,0,0,9,10,3,0,0,3,0,0,2,0,0,3,8,9,2,0,0,0,0,0,0,0,0,0,0,0,0,0,0,0,0,0,0,0,0],"split_type":[0,0,0,0,0,0,0,0,0,0,0,0,0,0,0,0,0,0,0,0,0,0,0,0,0,0,0,0,0,0,0,0,0,0,0,0,0,0,0,0,0,0,0,0,0,0,0,0,0],"sum_hessian":[2.481E3,4.9E1,2.432E3,3.7E1,1.2E1,9E0,2.423E3,3.1E1,6E0,2E0,1E1,6E0,3E0,1.958E3,4.65E2,2.6E1,5E0,2E0,4E0,8E0,2E0,3E0,3E0,2E0,1E0,4.9E1,1.909E3,6E0,4.59E2,1.8E1,8E0,1E0,4E0,3E0,1E0,1E0,7E0,1E0,1E0,2E0,1E0,1E1,3.9E1,3.4E1,1.875E3,4E0,2E0,2.3E1,4.36E2],"tree_param":{"num_deleted":"0","num_feature":"11","num_nodes":"49","size_leaf_vector":"1"}},{"base_weights":[1.1070497E-6,-2.308364E-2,1.0382999E-4,-1.1137535E-2,-4.120494E-2,1.8075798E-5,1.7681934E-2,5.957555E-5,-1.4430771E-2,-4.653158E-4,-1.2612506E-4,4.4946145E-4,-1.8395246E-3,3.5303953E-4,7.885265E-3,9.977265E-6,-1.7168473E-4,5.406398E-4,-9.075937E-3,1.3599334E-2,-2.0714733E-3,1.2269736E-2,-6.627585E-4,1.4940575E-6,2.6721875E-5,-1.5341608E-4,3.856873E-5,-6.1157093E-6,3.2751064E-4,-3.7364785E-5,-2.5325644E-6,1.3436939E-4,3.216862E-5,-3.2119668E-5,1.2576333E-5],"categories":[],"categories_nodes":[],"categories_segments":[],"categories_sizes":[],"default_left":[0,0,0,0,0,0,0,0,0,0,0,0,0,0,0,0,0,0,0,0,0,0,0,0,0,0,0,0,0,0,0,0,0,0,0],"id":33,"left_children":[1,3,5,7,9,11,13,-1,15,-1,-1,17,19,-1,21,-1,-1,23,25,27,29,31,33,-1,-1,-1,-1,-1,-1,-1,-1,-1,-1,-1,-1],"loss_changes":[5.8880453E-3,1.9223467E-3,3.7259634E-3,5.363574E-4,2.2327062E-5,1.9729298E-3,1.7932642E-3,0E0,3.1280005E-4,0E0,0E0,1.7401899E-3,1.6897653E-3,0E0,3.4543895E-4,0E0,0E0,1.6507902E-3,1.598793E-3,1.9251736E-3,1.3855756E-3,2.0174484E-5,2.3621393E-5,0E0,0E0,0E0,0E0,0E0,0E0,0E0,0E0,0E0,0E0,0E0,0E0],"parents":[2147483647,0,0,1,1,2,2,3,3,4,4,5,5,6,6,8,8,11,11,12,12,14,14,17,17,18,18,19,19,20,20,21,21,22,22],"right_children":[2,4,6,8,10,12,14,-1,16,-1,-1,18,20,-1,22,-1,-1,24,26,28,30,32,34,-1,-1,-1,-1,-1,-1,-1,-1,-1,-1,-1,-1],"split_conditions":[-6.1500015E0,4.261558E-2,1.0040001E1,4.890823E1,-9.651695E-1,4.2604157E-1,-6.1238166E-2,5.957555E-5,-5.9251646E-3,-4.653158E-4,-1.2612506E-4,4.9266994E-2,-3.8400002E0,3.5303953E-4,1.4290538E2,9.977265E-6,-1.7168473E-4,3.8986008E0,-2.2999954E-1,-4.83E0,-1.2000084E-1,8.759596E-3,-4.1908443E-2,1.4940575E-6,2.6721875E-5,-1.5341608E-4,3.856873E-5,-6.1157093E-6,3.2751064E-4,-3.7364785E-5,-2.5325644E-6,1.3436939E-4,3.216862E-5,-3.2119668E-5,1.2576333E-5],"split_indices":[9,0,9,4,3,3,0,0,0,0,0,10,9,0,4,0,0,7,9,9,9,10,0,0,0,0,0,0,0,0,0,0,0,0,0],"split_type":[0,0,0,0,0,0,0,0,0,0,0,0,0,0,0,0,0,0,0,0,0,0,0,0,0,0,0,0,0,0,0,0,0,0,0],"sum_hessian":[2.481E3,1E1,2.471E3,7E0,3E0,2.46E3,1.1E1,1E0,6E0,2E0,1E0,1.997E3,4.63E2,3E0,8E0,1E0,5E0,1.979E3,1.8E1,6E0,4.57E2,5E0,3E0,1.673E3,3.06E2,1.2E1,6E0,4E0,2E0,2.38E2,2.19E2,4E0,1E0,1E0,2E0],"tree_param":{"num_deleted":"0","num_feature":"11","num_nodes":"35","size_leaf_vector":"1"}},{"base_weights":[1.0965E-6,1.14159746E-4,-2.3280602E-2,2.907615E-5,1.7546784E-2,-3.3546127E-2,-2.1996407E-3,4.6709517E-4,-1.8561676E-3,3.503917E-4,7.8227455E-3,-1.6453296E-4,-4.0511167E-4,-1.7934528E-4,6.2177135E-3,-2.311645E-2,5.1417E-4,-1.1558724E-2,-1.5508638E-3,1.2174795E-2,-6.610166E-4,7.7869085E-4,1.1267391E-4,-3.5984375E-4,7.743656E-5,2.0129687E-6,3.744863E-5,-2.681035E-4,-1.066711E-6,1.0720484E-4,-1.9976314E-5,1.3329444E-4,3.2007778E-5,-3.195907E-5,1.2492492E-5,1.7472676E-5,-5.792312E-6],"categories":[],"categories_nodes":[],"categories_segments":[],"categories_sizes":[],"default_left":[0,0,0,0,0,0,0,0,0,0,0,0,0,0,0,0,0,0,0,0,0,0,0,0,0,0,0,0,0,0,0,0,0,0,0,0,0],"id":34,"left_children":[1,3,5,7,9,11,13,15,17,-1,19,-1,-1,-1,21,23,25,27,29,31,33,35,-1,-1,-1,-1,-1,-1,-1,-1,-1,-1,-1,-1,-1,-1,-1],"loss_changes":[6.5360377E-3,3.6645515E-3,2.5230963E-3,2.0322679E-3,1.7670577E-3,2.8587598E-4,7.737424E-4,2.2289355E-3,1.356547E-3,0E0,3.403435E-4,0E0,0E0,0E0,1.0108741E-4,1.8670724E-3,2.0147753E-3,2.4424142E-3,2.4939966E-3,1.9506435E-5,2.336174E-5,4.9578266E-6,0E0,0E0,0E0,0E0,0E0,0E0,0E0,0E0,0E0,0E0,0E0,0E0,0E0,0E0,0E0],"parents":[2147483647,0,0,1,1,2,2,3,3,4,4,5,5,6,6,7,7,8,8,10,10,14,14,15,15,16,16,17,17,18,18,19,19,20,20,21,21],"right_children":[2,4,6,8,10,12,14,16,18,-1,20,-1,-1,-1,22,24,26,28,30,32,34,36,-1,-1,-1,-1,-1,-1,-1,-1,-1,-1,-1,-1,-1,-1,-1],"split_conditions":[4.2032834E-2,1.0040001E1,-2.0268954E-1,4.2604157E-1,-6.1238166E-2,7.878297E1,4.890823E1,-4.3819163E-2,5.028205E1,3.503917E-4,1.4290538E2,-1.6453296E-4,-4.0511167E-4,-1.7934528E-4,5.0790768E1,-3.8541522E-2,1.8100004E0,-5.300007E-1,-3.0900002E0,8.759596E-3,-4.1908443E-2,7.282504E-2,1.1267391E-4,-3.5984375E-4,7.743656E-5,2.0129687E-6,3.744863E-5,-2.681035E-4,-1.066711E-6,1.0720484E-4,-1.9976314E-5,1.3329444E-4,3.2007778E-5,-3.195907E-5,1.2492492E-5,1.7472676E-5,-5.792312E-6],"split_indices":[8,9,3,3,0,5,4,8,4,0,4,0,0,0,4,0,9,9,9,10,0,0,0,0,0,0,0,0,0,0,0,0,0,0,0,0,0],"split_type":[0,0,0,0,0,0,0,0,0,0,0,0,0,0,0,0,0,0,0,0,0,0,0,0,0,0,0,0,0,0,0,0,0,0,0,0,0],"sum_hessian":[2.481E3,2.47E3,1.1E1,2.459E3,1.1E1,7E0,4E0,1.996E3,4.63E2,3E0,8E0,3E0,4E0,1E0,3E0,3E0,1.993E3,1.3E1,4.5E2,5E0,3E0,2E0,1E0,2E0,1E0,1.818E3,1.75E2,5E0,8E0,1.5E1,4.35E2,4E0,1E0,1E0,2E0,1E0,1E0],"tree_param":{"num_deleted":"0","num_feature":"11","num_nodes":"37","size_leaf_vector":"1"}},{"base_weights":[8.6263543E-7,1.1804936E-2,-2.4172041E-4,1.4336814E-2,-5.7961424E-3,-1.283681E-4,-2.3099849E-2,3.4776382E-4,1.1993031E-2,7.403654E-5,-1.2556791E-2,-4.40651E-3,2.34328E-5,-3.354941E-2,6.1866255E-3,9.789167E-3,2.9931482E-2,-1.381357E-4,-3.764838E-5,-9.403429E-3,2.207579E-5,1.2699746E-2,-1.4113354E-4,-3.7307393E-2,-1.3597641E-4,1.1211054E-4,7.7479746E-4,1.3977115E-4,2.4358389E-5,3.9390055E-4,7.778782E-6,-3.5744478E-4,-7.013522E-5,8.8143126E-5,-5.630865E-5,6.1844636E-5,3.773013E-4,-7.420303E-7,-8.663214E-5,-4.2386263E-4,-1.6406811E-4,1.7385313E-5,-5.763351E-6],"categories":[],"categories_nodes":[],"categories_segments":[],"categories_sizes":[],"default_left":[0,0,0,0,0,0,0,0,0,0,0,0,0,0,0,0,0,0,0,0,0,0,0,0,0,0,0,0,0,0,0,0,0,0,0,0,0,0,0,0,0,0,0],"id":35,"left_children":[1,3,5,7,9,11,13,-1,15,-1,17,19,21,23,25,27,29,-1,-1,31,33,35,37,39,-1,-1,41,-1,-1,-1,-1,-1,-1,-1,-1,-1,-1,-1,-1,-1,-1,-1,-1],"loss_changes":[7.109981E-3,2.3112865E-3,6.300989E-3,1.6907854E-3,7.1764056E-4,1.5730126E-3,3.879928E-3,0E0,1.3278862E-3,0E0,3.2418175E-6,1.8369383E-3,4.8832535E-3,1.6751233E-4,1.0007911E-4,1.1361772E-3,1.0723656E-3,0E0,0E0,2.2044596E-3,2.286222E-3,4.65906E-3,1.317522E-3,4.763622E-5,0E0,0E0,4.9083733E-6,0E0,0E0,0E0,0E0,0E0,0E0,0E0,0E0,0E0,0E0,0E0,0E0,0E0,0E0,0E0,0E0],"parents":[2147483647,0,0,1,1,2,2,3,3,4,4,5,5,6,6,8,8,10,10,11,11,12,12,13,13,14,14,15,15,16,16,19,19,20,20,21,21,22,22,23,23,26,26],"right_children":[2,4,6,8,10,12,14,-1,16,-1,18,20,22,24,26,28,30,-1,-1,32,34,36,38,40,-1,-1,42,-1,-1,-1,-1,-1,-1,-1,-1,-1,-1,-1,-1,-1,-1,-1,-1],"split_conditions":[3.1641508E1,3.006639E-3,4.2032834E-2,-6.1238166E-2,-5.321846E-3,-3.0738046E-2,4.740757E1,3.4776382E-4,5.3405256E0,7.403654E-5,1.0745959E-2,3.9924084E1,-1.993161E-2,2.4650943E-2,4.9063015E1,1.2482012E2,2.9720123E2,-1.381357E-4,-3.764838E-5,-4.3819163E-2,-2.2285886E-2,-1.7772764E-2,4.9266994E-2,6.501173E1,-1.3597641E-4,1.1211054E-4,7.282504E-2,1.3977115E-4,2.4358389E-5,3.9390055E-4,7.778782E-6,-3.5744478E-4,-7.013522E-5,8.8143126E-5,-5.630865E-5,6.1844636E-5,3.773013E-4,-7.420303E-7,-8.663214E-5,-4.2386263E-4,-1.6406811E-4,1.7385313E-5,-5.763351E-6],"split_indices":[2,0,8,0,8,0,2,0,7,0,0,2,8,10,2,4,4,0,0,8,8,0,10,4,0,0,0,0,0,0,0,0,0,0,0,0,0,0,0,0,0,0,0],"split_type":[0,0,0,0,0,0,0,0,0,0,0,0,0,0,0,0,0,0,0,0,0,0,0,0,0,0,0,0,0,0,0,0,0,0,0,0,0,0,0,0,0,0,0],"sum_hessian":[2.481E3,4.9E1,2.432E3,4.3E1,6E0,2.421E3,1.1E1,3E0,4E1,2E0,4E0,8.2E1,2.339E3,8E0,3E0,3.7E1,3E0,3E0,1E0,3.8E1,4.4E1,2.9E1,2.31E3,6E0,2E0,1E0,2E0,2.3E1,1.4E1,2E0,1E0,2E0,3.6E1,1.7E1,2.7E1,2.4E1,5E0,2.293E3,1.7E1,4E0,2E0,1E0,1E0],"tree_param":{"num_deleted":"0","num_feature":"11","num_nodes":"43","size_leaf_vector":"1"}},{"base_weights":[9.215506E-7,1.1703123E-2,-2.3956798E-4,1.4214209E-2,-5.752716E-3,-1.1162354E-4,-9.835911E-3,3.4515554E-4,1.1886901E-2,7.916485E-5,-9.350331E-3,-4.3672128E-3,4.0671945E-5,-3.6290172E-4,-3.592893E-3,9.695595E-3,2.9732587E-2,3.1149597E-5,-1.246638E-2,-9.320359E-3,2.2562639E-5,-5.1031988E-5,6.5990975E-3,-7.166891E-3,1.8749317E-2,1.3843169E-4,2.4131046E-5,3.9127457E-4,7.739887E-6,-1.3709969E-4,-3.7460137E-5,-1.2178778E-5,-1.245998E-4,1.4678281E-4,-2.6085294E-5,7.510683E-7,-1.1958512E-4,-7.644336E-5,1.3420856E-4,-1.8872579E-5,-2.2691245E-4,2.6845757E-4,7.101919E-5],"categories":[],"categories_nodes":[],"categories_segments":[],"categories_sizes":[],"default_left":[0,0,0,0,0,0,0,0,0,0,0,0,0,0,0,0,0,0,0,0,0,0,0,0,0,0,0,0,0,0,0,0,0,0,0,0,0,0,0,0,0,0,0],"id":36,"left_children":[1,3,5,7,9,11,13,-1,15,-1,17,19,21,-1,23,25,27,-1,29,31,33,35,37,39,41,-1,-1,-1,-1,-1,-1,-1,-1,-1,-1,-1,-1,-1,-1,-1,-1,-1,-1],"loss_changes":[6.9877896E-3,2.273426E-3,2.9861364E-3,1.668606E-3,4.1825738E-4,1.5569307E-3,5.1545547E-3,0E0,1.3150452E-3,0E0,2.718871E-4,1.8048953E-3,1.3956623E-3,0E0,2.2903515E-3,1.1143717E-3,1.057965E-3,0E0,2.864981E-6,9.769355E-4,1.7735133E-3,3.4389659E-3,3.2118815E-3,1.9242853E-3,1.8655346E-4,0E0,0E0,0E0,0E0,0E0,0E0,0E0,0E0,0E0,0E0,0E0,0E0,0E0,0E0,0E0,0E0,0E0,0E0],"parents":[2147483647,0,0,1,1,2,2,3,3,4,4,5,5,6,6,8,8,10,10,11,11,12,12,14,14,15,15,16,16,18,18,19,19,20,20,21,21,22,22,23,23,24,24],"right_children":[2,4,6,8,10,12,14,-1,16,-1,18,20,22,-1,24,26,28,-1,30,32,34,36,38,40,42,-1,-1,-1,-1,-1,-1,-1,-1,-1,-1,-1,-1,-1,-1,-1,-1,-1,-1],"split_conditions":[3.1641508E1,3.006639E-3,4.60641E-2,-6.1238166E-2,2.518E7,-3.0738046E-2,4.740757E1,3.4515554E-4,5.3405256E0,7.916485E-5,3.5309845E1,3.9924084E1,7.6918E7,-3.6290172E-4,1.5988943E2,1.2482012E2,2.9720123E2,3.1149597E-5,1.0745959E-2,2.379843E0,4.1679867E1,6.9338E7,6.52728E8,8.6144775E-1,5.5344E7,1.3843169E-4,2.4131046E-5,3.9127457E-4,7.739887E-6,-1.3709969E-4,-3.7460137E-5,-1.2178778E-5,-1.245998E-4,1.4678281E-4,-2.6085294E-5,7.510683E-7,-1.1958512E-4,-7.644336E-5,1.3420856E-4,-1.8872579E-5,-2.2691245E-4,2.6845757E-4,7.101919E-5],"split_indices":[2,0,0,0,1,0,2,0,7,0,4,2,1,0,4,4,4,0,0,7,2,1,6,3,1,0,0,0,0,0,0,0,0,0,0,0,0,0,0,0,0,0,0],"split_type":[0,0,0,0,0,0,0,0,0,0,0,0,0,0,0,0,0,0,0,0,0,0,0,0,0,0,0,0,0,0,0,0,0,0,0,0,0,0,0,0,0,0,0],"sum_hessian":[2.481E3,4.9E1,2.432E3,4.3E1,6E0,2.401E3,3.1E1,3E0,4E1,1E0,5E0,8.2E1,2.319E3,5E0,2.6E1,3.7E1,3E0,1E0,4E0,3.8E1,4.4E1,2.288E3,3.1E1,2.3E1,3E0,2.3E1,1.4E1,2E0,1E0,3E0,1E0,1.1E1,2.7E1,6E0,3.8E1,2.265E3,2.3E1,1E1,2.1E1,1.8E1,5E0,1E0,2E0],"tree_param":{"num_deleted":"0","num_feature":"11","num_nodes":"43","size_leaf_vector":"1"}},{"base_weights":[1.112209E-6,1.1602942E-2,-2.3731467E-4,7.3869913E-3,2.3033956E-2,-2.5024284E-2,-1.349603E-4,1.0019883E-2,-5.7043666E-3,5.9919767E-3,3.2936197E-2,5.926756E-5,-2.9121818E-2,2.5124886E-4,-1.7582409E-3,1.221966E-2,-1.5490977E-3,7.317525E-5,-1.2376629E-2,1.4766853E-4,-2.087175E-3,4.4005457E-3,4.1714657E-2,-1.6941532E-4,-4.011179E-2,4.2204524E-4,-5.3540263E-3,1.3473775E-2,-1.9862102E-3,1.5585423E-4,3.7564205E-5,7.013857E-5,-7.584039E-5,-1.3607144E-4,-3.7272835E-5,-4.17435E-5,2.0871754E-5,-3.204172E-5,9.804991E-5,2.2612064E-4,5.327989E-4,-4.5426784E-4,-1.2083403E-4,-5.7626316E-5,5.8870028E-6,-9.352479E-5,4.8394453E-5,-6.134631E-6,3.2461248E-4,-1.1885526E-4,-1.4379954E-5],"categories":[],"categories_nodes":[],"categories_segments":[],"categories_sizes":[],"default_left":[0,0,0,0,0,0,0,0,0,0,0,0,0,0,0,0,0,0,0,0,0,0,0,0,0,0,0,0,0,0,0,0,0,0,0,0,0,0,0,0,0,0,0,0,0,0,0,0,0,0,0],"id":37,"left_children":[1,3,5,7,9,11,13,15,17,19,21,-1,23,25,27,29,31,-1,33,-1,35,37,39,-1,41,43,45,47,49,-1,-1,-1,-1,-1,-1,-1,-1,-1,-1,-1,-1,-1,-1,-1,-1,-1,-1,-1,-1,-1,-1],"loss_changes":[6.868432E-3,2.2394783E-3,6.1692772E-3,1.3669457E-3,1.9964455E-3,1.4408273E-3,1.5201098E-3,8.333032E-4,6.987646E-4,4.5618234E-4,1.8204246E-3,0E0,5.2519375E-4,1.8777293E-3,1.6449152E-3,7.105563E-4,3.63255E-4,0E0,2.4980982E-6,0E0,4.3563006E-5,1.5471471E-4,1.2078788E-4,0E0,4.697265E-5,1.9637982E-3,2.4092314E-3,1.8922811E-3,2.4793055E-3,0E0,0E0,0E0,0E0,0E0,0E0,0E0,0E0,0E0,0E0,0E0,0E0,0E0,0E0,0E0,0E0,0E0,0E0,0E0,0E0,0E0,0E0],"parents":[2147483647,0,0,1,1,2,2,3,3,4,4,5,5,6,6,7,7,8,8,9,9,10,10,12,12,13,13,14,14,15,15,16,16,18,18,20,20,21,21,22,