{"learner":{"attributes":{"scikit_learn":"{\"_estimator_type\": \"classifier\"}"},"feature_names":["Return","Volume","RSI_14","MACDh_12_26_9","BBL_20_2.0","BBU_20_2.0","OBV","ATRr_14","SPY_Return","VIX_Change","FinBERT_Score"],"feature_types":["float","int","float","float","float","float","float","float","float","float","float"],"gradient_booster":{"model":{"cats":{"enc":[],"feature_segments":[],"sorted_idx":[]},"gbtree_model_param":{"num_parallel_tree":"1","num_trees":"50"},"iteration_indptr":[0,1,2,3,4,5,6,7,8,9,10,11,12,13,14,15,16,17,18,19,20,21,22,23,24,25,26,27,28,29,30,31,32,33,34,35,36,37,38,39,40,41,42,43,44,45,46,47,48,49,50],"tree_info":[0,0,0,0,0,0,0,0,0,0,0,0,0,0,0,0,0,0,0,0,0,0,0,0,0,0,0,0,0,0,0,0,0,0,0,0,0,0,0,0,0,0,0,0,0,0,0,0,0,0],"trees":[{"base_weights":[-6.852507E-8,9.998343E-2,-1.3884383E-1,2.8774783E-1,-8.297034E-2,-1.497354E-2,-1.2117559E-1,7.074957E-1,1.0875595E-1,-3.777347E-1,7.644974E-2,-5.404489E-2,-5.0580543E-1,8.431386E-1,1.5751513E-2,-9.3826026E-1,1.7333157E-1,-1.154913E-1,-8.3299625E-1,-4.9553722E-2,7.298242E-1,7.677413E-1,-8.155744E-2,-1.2311615E0,-1.6762559E-1,-7.546906E-3,9.0686333E-1,5.936203E-1,-7.9006326E-1,2.316016E-3,-1.4055185E0,5.0563085E-1,-7.333816E-2,-5.135131E-1,3.020401E-1,-1.4583147E0,-4.3230814E-1,2.4655057E-1,-3.3478785E-1,1.4838593E-2,4.390427E-1,1.043512E0,-3.0877793E-3,-6.0247207E-1,-3.154728E-2,8.4154506E-4,-1.4638513E0,1.1395878E-2,-3.7656483E-1,1.0138268E0,1.1121869E-1,-4.941393E-3,1.0412111E-2,-1.188394E-2,1.3713472E-3,-1.6546529E-2,-3.0877793E-3,9.350188E-1,1.5723413E-1,-2.5539014E-1,8.017381E-1,7.315138E-2,-8.8817984E-1,7.7238224E-2,1.1817316E-2,-6.843042E-3,-1.6575871E-2,-1.0113539E-1,-1.236566E0,3.1254092E-1,-1.0108845E-2,-5.293654E-1,4.1138988E-2,6.536848E-1,-5.7047396E-3,8.4154506E-4,1.41809685E-2,-1.8716514E-1,-1.0311838E0,4.145472E-1,-9.584151E-2,-1.6590998E-2,-4.3770964E-3,-6.9893247E-1,9.341285E-2,1.1973653E-2,3.9977483E-3,7.5034057E-3,-5.1515047E-3,1.1331223E-2,-1.2030922E-3,6.9597503E-3,-2.008275E-3,-3.8401065E-3,6.7000054E-3,1.3976229E-2,1.5452479E-3,1.03726955E-2,-4.198215E-3,-2.9546238E-4,-1.27922185E-2,-5.1238113E-3,4.990797E-3,2.8480005E-3,-1.050812E-2,-1.497354E-2,-3.0877793E-3,4.807486E-4,7.151896E-3,-6.3652527E-3,3.2619345E-3,3.2475754E-3,-8.624329E-3,8.4242495E-3,-4.941393E-3,-6.0963235E-3,9.74326E-3,-2.4731974E-3,-1.3359861E-2,-2.5483582E-3,7.1597183E-3,-5.4318206E-3,-1.8361359E-4,-1.0975728E-2,2.7814258E-3,5.785608E-3,-8.693419E-3],"categories":[],"categories_nodes":[],"categories_segments":[],"categories_sizes":[],"default_left":[0,0,0,0,0,0,0,0,0,0,0,0,0,0,0,0,0,0,0,0,0,0,0,0,0,0,0,0,0,0,0,0,0,0,0,0,0,0,0,0,0,0,0,0,0,0,0,0,0,0,0,0,0,0,0,0,0,0,0,0,0,0,0,0,0,0,0,0,0,0,0,0,0,0,0,0,0,0,0,0,0,0,0,0,0,0,0,0,0,0,0,0,0,0,0,0,0,0,0,0,0,0,0,0,0,0,0,0,0,0,0,0,0,0,0,0,0,0,0,0,0,0,0,0,0,0,0],"id":0,"left_children":[1,3,5,7,9,-1,11,13,15,17,19,21,23,25,27,29,31,33,35,37,39,41,43,45,47,-1,49,51,53,-1,55,57,59,61,63,65,67,69,71,-1,73,75,-1,77,79,-1,81,-1,83,85,87,-1,-1,-1,-1,-1,-1,89,91,93,95,97,99,101,-1,-1,-1,103,105,107,-1,109,111,113,-1,-1,-1,115,117,119,121,-1,-1,123,125,-1,-1,-1,-1,-1,-1,-1,-1,-1,-1,-1,-1,-1,-1,-1,-1,-1,-1,-1,-1,-1,-1,-1,-1,-1,-1,-1,-1,-1,-1,-1,-1,-1,-1,-1,-1,-1,-1,-1,-1,-1,-1],"loss_changes":[8.587096E0,1.2377338E1,6.0342903E0,1.3273655E1,8.624321E0,0E0,6.6014338E0,4.9541206E0,8.665222E0,7.5891476E0,9.877854E0,5.0298185E0,9.122227E0,5.1891975E0,4.9849873E0,4.4041696E0,9.815453E0,7.135856E0,5.224251E0,8.625818E0,3.6000414E0,2.4635415E0,5.542448E0,3.7759628E0,7.8293796E0,0E0,3.5467224E0,3.5422995E0,1.8173003E0,0E0,9.845896E-1,7.475294E0,1.1251671E1,4.873295E0,4.0873127E0,2.082138E-1,4.0466404E0,4.4820175E0,3.821486E0,0E0,3.7129025E0,2.0261755E0,0E0,3.1266475E0,5.6566305E0,0E0,1.3164272E0,0E0,3.7184224E0,3.779293E0,2.8761213E0,0E0,0E0,0E0,0E0,0E0,0E0,4.8655853E0,5.7978096E0,7.1796436E0,4.48271E0,4.9267235E0,4.4701157E0,4.707725E0,0E0,0E0,0E0,4.764628E0,6.2143373E-1,5.126719E0,0E0,3.3524408E0,5.05818E0,3.2710328E0,0E0,0E0,0E0,5.8405647E0,1.8085699E0,5.1979685E0,5.950877E0,0E0,0E0,5.9218903E0,5.4970713E0,0E0,0E0,0E0,0E0,0E0,0E0,0E0,0E0,0E0,0E0,0E0,0E0,0E0,0E0,0E0,0E0,0E0,0E0,0E0,0E0,0E0,0E0,0E0,0E0,0E0,0E0,0E0,0E0,0E0,0E0,0E0,0E0,0E0,0E0,0E0,0E0,0E0,0E0,0E0,0E0,0E0,0E0],"parents":[2147483647,0,0,1,1,2,2,3,3,4,4,6,6,7,7,8,8,9,9,10,10,11,11,12,12,13,13,14,14,15,15,16,16,17,17,18,18,19,19,20,20,21,21,22,22,23,23,24,24,26,26,27,27,28,28,30,30,31,31,32,32,33,33,34,34,35,35,36,36,37,37,38,38,40,40,41,41,43,43,44,44,46,46,48,48,49,49,50,50,57,57,58,58,59,59,60,60,61,61,62,62,63,63,67,67,68,68,69,69,71,71,72,72,73,73,77,77,78,78,79,79,80,80,83,83,84,84],"right_children":[2,4,6,8,10,-1,12,14,16,18,20,22,24,26,28,30,32,34,36,38,40,42,44,46,48,-1,50,52,54,-1,56,58,60,62,64,66,68,70,72,-1,74,76,-1,78,80,-1,82,-1,84,86,88,-1,-1,-1,-1,-1,-1,90,92,94,96,98,100,102,-1,-1,-1,104,106,108,-1,110,112,114,-1,-1,-1,116,118,120,122,-1,-1,124,126,-1,-1,-1,-1,-1,-1,-1,-1,-1,-1,-1,-1,-1,-1,-1,-1,-1,-1,-1,-1,-1,-1,-1,-1,-1,-1,-1,-1,-1,-1,-1,-1,-1,-1,-1,-1,-1,-1,-1,-1,-1,-1],"split_conditions":[3.244209E-3,2.1577325E2,-6.1500015E0,5.0978653E1,3.0508945E2,-1.497354E-2,2.5E-1,5.35153E7,-1.1599998E0,2.828806E9,6.583059E1,-2.4926174E0,2.15789E7,-1.7621374E0,-1.7744137E-2,5.504441E1,7.999802E-2,2.698175E9,-1.5414282E-2,3.1143237E9,-5.9693724E-1,-7.8999996E-1,-1.3059707E0,-3.668376E-2,-6.7993456E-1,-7.546906E-3,1.9135098E2,-8.042466E-3,-1.3748566E-2,2.316016E-3,6.01512E-1,3.298953E-4,3.8381536E0,2.4950984E9,3.62493E7,4.324894E0,2.701307E2,6.7805746E-3,8.264331E-4,1.4838593E-2,4.0516953E2,-2.3400002E0,-3.0877793E-3,4.6643864E1,1.7836E7,8.4154506E-4,4.640709E2,1.1395878E-2,4.4167548E-4,2.7382541E-2,-1.7887726E-2,-4.941393E-3,1.0412111E-2,-1.188394E-2,1.3713472E-3,-1.6546529E-2,-3.0877793E-3,3.674653E-1,1.88831E7,3.7719708E-2,5.046806E0,2.2266043E2,2.26042E7,-7.40077E-3,1.1817316E-2,-6.843042E-3,-1.6575871E-2,6.7210686E1,3.035901E2,-1.727465E-3,-1.0108845E-2,4.1089635E-2,3.5215465E9,2.89776E7,-5.7047396E-3,8.4154506E-4,1.41809685E-2,1.1955826E-2,-1.9541934E0,-2.1787903E-1,6.570376E1,-1.6590998E-2,-4.3770964E-3,1.30097205E-2,6.9855415E1,1.1973653E-2,3.9977483E-3,7.5034057E-3,-5.1515047E-3,1.1331223E-2,-1.2030922E-3,6.9597503E-3,-2.008275E-3,-3.8401065E-3,6.7000054E-3,1.3976229E-2,1.5452479E-3,1.03726955E-2,-4.198215E-3,-2.9546238E-4,-1.27922185E-2,-5.1238113E-3,4.990797E-3,2.8480005E-3,-1.050812E-2,-1.497354E-2,-3.0877793E-3,4.807486E-4,7.151896E-3,-6.3652527E-3,3.2619345E-3,3.2475754E-3,-8.624329E-3,8.4242495E-3,-4.941393E-3,-6.0963235E-3,9.74326E-3,-2.4731974E-3,-1.3359861E-2,-2.5483582E-3,7.1597183E-3,-5.4318206E-3,-1.8361359E-4,-1.0975728E-2,2.7814258E-3,5.785608E-3,-8.693419E-3],"split_indices":[0,4,9,2,5,0,9,1,9,6,2,3,1,3,8,2,9,6,10,6,3,9,3,10,3,0,4,10,0,0,3,8,7,6,1,7,4,8,8,0,4,9,0,2,1,0,5,0,8,10,0,0,0,0,0,0,0,3,1,10,7,4,1,0,0,0,0,2,5,8,0,10,6,1,0,0,0,8,3,3,4,0,0,0,2,0,0,0,0,0,0,0,0,0,0,0,0,0,0,0,0,0,0,0,0,0,0,0,0,0,0,0,0,0,0,0,0,0,0,0,0,0,0,0,0,0,0],"split_type":[0,0,0,0,0,0,0,0,0,0,0,0,0,0,0,0,0,0,0,0,0,0,0,0,0,0,0,0,0,0,0,0,0,0,0,0,0,0,0,0,0,0,0,0,0,0,0,0,0,0,0,0,0,0,0,0,0,0,0,0,0,0,0,0,0,0,0,0,0,0,0,0,0,0,0,0,0,0,0,0,0,0,0,0,0,0,0,0,0,0,0,0,0,0,0,0,0,0,0,0,0,0,0,0,0,0,0,0,0,0,0,0,0,0,0,0,0,0,0,0,0,0,0,0,0,0,0],"sum_hessian":[6.16574E2,3.5861194E2,2.57962E2,1.7669652E2,1.819154E2,2.2366648E0,2.5572534E2,5.1940327E1,1.24756195E2,6.337217E1,1.18543236E2,2.1869612E2,3.702923E1,4.3242188E1,8.698141E0,6.4614763E0,1.18294716E2,4.1005524E1,2.2366648E1,1.00152885E2,1.8390356E1,6.212958E0,2.1248315E2,1.0934806E1,2.6094423E1,1.2425916E0,4.1999596E1,5.2188845E0,3.4792564E0,1.9881465E0,4.4733295E0,4.9952183E1,6.834254E1,2.0875538E1,2.0129984E1,7.7040677E0,1.46625805E1,4.9206627E1,5.0946255E1,3.976293E0,1.44140625E1,4.9703665E0,1.2425916E0,1.76448E1,1.9483836E2,1.7396282E0,9.195178E0,2.9822197E0,2.3112204E1,3.6780712E1,5.2188845E0,1.4911098E0,3.7277749E0,2.2366648E0,1.2425916E0,3.2307382E0,1.2425916E0,2.1621094E1,2.8331089E1,5.7159214E1,1.1183324E1,8.449623E0,1.2425916E1,1.6899246E1,3.2307382E0,2.4851832E0,5.2188845E0,1.1183324E1,3.4792564E0,4.7467E1,1.7396282E0,3.3301456E1,1.76448E1,1.2177398E1,2.2366648E0,1.7396282E0,3.2307382E0,9.692214E0,7.952586E0,2.3857758E1,1.709806E2,7.2070312E0,1.9881465E0,1.341999E1,9.692214E0,2.7585533E1,9.195178E0,2.4851832E0,2.7337015E0,1.8141838E1,3.4792564E0,1.0934806E1,1.7396282E1,5.069774E1,6.4614763E0,5.2188845E0,5.9644394E0,2.4851832E0,5.9644394E0,4.2248116E0,8.201104E0,6.958513E0,9.940733E0,8.449623E0,2.7337015E0,2.2366648E0,1.2425916E0,2.9325161E1,1.8141838E1,2.9822199E1,3.4792564E0,1.3917026E1,3.7277749E0,1.0686288E1,1.4911098E0,7.4555497E0,2.2366648E0,2.7337015E0,5.2188845E0,7.4555497E0,1.6402208E1,2.4354795E1,1.4662581E2,9.443696E0,3.976293E0,6.709995E0,2.9822197E0],"tree_param":{"num_deleted":"0","num_feature":"11","num_nodes":"127","size_leaf_vector":"1"}},{"base_weights":[-9.0424466E-5,9.893733E-2,-1.3758135E-1,2.850607E-1,-8.236943E-2,-1.4858739E-2,-1.2003534E-1,7.009255E-1,1.0780783E-1,-3.7456182E-1,7.570563E-2,-5.350761E-2,-5.011029E-1,8.355016E-1,1.507825E-2,-9.3071604E-1,1.7190143E-1,-1.1421101E-1,-8.2639045E-1,-4.9164347E-2,7.2356635E-1,7.620927E-1,-8.079878E-2,-1.2195832E0,-1.659171E-1,-7.5027207E-3,8.9884496E-1,5.8880603E-1,-7.841852E-1,2.3008822E-3,-1.3939773E0,5.0106347E-1,-7.233342E-2,-5.0851214E-1,2.996343E-1,-1.4451557E0,-4.2954242E-1,2.4408512E-1,-3.3152333E-1,1.4734181E-2,4.34668E-1,1.0362568E0,-3.0702676E-3,-5.968626E-1,-3.1236023E-2,8.362356E-4,-1.4499284E0,1.131828E-2,-3.7316826E-1,1.004894E0,1.1049326E-1,-4.9107084E-3,1.0336797E-2,-1.1827816E-2,1.4074559E-3,-1.6431505E-2,-3.0245208E-3,9.26779E-1,1.5584905E-1,-2.527367E-1,7.9542744E-1,7.307594E-2,-8.797552E-1,7.6464385E-2,1.1735577E-2,-6.7917383E-3,-1.6420031E-2,-1.0074937E-1,-1.2274753E0,3.096459E-1,-1.00398315E-2,-5.2395564E-1,4.04425E-2,6.4773697E-1,-5.6636226E-3,8.362356E-4,1.40850125E-2,-1.8492128E-1,-1.021991E0,4.1071737E-1,-9.490902E-2,-1.6427765E-2,-4.3470073E-3,-6.9217986E-1,9.221789E-2,1.186912E-2,3.9628106E-3,7.4530616E-3,-5.1123193E-3,1.1233501E-2,-1.193662E-3,6.8994644E-3,-1.9889935E-3,-3.8013528E-3,6.645032E-3,1.3872089E-2,1.5321706E-3,1.0304822E-2,-4.161119E-3,-2.9306771E-4,-1.2667479E-2,-5.0772787E-3,4.9472135E-3,2.8230958E-3,-1.0425185E-2,-1.4858739E-2,-3.0702676E-3,4.761154E-4,7.087915E-3,-6.300723E-3,3.2372382E-3,3.2180387E-3,-8.55195E-3,-4.9660862E-3,8.362961E-3,-6.0401075E-3,9.681129E-3,-2.4547498E-3,-1.3236751E-2,-2.5254532E-3,7.0960233E-3,-5.37751E-3,-1.8178868E-4,-1.08684255E-2,2.7596792E-3,5.7375333E-3,-8.624093E-3],"categories":[],"categories_nodes":[],"categories_segments":[],"categories_sizes":[],"default_left":[0,0,0,0,0,0,0,0,0,0,0,0,0,0,0,0,0,0,0,0,0,0,0,0,0,0,0,0,0,0,0,0,0,0,0,0,0,0,0,0,0,0,0,0,0,0,0,0,0,0,0,0,0,0,0,0,0,0,0,0,0,0,0,0,0,0,0,0,0,0,0,0,0,0,0,0,0,0,0,0,0,0,0,0,0,0,0,0,0,0,0,0,0,0,0,0,0,0,0,0,0,0,0,0,0,0,0,0,0,0,0,0,0,0,0,0,0,0,0,0,0,0,0,0,0,0,0],"id":1,"left_children":[1,3,5,7,9,-1,11,13,15,17,19,21,23,25,27,29,31,33,35,37,39,41,43,45,47,-1,49,51,53,-1,55,57,59,61,63,65,67,69,71,-1,73,75,-1,77,79,-1,81,-1,83,85,87,-1,-1,-1,-1,-1,-1,89,91,93,95,97,99,101,-1,-1,-1,103,105,107,-1,109,111,113,-1,-1,-1,115,117,119,121,-1,-1,123,125,-1,-1,-1,-1,-1,-1,-1,-1,-1,-1,-1,-1,-1,-1,-1,-1,-1,-1,-1,-1,-1,-1,-1,-1,-1,-1,-1,-1,-1,-1,-1,-1,-1,-1,-1,-1,-1,-1,-1,-1,-1,-1],"loss_changes":[8.421984E0,1.215758E1,5.9484863E0,1.3020041E1,8.477193E0,0E0,6.482094E0,4.870987E0,8.529953E0,7.479624E0,9.705777E0,4.9519053E0,8.958979E0,5.1155205E0,4.9085917E0,4.33525E0,9.625515E0,7.007381E0,5.1196623E0,8.456736E0,3.5578604E0,2.4313507E0,5.44203E0,3.706709E0,7.710471E0,0E0,3.4814186E0,3.4940014E0,1.8185349E0,0E0,9.92795E-1,7.340804E0,1.1057149E1,4.7891097E0,4.0304933E0,1.9835281E-1,3.9862761E0,4.418184E0,3.740294E0,0E0,3.6533031E0,1.9980354E0,0E0,3.077526E0,5.5500903E0,0E0,1.2837791E0,0E0,3.6444678E0,3.7116966E0,2.8353295E0,0E0,0E0,0E0,0E0,0E0,0E0,4.782627E0,5.693969E0,7.0501323E0,4.415207E0,4.854471E0,4.384161E0,4.624442E0,0E0,0E0,0E0,4.689582E0,6.0980844E-1,5.0342293E0,0E0,3.2906942E0,4.9733744E0,3.2572732E0,0E0,0E0,0E0,5.752313E0,1.7736521E0,5.1054454E0,5.83442E0,0E0,0E0,5.812308E0,5.4093733E0,0E0,0E0,0E0,0E0,0E0,0E0,0E0,0E0,0E0,0E0,0E0,0E0,0E0,0E0,0E0,0E0,0E0,0E0,0E0,0E0,0E0,0E0,0E0,0E0,0E0,0E0,0E0,0E0,0E0,0E0,0E0,0E0,0E0,0E0,0E0,0E0,0E0,0E0,0E0,0E0,0E0,0E0],"parents":[2147483647,0,0,1,1,2,2,3,3,4,4,6,6,7,7,8,8,9,9,10,10,11,11,12,12,13,13,14,14,15,15,16,16,17,17,18,18,19,19,20,20,21,21,22,22,23,23,24,24,26,26,27,27,28,28,30,30,31,31,32,32,33,33,34,34,35,35,36,36,37,37,38,38,40,40,41,41,43,43,44,44,46,46,48,48,49,49,50,50,57,57,58,58,59,59,60,60,61,61,62,62,63,63,67,67,68,68,69,69,71,71,72,72,73,73,77,77,78,78,79,79,80,80,83,83,84,84],"right_children":[2,4,6,8,10,-1,12,14,16,18,20,22,24,26,28,30,32,34,36,38,40,42,44,46,48,-1,50,52,54,-1,56,58,60,62,64,66,68,70,72,-1,74,76,-1,78,80,-1,82,-1,84,86,88,-1,-1,-1,-1,-1,-1,90,92,94,96,98,100,102,-1,-1,-1,104,106,108,-1,110,112,114,-1,-1,-1,116,118,120,122,-1,-1,124,126,-1,-1,-1,-1,-1,-1,-1,-1,-1,-1,-1,-1,-1,-1,-1,-1,-1,-1,-1,-1,-1,-1,-1,-1,-1,-1,-1,-1,-1,-1,-1,-1,-1,-1,-1,-1,-1,-1,-1,-1,-1,-1],"split_conditions":[3.244209E-3,2.1577325E2,-6.1500015E0,5.0978653E1,3.0508945E2,-1.4858739E-2,2.5E-1,5.35153E7,-1.1599998E0,2.828806E9,6.583059E1,-2.4926174E0,2.15789E7,-1.7621374E0,-1.7744137E-2,5.504441E1,7.999802E-2,2.698175E9,-1.5414282E-2,3.1143237E9,-5.9693724E-1,-7.8999996E-1,-1.3059707E0,-3.668376E-2,-6.7993456E-1,-7.5027207E-3,1.9135098E2,-8.042466E-3,-7.690316E-3,2.3008822E-3,1.0366855E-2,3.298953E-4,3.8381536E0,2.4950984E9,3.62493E7,4.324894E0,2.701307E2,6.7805746E-3,8.264331E-4,1.4734181E-2,4.0516953E2,-2.3400002E0,-3.0702676E-3,4.6643864E1,1.7836E7,8.362356E-4,4.640709E2,1.131828E-2,4.4167548E-4,2.7382541E-2,-1.7887726E-2,-4.9107084E-3,1.0336797E-2,-1.1827816E-2,1.4074559E-3,-1.6431505E-2,-3.0245208E-3,3.674653E-1,1.88831E7,3.7719708E-2,5.046806E0,2.2266043E2,2.26042E7,-7.40077E-3,1.1735577E-2,-6.7917383E-3,-1.6420031E-2,6.7210686E1,3.035901E2,-1.727465E-3,-1.00398315E-2,4.1089635E-2,3.5215465E9,2.6660378E9,-5.6636226E-3,8.362356E-4,1.40850125E-2,1.1955826E-2,-1.9541934E0,-2.1787903E-1,6.570376E1,-1.6427765E-2,-4.3470073E-3,1.30097205E-2,6.9855415E1,1.186912E-2,3.9628106E-3,7.4530616E-3,-5.1123193E-3,1.1233501E-2,-1.193662E-3,6.8994644E-3,-1.9889935E-3,-3.8013528E-3,6.645032E-3,1.3872089E-2,1.5321706E-3,1.0304822E-2,-4.161119E-3,-2.9306771E-4,-1.2667479E-2,-5.0772787E-3,4.9472135E-3,2.8230958E-3,-1.0425185E-2,-1.4858739E-2,-3.0702676E-3,4.761154E-4,7.087915E-3,-6.300723E-3,3.2372382E-3,3.2180387E-3,-8.55195E-3,-4.9660862E-3,8.362961E-3,-6.0401075E-3,9.681129E-3,-2.4547498E-3,-1.3236751E-2,-2.5254532E-3,7.0960233E-3,-5.37751E-3,-1.8178868E-4,-1.08684255E-2,2.7596792E-3,5.7375333E-3,-8.624093E-3],"split_indices":[0,4,9,2,5,0,9,1,9,6,2,3,1,3,8,2,9,6,10,6,3,9,3,10,3,0,4,10,8,0,8,8,7,6,1,7,4,8,8,0,4,9,0,2,1,0,5,0,8,10,0,0,0,0,0,0,0,3,1,10,7,4,1,0,0,0,0,2,5,8,0,10,6,6,0,0,0,8,3,3,4,0,0,0,2,0,0,0,0,0,0,0,0,0,0,0,0,0,0,0,0,0,0,0,0,0,0,0,0,0,0,0,0,0,0,0,0,0,0,0,0,0,0,0,0,0,0],"split_type":[0,0,0,0,0,0,0,0,0,0,0,0,0,0,0,0,0,0,0,0,0,0,0,0,0,0,0,0,0,0,0,0,0,0,0,0,0,0,0,0,0,0,0,0,0,0,0,0,0,0,0,0,0,0,0,0,0,0,0,0,0,0,0,0,0,0,0,0,0,0,0,0,0,0,0,0,0,0,0,0,0,0,0,0,0,0,0,0,0,0,0,0,0,0,0,0,0,0,0,0,0,0,0,0,0,0,0,0,0,0,0,0,0,0,0,0,0,0,0,0,0,0,0,0,0,0,0],"sum_hessian":[6.165625E2,3.585776E2,2.579849E2,1.7665613E2,1.8192146E2,2.23912E0,2.5574577E2,5.1910675E1,1.2474546E2,6.338624E1,1.1853522E2,2.1870425E2,3.7041523E1,4.3213223E1,8.69745E0,6.4653096E0,1.1828015E2,4.1008987E1,2.2377253E1,1.0015521E2,1.8380005E1,6.209451E0,2.1249481E2,1.0944071E1,2.609745E1,1.2432961E0,4.196993E1,5.216356E0,3.4810934E0,1.9877895E0,4.47752E0,4.993279E1,6.834736E1,2.0883234E1,2.0125753E1,7.7116556E0,1.4665597E1,4.9196632E1,5.095858E1,3.9715362E0,1.4408469E1,4.966567E0,1.2428842E0,1.7652157E1,1.9484265E2,1.7395153E0,9.2045555E0,2.9795086E0,2.311794E1,3.6751446E1,5.218481E0,1.4916682E0,3.7246876E0,2.2378983E0,1.2431952E0,3.233912E0,1.2436081E0,2.1605017E1,2.8327772E1,5.7170616E1,1.1176746E1,8.449474E0,1.2433759E1,1.6898066E1,3.2276886E0,2.4864638E0,5.2251916E0,1.1183593E1,3.482004E0,4.7455696E1,1.7409383E0,3.3314888E1,1.7643692E1,1.2170839E1,2.2376292E0,1.7395153E0,3.227052E0,9.693915E0,7.9582415E0,2.3849962E1,1.7099269E2,7.215749E0,1.9888072E0,1.342683E1,9.691112E0,2.7559135E1,9.192312E0,2.4837134E0,2.734768E0,1.812544E1,3.4795775E0,1.0928818E1,1.7398954E1,5.0712543E1,6.458072E0,5.2130194E0,5.9637265E0,2.483133E0,5.9663415E0,4.2249074E0,8.208851E0,6.961213E0,9.936852E0,8.447754E0,2.7358387E0,2.23912E0,1.2428842E0,2.9324076E1,1.813162E1,2.9836515E1,3.4783738E0,1.391351E1,3.730182E0,1.4906341E0,1.0680205E1,7.4589806E0,2.234935E0,2.734218E0,5.2240233E0,7.4570007E0,1.6392962E1,2.4364803E1,1.4662788E2,9.451396E0,3.975434E0,6.706951E0,2.9841604E0],"tree_param":{"num_deleted":"0","num_feature":"11","num_nodes":"127","size_leaf_vector":"1"}},{"base_weights":[-1.7886338E-4,9.790472E-2,-1.3633212E-1,2.8240684E-1,-8.177474E-2,-1.47459945E-2,-1.1890716E-1,6.9444513E-1,1.0687061E-1,-3.714299E-1,7.496974E-2,-5.297562E-2,-4.964707E-1,8.279694E-1,1.4416941E-2,-9.2327905E-1,1.7048655E-1,-1.1294689E-1,-8.198809E-1,-4.8778664E-2,7.173859E-1,7.5651866E-1,-8.00474E-2,-1.2082224E0,-1.6423112E-1,-7.4589127E-3,8.909366E-1,5.8404964E-1,-7.783653E-1,2.2858523E-3,-1.3826283E0,4.9654996E-1,-7.134194E-2,-5.0357974E-1,2.9725403E-1,-1.4322506E0,-4.2680496E-1,2.4164617E-1,-3.282966E-1,1.4631698E-2,4.3034068E-1,1.029105E0,-3.0528638E-3,-5.9132844E-1,-3.0927658E-2,8.309606E-4,-1.4362895E0,1.1241716E-2,-3.6981508E-1,9.9608666E-1,1.0977493E-1,-4.880253E-3,1.0262425E-2,-1.1739282E-2,1.399736E-3,-1.6318481E-2,-2.9619245E-3,9.186531E-1,1.544776E-1,-2.5011355E-1,7.891975E-1,7.299948E-2,-8.714576E-1,7.5699165E-2,1.1654975E-2,-6.7409417E-3,-1.6267627E-2,-1.0036404E-1,-1.2185235E0,3.067802E-1,-9.9716205E-3,-5.1861227E-1,3.9755605E-2,6.4185137E-1,-5.622869E-3,8.309606E-4,1.3990707E-2,-1.8270516E-1,-1.0129375E0,4.069292E-1,-9.398554E-2,-1.6268222E-2,-4.3171556E-3,-6.8552256E-1,9.103851E-2,1.176621E-2,3.928199E-3,7.403187E-3,-5.073488E-3,1.1137211E-2,-1.1843054E-3,6.839821E-3,-1.9699032E-3,-3.76303E-3,6.590614E-3,1.3769761E-2,1.519208E-3,1.0237757E-2,-4.124389E-3,-2.9069255E-4,-1.254495E-2,-5.0312416E-3,4.9040522E-3,2.7984146E-3,-1.0343345E-2,-1.47459945E-2,-3.0528638E-3,4.7153054E-4,7.0246416E-3,-6.236998E-3,3.2127397E-3,3.1887805E-3,-8.480454E-3,-4.935219E-3,8.291754E-3,-5.9845247E-3,9.61969E-3,-2.436443E-3,-1.3115825E-2,-5.3150663E-3,6.111129E-3,-5.323838E-3,-1.7997817E-4,-1.076282E-2,2.7381098E-3,5.689923E-3,-8.555578E-3],"categories":[],"categories_nodes":[],"categories_segments":[],"categories_sizes":[],"default_left":[0,0,0,0,0,0,0,0,0,0,0,0,0,0,0,0,0,0,0,0,0,0,0,0,0,0,0,0,0,0,0,0,0,0,0,0,0,0,0,0,0,0,0,0,0,0,0,0,0,0,0,0,0,0,0,0,0,0,0,0,0,0,0,0,0,0,0,0,0,0,0,0,0,0,0,0,0,0,0,0,0,0,0,0,0,0,0,0,0,0,0,0,0,0,0,0,0,0,0,0,0,0,0,0,0,0,0,0,0,0,0,0,0,0,0,0,0,0,0,0,0,0,0,0,0,0,0],"id":2,"left_children":[1,3,5,7,9,-1,11,13,15,17,19,21,23,25,27,29,31,33,35,37,39,41,43,45,47,-1,49,51,53,-1,55,57,59,61,63,65,67,69,71,-1,73,75,-1,77,79,-1,81,-1,83,85,87,-1,-1,-1,-1,-1,-1,89,91,93,95,97,99,101,-1,-1,-1,103,105,107,-1,109,111,113,-1,-1,-1,115,117,119,121,-1,-1,123,125,-1,-1,-1,-1,-1,-1,-1,-1,-1,-1,-1,-1,-1,-1,-1,-1,-1,-1,-1,-1,-1,-1,-1,-1,-1,-1,-1,-1,-1,-1,-1,-1,-1,-1,-1,-1,-1,-1,-1,-1,-1,-1],"loss_changes":[8.260186E0,1.1942083E1,5.864432E0,1.2771957E1,8.332882E0,0E0,6.36537E0,4.7894783E0,8.3971195E0,7.3721848E0,9.537E0,4.8753915E0,8.799743E0,5.043089E0,4.8334727E0,4.2678175E0,9.439502E0,6.8814707E0,5.0180397E0,8.291083E0,3.5167265E0,2.3997273E0,5.3436704E0,3.6393795E0,7.5937037E0,0E0,3.4175835E0,3.4464915E0,1.7927542E0,0E0,1.000783E0,7.209283E0,1.08663645E1,4.706722E0,3.9747086E0,1.8912125E-1,3.9271295E0,4.355361E0,3.6609116E0,0E0,3.5946987E0,1.9705558E0,0E0,3.0294456E0,5.44562E0,0E0,1.2524586E0,0E0,3.5721593E0,3.6459465E0,2.7951608E0,0E0,0E0,0E0,0E0,0E0,0E0,4.7014847E0,5.592083E0,6.9230595E0,4.349312E0,4.783433E0,4.3004503E0,4.5426836E0,0E0,0E0,0E0,4.615883E0,5.98557E-1,4.943547E0,0E0,3.2301846E0,4.890105E0,3.2089796E0,0E0,0E0,0E0,5.665563E0,1.7397385E0,5.084833E0,5.720378E0,0E0,0E0,5.7051916E0,5.323184E0,0E0,0E0,0E0,0E0,0E0,0E0,0E0,0E0,0E0,0E0,0E0,0E0,0E0,0E0,0E0,0E0,0E0,0E0,0E0,0E0,0E0,0E0,0E0,0E0,0E0,0E0,0E0,0E0,0E0,0E0,0E0,0E0,0E0,0E0,0E0,0E0,0E0,0E0,0E0,0E0,0E0,0E0],"parents":[2147483647,0,0,1,1,2,2,3,3,4,4,6,6,7,7,8,8,9,9,10,10,11,11,12,12,13,13,14,14,15,15,16,16,17,17,18,18,19,19,20,20,21,21,22,22,23,23,24,24,26,26,27,27,28,28,30,30,31,31,32,32,33,33,34,34,35,35,36,36,37,37,38,38,40,40,41,41,43,43,44,44,46,46,48,48,49,49,50,50,57,57,58,58,59,59,60,60,61,61,62,62,63,63,67,67,68,68,69,69,71,71,72,72,73,73,77,77,78,78,79,79,80,80,83,83,84,84],"right_children":[2,4,6,8,10,-1,12,14,16,18,20,22,24,26,28,30,32,34,36,38,40,42,44,46,48,-1,50,52,54,-1,56,58,60,62,64,66,68,70,72,-1,74,76,-1,78,80,-1,82,-1,84,86,88,-1,-1,-1,-1,-1,-1,90,92,94,96,98,100,102,-1,-1,-1,104,106,108,-1,110,112,114,-1,-1,-1,116,118,120,122,-1,-1,124,126,-1,-1,-1,-1,-1,-1,-1,-1,-1,-1,-1,-1,-1,-1,-1,-1,-1,-1,-1,-1,-1,-1,-1,-1,-1,-1,-1,-1,-1,-1,-1,-1,-1,-1,-1,-1,-1,-1,-1,-1,-1,-1],"split_conditions":[3.244209E-3,2.1577325E2,-6.1500015E0,5.0978653E1,3.0508945E2,-1.47459945E-2,2.5E-1,5.35153E7,-1.1599998E0,2.828806E9,6.583059E1,-2.4926174E0,2.15789E7,-1.7621374E0,-1.7744137E-2,5.504441E1,7.999802E-2,2.698175E9,-1.5414282E-2,3.1143237E9,-5.9693724E-1,-7.8999996E-1,-1.3059707E0,-3.668376E-2,-6.7993456E-1,-7.4589127E-3,1.9135098E2,-8.042466E-3,-7.690316E-3,2.2858523E-3,4.024827E-3,3.298953E-4,3.8381536E0,2.4950984E9,3.62493E7,4.324894E0,2.701307E2,6.7805746E-3,8.264331E-4,1.4631698E-2,4.0516953E2,-2.3400002E0,-3.0528638E-3,4.6643864E1,1.7836E7,8.309606E-4,4.640709E2,1.1241716E-2,4.4167548E-4,2.7382541E-2,-1.7887726E-2,-4.880253E-3,1.0262425E-2,-1.1739282E-2,1.399736E-3,-1.6318481E-2,-2.9619245E-3,3.674653E-1,1.88831E7,3.7719708E-2,5.046806E0,2.2266043E2,2.26042E7,-7.40077E-3,1.1654975E-2,-6.7409417E-3,-1.6267627E-2,6.7210686E1,3.035901E2,-1.727465E-3,-9.9716205E-3,4.1089635E-2,3.5215465E9,2.6660378E9,-5.622869E-3,8.309606E-4,1.3990707E-2,1.1955826E-2,-1.9541934E0,1.45122E7,6.570376E1,-1.6268222E-2,-4.3171556E-3,1.30097205E-2,6.9855415E1,1.176621E-2,3.928199E-3,7.403187E-3,-5.073488E-3,1.1137211E-2,-1.1843054E-3,6.839821E-3,-1.9699032E-3,-3.76303E-3,6.590614E-3,1.3769761E-2,1.519208E-3,1.0237757E-2,-4.124389E-3,-2.9069255E-4,-1.254495E-2,-5.0312416E-3,4.9040522E-3,2.7984146E-3,-1.0343345E-2,-1.47459945E-2,-3.0528638E-3,4.7153054E-4,7.0246416E-3,-6.236998E-3,3.2127397E-3,3.1887805E-3,-8.480454E-3,-4.935219E-3,8.291754E-3,-5.9845247E-3,9.61969E-3,-2.436443E-3,-1.3115825E-2,-5.3150663E-3,6.111129E-3,-5.323838E-3,-1.7997817E-4,-1.076282E-2,2.7381098E-3,5.689923E-3,-8.555578E-3],"split_indices":[0,4,9,2,5,0,9,1,9,6,2,3,1,3,8,2,9,6,10,6,3,9,3,10,3,0,4,10,8,0,10,8,7,6,1,7,4,8,8,0,4,9,0,2,1,0,5,0,8,10,0,0,0,0,0,0,0,3,1,10,7,4,1,0,0,0,0,2,5,8,0,10,6,6,0,0,0,8,3,1,4,0,0,0,2,0,0,0,0,0,0,0,0,0,0,0,0,0,0,0,0,0,0,0,0,0,0,0,0,0,0,0,0,0,0,0,0,0,0,0,0,0,0,0,0,0,0],"split_type":[0,0,0,0,0,0,0,0,0,0,0,0,0,0,0,0,0,0,0,0,0,0,0,0,0,0,0,0,0,0,0,0,0,0,0,0,0,0,0,0,0,0,0,0,0,0,0,0,0,0,0,0,0,0,0,0,0,0,0,0,0,0,0,0,0,0,0,0,0,0,0,0,0,0,0,0,0,0,0,0,0,0,0,0,0,0,0,0,0,0,0,0,0,0,0,0,0,0,0,0,0,0,0,0,0,0,0,0,0,0,0,0,0,0,0,0,0,0,0,0,0,0,0,0,0,0,0],"sum_hessian":[6.1653723E2,3.5853372E2,2.5800354E2,1.7661084E2,1.8192287E2,2.2413116E0,2.5576222E2,5.1878857E1,1.2473199E2,6.3397724E1,1.1852515E2,2.187105E2,3.7051727E1,4.3182396E1,8.696459E0,6.4687357E0,1.1826325E2,4.1011143E1,2.238658E1,1.00156166E2,1.8368979E1,6.2056475E0,2.1250484E2,1.0952263E1,2.6099463E1,1.243962E0,4.1938435E1,5.2136326E0,3.4828262E0,1.9874295E0,4.481306E0,4.9912144E1,6.8351105E1,2.0890015E1,2.0121128E1,7.71842E0,1.466816E1,4.9186195E1,5.096997E1,3.9663894E0,1.4402588E1,4.9624786E0,1.2431692E0,1.7658743E1,1.948461E2,1.7394024E0,9.21286E0,2.976628E0,2.3122835E1,3.672046E1,5.217976E0,1.4922054E0,3.7214272E0,2.2397606E0,1.2430655E0,3.2367923E0,1.244514E0,2.1587954E1,2.8324192E1,5.718139E1,1.1169718E1,8.449142E0,1.2440873E1,1.6896687E1,3.2244413E0,2.4876783E0,5.230742E0,1.118368E1,3.4844806E0,4.7444042E1,1.7421529E0,3.3327583E1,1.764239E1,1.2164037E1,2.2385514E0,1.7394024E0,3.223076E0,9.695359E0,7.963384E0,2.3841806E1,1.7100429E2,7.2234154E0,1.9894447E0,1.3433036E1,9.689799E0,2.753106E1,9.1894E0,2.4821854E0,2.735791E0,1.8108059E1,3.4798937E0,1.0922624E1,1.7401567E1,5.0726833E1,6.454556E0,5.206705E0,5.963013E0,2.4809668E0,5.968176E0,4.225003E0,8.215871E0,6.9637995E0,9.932886E0,8.445868E0,2.7378123E0,2.2413116E0,1.2431692E0,2.9322996E1,1.8121048E1,2.9850101E1,3.4774797E0,1.3909956E1,3.7324336E0,1.4912095E0,1.0672828E1,7.4622455E0,2.2331135E0,2.7347224E0,5.2286615E0,3.974015E0,1.986779E1,2.4374363E1,1.4662993E2,9.458468E0,3.974567E0,6.7038236E0,2.9859757E0],"tree_param":{"num_deleted":"0","num_feature":"11","num_nodes":"127","size_leaf_vector":"1"}},{"base_weights":[-2.7160987E-4,9.6885465E-2,-1.3511078E-1,2.7978563E-1,-8.118599E-2,-1.46352565E-2,-1.178058E-1,6.8805313E-1,1.0594415E-1,-3.68338E-1,7.424227E-2,-5.2466348E-2,-4.9190703E-1,8.205393E-1,1.3766363E-2,-9.1594684E-1,1.6908675E-1,-1.11698486E-1,-8.134655E-1,-4.839672E-2,7.1128654E-1,7.510175E-1,-7.9321176E-2,-1.1970727E0,-1.6256714E-1,-7.415479E-3,8.831356E-1,5.793499E-1,-7.72616E-1,2.2709216E-3,-1.3714665E0,4.9208927E-1,-7.0363335E-2,-4.987143E-1,2.9489908E-1,-1.4195915E0,-4.2409527E-1,2.392331E-1,-3.2510698E-1,1.4531094E-2,4.2606515E-1,1.0220538E0,-3.035567E-3,-5.858682E-1,-3.064177E-2,8.257186E-4,-1.4229257E0,1.1166162E-2,-3.6650437E-1,9.874016E-1,1.0906375E-1,-4.8500225E-3,1.0188973E-2,-1.1684646E-2,1.4352842E-3,-1.6190182E-2,-2.9302859E-3,9.106381E-1,1.531197E-1,-2.4751987E-1,7.830459E-1,7.292198E-2,-8.632837E-1,7.4942656E-2,1.1575487E-2,-6.6906437E-3,-1.611855E-2,-9.9979356E-2,-1.2097076E0,3.039432E-1,-9.9042E-3,-5.13334E-1,3.9078157E-2,6.360345E-1,-5.582476E-3,8.257186E-4,1.3898012E-2,-1.8051636E-1,-1.0040201E0,4.030291E-1,-9.307162E-2,-1.6112242E-2,-4.2875404E-3,-6.78958E-1,8.987422E-2,1.16648795E-2,3.8939086E-3,7.3537766E-3,-5.035005E-3,1.1042314E-2,-1.1750238E-3,-7.3676235E-3,3.53937E-3,-3.7251287E-3,6.5367445E-3,1.3669189E-2,1.5063517E-3,1.0171486E-2,-4.088023E-3,-2.8833695E-4,-1.2424563E-2,-4.985689E-3,4.8613083E-3,2.7739548E-3,-1.0262582E-2,-1.46352565E-2,-3.035567E-3,4.6698697E-4,6.962066E-3,-6.1740596E-3,3.1884348E-3,3.1597966E-3,-8.409816E-3,8.231874E-3,-4.959257E-3,-5.9295665E-3,9.558926E-3,-2.4182824E-3,-1.2997021E-2,-2.5371446E-3,6.994254E-3,-5.2707945E-3,-1.7818916E-4,-1.0658865E-2,2.7167136E-3,5.64277E-3,-8.487864E-3],"categories":[],"categories_nodes":[],"categories_segments":[],"categories_sizes":[],"default_left":[0,0,0,0,0,0,0,0,0,0,0,0,0,0,0,0,0,0,0,0,0,0,0,0,0,0,0,0,0,0,0,0,0,0,0,0,0,0,0,0,0,0,0,0,0,0,0,0,0,0,0,0,0,0,0,0,0,0,0,0,0,0,0,0,0,0,0,0,0,0,0,0,0,0,0,0,0,0,0,0,0,0,0,0,0,0,0,0,0,0,0,0,0,0,0,0,0,0,0,0,0,0,0,0,0,0,0,0,0,0,0,0,0,0,0,0,0,0,0,0,0,0,0,0,0,0,0],"id":3,"left_children":[1,3,5,7,9,-1,11,13,15,17,19,21,23,25,27,29,31,33,35,37,39,41,43,45,47,-1,49,51,53,-1,55,57,59,61,63,65,67,69,71,-1,73,75,-1,77,79,-1,81,-1,83,85,87,-1,-1,-1,-1,-1,-1,89,91,93,95,97,99,101,-1,-1,-1,103,105,107,-1,109,111,113,-1,-1,-1,115,117,119,121,-1,-1,123,125,-1,-1,-1,-1,-1,-1,-1,-1,-1,-1,-1,-1,-1,-1,-1,-1,-1,-1,-1,-1,-1,-1,-1,-1,-1,-1,-1,-1,-1,-1,-1,-1,-1,-1,-1,-1,-1,-1,-1,-1,-1,-1],"loss_changes":[8.102679E0,1.1730738E1,5.7819486E0,1.2529269E1,8.191333E0,0E0,6.250687E0,4.70953E0,8.266673E0,7.266782E0,9.3715515E0,4.8004546E0,8.644393E0,4.9718895E0,4.7596607E0,4.2018228E0,9.2573185E0,6.7580695E0,4.9192743E0,8.128777E0,3.476551E0,2.3686562E0,5.2469497E0,3.5739021E0,7.479034E0,0E0,3.3551598E0,3.399748E0,1.7939928E0,0E0,9.8982716E-1,7.08064E0,1.0679215E1,4.6260843E0,3.9199347E0,1.8048286E-1,3.86917E0,4.293529E0,3.583293E0,0E0,3.537113E0,1.9437213E0,0E0,2.982378E0,5.339924E0,0E0,1.222395E0,0E0,3.5014484E0,3.581974E0,2.7556047E0,0E0,0E0,0E0,0E0,0E0,0E0,4.6220913E0,5.500423E0,6.7983737E0,4.2849765E0,4.7135873E0,4.2188997E0,4.4624166E0,0E0,0E0,0E0,4.543506E0,5.876646E-1,4.8546505E0,0E0,3.1708784E0,4.808331E0,3.195528E0,0E0,0E0,0E0,5.580285E0,1.7067881E0,5.011442E0,5.6086774E0,0E0,0E0,5.600464E0,5.2384777E0,0E0,0E0,0E0,0E0,0E0,0E0,0E0,0E0,0E0,0E0,0E0,0E0,0E0,0E0,0E0,0E0,0E0,0E0,0E0,0E0,0E0,0E0,0E0,0E0,0E0,0E0,0E0,0E0,0E0,0E0,0E0,0E0,0E0,0E0,0E0,0E0,0E0,0E0,0E0,0E0,0E0,0E0],"parents":[2147483647,0,0,1,1,2,2,3,3,4,4,6,6,7,7,8,8,9,9,10,10,11,11,12,12,13,13,14,14,15,15,16,16,17,17,18,18,19,19,20,20,21,21,22,22,23,23,24,24,26,26,27,27,28,28,30,30,31,31,32,32,33,33,34,34,35,35,36,36,37,37,38,38,40,40,41,41,43,43,44,44,46,46,48,48,49,49,50,50,57,57,58,58,59,59,60,60,61,61,62,62,63,63,67,67,68,68,69,69,71,71,72,72,73,73,77,77,78,78,79,79,80,80,83,83,84,84],"right_children":[2,4,6,8,10,-1,12,14,16,18,20,22,24,26,28,30,32,34,36,38,40,42,44,46,48,-1,50,52,54,-1,56,58,60,62,64,66,68,70,72,-1,74,76,-1,78,80,-1,82,-1,84,86,88,-1,-1,-1,-1,-1,-1,90,92,94,96,98,100,102,-1,-1,-1,104,106,108,-1,110,112,114,-1,-1,-1,116,118,120,122,-1,-1,124,126,-1,-1,-1,-1,-1,-1,-1,-1,-1,-1,-1,-1,-1,-1,-1,-1,-1,-1,-1,-1,-1,-1,-1,-1,-1,-1,-1,-1,-1,-1,-1,-1,-1,-1,-1,-1,-1,-1,-1,-1,-1,-1],"split_conditions":[3.244209E-3,2.1577325E2,-6.1500015E0,5.0978653E1,3.0508945E2,-1.46352565E-2,2.5E-1,5.35153E7,-1.1599998E0,2.828806E9,6.583059E1,-2.4926174E0,2.15789E7,-1.7621374E0,-1.7744137E-2,5.504441E1,7.999802E-2,2.698175E9,-1.5414282E-2,3.1143237E9,-5.9693724E-1,-7.8999996E-1,-1.3059707E0,-3.668376E-2,-6.7993456E-1,-7.415479E-3,1.9135098E2,-8.042466E-3,-1.3748566E-2,2.2709216E-3,4.7482185E0,3.298953E-4,3.8381536E0,2.4950984E9,3.62493E7,4.324894E0,2.701307E2,6.7805746E-3,8.264331E-4,1.4531094E-2,4.0516953E2,-2.3400002E0,-3.035567E-3,4.6643864E1,1.7836E7,8.257186E-4,4.640709E2,1.1166162E-2,4.4167548E-4,2.7382541E-2,-1.7887726E-2,-4.8500225E-3,1.0188973E-2,-1.1684646E-2,1.4352842E-3,-1.6190182E-2,-2.9302859E-3,3.674653E-1,-6.0311756E-3,3.7719708E-2,5.046806E0,2.2266043E2,2.26042E7,-7.40077E-3,1.1575487E-2,-6.6906437E-3,-1.611855E-2,6.7210686E1,3.035901E2,-1.727465E-3,-9.9042E-3,4.1089635E-2,3.5215465E9,2.89776E7,-5.582476E-3,8.257186E-4,1.3898012E-2,1.1955826E-2,-1.9541934E0,-2.1787903E-1,6.570376E1,-1.6112242E-2,-4.2875404E-3,1.30097205E-2,6.9855415E1,1.16648795E-2,3.8939086E-3,7.3537766E-3,-5.035005E-3,1.1042314E-2,-1.1750238E-3,-7.3676235E-3,3.53937E-3,-3.7251287E-3,6.5367445E-3,1.3669189E-2,1.5063517E-3,1.0171486E-2,-4.088023E-3,-2.8833695E-4,-1.2424563E-2,-4.985689E-3,4.8613083E-3,2.7739548E-3,-1.0262582E-2,-1.46352565E-2,-3.035567E-3,4.6698697E-4,6.962066E-3,-6.1740596E-3,3.1884348E-3,3.1597966E-3,-8.409816E-3,8.231874E-3,-4.959257E-3,-5.9295665E-3,9.558926E-3,-2.4182824E-3,-1.2997021E-2,-2.5371446E-3,6.994254E-3,-5.2707945E-3,-1.7818916E-4,-1.0658865E-2,2.7167136E-3,5.64277E-3,-8.487864E-3],"split_indices":[0,4,9,2,5,0,9,1,9,6,2,3,1,3,8,2,9,6,10,6,3,9,3,10,3,0,4,10,0,0,7,8,7,6,1,7,4,8,8,0,4,9,0,2,1,0,5,0,8,10,0,0,0,0,0,0,0,3,0,10,7,4,1,0,0,0,0,2,5,8,0,10,6,1,0,0,0,8,3,3,4,0,0,0,2,0,0,0,0,0,0,0,0,0,0,0,0,0,0,0,0,0,0,0,0,0,0,0,0,0,0,0,0,0,0,0,0,0,0,0,0,0,0,0,0,0,0],"split_type":[0,0,0,0,0,0,0,0,0,0,0,0,0,0,0,0,0,0,0,0,0,0,0,0,0,0,0,0,0,0,0,0,0,0,0,0,0,0,0,0,0,0,0,0,0,0,0,0,0,0,0,0,0,0,0,0,0,0,0,0,0,0,0,0,0,0,0,0,0,0,0,0,0,0,0,0,0,0,0,0,0,0,0,0,0,0,0,0,0,0,0,0,0,0,0,0,0,0,0,0,0,0,0,0,0,0,0,0,0,0,0,0,0,0,0,0,0,0,0,0,0,0,0,0,0,0,0],"sum_hessian":[6.1649854E2,3.584804E2,2.5801816E2,1.7656073E2,1.8191966E2,2.2432446E0,2.557749E2,5.184487E1,1.2471586E2,6.3406685E1,1.18512985E2,2.1871501E2,3.7059895E1,4.314976E1,8.695111E0,6.4717627E0,1.18244095E2,4.1012024E1,2.2394663E1,1.0015578E2,1.835721E1,6.201555E0,2.1251346E2,1.0959408E1,2.6100487E1,1.2445898E0,4.190517E1,5.210719E0,3.4843917E0,1.9870669E0,4.484696E0,4.9890285E1,6.835381E1,2.0895906E1,2.0116116E1,7.7243805E0,1.4670281E1,4.9175323E1,5.098045E1,3.9608629E0,1.4396348E1,4.958108E0,1.2434468E0,1.7664576E1,1.9484888E2,1.7392895E0,9.220118E0,2.9735827E0,2.3126905E1,3.66878E1,5.217372E0,1.4927216E0,3.7179976E0,2.2407787E0,1.2436131E0,3.2397583E0,1.2449377E0,2.1569931E1,2.8320354E1,5.719156E1,1.1162252E1,8.44863E0,1.2447276E1,1.6895115E1,3.2210019E0,2.4888277E0,5.235553E0,1.118359E1,3.4866915E0,4.7432053E1,1.7432735E0,3.333955E1,1.7640898E1,1.2156916E1,2.2394319E0,1.7392895E0,3.2188182E0,9.69655E0,7.968026E0,2.3833439E1,1.7101544E2,7.230058E0,1.9900595E0,1.34386215E1,9.688284E0,2.7501356E1,9.186443E0,2.4806008E0,2.7367713E0,1.8089725E1,3.4802048E0,4.722908E0,2.3597448E1,5.0740627E1,6.4509306E0,5.199954E0,5.9622984E0,2.4786873E0,5.969943E0,4.2250967E0,8.22218E0,6.966276E0,9.928838E0,8.443965E0,2.7396252E0,2.2432446E0,1.2434468E0,2.9321922E1,1.8110128E1,2.9862976E1,3.4765747E0,1.39063635E1,3.734534E0,1.0666195E1,1.4907211E0,7.4653482E0,2.2312021E0,2.735215E0,5.2328115E0,7.456225E0,1.6377214E1,2.4383486E1,1.4663196E2,9.46493E0,3.973692E0,6.7006154E0,2.9876685E0],"tree_param":{"num_deleted":"0","num_feature":"11","num_nodes":"127","size_leaf_vector":"1"}},{"base_weights":[-3.7061263E-4,9.585502E-2,-1.3388799E-1,-5.649522E-1,1.440202E-1,-1.4526466E-2,-1.1670171E-1,1.8407458E-1,-8.555883E-1,3.3687314E-1,-4.6079844E-2,-5.1945392E-2,-4.8741007E-1,1.104278E-2,-2.1403609E-1,-9.978225E-1,5.8349967E-3,7.361193E-1,1.6896957E-1,-3.5450453E-1,1.144907E-1,7.455875E-1,-7.85847E-2,-1.1861273E0,-1.6092467E-1,-8.918299E-3,1.8868132E-1,-3.517209E-1,-1.302771E0,4.7574857E-1,1.1376516E0,4.9382722E-1,-6.939739E-2,-7.9547085E-2,-8.0947495E-1,1.8631077E-1,-9.2067385E-1,1.0151011E0,-3.0183773E-3,-5.804801E-1,-3.0339807E-2,8.205097E-4,-1.4098275E0,1.1091595E-2,-3.6323524E-1,6.6204634E-3,-5.0239637E-3,-9.218642E-1,8.1255045E-3,-7.772382E-4,-1.4879032E-2,5.7458055E-1,-9.071686E-3,1.409414E0,2.2777896E-1,9.0273166E-1,1.5672293E-1,-2.4495539E-1,7.7697134E-1,-4.176524E-1,3.257366E-1,-1.1993828E0,-2.211644E-1,6.845876E-2,7.2807324E-1,3.2057923E-3,-1.2844174E0,8.205097E-4,1.380688E-2,4.6269586E-3,-7.151903E-1,3.993186E-1,-9.2166714E-2,-1.5959695E-2,-4.2581554E-3,-6.7248434E-1,8.872511E-2,-2.7269884E-3,-1.3507725E-2,7.523407E-3,-1.2839441E-4,1.5676558E-2,6.103894E-3,-4.4858465E-3,7.4220225E-3,1.0948775E-2,-1.1658157E-3,-7.303536E-3,3.610183E-3,-3.687644E-3,6.4834133E-3,1.3570328E-2,1.4936063E-3,1.3290326E-3,-7.834597E-3,6.2101654E-4,1.1497082E-2,-1.42538035E-2,3.2029082E-3,1.0371874E-2,-5.1981644E-3,3.0705421E-3,-2.1009424E-3,-4.928442E-3,8.613692E-3,-4.3351236E-3,-1.600084E-2,-1.3989574E-2,-2.143531E-3,-5.2993614E-3,6.0187075E-3,-5.218366E-3,-1.764169E-4,-1.0556517E-2,2.6954883E-3,5.5960706E-3,-8.420932E-3],"categories":[],"categories_nodes":[],"categories_segments":[],"categories_sizes":[],"default_left":[0,0,0,0,0,0,0,0,0,0,0,0,0,0,0,0,0,0,0,0,0,0,0,0,0,0,0,0,0,0,0,0,0,0,0,0,0,0,0,0,0,0,0,0,0,0,0,0,0,0,0,0,0,0,0,0,0,0,0,0,0,0,0,0,0,0,0,0,0,0,0,0,0,0,0,0,0,0,0,0,0,0,0,0,0,0,0,0,0,0,0,0,0,0,0,0,0,0,0,0,0,0,0,0,0,0,0,0,0,0,0,0,0,0,0,0,0],"id":4,"left_children":[1,3,5,7,9,-1,11,13,15,17,19,21,23,-1,25,27,-1,29,31,33,35,37,39,41,43,-1,45,47,49,51,53,55,57,59,61,63,65,67,-1,69,71,-1,73,-1,75,-1,-1,77,-1,-1,-1,79,-1,81,83,85,87,89,91,93,95,97,99,101,103,-1,105,-1,-1,-1,107,109,111,-1,-1,113,115,-1,-1,-1,-1,-1,-1,-1,-1,-1,-1,-1,-1,-1,-1,-1,-1,-1,-1,-1,-1,-1,-1,-1,-1,-1,-1,-1,-1,-1,-1,-1,-1,-1,-1,-1,-1,-1,-1,-1,-1],"loss_changes":[7.9456625E0,1.1520881E1,5.701247E0,5.517293E0,1.2326301E1,0E0,6.13896E0,3.0592642E0,4.2492313E0,1.1057835E1,8.458921E0,4.7266564E0,8.492795E0,0E0,1.8650701E0,2.8267765E0,0E0,4.5906124E0,9.227821E0,7.2465816E0,8.538607E0,2.3381257E0,5.152553E0,3.5102005E0,7.3664107E0,0E0,1.8782439E0,5.20704E0,2.3693333E0,4.826032E0,4.275755E0,6.8016996E0,1.0495635E1,5.2796183E0,4.759614E0,6.722686E0,3.7844386E0,1.9175043E0,0E0,2.9544988E0,5.2394757E0,0E0,1.193531E0,0E0,3.4323003E0,0E0,0E0,1.0173106E0,0E0,0E0,0E0,3.143054E0,0E0,8.2868385E-1,2.2355669E0,4.544405E0,5.48642E0,6.676025E0,4.2221417E0,4.3138247E0,3.7592015E0,4.9035053E0,4.2812576E0,5.928072E0,3.4919186E0,0E0,9.117222E-1,0E0,0E0,0E0,5.496991E0,4.991541E0,5.4992704E0,0E0,0E0,5.4980607E0,5.155225E0,0E0,0E0,0E0,0E0,0E0,0E0,0E0,0E0,0E0,0E0,0E0,0E0,0E0,0E0,0E0,0E0,0E0,0E0,0E0,0E0,0E0,0E0,0E0,0E0,0E0,0E0,0E0,0E0,0E0,0E0,0E0,0E0,0E0,0E0,0E0,0E0,0E0,0E0,0E0,0E0],"parents":[2147483647,0,0,1,1,2,2,3,3,4,4,6,6,7,7,8,8,9,9,10,10,11,11,12,12,14,14,15,15,17,17,18,18,19,19,20,20,21,21,22,22,23,23,24,24,26,26,27,27,28,28,29,29,30,30,31,31,32,32,33,33,34,34,35,35,36,36,37,37,39,39,40,40,42,42,44,44,47,47,51,51,53,53,54,54,55,55,56,56,57,57,58,58,59,59,60,60,61,61,62,62,63,63,64,64,66,66,70,70,71,71,72,72,75,75,76,76],"right_children":[2,4,6,8,10,-1,12,14,16,18,20,22,24,-1,26,28,-1,30,32,34,36,38,40,42,44,-1,46,48,50,52,54,56,58,60,62,64,66,68,-1,70,72,-1,74,-1,76,-1,-1,78,-1,-1,-1,80,-1,82,84,86,88,90,92,94,96,98,100,102,104,-1,106,-1,-1,-1,108,110,112,-1,-1,114,116,-1,-1,-1,-1,-1,-1,-1,-1,-1,-1,-1,-1,-1,-1,-1,-1,-1,-1,-1,-1,-1,-1,-1,-1,-1,-1,-1,-1,-1,-1,-1,-1,-1,-1,-1,-1,-1,-1,-1,-1],"split_conditions":[3.244209E-3,-1.0799999E0,-6.1500015E0,-5.3436446E-1,2.1577325E2,-1.4526466E-2,2.5E-1,5.4805474E0,2.1850655E0,5.0978653E1,3.0508945E2,-2.4926174E0,2.15789E7,1.104278E-2,7.002386E0,-1.8099995E0,5.8349967E-3,-3.711385E-3,7.999802E-2,2.822858E9,5.290325E2,-7.8999996E-1,-1.3059707E0,-3.668376E-2,-6.7993456E-1,-8.918299E-3,3.80002E7,9.5541645E-3,-1.3188958E-2,-4.9732607E-3,2.7769528E-2,3.298953E-4,3.8381536E0,2.7036193E9,3.674653E-1,6.583059E1,2.02659E7,-2.3400002E0,-3.0183773E-3,-1.5852458E-3,1.7836E7,8.205097E-4,4.640709E2,1.1091595E-2,4.4167548E-4,6.6204634E-3,-5.0239637E-3,5.1272446E1,8.1255045E-3,-7.772382E-4,-1.4879032E-2,5.35153E7,-9.071686E-3,5.500002E-1,-2.1999931E-1,3.674653E-1,-6.0311756E-3,3.7719708E-2,5.046806E0,2.4950984E9,3.62493E7,3.210001E0,4.1732626E0,3.1143237E9,2.6660378E9,3.2057923E-3,4.181073E1,8.205097E-4,1.380688E-2,4.6269586E-3,6.95223E-3,1.45122E7,6.570376E1,-1.5959695E-2,-4.2581554E-3,1.30097205E-2,6.9855415E1,-2.7269884E-3,-1.3507725E-2,7.523407E-3,-1.2839441E-4,1.5676558E-2,6.103894E-3,-4.4858465E-3,7.4220225E-3,1.0948775E-2,-1.1658157E-3,-7.303536E-3,3.610183E-3,-3.687644E-3,6.4834133E-3,1.3570328E-2,1.4936063E-3,1.3290326E-3,-7.834597E-3,6.2101654E-4,1.1497082E-2,-1.42538035E-2,3.2029082E-3,1.0371874E-2,-5.1981644E-3,3.0705421E-3,-2.1009424E-3,-4.928442E-3,8.613692E-3,-4.3351236E-3,-1.600084E-2,-1.3989574E-2,-2.143531E-3,-5.2993614E-3,6.0187075E-3,-5.218366E-3,-1.764169E-4,-1.0556517E-2,2.6954883E-3,5.5960706E-3,-8.420932E-3],"split_indices":[0,9,9,3,4,0,9,7,3,2,5,3,1,0,7,9,0,8,9,6,5,9,3,10,3,0,1,10,0,8,10,8,7,6,3,2,1,9,0,8,1,0,5,0,8,0,0,2,0,0,0,1,0,9,9,3,0,10,7,6,1,9,7,6,6,0,2,0,0,0,8,1,4,0,0,0,2,0,0,0,0,0,0,0,0,0,0,0,0,0,0,0,0,0,0,0,0,0,0,0,0,0,0,0,0,0,0,0,0,0,0,0,0,0,0,0,0],"split_type":[0,0,0,0,0,0,0,0,0,0,0,0,0,0,0,0,0,0,0,0,0,0,0,0,0,0,0,0,0,0,0,0,0,0,0,0,0,0,0,0,0,0,0,0,0,0,0,0,0,0,0,0,0,0,0,0,0,0,0,0,0,0,0,0,0,0,0,0,0,0,0,0,0,0,0,0,0,0,0,0,0,0,0,0,0,0,0,0,0,0,0,0,0,0,0,0,0,0,0,0,0,0,0,0,0,0,0,0,0,0,0,0,0,0,0,0,0],"sum_hessian":[6.164467E2,3.584179E2,2.580288E2,2.3620773E1,3.3479715E2,2.2449245E0,2.5578387E2,6.7056465E0,1.6915127E1,1.6581195E2,1.689852E2,2.1871779E2,3.7066082E1,1.489343E0,5.216304E0,1.5672721E1,1.2424062E0,4.8086422E1,1.17725525E2,5.744219E1,1.11543015E2,6.19718E0,2.1252061E2,1.0965531E1,2.610055E1,1.4915011E0,3.7248025E0,5.715831E0,9.95689E0,3.0496206E1,1.7590216E1,4.9370026E1,6.83555E1,3.6536503E1,2.0905682E1,1.0507303E2,6.469983E0,4.9534626E0,1.2437173E0,1.7669676E1,1.9485094E2,1.739177E0,9.226354E0,2.970377E0,2.3130173E1,2.2355409E0,1.4892616E0,3.9766645E0,1.7391664E0,1.493567E0,8.463323E0,2.9007652E1,1.4885545E0,1.3121914E1,4.4683027E0,2.1550982E1,2.7819044E1,5.7201134E1,1.1154362E1,1.9902473E1,1.663403E1,1.1948213E1,8.95747E0,8.722496E1,1.784807E1,1.4931989E0,4.976784E0,1.739177E0,3.2142856E0,1.7423581E0,1.5927317E1,2.3824799E1,1.7102614E2,7.235702E0,1.9906521E0,1.3443602E1,9.686571E0,2.2329009E0,1.7437638E0,2.2053308E1,6.9543443E0,1.0149839E1,2.9720738E0,1.9856095E0,2.4826934E0,1.807047E1,3.4805112E0,4.7254686E0,2.3093576E1,5.0753933E1,6.4471993E0,5.192779E0,5.961583E0,8.199124E0,1.170335E1,1.3416655E1,3.2173748E0,1.0455392E1,1.4928206E0,1.2438192E0,7.7136507E0,4.692709E1,4.0297867E1,1.4912916E0,1.635678E1,1.9888911E0,2.987893E0,5.9757266E0,9.951591E0,3.9745123E0,1.9850285E1,2.4392181E1,1.4663396E2,9.470793E0,3.9728093E0,6.6973295E0,2.9892411E0],"tree_param":{"num_deleted":"0","num_feature":"11","num_nodes":"117","size_leaf_vector":"1"}},{"base_weights":[-3.945952E-4,9.496902E-2,-1.3269103E-1,2.7473667E-1,-7.995419E-2,-8.759548E-2,-6.2340814E-1,6.7580104E-1,1.0413168E-1,-3.6168912E-1,7.262116E-2,-1.941344E-2,-4.8208222E-1,-1.021794E0,2.6240228E-2,8.0627376E-1,1.27252E-2,-8.999467E-1,1.6624369E-1,-1.0945911E-1,-7.988526E-1,-4.779889E-2,6.989492E-1,2.4164054E-3,-1.1179936E0,-1.1753801E0,-1.1800737E-1,-1.0721905E-1,-1.2726755E0,6.6366476E-1,-7.944529E-1,-7.3958025E-3,8.684609E-1,5.751771E-1,-7.685781E-1,2.2835804E-3,-1.3499709E0,4.83115E-1,-6.844406E-2,-4.899031E-1,2.9058072E-1,-1.3986163E0,-4.1385776E-1,2.3442194E-1,-3.1907946E-1,1.4374279E-2,4.157815E-1,-4.4694656E-1,5.2152768E-2,-1.3727054E-2,-3.0826752E-3,8.1533386E-4,-1.3969866E0,1.2489347E-2,-3.1398273E-1,5.9172814E-3,-6.4039086E-3,-2.963306E-3,-1.3723755E0,-2.4913936E-3,1.3217558E-2,-1.2907293E-2,-1.1404313E-3,9.7181046E-1,1.0292706E-1,-4.819222E-3,1.0121978E-2,-1.16076395E-2,1.4090746E-3,-1.5954556E-2,-2.8492992E-3,8.949307E-1,1.5008709E-1,-2.424198E-1,7.709719E-1,7.1930595E-2,-8.4788376E-1,7.384573E-2,1.1419739E-2,-6.5730517E-3,-1.5891917E-2,-9.308588E-2,-1.1923904E0,2.9849994E-1,-9.811594E-3,-5.053896E-1,4.137611E-2,6.2429214E-1,-5.584647E-3,-7.513211E-1,5.653279E-1,3.5246122E-1,-5.627231E-2,-1.5810465E-2,-4.2290012E-3,-1.0092336E0,-7.701349E-2,-1.4996681E0,-3.0826752E-3,1.14852125E-2,3.8262808E-3,7.249479E-3,-5.034037E-3,1.0856558E-2,-1.156681E-3,6.727828E-3,-1.9636967E-3,1.0510058E-3,-5.648341E-3,1.3473127E-2,1.4809689E-3,7.327389E-3,-6.023635E-3,-2.2252412E-4,-1.2236064E-2,-4.9407184E-3,4.8135566E-3,2.808084E-3,-1.0119804E-2,-1.4442735E-2,-2.9684757E-3,4.064034E-3,-5.7861316E-3,-6.0833627E-3,3.177346E-3,3.1556215E-3,-8.300395E-3,8.1008095E-3,-4.954013E-3,-1.6849939E-2,-3.2736938E-3,-7.3915725E-3,1.1579182E-2,6.8556657E-3,-1.0164028E-3,-1.1877154E-2,-2.8199973E-4,-2.4939599E-3,-1.4566411E-2,2.4544343E-3,-6.2567084E-3,-1.6573865E-2,-4.881274E-3],"categories":[],"categories_nodes":[],"categories_segments":[],"categories_sizes":[],"default_left":[0,0,0,0,0,0,0,0,0,0,0,0,0,0,0,0,0,0,0,0,0,0,0,0,0,0,0,0,0,0,0,0,0,0,0,0,0,0,0,0,0,0,0,0,0,0,0,0,0,0,0,0,0,0,0,0,0,0,0,0,0,0,0,0,0,0,0,0,0,0,0,0,0,0,0,0,0,0,0,0,0,0,0,0,0,0,0,0,0,0,0,0,0,0,0,0,0,0,0,0,0,0,0,0,0,0,0,0,0,0,0,0,0,0,0,0,0,0,0,0,0,0,0,0,0,0,0,0,0,0,0,0,0,0,0,0,0,0,0,0,0,0,0],"id":5,"left_children":[1,3,5,7,9,11,13,15,17,19,21,23,25,27,29,31,33,35,37,39,41,43,45,47,49,51,53,55,57,59,61,-1,63,65,67,-1,69,71,73,75,77,79,81,83,85,-1,87,89,91,-1,-1,-1,93,-1,95,-1,-1,-1,97,-1,-1,-1,-1,99,101,-1,-1,-1,-1,-1,-1,103,105,107,109,111,113,115,-1,-1,-1,117,119,121,-1,123,125,127,-1,129,131,133,135,-1,-1,137,139,141,-1,-1,-1,-1,-1,-1,-1,-1,-1,-1,-1,-1,-1,-1,-1,-1,-1,-1,-1,-1,-1,-1,-1,-1,-1,-1,-1,-1,-1,-1,-1,-1,-1,-1,-1,-1,-1,-1,-1,-1,-1,-1,-1,-1,-1],"loss_changes":[7.801875E0,1.1322306E1,5.6776657E0,1.2071558E1,7.888791E0,6.402846E0,5.626916E0,4.555521E0,7.9874916E0,7.0163574E0,9.045299E0,4.9024086E0,8.718494E0,2.9468365E0,5.3400893E0,4.880024E0,4.7017074E0,4.1050143E0,8.897438E0,6.5362825E0,4.8272123E0,7.8192034E0,3.4449558E0,4.5228863E0,3.9829493E-1,3.4482079E0,6.8534527E0,1.8638601E0,6.1084366E-1,3.7671926E0,1.3645623E0,0E0,3.2891731E0,3.3556972E0,1.7634096E0,0E0,9.807873E-1,6.8386545E0,1.0315539E1,4.466792E0,3.810346E0,1.8915749E-1,3.8046548E0,4.1994314E0,3.513041E0,0E0,3.473126E0,6.6384397E0,5.951111E0,0E0,0E0,0E0,1.1658001E0,0E0,3.529424E0,0E0,0E0,0E0,7.851105E-1,0E0,0E0,0E0,0E0,3.4777298E0,2.7084668E0,0E0,0E0,0E0,0E0,0E0,0E0,4.4683723E0,5.440309E0,6.5815506E0,4.1607604E0,4.65087E0,4.147708E0,4.3787775E0,0E0,0E0,0E0,4.471917E0,5.842056E-1,4.8167305E0,0E0,3.1045961E0,4.7163615E0,3.135098E0,0E0,5.755722E0,4.900919E0,7.399794E0,4.2448807E0,0E0,0E0,1.5006647E0,3.2339609E0,4.619484E-1,0E0,0E0,0E0,0E0,0E0,0E0,0E0,0E0,0E0,0E0,0E0,0E0,0E0,0E0,0E0,0E0,0E0,0E0,0E0,0E0,0E0,0E0,0E0,0E0,0E0,0E0,0E0,0E0,0E0,0E0,0E0,0E0,0E0,0E0,0E0,0E0,0E0,0E0,0E0,0E0,0E0,0E0,0E0,0E0,0E0],"parents":[2147483647,0,0,1,1,2,2,3,3,4,4,5,5,6,6,7,7,8,8,9,9,10,10,11,11,12,12,13,13,14,14,15,15,16,16,17,17,18,18,19,19,20,20,21,21,22,22,23,23,24,24,25,25,26,26,27,27,28,28,29,29,30,30,32,32,33,33,34,34,36,36,37,37,38,38,39,39,40,40,41,41,42,42,43,43,44,44,46,46,47,47,48,48,52,52,54,54,58,58,63,63,64,64,71,71,72,72,73,73,74,74,75,75,76,76,77,77,81,81,82,82,83,83,85,85,86,86,87,87,89,89,90,90,91,91,92,92,95,95,96,96,97,97],"right_children":[2,4,6,8,10,12,14,16,18,20,22,24,26,28,30,32,34,36,38,40,42,44,46,48,50,52,54,56,58,60,62,-1,64,66,68,-1,70,72,74,76,78,80,82,84,86,-1,88,90,92,-1,-1,-1,94,-1,96,-1,-1,-1,98,-1,-1,-1,-1,100,102,-1,-1,-1,-1,-1,-1,104,106,108,110,112,114,116,-1,-1,-1,118,120,122,-1,124,126,128,-1,130,132,134,136,-1,-1,138,140,142,-1,-1,-1,-1,-1,-1,-1,-1,-1,-1,-1,-1,-1,-1,-1,-1,-1,-1,-1,-1,-1,-1,-1,-1,-1,-1,-1,-1,-1,-1,-1,-1,-1,-1,-1,-1,-1,-1,-1,-1,-1,-1,-1,-1,-1],"split_conditions":[3.244209E-3,2.1577325E2,4.4818E7,5.0978653E1,3.0508945E2,2.5E-1,1.8945891E2,5.35153E7,-1.1599998E0,2.828806E9,6.583059E1,7.917567E1,2.15789E7,1.6866941E0,2.7361276E2,-1.7621374E0,-1.7744137E-2,5.504441E1,7.999802E-2,2.698175E9,-1.5414282E-2,3.1143237E9,-5.9693724E-1,6.093098E1,8.235473E1,-3.668376E-2,-6.7993456E-1,4.8285595E-4,4.3460613E1,2.3393538E2,1.4356963E-3,-7.3958025E-3,1.9135098E2,-8.042466E-3,-1.3748566E-2,2.2835804E-3,4.024827E-3,3.298953E-4,3.8381536E0,2.4950984E9,3.62493E7,4.324894E0,2.701307E2,6.7805746E-3,8.264331E-4,1.4374279E-2,4.0516953E2,1.650851E-2,2.4366398E0,-1.3727054E-2,-3.0826752E-3,8.1533386E-4,4.640709E2,1.2489347E-2,5.523421E-3,5.9172814E-3,-6.4039086E-3,-2.963306E-3,1.9654652E0,-2.4913936E-3,1.3217558E-2,-1.2907293E-2,-1.1404313E-3,2.7382541E-2,-1.7887726E-2,-4.819222E-3,1.0121978E-2,-1.16076395E-2,1.4090746E-3,-1.5954556E-2,-2.8492992E-3,3.674653E-1,1.88831E7,-2.4321831E-3,5.046806E0,4.5714188E1,2.26042E7,-7.40077E-3,1.1419739E-2,-6.5730517E-3,-1.5891917E-2,6.7210686E1,3.035901E2,5.8306995E1,-9.811594E-3,4.1089635E-2,3.5215465E9,2.89776E7,-5.584647E-3,5.3376003E1,5.15494E-3,4.4552054E-2,2.5378218E0,-1.5810465E-2,-4.2290012E-3,-1.288318E-2,6.6097595E1,5.8477135E1,-3.0826752E-3,1.14852125E-2,3.8262808E-3,7.249479E-3,-5.034037E-3,1.0856558E-2,-1.156681E-3,6.727828E-3,-1.9636967E-3,1.0510058E-3,-5.648341E-3,1.3473127E-2,1.4809689E-3,7.327389E-3,-6.023635E-3,-2.2252412E-4,-1.2236064E-2,-4.9407184E-3,4.8135566E-3,2.808084E-3,-1.0119804E-2,-1.4442735E-2,-2.9684757E-3,4.064034E-3,-5.7861316E-3,-6.0833627E-3,3.177346E-3,3.1556215E-3,-8.300395E-3,8.1008095E-3,-4.954013E-3,-1.6849939E-2,-3.2736938E-3,-7.3915725E-3,1.1579182E-2,6.8556657E-3,-1.0164028E-3,-1.1877154E-2,-2.8199973E-4,-2.4939599E-3,-1.4566411E-2,2.4544343E-3,-6.2567084E-3,-1.6573865E-2,-4.881274E-3],"split_indices":[0,4,1,2,5,9,4,1,9,6,2,2,1,7,4,3,8,2,9,6,10,6,3,4,2,10,3,8,2,4,10,0,4,10,0,0,10,8,7,6,1,7,4,8,8,0,4,0,7,0,0,0,5,0,0,0,0,0,3,0,0,0,0,10,0,0,0,0,0,0,0,3,1,8,7,2,1,0,0,0,0,2,5,2,0,10,6,1,0,2,8,3,7,0,0,10,2,2,0,0,0,0,0,0,0,0,0,0,0,0,0,0,0,0,0,0,0,0,0,0,0,0,0,0,0,0,0,0,0,0,0,0,0,0,0,0,0,0,0,0,0,0,0],"split_type":[0,0,0,0,0,0,0,0,0,0,0,0,0,0,0,0,0,0,0,0,0,0,0,0,0,0,0,0,0,0,0,0,0,0,0,0,0,0,0,0,0,0,0,0,0,0,0,0,0,0,0,0,0,0,0,0,0,0,0,0,0,0,0,0,0,0,0,0,0,0,0,0,0,0,0,0,0,0,0,0,0,0,0,0,0,0,0,0,0,0,0,0,0,0,0,0,0,0,0,0,0,0,0,0,0,0,0,0,0,0,0,0,0,0,0,0,0,0,0,0,0,0,0,0,0,0,0,0,0,0,0,0,0,0,0,0,0,0,0,0,0,0,0],"sum_hessian":[6.1639935E2,3.5836224E2,2.5803714E2,1.7645241E2,1.8190982E2,2.3739929E2,2.0637835E1,5.1775497E1,1.2467692E2,6.3424335E1,1.1848549E2,2.0330911E2,3.409019E1,1.2437752E1,8.200084E0,4.3082287E1,8.693212E0,6.4773602E0,1.18199554E2,4.101203E1,2.2412306E1,1.00153336E2,1.8332151E1,2.0032623E2,2.9828746E0,1.0970658E1,2.3119532E1,2.98467E0,9.453082E0,4.7230625E0,3.4770212E0,1.2448509E0,4.1837437E1,5.207914E0,3.485298E0,1.9873139E0,4.490046E0,4.984337E1,6.835619E1,2.0905727E1,2.0106302E1,7.732861E0,1.4679445E1,4.915347E1,5.099987E1,3.9512818E0,1.4380869E1,1.9167103E1,1.8115913E2,1.7401972E0,1.2426775E0,1.7390645E0,9.231594E0,2.225261E0,2.0894272E1,1.2440239E0,1.740646E0,1.2439096E0,8.209172E0,2.2389507E0,2.4841115E0,1.4918842E0,1.985137E0,3.662367E1,5.213768E0,1.4932301E0,3.7146838E0,2.2421556E0,1.2431424E0,3.2442467E0,1.2457995E0,2.1531136E1,2.8312231E1,5.7210133E1,1.1146058E1,8.447244E0,1.2458484E1,1.6892736E1,3.2135658E0,2.4912624E0,5.2415986E0,1.1188933E1,3.4905112E0,4.7408806E1,1.7446634E0,3.3356617E1,1.7643253E1,1.2141516E1,2.2393532E0,1.4934369E1,4.2327332E0,4.745918E1,1.3369995E2,7.2403717E0,1.9912226E0,4.4828844E0,1.6411386E1,6.966495E0,1.2426775E0,2.7443354E1,9.180313E0,2.4770195E0,2.7367487E0,1.8050323E1,3.4808128E0,1.0910212E1,1.740202E1,2.785746E1,2.935267E1,5.185191E0,5.9608674E0,4.222509E0,4.224735E0,4.2276554E0,8.230828E0,6.9686327E0,9.924105E0,8.446497E0,2.7424374E0,2.2460458E0,1.2444651E0,4.2693287E1,4.7155194E0,2.9880463E1,3.4761543E0,1.3905758E1,3.7374947E0,1.0650768E1,1.4907477E0,3.7347646E0,1.1199604E1,1.2449216E0,2.9878116E0,2.7082865E1,2.0376312E1,2.2368193E0,1.3146313E2,2.238551E0,2.2443335E0,1.0684525E1,5.7268624E0,5.4744473E0,1.4920478E0],"tree_param":{"num_deleted":"0","num_feature":"11","num_nodes":"143","size_leaf_vector":"1"}},{"base_weights":[-6.143483E-4,-1.4809354E-2,7.8057162E-3,1.226947E-1,-8.854304E-2,3.5679886E-1,-4.209672E-2,1.2939261E-2,-1.0173312E-1,4.89525E-1,-1.8176576E-2,-1.07697375E-1,7.2594833E-1,-8.755465E-2,-1.1822482E0,-5.5378992E-2,5.933462E-1,-4.2928642E-1,4.6261814E-1,1.1318433E-1,-3.8816103E-1,-5.301239E-2,1.1665212E0,-2.4142352E-1,1.8788973E-2,-3.128041E-3,-1.4387784E-2,8.003325E-1,-3.180569E-1,6.468842E-1,-9.980067E-3,-1.1218618E0,-6.1870154E-2,8.035378E-1,-7.730117E-1,4.4471705E-1,-1.2506115E-1,-9.273255E-1,-1.9799685E-1,7.927873E-3,-6.2045103E-1,1.4617375E-2,-3.0247404E-3,4.1209757E-2,-4.5015845E-1,6.452968E-2,-7.588264E-1,1.0920177E-2,1.189466E-3,-6.486291E-3,8.892942E-3,7.42079E-3,1.2994603E-3,-1.4786522E-2,-5.1179687E-3,-4.5319987E-3,8.827676E-3,1.2658716E-2,2.3831974E-3,-9.064387E-4,-1.185955E-2,1.3555687E-2,2.5844523E-3,3.909092E-3,-4.1936E-3,-1.4577003E-2,-3.2699131E-3,2.4646055E-3,-4.74313E-3,-1.2837097E-2,2.9370566E-3,-2.60337E-3,5.6324992E-3,-5.8154343E-3,2.0537614E-4,-2.083812E-4,3.8680641E-3,1.0210132E-2,-1.0912654E-2],"categories":[],"categories_nodes":[],"categories_segments":[],"categories_sizes":[],"default_left":[0,0,0,0,0,0,0,0,0,0,0,0,0,0,0,0,0,0,0,0,0,0,0,0,0,0,0,0,0,0,0,0,0,0,0,0,0,0,0,0,0,0,0,0,0,0,0,0,0,0,0,0,0,0,0,0,0,0,0,0,0,0,0,0,0,0,0,0,0,0,0,0,0,0,0,0,0,0,0],"id":6,"left_children":[1,-1,3,5,7,9,11,-1,13,15,17,19,21,23,25,27,29,31,33,35,37,39,41,43,45,-1,-1,47,49,51,-1,53,55,57,59,61,63,65,67,-1,69,-1,-1,71,73,75,77,-1,-1,-1,-1,-1,-1,-1,-1,-1,-1,-1,-1,-1,-1,-1,-1,-1,-1,-1,-1,-1,-1,-1,-1,-1,-1,-1,-1,-1,-1,-1,-1],"loss_changes":[7.7062225E0,0E0,6.81672E0,1.0849928E1,6.23995E0,5.7886724E0,8.427994E0,0E0,4.9940996E0,4.887232E0,6.390089E0,9.556402E0,4.5816765E0,5.396324E0,4.9332762E-1,3.5469038E0,6.7935295E0,4.3593717E0,6.9060574E0,6.901735E0,6.7758684E0,3.2344565E0,4.1091347E0,7.9674163E0,7.012409E0,0E0,0E0,6.1037445E-1,5.3353395E0,3.3688622E0,0E0,5.436444E-1,4.9950104E0,2.8821511E0,9.4521904E-1,5.835935E0,7.94066E0,5.0720873E0,6.435608E0,0E0,2.7907734E0,0E0,0E0,9.30103E0,4.8099318E0,5.120355E0,7.595805E0,0E0,0E0,0E0,0E0,0E0,0E0,0E0,0E0,0E0,0E0,0E0,0E0,0E0,0E0,0E0,0E0,0E0,0E0,0E0,0E0,0E0,0E0,0E0,0E0,0E0,0E0,0E0,0E0,0E0,0E0,0E0,0E0],"parents":[2147483647,0,0,2,2,3,3,4,4,5,5,6,6,8,8,9,9,10,10,11,11,12,12,13,13,14,14,15,15,16,16,17,17,18,18,19,19,20,20,21,21,22,22,23,23,24,24,27,27,28,28,29,29,31,31,32,32,33,33,34,34,35,35,36,36,37,37,38,38,40,40,43,43,44,44,45,45,46,46],"right_children":[2,-1,4,6,8,10,12,-1,14,16,18,20,22,24,26,28,30,32,34,36,38,40,42,44,46,-1,-1,48,50,52,-1,54,56,58,60,62,64,66,68,-1,70,-1,-1,72,74,76,78,-1,-1,-1,-1,-1,-1,-1,-1,-1,-1,-1,-1,-1,-1,-1,-1,-1,-1,-1,-1,-1,-1,-1,-1,-1,-1,-1,-1,-1,-1,-1,-1],"split_conditions":[-6.1500015E0,-1.4809354E-2,2.4950984E9,-4.851242E-2,2.839327E1,8.495412E-3,1.4823346E2,1.2939261E-2,7.757957E1,-3.139018E-2,1.5004354E-2,1.4922529E-3,-1.1567225E-2,3.074951E2,2.7717963E2,4.3088734E1,2.3599551E2,1.2326517E0,4.40689E7,1.3000107E-1,5.7758923E1,-1.7104039E-2,3.3400767E-2,5.149356E0,5.290325E2,-3.128041E-3,-1.4387784E-2,-3.7042357E-2,-9.728018E-2,4.21969E7,-9.980067E-3,-1.8927862E-1,-1.6312169E-1,2.037218E-2,-2.0829188E-2,5.2855568E1,-6.7447573E-3,5.361781E-3,9.870584E8,7.927873E-3,4.2508385E-1,1.4617375E-2,-3.0247404E-3,2.63754E7,1.8618047E-2,6.539268E1,-3.409104E0,1.0920177E-2,1.189466E-3,-6.486291E-3,8.892942E-3,7.42079E-3,1.2994603E-3,-1.4786522E-2,-5.1179687E-3,-4.5319987E-3,8.827676E-3,1.2658716E-2,2.3831974E-3,-9.064387E-4,-1.185955E-2,1.3555687E-2,2.5844523E-3,3.909092E-3,-4.1936E-3,-1.4577003E-2,-3.2699131E-3,2.4646055E-3,-4.74313E-3,-1.2837097E-2,2.9370566E-3,-2.60337E-3,5.6324992E-3,-5.8154343E-3,2.0537614E-4,-2.083812E-4,3.8680641E-3,1.0210132E-2,-1.0912654E-2],"split_indices":[9,0,6,3,2,0,4,0,2,10,0,8,0,5,4,2,4,7,1,9,4,8,10,7,5,0,0,10,3,1,0,3,3,0,10,4,0,0,6,0,3,0,0,1,0,2,3,0,0,0,0,0,0,0,0,0,0,0,0,0,0,0,0,0,0,0,0,0,0,0,0,0,0,0,0,0,0,0,0],"split_type":[0,0,0,0,0,0,0,0,0,0,0,0,0,0,0,0,0,0,0,0,0,0,0,0,0,0,0,0,0,0,0,0,0,0,0,0,0,0,0,0,0,0,0,0,0,0,0,0,0,0,0,0,0,0,0,0,0,0,0,0,0,0,0,0,0,0,0,0,0,0,0,0,0,0,0,0,0,0,0],"sum_hessian":[6.1633124E2,2.4967625E0,6.138345E2,2.7985455E2,3.3397992E2,1.1513194E2,1.6472261E2,2.238715E0,3.317412E2,8.480789E1,3.0324049E1,1.5255249E2,1.2170114E1,3.2851154E2,3.2296817E0,1.3647226E1,7.116067E1,1.640439E1,1.3919658E1,8.56749E1,6.68776E1,4.71441E0,7.4557037E0,1.3373695E2,1.9477457E2,1.2414538E0,1.988228E0,2.724606E0,1.092262E1,6.941871E1,1.7419585E0,4.9743733E0,1.14300165E1,1.1183687E1,2.7359703E0,3.5461494E1,5.02134E1,1.6426838E1,5.0450764E1,1.7334583E0,2.9809518E0,6.2122083E0,1.2434951E0,5.715286E1,7.658409E1,1.8482014E2,9.954431E0,1.4858894E0,1.2387166E0,8.93813E0,1.9844896E0,5.825538E1,1.1163332E1,2.240359E0,2.7340143E0,8.449804E0,2.9802132E0,5.469863E0,5.7138247E0,1.4912547E0,1.2447156E0,4.9549384E0,3.0506556E1,1.8118835E1,3.2094566E1,7.963345E0,8.463493E0,1.9382254E1,3.1068508E1,1.493268E0,1.4876838E0,3.6544765E1,2.0608091E1,5.9687946E1,1.6896147E1,1.4685507E2,3.796506E1,1.2406825E0,8.713748E0],"tree_param":{"num_deleted":"0","num_feature":"11","num_nodes":"79","size_leaf_vector":"1"}},{"base_weights":[-6.293272E-4,9.370077E-2,-1.3145079E-1,-5.562799E-1,1.4111541E-1,-8.691478E-2,-6.158711E-1,1.809684E-1,-8.420564E-1,3.294844E-1,-4.4415854E-2,-1.9377511E-2,-4.776184E-1,-1.0086797E0,2.533514E-2,1.0962865E-2,-2.1442382E-1,-9.8284405E-1,5.813056E-3,7.202469E-1,1.6535887E-1,-3.4566963E-1,1.1251757E-1,2.2821643E-3,-1.1086633E0,-1.1636751E0,-1.171748E-1,-1.072277E-1,-1.255579E0,6.5796024E-1,-7.88257E-1,-8.866733E-3,1.8568675E-1,-3.4605834E-1,-1.2832009E0,4.628981E-1,1.1178248E0,4.8285487E-1,-6.732444E-2,-7.5271994E-2,-7.929108E-1,1.829165E-1,-9.00705E-1,-4.418986E-1,5.1462077E-2,-3.0611737E-3,-1.3608128E-2,8.031465E-4,-1.3828272E0,1.2418315E-2,-3.1182617E-1,-6.357925E-3,5.86578E-3,-2.901362E-3,-1.3544997E0,-2.4829628E-3,1.3121739E-2,-1.2795572E-2,-1.1382211E-3,6.5680468E-3,-5.0091995E-3,-9.1068107E-1,8.070859E-3,-7.2323E-4,-1.4665731E-2,5.6101567E-1,-9.043795E-3,1.3871696E0,2.1906514E-1,8.837953E-1,1.5292825E-1,-2.3941156E-1,7.638547E-1,-4.077248E-1,3.2338586E-1,-1.1798868E0,-2.0994468E-1,6.778844E-2,7.1292865E-1,3.259235E-3,-1.261417E0,-7.425693E-1,5.590428E-1,3.483894E-1,-5.5699993E-2,-1.5654247E-2,-4.1757557E-3,-1.0023805E0,-7.639687E-2,-2.990945E-3,-1.4816604E-2,-2.72937E-3,-1.3296506E-2,7.357878E-3,-1.5308606E-4,1.5444463E-2,5.965623E-3,-4.515461E-3,7.31436E-3,1.0726583E-2,-1.1507698E-3,-7.235964E-3,3.550797E-3,-3.618423E-3,6.4429706E-3,1.3346167E-2,1.4782358E-3,1.2934189E-3,-7.6405304E-3,6.4068416E-4,1.1347053E-2,-1.4035046E-2,3.221147E-3,1.0343672E-2,-5.059774E-3,3.0134593E-3,-2.0467797E-3,-4.945243E-3,8.453752E-3,-4.2388174E-3,-1.5727758E-2,-1.665733E-2,-3.2315769E-3,-7.3419004E-3,1.1475396E-2,6.7697316E-3,-9.917376E-4,7.069086E-3,-9.641658E-4,-2.4866185E-3,-1.445601E-2,2.4359238E-3,-6.2061492E-3],"categories":[],"categories_nodes":[],"categories_segments":[],"categories_sizes":[],"default_left":[0,0,0,0,0,0,0,0,0,0,0,0,0,0,0,0,0,0,0,0,0,0,0,0,0,0,0,0,0,0,0,0,0,0,0,0,0,0,0,0,0,0,0,0,0,0,0,0,0,0,0,0,0,0,0,0,0,0,0,0,0,0,0,0,0,0,0,0,0,0,0,0,0,0,0,0,0,0,0,0,0,0,0,0,0,0,0,0,0,0,0,0,0,0,0,0,0,0,0,0,0,0,0,0,0,0,0,0,0,0,0,0,0,0,0,0,0,0,0,0,0,0,0,0,0,0,0,0,0,0,0,0,0],"id":7,"left_children":[1,3,5,7,9,11,13,15,17,19,21,23,25,27,29,-1,31,33,-1,35,37,39,41,43,45,47,49,51,53,55,57,-1,59,61,63,65,67,69,71,73,75,77,79,81,83,-1,-1,-1,85,-1,87,-1,-1,-1,89,-1,-1,-1,-1,-1,-1,91,-1,-1,-1,93,-1,95,97,99,101,103,105,107,109,111,113,115,117,-1,119,121,123,125,127,-1,-1,129,131,-1,-1,-1,-1,-1,-1,-1,-1,-1,-1,-1,-1,-1,-1,-1,-1,-1,-1,-1,-1,-1,-1,-1,-1,-1,-1,-1,-1,-1,-1,-1,-1,-1,-1,-1,-1,-1,-1,-1,-1,-1,-1,-1,-1],"loss_changes":[7.6301227E0,1.1150448E1,5.5351334E0,5.3411965E0,1.174448E1,6.281371E0,5.4776115E0,3.0227807E0,4.1633816E0,1.0569624E1,8.074615E0,4.8228035E0,8.541792E0,2.858368E0,5.253152E0,0E0,1.8364646E0,2.7468433E0,0E0,4.495804E0,8.798972E0,7.0103593E0,8.190016E0,4.420512E0,3.899026E-1,3.3757992E0,6.7673497E0,1.8341984E0,6.0624504E-1,3.7170331E0,1.338388E0,0E0,1.856863E0,5.107942E0,2.3290672E0,4.7266607E0,4.185772E0,6.5196705E0,1.0103264E1,5.107138E0,4.698004E0,6.4216166E0,3.719891E0,6.486121E0,5.815193E0,0E0,0E0,0E0,1.150526E0,0E0,3.4832087E0,0E0,0E0,0E0,7.939453E-1,0E0,0E0,0E0,0E0,0E0,0E0,9.673338E-1,0E0,0E0,0E0,3.0292368E0,0E0,8.297062E-1,2.2077267E0,4.368223E0,5.36135E0,6.532262E0,4.069499E0,4.1007414E0,3.6359854E0,4.805025E0,4.19333E0,5.675349E0,3.4272728E0,0E0,8.9382553E-1,5.6342897E0,4.823118E0,7.19112E0,4.2508464E0,0E0,0E0,1.4727125E0,3.1832893E0,0E0,0E0,0E0,0E0,0E0,0E0,0E0,0E0,0E0,0E0,0E0,0E0,0E0,0E0,0E0,0E0,0E0,0E0,0E0,0E0,0E0,0E0,0E0,0E0,0E0,0E0,0E0,0E0,0E0,0E0,0E0,0E0,0E0,0E0,0E0,0E0,0E0,0E0,0E0,0E0,0E0,0E0,0E0,0E0],"parents":[2147483647,0,0,1,1,2,2,3,3,4,4,5,5,6,6,7,7,8,8,9,9,10,10,11,11,12,12,13,13,14,14,16,16,17,17,19,19,20,20,21,21,22,22,23,23,24,24,25,25,26,26,27,27,28,28,29,29,30,30,32,32,33,33,34,34,35,35,36,36,37,37,38,38,39,39,40,40,41,41,42,42,43,43,44,44,48,48,50,50,54,54,61,61,65,65,67,67,68,68,69,69,70,70,71,71,72,72,73,73,74,74,75,75,76,76,77,77,78,78,80,80,81,81,82,82,83,83,84,84,87,87,88,88],"right_children":[2,4,6,8,10,12,14,16,18,20,22,24,26,28,30,-1,32,34,-1,36,38,40,42,44,46,48,50,52,54,56,58,-1,60,62,64,66,68,70,72,74,76,78,80,82,84,-1,-1,-1,86,-1,88,-1,-1,-1,90,-1,-1,-1,-1,-1,-1,92,-1,-1,-1,94,-1,96,98,100,102,104,106,108,110,112,114,116,118,-1,120,122,124,126,128,-1,-1,130,132,-1,-1,-1,-1,-1,-1,-1,-1,-1,-1,-1,-1,-1,-1,-1,-1,-1,-1,-1,-1,-1,-1,-1,-1,-1,-1,-1,-1,-1,-1,-1,-1,-1,-1,-1,-1,-1,-1,-1,-1,-1,-1,-1,-1],"split_conditions":[3.244209E-3,-1.0799999E0,4.4818E7,-5.3436446E-1,2.1577325E2,2.5E-1,1.8945891E2,5.4805474E0,2.1850655E0,5.0978653E1,3.0508945E2,7.917567E1,2.15789E7,1.6866941E0,2.7361276E2,1.0962865E-2,7.002386E0,-1.8099995E0,5.813056E-3,-3.711385E-3,7.999802E-2,2.822858E9,5.290325E2,6.093098E1,2.0874874E-3,-3.668376E-2,-6.7993456E-1,5.47688E7,9.071597E8,2.3393538E2,1.4356963E-3,-8.866733E-3,3.80002E7,9.5541645E-3,-1.3188958E-2,-4.9732607E-3,2.7769528E-2,3.298953E-4,3.8381536E0,2.7036193E9,3.674653E-1,6.583059E1,2.02659E7,1.650851E-2,2.4366398E0,-3.0611737E-3,-1.3608128E-2,8.031465E-4,4.640709E2,1.2418315E-2,5.523421E-3,-6.357925E-3,5.86578E-3,-2.901362E-3,4.87563E7,-2.4829628E-3,1.3121739E-2,-1.2795572E-2,-1.1382211E-3,6.5680468E-3,-5.0091995E-3,5.1272446E1,8.070859E-3,-7.2323E-4,-1.4665731E-2,5.35153E7,-9.043795E-3,5.500002E-1,-2.1999931E-1,3.674653E-1,-6.0311756E-3,3.7719708E-2,5.046806E0,2.4950984E9,3.62493E7,3.210001E0,4.1732626E0,3.1143237E9,2.6660378E9,3.259235E-3,4.181073E1,5.3376003E1,5.15494E-3,4.4552054E-2,-2.4926174E0,-1.5654247E-2,-4.1757557E-3,-1.288318E-2,6.6097595E1,-2.990945E-3,-1.4816604E-2,-2.72937E-3,-1.3296506E-2,7.357878E-3,-1.5308606E-4,1.5444463E-2,5.965623E-3,-4.515461E-3,7.31436E-3,1.0726583E-2,-1.1507698E-3,-7.235964E-3,3.550797E-3,-3.618423E-3,6.4429706E-3,1.3346167E-2,1.4782358E-3,1.2934189E-3,-7.6405304E-3,6.4068416E-4,1.1347053E-2,-1.4035046E-2,3.221147E-3,1.0343672E-2,-5.059774E-3,3.0134593E-3,-2.0467797E-3,-4.945243E-3,8.453752E-3,-4.2388174E-3,-1.5727758E-2,-1.665733E-2,-3.2315769E-3,-7.3419004E-3,1.1475396E-2,6.7697316E-3,-9.917376E-4,7.069086E-3,-9.641658E-4,-2.4866185E-3,-1.445601E-2,2.4359238E-3,-6.2061492E-3],"split_indices":[0,9,1,3,4,9,4,7,3,2,5,2,1,7,4,0,7,9,0,8,9,6,5,4,8,10,3,1,6,4,10,0,1,10,0,8,10,8,7,6,3,2,1,0,7,0,0,0,5,0,0,0,0,0,1,0,0,0,0,0,0,2,0,0,0,1,0,9,9,3,0,10,7,6,1,9,7,6,6,0,2,2,8,3,3,0,0,10,2,0,0,0,0,0,0,0,0,0,0,0,0,0,0,0,0,0,0,0,0,0,0,0,0,0,0,0,0,0,0,0,0,0,0,0,0,0,0,0,0,0,0,0,0],"split_type":[0,0,0,0,0,0,0,0,0,0,0,0,0,0,0,0,0,0,0,0,0,0,0,0,0,0,0,0,0,0,0,0,0,0,0,0,0,0,0,0,0,0,0,0,0,0,0,0,0,0,0,0,0,0,0,0,0,0,0,0,0,0,0,0,0,0,0,0,0,0,0,0,0,0,0,0,0,0,0,0,0,0,0,0,0,0,0,0,0,0,0,0,0,0,0,0,0,0,0,0,0,0,0,0,0,0,0,0,0,0,0,0,0,0,0,0,0,0,0,0,0,0,0,0,0,0,0,0,0,0,0,0,0],"sum_hessian":[6.163062E2,3.5826178E2,2.580444E2,2.362791E1,3.3463388E2,2.3739821E2,2.0646194E1,6.70278E0,1.692513E1,1.6566208E2,1.689718E2,2.0330446E2,3.409374E1,1.2447591E1,8.198603E0,1.4872336E0,5.215546E0,1.568335E1,1.2417814E0,4.799753E1,1.1766455E2,5.7462513E1,1.11509285E2,2.0031917E2,2.9852996E0,1.0975285E1,2.3118452E1,2.9846509E0,9.46294E0,4.7198653E0,3.4787374E0,1.4922528E0,3.7232933E0,5.7163296E0,9.96702E0,3.0451088E1,1.7546442E1,4.9308296E1,6.8356255E1,3.6539436E1,2.0923079E1,1.05031166E2,6.4781175E0,1.9172504E1,1.8114667E2,1.2430209E0,1.7422787E0,1.7387888E0,9.236496E0,2.2224061E0,2.0896046E1,1.7415186E0,1.2431322E0,1.2450052E0,8.217935E0,2.2388883E0,2.4809773E0,1.4935292E0,1.9852082E0,2.233899E0,1.4893942E0,3.9785464E0,1.737783E0,1.4942594E0,8.472761E0,2.8962393E1,1.4886943E0,1.3082413E1,4.4640293E0,2.1500835E1,2.7807463E1,5.722116E1,1.1135094E1,1.9911713E1,1.6627722E1,1.1960018E1,8.96306E0,8.721452E1,1.7816645E1,1.4940233E0,4.984094E0,1.4942183E1,4.2303224E0,4.7442036E1,1.3370462E2,7.2443047E0,1.9921913E0,4.4845185E0,1.6411528E1,1.2441195E0,6.9738154E0,2.2322001E0,1.7463462E0,2.2010847E1,6.951547E0,1.011644E1,2.9659734E0,1.9848682E0,2.4791613E0,1.8019842E1,3.480993E0,4.727901E0,2.3079561E1,5.0776962E1,6.4441996E0,5.17443E0,5.960664E0,8.195807E0,1.1715906E1,1.3417977E1,3.2097442E0,1.0467235E1,1.4927828E0,1.243244E0,7.7198167E0,4.6903214E1,4.031131E1,1.4909141E0,1.6325731E1,1.9906815E0,2.9934127E0,3.7395325E0,1.120265E1,1.2455761E0,2.9847462E0,2.7061754E1,2.0380283E1,5.9475336E0,1.2775709E2,2.238638E0,2.2458806E0,1.068271E1,5.728818E0],"tree_param":{"num_deleted":"0","num_feature":"11","num_nodes":"133","size_leaf_vector":"1"}},{"base_weights":[-7.064638E-4,-1.4625849E-2,7.6143304E-3,2.0087663E-2,-8.620292E-1,1.3690066E-1,-7.629455E-2,3.695309E-2,-1.2798183E0,4.9105728E-1,3.4179036E-2,1.2859495E-2,-8.938367E-2,-4.7911215E-3,5.940385E-3,-1.6591368E-2,-8.380914E-4,4.2329688E-2,6.488272E-1,-2.426953E-2,5.3051263E-1,-2.372726E-1,1.2108128E-2,7.146053E-1,-3.7990347E-1,7.5078714E-1,4.9867697E-2,1.1453906E-1,-2.9422542E-1,2.7677812E-2,1.2284045E0,4.2375274E-2,-4.4373885E-1,5.6480296E-2,-7.4720466E-1,1.1975911E-2,-1.0967467E-3,2.502864E-3,-9.71684E-3,1.05929505E-2,3.7536207E-3,5.296231E-3,-1.0128167E-2,1.5838876E-3,-1.0598264E-2,6.940169E-3,-4.1825157E-3,1.2147071E-2,-2.6526111E-3,1.4972224E-2,-3.0111116E-3,-3.5638525E-3,4.271474E-3,-5.7328288E-3,2.0559628E-4,1.3410849E-4,6.3621607E-3,1.01389885E-2,-1.0759776E-2],"categories":[],"categories_nodes":[],"categories_segments":[],"categories_sizes":[],"default_left":[0,0,0,0,0,0,0,0,0,0,0,0,0,0,0,0,0,0,0,0,0,0,0,0,0,0,0,0,0,0,0,0,0,0,0,0,0,0,0,0,0,0,0,0,0,0,0,0,0,0,0,0,0,0,0,0,0,0,0],"id":8,"left_children":[1,-1,3,5,7,9,11,13,15,17,19,-1,21,-1,-1,-1,-1,23,25,27,29,31,33,35,37,39,41,43,45,47,49,51,53,55,57,-1,-1,-1,-1,-1,-1,-1,-1,-1,-1,-1,-1,-1,-1,-1,-1,-1,-1,-1,-1,-1,-1,-1,-1],"loss_changes":[7.519215E0,0E0,6.6856146E0,6.844745E0,3.3206396E0,9.979733E0,6.0568085E0,1.359017E0,2.5730553E0,4.3410482E0,6.2232785E0,0E0,4.971078E0,0E0,0E0,0E0,0E0,5.1315465E0,2.7463913E0,7.2463627E0,7.896101E0,7.799494E0,6.687846E0,2.8991008E0,4.4086447E0,4.1057854E0,4.4631734E0,6.7509313E0,8.335979E0,5.245132E0,4.332329E0,9.074099E0,4.6798162E0,4.6677566E0,7.4370084E0,0E0,0E0,0E0,0E0,0E0,0E0,0E0,0E0,0E0,0E0,0E0,0E0,0E0,0E0,0E0,0E0,0E0,0E0,0E0,0E0,0E0,0E0,0E0,0E0],"parents":[2147483647,0,0,2,2,3,3,4,4,5,5,6,6,7,7,8,8,9,9,10,10,12,12,17,17,18,18,19,19,20,20,21,21,22,22,23,23,24,24,25,25,26,26,27,27,28,28,29,29,30,30,31,31,32,32,33,33,34,34],"right_children":[2,-1,4,6,8,10,12,14,16,18,20,-1,22,-1,-1,-1,-1,24,26,28,30,32,34,36,38,40,42,44,46,48,50,52,54,56,58,-1,-1,-1,-1,-1,-1,-1,-1,-1,-1,-1,-1,-1,-1,-1,-1,-1,-1,-1,-1,-1,-1,-1,-1],"split_conditions":[-6.1500015E0,-1.4625849E-2,7.864956E1,2.4950984E9,1.1407017E0,-7.242438E-3,2.839327E1,3.094914E-1,8.235473E1,-2.1178707E-2,1.4823346E2,1.2859495E-2,3.074951E2,-4.7911215E-3,5.940385E-3,-1.6591368E-2,-8.380914E-4,2.76552E7,3.230951E-1,1.1544492E-1,-2.1787903E-1,5.149356E0,5.290325E2,7.2999954E-1,-8.36531E-3,3.38102E7,5.6977505E1,1.1200008E0,1.7234E7,4.2704163E1,3.3400767E-2,2.40402E7,1.8618047E-2,5.1379126E2,-3.409104E0,1.1975911E-2,-1.0967467E-3,2.502864E-3,-9.71684E-3,1.05929505E-2,3.7536207E-3,5.296231E-3,-1.0128167E-2,1.5838876E-3,-1.0598264E-2,6.940169E-3,-4.1825157E-3,1.2147071E-2,-2.6526111E-3,1.4972224E-2,-3.0111116E-3,-3.5638525E-3,4.271474E-3,-5.7328288E-3,2.0559628E-4,1.3410849E-4,6.3621607E-3,1.01389885E-2,-1.0759776E-2],"split_indices":[9,0,2,6,7,0,2,3,2,10,4,0,5,0,0,0,0,1,3,3,3,7,5,9,8,1,2,9,1,2,10,1,0,5,3,0,0,0,0,0,0,0,0,0,0,0,0,0,0,0,0,0,0,0,0,0,0,0,0],"split_type":[0,0,0,0,0,0,0,0,0,0,0,0,0,0,0,0,0,0,0,0,0,0,0,0,0,0,0,0,0,0,0,0,0,0,0,0,0,0,0,0,0,0,0,0,0,0,0,0,0,0,0,0,0,0,0,0,0,0,0],"sum_hessian":[6.162381E2,2.4985225E0,6.1373956E2,6.0602423E2,7.715329E0,2.73784E2,3.3224023E2,2.7371616E0,4.9781675E0,6.0705894E1,2.1307811E2,2.2364557E0,3.3000378E2,1.4935519E0,1.2436098E0,3.485501E0,1.4926667E0,1.6121525E1,4.458437E1,1.9148036E2,2.159775E1,1.3375891E2,1.9624487E2,5.9521413E0,1.0169384E1,3.7882248E1,6.7021217E0,1.2683751E2,6.464285E1,1.3157418E1,8.4403305E0,5.7148705E1,7.661021E1,1.8628453E2,9.960343E0,3.467481E0,2.4846604E0,5.204331E0,4.965053E0,1.9794449E1,1.8087801E1,4.9631124E0,1.7390096E0,1.2310598E2,3.7315342E0,6.695696E0,5.7947155E1,1.9814966E0,1.1175921E1,7.196614E0,1.243717E0,2.8100445E1,2.904826E1,5.9714516E1,1.689569E1,1.743546E2,1.1929933E1,1.2391005E0,8.721243E0],"tree_param":{"num_deleted":"0","num_feature":"11","num_nodes":"59","size_leaf_vector":"1"}},{"base_weights":[-6.801065E-4,9.266758E-2,-1.3010402E-1,-5.500714E-1,1.3957782E-1,-8.607533E-2,-6.0886526E-1,1.802116E-1,-8.3306175E-1,3.2542145E-1,-4.3378633E-2,-1.91421E-2,-4.7326404E-1,-9.96664E-1,2.4708468E-2,1.0920771E-2,-2.1351881E-1,-9.7281116E-1,5.792588E-3,7.113937E-1,1.6343082E-1,-3.4008986E-1,1.1124456E-1,2.2540472E-3,-1.0942502E0,-1.1532514E0,-1.1590135E-1,-1.0405195E-1,-1.2412544E0,6.525746E-1,-7.8191763E-1,-8.802123E-3,1.8369828E-1,-3.4281942E-1,-1.2697655E0,4.5550954E-1,1.1071577E0,4.7751427E-1,-6.6614665E-2,-7.272834E-2,-7.821787E-1,1.8054983E-1,-8.854061E-1,-4.38126E-1,5.1024154E-2,-3.0244656E-3,-1.3427798E-2,7.9290423E-4,-1.3702615E0,1.2327817E-2,-3.0883384E-1,5.8831894E-3,-6.3257967E-3,-2.8420642E-3,-1.3396226E0,-2.4719145E-3,1.3029079E-2,-1.2680821E-2,-1.1367094E-3,6.5200552E-3,-4.980325E-3,-9.032993E-1,8.024299E-3,-7.198365E-4,-1.4509827E-2,5.529126E-1,-8.986222E-3,1.3749712E0,2.1513623E-1,8.7517685E-1,1.5060778E-1,-2.3733811E-1,7.5867426E-1,-4.0279576E-1,3.230563E-1,-1.1666723E0,-2.0343097E-1,6.6430144E-2,7.062919E-1,3.2829137E-3,-1.2430727E0,-7.3600286E-1,5.542875E-1,3.4486708E-1,-5.4987635E-2,-1.5509709E-2,-4.1442E-3,-9.9403375E-1,-7.519025E-2,-1.4657729E0,-2.944213E-3,-2.7044548E-3,-1.3191657E-2,7.259847E-3,-1.6997143E-4,1.5312812E-2,5.9043495E-3,-4.4875783E-3,7.234175E-3,1.0620212E-2,-1.1186831E-3,-7.1718907E-3,3.5093524E-3,-3.5828452E-3,6.366396E-3,1.3233553E-2,1.497115E-3,1.2444225E-3,-7.5203395E-3,6.5887533E-4,1.1279298E-2,-1.3882447E-2,3.214417E-3,1.0292673E-2,-4.9695596E-3,2.9811703E-3,-2.037399E-3,-4.915364E-3,8.378881E-3,-4.154272E-3,-1.5516715E-2,-1.6515737E-2,-3.1993452E-3,-7.2952854E-3,1.1392516E-2,6.6926563E-3,-9.666667E-4,7.02272E-3,-9.539679E-4,-2.4614392E-3,-1.4339475E-2,2.4166994E-3,-6.138745E-3,-1.621772E-2,-4.7259084E-3],"categories":[],"categories_nodes":[],"categories_segments":[],"categories_sizes":[],"default_left":[0,0,0,0,0,0,0,0,0,0,0,0,0,0,0,0,0,0,0,0,0,0,0,0,0,0,0,0,0,0,0,0,0,0,0,0,0,0,0,0,0,0,0,0,0,0,0,0,0,0,0,0,0,0,0,0,0,0,0,0,0,0,0,0,0,0,0,0,0,0,0,0,0,0,0,0,0,0,0,0,0,0,0,0,0,0,0,0,0,0,0,0,0,0,0,0,0,0,0,0,0,0,0,0,0,0,0,0,0,0,0,0,0,0,0,0,0,0,0,0,0,0,0,0,0,0,0,0,0,0,0,0,0,0,0],"id":9,"left_children":[1,3,5,7,9,11,13,15,17,19,21,23,25,27,29,-1,31,33,-1,35,37,39,41,43,45,47,49,51,53,55,57,-1,59,61,63,65,67,69,71,73,75,77,79,81,83,-1,-1,-1,85,-1,87,-1,-1,-1,89,-1,-1,-1,-1,-1,-1,91,-1,-1,-1,93,-1,95,97,99,101,103,105,107,109,111,113,115,117,-1,119,121,123,125,127,-1,-1,129,131,133,-1,-1,-1,-1,-1,-1,-1,-1,-1,-1,-1,-1,-1,-1,-1,-1,-1,-1,-1,-1,-1,-1,-1,-1,-1,-1,-1,-1,-1,-1,-1,-1,-1,-1,-1,-1,-1,-1,-1,-1,-1,-1,-1,-1,-1],"loss_changes":[7.4688854E0,1.0906067E1,5.4080925E0,5.240889E0,1.1422733E1,6.169127E0,5.3444824E0,2.9983418E0,4.102642E0,1.0298443E1,7.835478E0,4.702008E0,8.394481E0,2.8084478E0,5.1679544E0,0E0,1.8077216E0,2.6870527E0,0E0,4.4522476E0,8.603054E0,6.854639E0,7.9298143E0,4.345991E0,3.7877703E-1,3.312541E0,6.6559815E0,1.8305861E0,6.0492706E-1,3.6670392E0,1.3113863E0,0E0,1.8323612E0,5.0361605E0,2.2774277E0,4.641602E0,4.12854E0,6.403923E0,9.951492E0,5.0342374E0,4.6435156E0,6.313162E0,3.6564822E0,6.372264E0,5.692628E0,0E0,0E0,0E0,1.1259575E0,0E0,3.4309802E0,0E0,0E0,0E0,7.8474045E-1,0E0,0E0,0E0,0E0,0E0,0E0,9.539037E-1,0E0,0E0,0E0,2.9649553E0,0E0,8.198414E-1,2.1677241E0,4.263748E0,5.25844E0,6.3828764E0,3.9715405E0,3.9446392E0,3.573999E0,4.721939E0,4.1176577E0,5.5818157E0,3.3756628E0,0E0,8.8497543E-1,5.5466766E0,4.7574277E0,7.000935E0,4.1891217E0,0E0,0E0,1.4521127E0,3.1203127E0,4.6992683E-1,0E0,0E0,0E0,0E0,0E0,0E0,0E0,0E0,0E0,0E0,0E0,0E0,0E0,0E0,0E0,0E0,0E0,0E0,0E0,0E0,0E0,0E0,0E0,0E0,0E0,0E0,0E0,0E0,0E0,0E0,0E0,0E0,0E0,0E0,0E0,0E0,0E0,0E0,0E0,0E0,0E0,0E0,0E0,0E0,0E0],"parents":[2147483647,0,0,1,1,2,2,3,3,4,4,5,5,6,6,7,7,8,8,9,9,10,10,11,11,12,12,13,13,14,14,16,16,17,17,19,19,20,20,21,21,22,22,23,23,24,24,25,25,26,26,27,27,28,28,29,29,30,30,32,32,33,33,34,34,35,35,36,36,37,37,38,38,39,39,40,40,41,41,42,42,43,43,44,44,48,48,50,50,54,54,61,61,65,65,67,67,68,68,69,69,70,70,71,71,72,72,73,73,74,74,75,75,76,76,77,77,78,78,80,80,81,81,82,82,83,83,84,84,87,87,88,88,89,89],"right_children":[2,4,6,8,10,12,14,16,18,20,22,24,26,28,30,-1,32,34,-1,36,38,40,42,44,46,48,50,52,54,56,58,-1,60,62,64,66,68,70,72,74,76,78,80,82,84,-1,-1,-1,86,-1,88,-1,-1,-1,90,-1,-1,-1,-1,-1,-1,92,-1,-1,-1,94,-1,96,98,100,102,104,106,108,110,112,114,116,118,-1,120,122,124,126,128,-1,-1,130,132,134,-1,-1,-1,-1,-1,-1,-1,-1,-1,-1,-1,-1,-1,-1,-1,-1,-1,-1,-1,-1,-1,-1,-1,-1,-1,-1,-1,-1,-1,-1,-1,-1,-1,-1,-1,-1,-1,-1,-1,-1,-1,-1,-1,-1,-1],"split_conditions":[3.244209E-3,-1.0799999E0,4.4818E7,-5.3436446E-1,2.1577325E2,2.5E-1,1.8945891E2,5.4805474E0,2.1850655E0,5.0978653E1,3.0508945E2,7.917567E1,2.15789E7,1.6866941E0,2.7361276E2,1.0920771E-2,7.002386E0,-1.8099995E0,5.792588E-3,-3.711385E-3,7.999802E-2,2.822858E9,5.290325E2,6.093098E1,2.0874874E-3,-3.668376E-2,-6.7993456E-1,1.8043071E-2,4.3460613E1,2.3393538E2,1.4356963E-3,-8.802123E-3,3.80002E7,9.5541645E-3,-1.3188958E-2,-4.9732607E-3,2.7769528E-2,3.298953E-4,3.8381536E0,2.7036193E9,3.674653E-1,6.583059E1,2.02659E7,1.650851E-2,2.4366398E0,-3.0244656E-3,-1.3427798E-2,7.9290423E-4,4.640709E2,1.2327817E-2,5.523421E-3,5.8831894E-3,-6.3257967E-3,-2.8420642E-3,1.9654652E0,-2.4719145E-3,1.3029079E-2,-1.2680821E-2,-1.1367094E-3,6.5200552E-3,-4.980325E-3,5.1272446E1,8.024299E-3,-7.198365E-4,-1.4509827E-2,5.35153E7,-8.986222E-3,5.500002E-1,-2.1999931E-1,3.674653E-1,-6.0311756E-3,3.7719708E-2,5.046806E0,2.4950984E9,3.62493E7,3.210001E0,4.1732626E0,3.1143237E9,2.6660378E9,3.2829137E-3,4.181073E1,5.3376003E1,5.15494E-3,4.4552054E-2,-2.4926174E0,-1.5509709E-2,-4.1442E-3,-1.288318E-2,6.6097595E1,5.8477135E1,-2.944213E-3,-2.7044548E-3,-1.3191657E-2,7.259847E-3,-1.6997143E-4,1.5312812E-2,5.9043495E-3,-4.4875783E-3,7.234175E-3,1.0620212E-2,-1.1186831E-3,-7.1718907E-3,3.5093524E-3,-3.5828452E-3,6.366396E-3,1.3233553E-2,1.497115E-3,1.2444225E-3,-7.5203395E-3,6.5887533E-4,1.1279298E-2,-1.3882447E-2,3.214417E-3,1.0292673E-2,-4.9695596E-3,2.9811703E-3,-2.037399E-3,-4.915364E-3,8.378881E-3,-4.154272E-3,-1.5516715E-2,-1.6515737E-2,-3.1993452E-3,-7.2952854E-3,1.1392516E-2,6.6926563E-3,-9.666667E-4,7.02272E-3,-9.539679E-4,-2.4614392E-3,-1.4339475E-2,2.4166994E-3,-6.138745E-3,-1.621772E-2,-4.7259084E-3],"split_indices":[0,9,1,3,4,9,4,7,3,2,5,2,1,7,4,0,7,9,0,8,9,6,5,4,8,10,3,0,2,4,10,0,1,10,0,8,10,8,7,6,3,2,1,0,7,0,0,0,5,0,0,0,0,0,3,0,0,0,0,0,0,2,0,0,0,1,0,9,9,3,0,10,7,6,1,9,7,6,6,0,2,2,8,3,3,0,0,10,2,2,0,0,0,0,0,0,0,0,0,0,0,0,0,0,0,0,0,0,0,0,0,0,0,0,0,0,0,0,0,0,0,0,0,0,0,0,0,0,0,0,0,0,0,0,0],"split_type":[0,0,0,0,0,0,0,0,0,0,0,0,0,0,0,0,0,0,0,0,0,0,0,0,0,0,0,0,0,0,0,0,0,0,0,0,0,0,0,0,0,0,0,0,0,0,0,0,0,0,0,0,0,0,0,0,0,0,0,0,0,0,0,0,0,0,0,0,0,0,0,0,0,0,0,0,0,0,0,0,0,0,0,0,0,0,0,0,0,0,0,0,0,0,0,0,0,0,0,0,0,0,0,0,0,0,0,0,0,0,0,0,0,0,0,0,0,0,0,0,0,0,0,0,0,0,0,0,0,0,0,0,0,0,0],"sum_hessian":[6.1621454E2,3.5816797E2,2.5804654E2,2.3633154E1,3.3453482E2,2.3739464E2,2.0651917E1,6.701777E0,1.6931377E1,1.6557166E2,1.6896317E2,2.032997E2,3.4094936E1,1.2455222E1,8.196693E0,1.486177E0,5.2156E0,1.5690041E1,1.2413361E0,4.794422E1,1.17627426E2,5.747436E1,1.114888E2,2.0031113E2,2.9885669E0,1.0978328E1,2.3116608E1,2.9854586E0,9.469764E0,4.7164555E0,3.4802384E0,1.4932928E0,3.722307E0,5.7166214E0,9.973419E0,3.0424194E1,1.7520025E1,4.927544E1,6.835199E1,3.6540386E1,2.0933973E1,1.0500574E2,6.483064E0,1.9175789E1,1.8113535E2,1.2435663E0,1.7450006E0,1.7385559E0,9.239772E0,2.218514E0,2.0898094E1,1.2434337E0,1.742025E0,1.2450992E0,8.224665E0,2.2388306E0,2.4776247E0,1.4949806E0,1.9852579E0,2.2323928E0,1.4899144E0,3.9800615E0,1.7365599E0,1.4942402E0,8.479179E0,2.8934605E1,1.4895887E0,1.3058143E1,4.461884E0,2.1475096E1,2.7800343E1,5.7226288E1,1.1125701E1,1.991468E1,1.6625706E1,1.1967473E1,8.966501E0,8.720338E1,1.780236E1,1.4943393E0,4.988725E0,1.4947582E1,4.228206E0,4.7426292E1,1.3370905E2,7.247039E0,1.9927334E0,4.486418E0,1.6411676E1,6.9798503E0,1.2448139E0,2.2327082E0,1.7473533E0,2.1984436E1,6.950169E0,1.0094996E1,2.963146E0,1.9855522E0,2.4763317E0,1.7993101E1,3.4819963E0,4.7300773E0,2.3070265E1,5.0787987E1,6.438302E0,5.1640415E0,5.96166E0,8.191623E0,1.1723058E1,1.3419759E1,3.2059467E0,1.0474923E1,1.4925498E0,1.2423806E0,7.7241206E0,4.6889446E1,4.031393E1,1.4914598E0,1.63109E1,1.9921247E0,2.9966004E0,3.7425382E0,1.1205044E1,1.2461522E0,2.982054E0,2.7042307E1,2.0383987E1,5.9438295E0,1.2776522E2,2.2391703E0,2.2472472E0,1.0680598E1,5.7310786E0,5.48536E0,1.4944903E0],"tree_param":{"num_deleted":"0","num_feature":"11","num_nodes":"135","size_leaf_vector":"1"}},{"base_weights":[-7.652623E-4,9.181954E-2,-1.2910332E-1,-5.450554E-1,1.3831913E-1,-8.541433E-2,-6.040885E-1,1.7892097E-1,-8.254872E-1,3.2257622E-1,-4.3016087E-2,-1.9049844E-2,-4.6929953E-1,-9.883579E-1,2.411399E-2,1.08624445E-2,-2.1254653E-1,-9.641712E-1,5.762031E-3,7.052955E-1,1.6203645E-1,-3.3665523E-1,1.10045515E-1,2.2131517E-3,-1.0870401E0,-1.1430826E0,-1.1509064E-1,-1.0311674E-1,-1.2308433E0,6.482126E-1,-7.769789E-1,-8.7465E-3,1.8221588E-1,-3.4056154E-1,-1.2578709E0,4.511319E-1,1.0987213E0,4.7312048E-1,-6.569672E-2,-7.185299E-2,-7.7436453E-1,1.7882219E-1,-8.785555E-1,-3.7972835E-1,5.7620965E-2,-3.0073437E-3,-1.33367395E-2,7.8790286E-4,-1.3581706E0,1.225553E-2,-3.066649E-1,5.8601755E-3,-6.2910933E-3,-2.7995429E-3,-1.3288996E0,-2.4545486E-3,1.2947962E-2,-1.2599889E-2,-1.1290775E-3,6.4789765E-3,-4.9528456E-3,-8.972337E-1,7.977004E-3,-7.155059E-4,-1.4372402E-2,5.479417E-1,-8.928751E-3,1.3648229E0,2.1352917E-1,8.677363E-1,1.4900117E-1,-2.3488617E-1,7.529077E-1,-3.9900997E-1,3.2059494E-1,-1.155325E0,-2.0084122E-1,6.5781906E-2,6.999454E-1,3.2636407E-3,-1.2335385E0,-6.104201E-1,4.3838587E-1,8.128467E-1,5.3547965E-3,-1.5370008E-2,-4.115931E-3,-9.869087E-1,-7.4652284E-2,-2.9015385E-3,-1.4545995E-2,-2.6853606E-3,-1.31042E-2,6.6708736E-3,-2.2838765E-3,1.5200319E-2,5.863102E-3,-4.4566127E-3,7.186319E-3,1.0532504E-2,-1.1099234E-3,6.567161E-3,-1.9649211E-3,1.0702629E-3,-5.519848E-3,1.3141871E-2,1.4844479E-3,1.2334454E-3,-7.4487873E-3,6.5277406E-4,1.1204843E-2,-1.3748575E-2,3.1955831E-3,1.02403E-2,-4.924414E-3,1.9808419E-3,-3.987492E-3,-4.884876E-3,8.307044E-3,-4.125929E-3,-1.5395026E-2,-9.7725E-3,1.5579521E-3,1.0775036E-2,-1.1718911E-2,1.0583346E-2,-4.9273022E-3,6.9666146E-3,-2.4607137E-4,-2.4441502E-3,-1.4235811E-2,2.3950192E-3,-6.084771E-3],"categories":[],"categories_nodes":[],"categories_segments":[],"categories_sizes":[],"default_left":[0,0,0,0,0,0,0,0,0,0,0,0,0,0,0,0,0,0,0,0,0,0,0,0,0,0,0,0,0,0,0,0,0,0,0,0,0,0,0,0,0,0,0,0,0,0,0,0,0,0,0,0,0,0,0,0,0,0,0,0,0,0,0,0,0,0,0,0,0,0,0,0,0,0,0,0,0,0,0,0,0,0,0,0,0,0,0,0,0,0,0,0,0,0,0,0,0,0,0,0,0,0,0,0,0,0,0,0,0,0,0,0,0,0,0,0,0,0,0,0,0,0,0,0,0,0,0,0,0,0,0,0,0],"id":10,"left_children":[1,3,5,7,9,11,13,15,17,19,21,23,25,27,29,-1,31,33,-1,35,37,39,41,43,45,47,49,51,53,55,57,-1,59,61,63,65,67,69,71,73,75,77,79,81,83,-1,-1,-1,85,-1,87,-1,-1,-1,89,-1,-1,-1,-1,-1,-1,91,-1,-1,-1,93,-1,95,97,99,101,103,105,107,109,111,113,115,117,-1,119,121,123,125,127,-1,-1,129,131,-1,-1,-1,-1,-1,-1,-1,-1,-1,-1,-1,-1,-1,-1,-1,-1,-1,-1,-1,-1,-1,-1,-1,-1,-1,-1,-1,-1,-1,-1,-1,-1,-1,-1,-1,-1,-1,-1,-1,-1,-1,-1,-1,-1],"loss_changes":[7.3447065E0,1.0709554E1,5.323994E0,5.1494803E0,1.1222069E1,6.0643463E0,5.2513685E0,2.965932E0,4.0421457E0,1.0115919E1,7.675356E0,4.641656E0,8.244221E0,2.762393E0,5.1008368E0,0E0,1.7839992E0,2.6293936E0,0E0,4.394598E0,8.433011E0,6.722451E0,7.8041997E0,4.281989E0,3.7269783E-1,3.2556152E0,6.5692325E0,1.8133829E0,6.046114E-1,3.6193612E0,1.295161E0,0E0,1.8105564E0,4.9716372E0,2.2332745E0,4.5758057E0,4.065693E0,6.2975016E0,9.781743E0,4.947555E0,4.561758E0,6.197294E0,3.6039572E0,5.105748E0,6.969268E0,0E0,0E0,0E0,1.1011238E0,0E0,3.3825872E0,0E0,0E0,0E0,7.8289413E-1,0E0,0E0,0E0,0E0,0E0,0E0,9.4209385E-1,0E0,0E0,0E0,2.9195795E0,0E0,8.048763E-1,2.1385086E0,4.1935062E0,5.18009E0,6.3727803E0,3.915554E0,3.8709927E0,3.525465E0,4.6398335E0,4.064396E0,5.499417E0,3.3254395E0,0E0,8.695297E-1,5.890139E0,7.6646876E0,4.1843657E0,3.4604666E0,0E0,0E0,1.4313397E0,3.0657024E0,0E0,0E0,0E0,0E0,0E0,0E0,0E0,0E0,0E0,0E0,0E0,0E0,0E0,0E0,0E0,0E0,0E0,0E0,0E0,0E0,0E0,0E0,0E0,0E0,0E0,0E0,0E0,0E0,0E0,0E0,0E0,0E0,0E0,0E0,0E0,0E0,0E0,0E0,0E0,0E0,0E0,0E0,0E0,0E0],"parents":[2147483647,0,0,1,1,2,2,3,3,4,4,5,5,6,6,7,7,8,8,9,9,10,10,11,11,12,12,13,13,14,14,16,16,17,17,19,19,20,20,21,21,22,22,23,23,24,24,25,25,26,26,27,27,28,28,29,29,30,30,32,32,33,33,34,34,35,35,36,36,37,37,38,38,39,39,40,40,41,41,42,42,43,43,44,44,48,48,50,50,54,54,61,61,65,65,67,67,68,68,69,69,70,70,71,71,72,72,73,73,74,74,75,75,76,76,77,77,78,78,80,80,81,81,82,82,83,83,84,84,87,87,88,88],"right_children":[2,4,6,8,10,12,14,16,18,20,22,24,26,28,30,-1,32,34,-1,36,38,40,42,44,46,48,50,52,54,56,58,-1,60,62,64,66,68,70,72,74,76,78,80,82,84,-1,-1,-1,86,-1,88,-1,-1,-1,90,-1,-1,-1,-1,-1,-1,92,-1,-1,-1,94,-1,96,98,100,102,104,106,108,110,112,114,116,118,-1,120,122,124,126,128,-1,-1,130,132,-1,-1,-1,-1,-1,-1,-1,-1,-1,-1,-1,-1,-1,-1,-1,-1,-1,-1,-1,-1,-1,-1,-1,-1,-1,-1,-1,-1,-1,-1,-1,-1,-1,-1,-1,-1,-1,-1,-1,-1,-1,-1,-1,-1],"split_conditions":[3.244209E-3,-1.0799999E0,4.4818E7,-5.3436446E-1,2.1577325E2,2.5E-1,1.8945891E2,5.4805474E0,2.1850655E0,5.0978653E1,3.0508945E2,7.917567E1,2.15789E7,1.6866941E0,2.7361276E2,1.08624445E-2,7.002386E0,-1.8099995E0,5.762031E-3,-3.711385E-3,7.999802E-2,2.822858E9,5.290325E2,3.335538E8,2.0874874E-3,-3.668376E-2,-6.7993456E-1,4.8285595E-4,9.071597E8,2.3393538E2,1.4356963E-3,-8.7465E-3,4.5443494E2,9.5541645E-3,-1.3188958E-2,-4.9732607E-3,2.7769528E-2,3.298953E-4,3.8381536E0,2.7036193E9,3.674653E-1,6.583059E1,2.02659E7,1.5004354E-2,9.071597E8,-3.0073437E-3,-1.33367395E-2,7.8790286E-4,4.640709E2,1.225553E-2,5.523421E-3,5.8601755E-3,-6.2910933E-3,-2.7995429E-3,4.87563E7,-2.4545486E-3,1.2947962E-2,-1.2599889E-2,-1.1290775E-3,6.4789765E-3,-4.9528456E-3,5.1272446E1,7.977004E-3,-7.155059E-4,-1.4372402E-2,6.45992E7,-8.928751E-3,5.500002E-1,-2.1999931E-1,3.674653E-1,1.88831E7,-2.4321831E-3,5.046806E0,2.4950984E9,3.62493E7,3.210001E0,4.1732626E0,5.5837475E1,2.6660378E9,3.2636407E-3,4.181073E1,6.1849655E1,-5.2000046E-1,3.481696E-2,-2.4926174E0,-1.5370008E-2,-4.115931E-3,-1.288318E-2,6.6097595E1,-2.9015385E-3,-1.4545995E-2,-2.6853606E-3,-1.31042E-2,6.6708736E-3,-2.2838765E-3,1.5200319E-2,5.863102E-3,-4.4566127E-3,7.186319E-3,1.0532504E-2,-1.1099234E-3,6.567161E-3,-1.9649211E-3,1.0702629E-3,-5.519848E-3,1.3141871E-2,1.4844479E-3,1.2334454E-3,-7.4487873E-3,6.5277406E-4,1.1204843E-2,-1.3748575E-2,3.1955831E-3,1.02403E-2,-4.924414E-3,1.9808419E-3,-3.987492E-3,-4.884876E-3,8.307044E-3,-4.125929E-3,-1.5395026E-2,-9.7725E-3,1.5579521E-3,1.0775036E-2,-1.1718911E-2,1.0583346E-2,-4.9273022E-3,6.9666146E-3,-2.4607137E-4,-2.4441502E-3,-1.4235811E-2,2.3950192E-3,-6.084771E-3],"split_indices":[0,9,1,3,4,9,4,7,3,2,5,2,1,7,4,0,7,9,0,8,9,6,5,6,8,10,3,8,6,4,10,0,5,10,0,8,10,8,7,6,3,2,1,0,6,0,0,0,5,0,0,0,0,0,1,0,0,0,0,0,0,2,0,0,0,1,0,9,9,3,1,8,7,6,1,9,7,2,6,0,2,2,9,10,3,0,0,10,2,0,0,0,0,0,0,0,0,0,0,0,0,0,0,0,0,0,0,0,0,0,0,0,0,0,0,0,0,0,0,0,0,0,0,0,0,0,0,0,0,0,0,0,0],"split_type":[0,0,0,0,0,0,0,0,0,0,0,0,0,0,0,0,0,0,0,0,0,0,0,0,0,0,0,0,0,0,0,0,0,0,0,0,0,0,0,0,0,0,0,0,0,0,0,0,0,0,0,0,0,0,0,0,0,0,0,0,0,0,0,0,0,0,0,0,0,0,0,0,0,0,0,0,0,0,0,0,0,0,0,0,0,0,0,0,0,0,0,0,0,0,0,0,0,0,0,0,0,0,0,0,0,0,0,0,0,0,0,0,0,0,0,0,0,0,0,0,0,0,0,0,0,0,0,0,0,0,0,0,0],"sum_hessian":[6.1613165E2,3.5808725E2,2.580444E2,2.3636171E1,3.3445108E2,2.3738924E2,2.0655167E1,6.7003093E0,1.6935862E1,1.6550272E2,1.6894836E2,2.032942E2,3.409503E1,1.2460071E1,8.195097E0,1.4845933E0,5.215716E0,1.5695115E1,1.2407463E0,4.7905346E1,1.1759737E2,5.7479004E1,1.1146936E2,2.003042E2,2.9899993E0,1.0980523E1,2.311451E1,2.9856422E0,9.474428E0,4.713692E0,3.4814043E0,1.4941165E0,3.7215993E0,5.7166233E0,9.978493E0,3.040778E1,1.7497566E1,4.9247562E1,6.83498E1,3.653841E1,2.0940592E1,1.0498472E2,6.484639E0,2.4634993E1,1.756692E2,1.2438321E0,1.7461672E0,1.7384442E0,9.242079E0,2.2151983E0,2.0899311E1,1.2429984E0,1.7426437E0,1.2460489E0,8.228379E0,2.2391965E0,2.4744956E0,1.4959557E0,1.9854486E0,2.2314796E0,1.4901197E0,3.9813008E0,1.7353222E0,1.4943043E0,8.484188E0,2.8917164E1,1.4906163E0,1.3036704E1,4.460861E0,2.1452227E1,2.7795334E1,5.7233772E1,1.1116032E1,1.991768E1,1.662073E1,1.1973084E1,8.967508E0,8.719656E1,1.7788155E1,1.4940393E0,4.9906E0,1.9414394E1,5.2205987E0,1.0428558E1,1.6524065E2,7.2488585E0,1.9932208E0,4.4877825E0,1.641153E1,1.2453656E0,6.983014E0,2.2332058E0,1.7480952E0,2.519164E1,3.7255237E0,1.0075506E1,2.9611974E0,1.9862994E0,2.4745622E0,1.7969952E1,3.482274E0,1.0890516E1,1.6904818E1,2.7858139E1,2.9375633E1,5.155088E0,5.960944E0,8.190783E0,1.1726899E1,1.34190855E1,3.2016437E0,1.0480856E1,1.4922284E0,1.2413667E0,7.726141E0,6.831381E1,1.8882751E1,1.4919999E0,1.6296154E1,1.9926187E0,2.9979813E0,1.2942617E1,6.4717765E0,3.9741285E0,1.2464705E0,8.937426E0,1.491132E0,5.939854E0,1.593008E2,2.2395308E0,2.248252E0,1.0678571E1,5.732958E0],"tree_param":{"num_deleted":"0","num_feature":"11","num_nodes":"133","size_leaf_vector":"1"}},{"base_weights":[-8.344983E-4,-1.4373103E-2,7.346765E-3,1.9585628E-2,-8.4496194E-1,1.3364801E-1,-7.448031E-2,4.2119745E-2,-1.2577955E0,4.8061994E-1,3.3106208E-2,1.2786986E-2,-8.747771E-2,-4.716712E-3,5.9469044E-3,-1.633418E-2,-7.6975476E-4,3.78944E-2,6.364864E-1,-2.48234E-2,5.252613E-1,-2.3183791E-1,1.1619463E-2,7.058185E-1,-3.80883E-1,7.366634E-1,4.8903435E-2,1.1084827E-1,-2.8845716E-1,2.665042E-2,1.2178416E0,4.4745E-2,-4.359798E-1,5.5093195E-2,-7.317904E-1,1.184461E-2,-1.0932246E-3,2.4389166E-3,-9.662777E-3,1.0421043E-2,3.6564071E-3,5.257446E-3,-1.0061367E-2,1.5430492E-3,-1.05113955E-2,6.8590078E-3,-4.105844E-3,1.2045341E-2,-2.6366245E-3,1.4850758E-2,-2.997173E-3,-2.4838792E-3,5.5288635E-3,-7.420622E-3,-2.343464E-3,1.2380118E-4,6.303197E-3,1.0060967E-2,-1.0562292E-2],"categories":[],"categories_nodes":[],"categories_segments":[],"categories_sizes":[],"default_left":[0,0,0,0,0,0,0,0,0,0,0,0,0,0,0,0,0,0,0,0,0,0,0,0,0,0,0,0,0,0,0,0,0,0,0,0,0,0,0,0,0,0,0,0,0,0,0,0,0,0,0,0,0,0,0,0,0,0,0],"id":11,"left_children":[1,-1,3,5,7,9,11,13,15,17,19,-1,21,-1,-1,-1,-1,23,25,27,29,31,33,35,37,39,41,43,45,47,49,51,53,55,57,-1,-1,-1,-1,-1,-1,-1,-1,-1,-1,-1,-1,-1,-1,-1,-1,-1,-1,-1,-1,-1,-1,-1,-1],"loss_changes":[7.262191E0,0E0,6.4270535E0,6.5207944E0,3.2472672E0,9.564205E0,5.972199E0,1.3416531E0,2.5287352E0,4.228302E0,6.1140995E0,0E0,4.7374587E0,0E0,0E0,0E0,0E0,5.0545464E0,2.643055E0,6.9141545E0,7.765388E0,7.628712E0,6.4137235E0,2.8387244E0,4.319359E0,4.017563E0,4.403036E0,6.6135674E0,8.094141E0,5.1567173E0,4.2692194E0,8.796872E0,4.6171694E0,4.5926056E0,7.24524E0,0E0,0E0,0E0,0E0,0E0,0E0,0E0,0E0,0E0,0E0,0E0,0E0,0E0,0E0,0E0,0E0,0E0,0E0,0E0,0E0,0E0,0E0,0E0,0E0],"parents":[2147483647,0,0,2,2,3,3,4,4,5,5,6,6,7,7,8,8,9,9,10,10,12,12,17,17,18,18,19,19,20,20,21,21,22,22,23,23,24,24,25,25,26,26,27,27,28,28,29,29,30,30,31,31,32,32,33,33,34,34],"right_children":[2,-1,4,6,8,10,12,14,16,18,20,-1,22,-1,-1,-1,-1,24,26,28,30,32,34,36,38,40,42,44,46,48,50,52,54,56,58,-1,-1,-1,-1,-1,-1,-1,-1,-1,-1,-1,-1,-1,-1,-1,-1,-1,-1,-1,-1,-1,-1,-1,-1],"split_conditions":[-6.1500015E0,-1.4373103E-2,7.864956E1,2.4950984E9,1.1407017E0,-7.242438E-3,2.839327E1,3.094914E-1,8.235473E1,-2.1178707E-2,1.4823346E2,1.2786986E-2,3.074951E2,-4.716712E-3,5.9469044E-3,-1.633418E-2,-7.6975476E-4,2.76552E7,3.230951E-1,1.1544492E-1,-2.1787903E-1,5.149356E0,5.290325E2,7.2999954E-1,-8.36531E-3,3.38102E7,5.6977505E1,1.1200008E0,1.7234E7,4.2704163E1,3.3400767E-2,2.63754E7,-1.6071068E-2,5.1379126E2,-3.409104E0,1.184461E-2,-1.0932246E-3,2.4389166E-3,-9.662777E-3,1.0421043E-2,3.6564071E-3,5.257446E-3,-1.0061367E-2,1.5430492E-3,-1.05113955E-2,6.8590078E-3,-4.105844E-3,1.2045341E-2,-2.6366245E-3,1.4850758E-2,-2.997173E-3,-2.4838792E-3,5.5288635E-3,-7.420622E-3,-2.343464E-3,1.2380118E-4,6.303197E-3,1.0060967E-2,-1.0562292E-2],"split_indices":[9,0,2,6,7,0,2,3,2,10,4,0,5,0,0,0,0,1,3,3,3,7,5,9,8,1,2,9,1,2,10,1,10,5,3,0,0,0,0,0,0,0,0,0,0,0,0,0,0,0,0,0,0,0,0,0,0,0,0],"split_type":[0,0,0,0,0,0,0,0,0,0,0,0,0,0,0,0,0,0,0,0,0,0,0,0,0,0,0,0,0,0,0,0,0,0,0,0,0,0,0,0,0,0,0,0,0,0,0,0,0,0,0,0,0,0,0,0,0,0,0],"sum_hessian":[6.1604517E2,2.499485E0,6.135457E2,6.058233E2,7.722396E0,2.736185E2,3.322048E2,2.7376995E0,4.9846964E0,6.0623875E1,2.1299461E2,2.234043E0,3.2997076E2,1.4944948E0,1.2432047E0,3.4909294E0,1.493767E0,1.6109455E1,4.451442E1,1.9141364E2,2.1580973E1,1.3376645E2,1.9620432E2,5.9438906E0,1.0165565E1,3.7813828E1,6.7005935E0,1.2675981E2,6.4653824E1,1.3151363E1,8.429609E0,5.713608E1,7.663036E1,1.8623917E2,9.965155E0,3.4594574E0,2.4844334E0,5.199579E0,4.9659863E0,1.9747854E1,1.8065973E1,4.9603653E0,1.740228E0,1.23026024E2,3.7337878E0,6.687023E0,5.79668E1,1.9777931E0,1.117357E1,7.1856575E0,1.2439522E0,3.6557972E1,2.0578114E1,2.9368425E1,4.7261936E1,1.743169E2,1.1922267E1,1.2371593E0,8.727996E0],"tree_param":{"num_deleted":"0","num_feature":"11","num_nodes":"59","size_leaf_vector":"1"}},{"base_weights":[-8.097781E-4,9.0654485E-2,-1.2755384E-1,-5.393041E-1,1.3666855E-1,-8.437593E-2,-5.969094E-1,1.7770149E-1,-8.169416E-1,3.185359E-1,-4.222619E-2,-1.8551774E-2,-4.6516567E-1,-9.765563E-1,2.4133699E-2,1.08132595E-2,-2.1191859E-1,-9.545976E-1,5.738189E-3,6.9654745E-1,1.601024E-1,-3.3185452E-1,1.0878209E-1,2.4559165E-3,-1.0731723E0,-1.1330893E0,-1.1395673E-1,-1.00012146E-1,-1.216809E0,6.439245E-1,-7.7080643E-1,-8.681374E-3,1.7984125E-1,-3.373252E-1,-1.2451571E0,4.436948E-1,1.0884421E0,4.6797115E-1,-6.5134406E-2,-6.993581E-2,-7.646918E-1,1.764833E-1,-8.638164E-1,-4.316667E-1,5.0544925E-2,-2.971558E-3,-1.316424E-2,7.778489E-4,-1.3461554E0,1.2167944E-2,-3.0386117E-1,5.8626113E-3,-6.246803E-3,-2.7603256E-3,-1.3138334E0,-2.435536E-3,1.28662335E-2,-1.2489157E-2,-1.1275167E-3,6.4517506E-3,-4.959832E-3,-8.895556E-1,7.924954E-3,-7.0824404E-4,-1.422642E0,5.398208E-1,-8.875698E-3,1.3530381E0,2.0994158E-1,8.591669E-1,1.4699952E-1,-2.3297395E-1,7.477103E-1,-3.9484307E-1,3.198126E-1,-1.1432014E0,-1.95282E-1,6.4427875E-2,6.934706E-1,3.2864872E-3,-1.2159687E0,-7.244896E-1,5.4544306E-1,1.3054389E-2,2.5965199E-2,-1.52324205E-2,-4.084928E-3,-9.791887E-1,-7.350474E-2,-1.4390843E0,-2.8355175E-3,-2.6590647E-3,-1.2996087E-2,-1.5378858E-2,-5.802462E-3,7.103284E-3,-2.0248805E-4,1.5073829E-2,5.8025885E-3,-4.4233412E-3,7.1072453E-3,1.0428749E-2,-1.0866737E-3,-7.101089E-3,3.4512687E-3,1.052028E-3,-5.4642837E-3,1.3033854E-2,1.4991802E-3,1.1856661E-3,-7.3426496E-3,6.666909E-4,1.1133506E-2,-1.3606896E-2,3.1805895E-3,1.0192841E-2,-4.8463843E-3,2.9434788E-3,-2.0355121E-3,-4.855379E-3,8.23399E-3,-4.04361E-3,-1.5194604E-2,-1.6295765E-2,-3.1332436E-3,-7.207439E-3,1.12380935E-2,9.277924E-4,-2.9040352E-3,-2.419819E-3,-1.4129713E-2,2.3747908E-3,-6.017422E-3,-1.5943326E-2,-4.5889737E-3],"categories":[],"categories_nodes":[],"categories_segments":[],"categories_sizes":[],"default_left":[0,0,0,0,0,0,0,0,0,0,0,0,0,0,0,0,0,0,0,0,0,0,0,0,0,0,0,0,0,0,0,0,0,0,0,0,0,0,0,0,0,0,0,0,0,0,0,0,0,0,0,0,0,0,0,0,0,0,0,0,0,0,0,0,0,0,0,0,0,0,0,0,0,0,0,0,0,0,0,0,0,0,0,0,0,0,0,0,0,0,0,0,0,0,0,0,0,0,0,0,0,0,0,0,0,0,0,0,0,0,0,0,0,0,0,0,0,0,0,0,0,0,0,0,0,0,0,0,0,0,0,0,0,0,0],"id":12,"left_children":[1,3,5,7,9,11,13,15,17,19,21,23,25,27,29,-1,31,33,-1,35,37,39,41,43,45,47,49,51,53,55,57,-1,59,61,63,65,67,69,71,73,75,77,79,81,83,-1,-1,-1,85,-1,87,-1,-1,-1,89,-1,-1,-1,-1,-1,-1,91,-1,-1,93,95,-1,97,99,101,103,105,107,109,111,113,115,117,119,-1,121,123,125,-1,127,-1,-1,129,131,133,-1,-1,-1,-1,-1,-1,-1,-1,-1,-1,-1,-1,-1,-1,-1,-1,-1,-1,-1,-1,-1,-1,-1,-1,-1,-1,-1,-1,-1,-1,-1,-1,-1,-1,-1,-1,-1,-1,-1,-1,-1,-1,-1,-1,-1],"loss_changes":[7.1642976E0,1.0479131E1,5.1993275E0,5.0497074E0,1.0923504E1,5.966502E0,5.1300592E0,2.939561E0,3.9821358E0,9.854206E0,7.4682183E0,4.528737E0,8.102938E0,2.7140274E0,5.025532E0,0E0,1.7539499E0,2.5749807E0,0E0,4.35734E0,8.251476E0,6.5766115E0,7.556677E0,4.224243E0,3.6241722E-1,3.1959333E0,6.4629617E0,1.8015684E0,5.9385586E-1,3.5703616E0,1.2694571E0,0E0,1.8044374E0,4.895333E0,2.1883163E0,4.494589E0,4.008808E0,6.178403E0,9.634532E0,4.8795137E0,4.506922E0,6.09371E0,3.5438776E0,6.1689444E0,5.58357E0,0E0,0E0,0E0,1.0786686E0,0E0,3.3349395E0,0E0,0E0,0E0,7.8346443E-1,0E0,0E0,0E0,0E0,0E0,0E0,9.285581E-1,0E0,0E0,2.8779984E-2,2.8684788E0,0E0,7.9631615E-1,2.0973983E0,4.1002483E0,5.133721E0,6.2308865E0,3.8257327E0,3.7323232E0,3.4647756E0,4.5570965E0,3.997714E0,5.493449E0,3.2755508E0,0E0,8.618288E-1,5.4272947E0,4.6352696E0,0E0,3.8241742E0,0E0,0E0,1.4134107E0,3.0030777E0,4.838028E-1,0E0,0E0,0E0,0E0,0E0,0E0,0E0,0E0,0E0,0E0,0E0,0E0,0E0,0E0,0E0,0E0,0E0,0E0,0E0,0E0,0E0,0E0,0E0,0E0,0E0,0E0,0E0,0E0,0E0,0E0,0E0,0E0,0E0,0E0,0E0,0E0,0E0,0E0,0E0,0E0,0E0,0E0,0E0,0E0,0E0],"parents":[2147483647,0,0,1,1,2,2,3,3,4,4,5,5,6,6,7,7,8,8,9,9,10,10,11,11,12,12,13,13,14,14,16,16,17,17,19,19,20,20,21,21,22,22,23,23,24,24,25,25,26,26,27,27,28,28,29,29,30,30,32,32,33,33,34,34,35,35,36,36,37,37,38,38,39,39,40,40,41,41,42,42,43,43,44,44,48,48,50,50,54,54,61,61,64,64,65,65,67,67,68,68,69,69,70,70,71,71,72,72,73,73,74,74,75,75,76,76,77,77,78,78,80,80,81,81,82,82,84,84,87,87,88,88,89,89],"right_children":[2,4,6,8,10,12,14,16,18,20,22,24,26,28,30,-1,32,34,-1,36,38,40,42,44,46,48,50,52,54,56,58,-1,60,62,64,66,68,70,72,74,76,78,80,82,84,-1,-1,-1,86,-1,88,-1,-1,-1,90,-1,-1,-1,-1,-1,-1,92,-1,-1,94,96,-1,98,100,102,104,106,108,110,112,114,116,118,120,-1,122,124,126,-1,128,-1,-1,130,132,134,-1,-1,-1,-1,-1,-1,-1,-1,-1,-1,-1,-1,-1,-1,-1,-1,-1,-1,-1,-1,-1,-1,-1,-1,-1,-1,-1,-1,-1,-1,-1,-1,-1,-1,-1,-1,-1,-1,-1,-1,-1,-1,-1,-1,-1],"split_conditions":[3.244209E-3,-1.0799999E0,4.4818E7,-5.3436446E-1,2.1577325E2,2.5E-1,1.8945891E2,5.4805474E0,2.1850655E0,5.0978653E1,3.0508945E2,7.917567E1,2.15789E7,1.6866941E0,2.7361276E2,1.08132595E-2,7.002386E0,-1.8099995E0,5.738189E-3,-3.711385E-3,7.999802E-2,2.822858E9,5.290325E2,6.093098E1,2.0874874E-3,-3.668376E-2,-6.7993456E-1,1.8043071E-2,4.3460613E1,2.3393538E2,1.4356963E-3,-8.681374E-3,3.80002E7,9.5541645E-3,-1.3188958E-2,-4.9732607E-3,2.7769528E-2,3.298953E-4,3.8381536E0,2.7036193E9,3.674653E-1,6.583059E1,2.02659E7,1.650851E-2,8.5335743E-1,-2.971558E-3,-1.316424E-2,7.778489E-4,4.640709E2,1.2167944E-2,5.523421E-3,5.8626113E-3,-6.246803E-3,-2.7603256E-3,1.9654652E0,-2.435536E-3,1.28662335E-2,-1.2489157E-2,-1.1275167E-3,6.4517506E-3,-4.959832E-3,5.1272446E1,7.924954E-3,-7.0824404E-4,6.40519E-1,5.35153E7,-8.875698E-3,5.500002E-1,-2.1999931E-1,3.674653E-1,-6.0311756E-3,-2.4321831E-3,5.046806E0,2.4950984E9,3.62493E7,3.210001E0,4.1732626E0,3.1143237E9,2.6660378E9,3.2864872E-3,4.181073E1,5.3376003E1,5.15494E-3,1.3054389E-2,7.9735665E0,-1.52324205E-2,-4.084928E-3,-1.288318E-2,6.6097595E1,5.8477135E1,-2.8355175E-3,-2.6590647E-3,-1.2996087E-2,-1.5378858E-2,-5.802462E-3,7.103284E-3,-2.0248805E-4,1.5073829E-2,5.8025885E-3,-4.4233412E-3,7.1072453E-3,1.0428749E-2,-1.0866737E-3,-7.101089E-3,3.4512687E-3,1.052028E-3,-5.4642837E-3,1.3033854E-2,1.4991802E-3,1.1856661E-3,-7.3426496E-3,6.666909E-4,1.1133506E-2,-1.3606896E-2,3.1805895E-3,1.0192841E-2,-4.8463843E-3,2.9434788E-3,-2.0355121E-3,-4.855379E-3,8.23399E-3,-4.04361E-3,-1.5194604E-2,-1.6295765E-2,-3.1332436E-3,-7.207439E-3,1.12380935E-2,9.277924E-4,-2.9040352E-3,-2.419819E-3,-1.4129713E-2,2.3747908E-3,-6.017422E-3,-1.5943326E-2,-4.5889737E-3],"split_indices":[0,9,1,3,4,9,4,7,3,2,5,2,1,7,4,0,7,9,0,8,9,6,5,4,8,10,3,0,2,4,10,0,1,10,0,8,10,8,7,6,3,2,1,0,7,0,0,0,5,0,0,0,0,0,3,0,0,0,0,0,0,2,0,0,3,1,0,9,9,3,0,8,7,6,1,9,7,6,6,0,2,2,8,0,7,0,0,10,2,2,0,0,0,0,0,0,0,0,0,0,0,0,0,0,0,0,0,0,0,0,0,0,0,0,0,0,0,0,0,0,0,0,0,0,0,0,0,0,0,0,0,0,0,0,0],"split_type":[0,0,0,0,0,0,0,0,0,0,0,0,0,0,0,0,0,0,0,0,0,0,0,0,0,0,0,0,0,0,0,0,0,0,0,0,0,0,0,0,0,0,0,0,0,0,0,0,0,0,0,0,0,0,0,0,0,0,0,0,0,0,0,0,0,0,0,0,0,0,0,0,0,0,0,0,0,0,0,0,0,0,0,0,0,0,0,0,0,0,0,0,0,0,0,0,0,0,0,0,0,0,0,0,0,0,0,0,0,0,0,0,0,0,0,0,0,0,0,0,0,0,0,0,0,0,0,0,0,0,0,0,0,0,0],"sum_hessian":[6.160112E2,3.5796918E2,2.5804205E2,2.3637539E1,3.3433163E2,2.3738391E2,2.0658133E1,6.6984863E0,1.6939053E1,1.6540134E2,1.689303E2,2.0329126E2,3.409266E1,1.2465476E1,8.1926565E0,1.4832143E0,5.215272E0,1.5698814E1,1.240237E0,4.7846462E1,1.1755488E2,5.7482807E1,1.11447495E2,2.0029904E2,2.9922187E0,1.0981658E1,2.3111E1,2.9863353E0,9.47914E0,4.7102156E0,3.4824412E0,1.4950273E0,3.720245E0,5.7161736E0,9.982641E0,3.0378351E1,1.746811E1,4.921155E1,6.834333E1,3.6535812E1,2.0946991E1,1.0495993E2,6.4875684E0,1.9179556E1,1.8111948E2,1.2442944E0,1.7479244E0,1.7382052E0,9.243453E0,2.2108831E0,2.0900116E1,1.2430345E0,1.7433008E0,1.2456759E0,8.233464E0,2.2392154E0,2.471E0,1.4969461E0,1.9854951E0,2.2300866E0,1.4901584E0,3.98235E0,1.7338235E0,1.4943413E0,8.488299E0,2.8887026E1,1.4913263E0,1.3009581E1,4.4585295E0,2.1423777E1,2.7787775E1,5.7237976E1,1.11053505E1,1.9918238E1,1.6617577E1,1.1977425E1,8.969567E0,8.718703E1,1.7772902E1,1.4942962E0,4.993272E0,1.495603E1,4.2235255E0,2.4783695E0,1.7864111E2,7.2497563E0,1.9936969E0,4.4890323E0,1.6411085E1,6.9872413E0,1.2462232E0,2.2336557E0,1.7486944E0,6.7405496E0,1.74775E0,2.1939484E1,6.9475427E0,1.0051436E1,2.9581437E0,1.9870667E0,2.471463E0,1.794083E1,3.4829464E0,4.7321525E0,2.3055622E1,2.7852793E1,2.9385183E1,5.1437078E0,5.9616427E0,8.186307E0,1.173193E1,1.3420402E1,3.1971753E0,1.0485611E1,1.4918135E0,1.2404058E0,7.7291613E0,4.687281E1,4.0314213E1,1.492506E0,1.6280396E1,1.9937861E0,2.999486E0,3.7462342E0,1.1209796E1,1.2471133E0,2.976412E0,1.4807568E2,3.0565428E1,2.2400105E0,2.2490215E0,1.0676216E1,5.734868E0,5.4909835E0,1.4962577E0],"tree_param":{"num_deleted":"0","num_feature":"11","num_nodes":"135","size_leaf_vector":"1"}},{"base_weights":[-9.149904E-4,-1.4190338E-2,7.1631945E-3,1.924331E-2,-8.335523E-1,1.3146803E-1,-7.327544E-2,4.4021685E-2,-1.2420992E0,4.7332034E-1,3.2482047E-2,1.270958E-2,-8.617925E-2,5.9450823E-3,-4.691252E-3,-1.6142935E-2,-7.3525746E-4,3.534294E-2,6.276627E-1,-2.4866175E-2,5.199584E-1,-2.2841667E-1,1.1474491E-2,6.986321E-1,-3.7996858E-1,7.266136E-1,4.7955856E-2,1.0880374E-1,-2.844842E-1,2.577798E-2,1.2070698E0,4.5199856E-2,-4.3029204E-1,5.4231048E-2,-7.193398E-1,1.1742147E-2,-1.097009E-3,2.3930885E-3,-9.592658E-3,1.0293864E-2,3.5932404E-3,5.218281E-3,-9.993886E-3,1.519303E-3,-1.0431841E-2,6.7893025E-3,-4.0510893E-3,1.1956024E-2,-2.6218193E-3,1.47287E-2,-2.9899564E-3,-3.4229886E-3,4.195437E-3,-7.327588E-3,-2.3099892E-3,1.18243785E-4,6.2556122E-3,1.00110555E-2,-1.0406729E-2],"categories":[],"categories_nodes":[],"categories_segments":[],"categories_sizes":[],"default_left":[0,0,0,0,0,0,0,0,0,0,0,0,0,0,0,0,0,0,0,0,0,0,0,0,0,0,0,0,0,0,0,0,0,0,0,0,0,0,0,0,0,0,0,0,0,0,0,0,0,0,0,0,0,0,0,0,0,0,0],"id":13,"left_children":[1,-1,3,5,7,9,11,13,15,17,19,-1,21,-1,-1,-1,-1,23,25,27,29,31,33,35,37,39,41,43,45,47,49,51,53,55,57,-1,-1,-1,-1,-1,-1,-1,-1,-1,-1,-1,-1,-1,-1,-1,-1,-1,-1,-1,-1,-1,-1,-1,-1],"loss_changes":[7.0773635E0,0E0,6.2559466E0,6.3087626E0,3.1831656E0,9.27345E0,5.888776E0,1.334702E0,2.485817E0,4.1394186E0,5.993826E0,0E0,4.599498E0,0E0,0E0,0E0,0E0,4.976422E0,2.5729713E0,6.7069793E0,7.630987E0,7.463589E0,6.200302E0,2.7956488E0,4.2347107E0,3.940752E0,4.342681E0,6.5035167E0,7.905589E0,5.079061E0,4.2105255E0,8.574725E0,4.5112114E0,4.528392E0,7.1056347E0,0E0,0E0,0E0,0E0,0E0,0E0,0E0,0E0,0E0,0E0,0E0,0E0,0E0,0E0,0E0,0E0,0E0,0E0,0E0,0E0,0E0,0E0,0E0,0E0],"parents":[2147483647,0,0,2,2,3,3,4,4,5,5,6,6,7,7,8,8,9,9,10,10,12,12,17,17,18,18,19,19,20,20,21,21,22,22,23,23,24,24,25,25,26,26,27,27,28,28,29,29,30,30,31,31,32,32,33,33,34,34],"right_children":[2,-1,4,6,8,10,12,14,16,18,20,-1,22,-1,-1,-1,-1,24,26,28,30,32,34,36,38,40,42,44,46,48,50,52,54,56,58,-1,-1,-1,-1,-1,-1,-1,-1,-1,-1,-1,-1,-1,-1,-1,-1,-1,-1,-1,-1,-1,-1,-1,-1],"split_conditions":[-6.1500015E0,-1.4190338E-2,7.864956E1,2.4950984E9,1.1407017E0,-7.242438E-3,2.839327E1,1.3259236E-3,8.235473E1,-2.1178707E-2,1.4823346E2,1.270958E-2,3.074951E2,5.9450823E-3,-4.691252E-3,-1.6142935E-2,-7.3525746E-4,2.76552E7,3.230951E-1,1.1544492E-1,-2.1787903E-1,5.149356E0,5.290325E2,7.2999954E-1,-8.36531E-3,3.38102E7,5.6977505E1,1.1200008E0,1.7234E7,4.2704163E1,3.3400767E-2,2.40402E7,-1.6071068E-2,5.1379126E2,-3.409104E0,1.1742147E-2,-1.097009E-3,2.3930885E-3,-9.592658E-3,1.0293864E-2,3.5932404E-3,5.218281E-3,-9.993886E-3,1.519303E-3,-1.0431841E-2,6.7893025E-3,-4.0510893E-3,1.1956024E-2,-2.6218193E-3,1.47287E-2,-2.9899564E-3,-3.4229886E-3,4.195437E-3,-7.327588E-3,-2.3099892E-3,1.18243785E-4,6.2556122E-3,1.00110555E-2,-1.0406729E-2],"split_indices":[9,0,2,6,7,0,2,8,2,10,4,0,5,0,0,0,0,1,3,3,3,7,5,9,8,1,2,9,1,2,10,1,10,5,3,0,0,0,0,0,0,0,0,0,0,0,0,0,0,0,0,0,0,0,0,0,0,0,0],"split_type":[0,0,0,0,0,0,0,0,0,0,0,0,0,0,0,0,0,0,0,0,0,0,0,0,0,0,0,0,0,0,0,0,0,0,0,0,0,0,0,0,0,0,0,0,0,0,0,0,0,0,0,0,0,0,0,0,0,0,0],"sum_hessian":[6.1590875E2,2.4992826E0,6.134095E2,6.056836E2,7.7258663E0,2.735039E2,3.321797E2,2.737615E0,4.988251E0,6.0563522E1,2.129404E2,2.2314095E0,3.2994827E2,1.2442608E0,1.4933543E0,3.493984E0,1.4942675E0,1.6101446E1,4.4462074E1,1.913754E2,2.1565002E1,1.3376866E2,1.9617961E2,5.937133E0,1.0164313E1,3.776287E1,6.699204E0,1.26714584E2,6.466081E1,1.3147003E1,8.417999E0,5.7122475E1,7.664619E1,1.8621106E2,9.968553E0,3.4529517E0,2.484181E0,5.196295E0,4.968019E0,1.9711317E1,1.8051554E1,4.957802E0,1.7414025E0,1.2297879E2,3.735799E0,6.6800036E0,5.798081E1,1.9743437E0,1.117266E1,7.173937E0,1.2440624E0,2.8110128E1,2.9012346E1,2.9379774E1,4.726641E1,1.7429482E2,1.1916241E1,1.2359095E0,8.732643E0],"tree_param":{"num_deleted":"0","num_feature":"11","num_nodes":"59","size_leaf_vector":"1"}},{"base_weights":[-8.9297263E-4,8.9474685E-2,-1.2607552E-1,-5.3395337E-1,1.3502967E-1,-8.338321E-2,-5.901187E-1,1.7656578E-1,-8.090023E-1,3.145251E-1,-4.1444696E-2,-1.81275E-2,-4.6092296E-1,-9.654824E-1,2.425396E-2,1.0766555E-2,-2.1129802E-1,-9.4569E-1,5.714434E-3,