{"learner":{"attributes":{"scikit_learn":"{\"_estimator_type\": \"classifier\"}"},"feature_names":["Return","Volume","RSI_14","MACDh_12_26_9","BBL_20_2.0","BBU_20_2.0","OBV","ATRr_14","SPY_Return","VIX_Change","FinBERT_Score"],"feature_types":["float","int","float","float","float","float","float","float","float","float","float"],"gradient_booster":{"model":{"cats":{"enc":[],"feature_segments":[],"sorted_idx":[]},"gbtree_model_param":{"num_parallel_tree":"1","num_trees":"50"},"iteration_indptr":[0,1,2,3,4,5,6,7,8,9,10,11,12,13,14,15,16,17,18,19,20,21,22,23,24,25,26,27,28,29,30,31,32,33,34,35,36,37,38,39,40,41,42,43,44,45,46,47,48,49,50],"tree_info":[0,0,0,0,0,0,0,0,0,0,0,0,0,0,0,0,0,0,0,0,0,0,0,0,0,0,0,0,0,0,0,0,0,0,0,0,0,0,0,0,0,0,0,0,0,0,0,0,0,0],"trees":[{"base_weights":[1.1260237E-7,7.232047E-1,-2.1553054E-2,9.9686813E-1,-2.5008038E-1,-4.942139E-4,-6.9740933E-1,-1.0936671E-3,1.1355721E0,1.5708111E-1,-7.7095507E-3,5.9401375E-1,-1.9006787E-2,-1.6160948E0,-8.356014E-2,1.3112365E0,-1.0936671E-3,-3.2447055E-3,5.684985E-3,1.0444909E0,1.0858261E-2,-4.9133855E-3,-1.2390198E0,-5.113504E-3,-1.814335E-2,7.318865E-1,-3.7557602E-1,1.5698856E-2,7.150737E-3,1.2054994E-2,3.3789277E-3,-2.9261366E-3,1.014983E-2,-1.9733644E-4,7.092851E-3,1.2201397E-3,-1.5859608E-2,1.2201397E-3,1.014983E-2,-8.234591E-3,3.053255E-3],"categories":[],"categories_nodes":[],"categories_segments":[],"categories_sizes":[],"default_left":[0,0,0,0,0,0,0,0,0,0,0,0,0,0,0,0,0,0,0,0,0,0,0,0,0,0,0,0,0,0,0,0,0,0,0,0,0,0,0,0,0],"id":0,"left_children":[1,3,5,7,9,11,13,-1,15,17,-1,19,21,23,25,27,-1,-1,-1,29,31,33,35,-1,-1,37,39,-1,-1,-1,-1,-1,-1,-1,-1,-1,-1,-1,-1,-1,-1],"loss_changes":[9.619713E0,5.006402E0,8.52918E0,2.2939816E0,1.121942E0,6.4186945E0,1.0076753E1,0E0,2.9105873E0,8.738029E-1,0E0,4.615363E0,9.718367E0,6.487694E-1,3.1108162E0,5.9913254E-1,0E0,0E0,0E0,7.2193146E-1,2.9439068E0,5.942578E0,3.2414389E0,0E0,0E0,4.768926E-1,3.1272645E0,0E0,0E0,0E0,0E0,0E0,0E0,0E0,0E0,0E0,0E0,0E0,0E0,0E0,0E0],"parents":[2147483647,0,0,1,1,2,2,3,3,4,4,5,5,6,6,8,8,9,9,11,11,12,12,13,13,14,14,15,15,19,19,20,20,21,21,22,22,25,25,26,26],"right_children":[2,4,6,8,10,12,14,-1,16,18,-1,20,22,24,26,28,-1,-1,-1,30,32,34,36,-1,-1,38,40,-1,-1,-1,-1,-1,-1,-1,-1,-1,-1,-1,-1,-1,-1],"split_conditions":[-2.228582E-2,2.7761731E-2,1.9400645E-2,3.2273827E1,4.6495102E1,1.2575512E0,6.062295E0,-1.0936671E-3,1.0547368E-1,4.39624E8,-7.7095507E-3,1.2150173E-3,8.253866E1,2.3332098E-1,-2.7985195E-2,5.6800003E0,-1.0936671E-3,-3.2447055E-3,5.684985E-3,7.655145E1,3.0671194E-2,7.8312386E1,-2.7985195E-2,-5.113504E-3,-1.814335E-2,-3.042583E-2,5.4825733E1,1.5698856E-2,7.150737E-3,1.2054994E-2,3.3789277E-3,-2.9261366E-3,1.014983E-2,-1.9733644E-4,7.092851E-3,1.2201397E-3,-1.5859608E-2,1.2201397E-3,1.014983E-2,-8.234591E-3,3.053255E-3],"split_indices":[8,10,8,2,2,4,4,0,3,1,0,8,2,7,10,9,0,0,0,2,10,2,10,0,0,3,2,0,0,0,0,0,0,0,0,0,0,0,0,0,0],"split_type":[0,0,0,0,0,0,0,0,0,0,0,0,0,0,0,0,0,0,0,0,0,0,0,0,0,0,0,0,0,0,0,0,0,0,0,0,0,0,0,0,0],"sum_hessian":[6.1514874E2,1.6860182E1,5.982885E2,1.3141025E1,3.719158E0,5.811804E2,1.7108126E1,1.4876631E0,1.1653361E1,2.4794385E0,1.2397193E0,1.6612238E1,5.645682E2,6.1985965E0,1.090953E1,1.0165698E1,1.4876631E0,1.2397193E0,1.2397193E0,8.925979E0,7.6862597E0,5.591134E2,5.454765E0,1.4876631E0,4.710933E0,2.4794385E0,8.430091E0,5.9506526E0,4.2150455E0,6.694484E0,2.2314947E0,6.4465404E0,1.2397193E0,5.4869977E2,1.0413642E1,1.2397193E0,4.2150455E0,1.2397193E0,1.2397193E0,4.958877E0,3.471214E0],"tree_param":{"num_deleted":"0","num_feature":"11","num_nodes":"41","size_leaf_vector":"1"}},{"base_weights":[2.1887148E-5,2.1161793E-2,-1.1738335E0,4.3028057E-2,-6.910144E-1,-1.3302004E0,-1.0924767E-3,7.172712E-1,2.1922616E-2,-1.5314679E0,-3.075993E-2,-1.5486782E-2,-6.407882E-1,9.8915786E-1,-2.4866544E-1,6.791846E-1,-1.6746952E-3,-1.6904468E-2,-5.035828E-3,5.961839E-1,-4.2378896E-1,5.6783753E-3,-1.3960581E-2,-1.0870631E-3,1.1269631E-2,1.5810794E-3,-7.695645E-3,1.1713213E-2,1.2220327E-3,1.2784294E-4,-1.2278125E-2,-1.2183067E-3,1.161434E-2,6.4783003E-3,-1.0063758E-2],"categories":[],"categories_nodes":[],"categories_segments":[],"categories_sizes":[],"default_left":[0,0,0,0,0,0,0,0,0,0,0,0,0,0,0,0,0,0,0,0,0,0,0,0,0,0,0,0,0,0,0,0,0,0,0],"id":1,"left_children":[1,3,5,7,9,11,-1,13,15,17,19,-1,21,23,25,27,29,-1,-1,31,33,-1,-1,-1,-1,-1,-1,-1,-1,-1,-1,-1,-1,-1,-1],"loss_changes":[1.5314679E1,9.470343E0,1.6720867E0,8.367474E0,1.0006545E1,4.279709E-1,0E0,4.9336796E0,8.876728E0,4.479313E-1,3.004284E0,0E0,4.42131E0,2.260213E0,1.1217254E0,5.294142E0,9.827258E0,0E0,0E0,2.0565395E0,5.30214E0,0E0,0E0,0E0,0E0,0E0,0E0,0E0,0E0,0E0,0E0,0E0,0E0,0E0,0E0],"parents":[2147483647,0,0,1,1,2,2,3,3,4,4,5,5,7,7,8,8,9,9,10,10,12,12,13,13,14,14,15,15,16,16,19,19,20,20],"right_children":[2,4,6,8,10,12,-1,14,16,18,20,-1,22,24,26,28,30,-1,-1,32,34,-1,-1,-1,-1,-1,-1,-1,-1,-1,-1,-1,-1,-1,-1],"split_conditions":[1.0296981E11,1.9400645E-2,2.01912E8,-2.228582E-2,6.113868E10,1.8971406E-3,-1.0924767E-3,2.7761731E-2,1.381912E10,7.38379E8,1.4391594E1,-1.5486782E-2,3.9282697E-3,3.2273827E1,1.284003E1,3.298953E-4,8.253866E1,-1.6904468E-2,-5.035828E-3,5.0199497E-2,-1.9473502E-2,5.6783753E-3,-1.3960581E-2,-1.0870631E-3,1.1269631E-2,1.5810794E-3,-7.695645E-3,1.1713213E-2,1.2220327E-3,1.2784294E-4,-1.2278125E-2,-1.2183067E-3,1.161434E-2,6.4783003E-3,-1.0063758E-2],"split_indices":[6,8,1,8,6,8,0,10,6,1,4,0,0,2,4,8,2,0,0,0,10,0,0,0,0,0,0,0,0,0,0,0,0,0,0],"split_type":[0,0,0,0,0,0,0,0,0,0,0,0,0,0,0,0,0,0,0,0,0,0,0,0,0,0,0,0,0,0,0,0,0,0,0],"sum_hessian":[6.151483E2,6.052307E2,9.917598E0,5.8811316E2,1.7117521E1,8.429909E0,1.4876899E0,1.6849424E1,5.7126373E2,6.950524E0,1.0166998E1,5.4548626E0,2.9750457E0,1.3129704E1,3.7197194E0,1.8836054E1,5.5242773E2,5.461264E0,1.4892595E0,3.7185016E0,6.448497E0,1.2395746E0,1.7354711E0,1.4878104E0,1.1641894E1,2.4797432E0,1.2399763E0,9.414564E0,9.421489E0,5.469673E2,5.460431E0,1.9834592E0,1.7350423E0,2.2316241E0,4.216872E0],"tree_param":{"num_deleted":"0","num_feature":"11","num_nodes":"35","size_leaf_vector":"1"}},{"base_weights":[-3.46219E-5,7.1082085E-1,-2.1191798E-2,9.808801E-1,-2.4744827E-1,-4.998842E-4,-6.84609E-1,1.1190387E0,-1.1551486E-3,1.5772332E-1,-7.6623494E-3,-1.8082173E-1,5.0943475E-2,-1.3463885E0,-6.6489E-2,-1.0804981E-3,1.2925965E0,-3.2446205E-3,5.694517E-3,-1.7371302E-2,-5.277821E-1,7.330582E-1,2.414879E-2,-1.4753374E0,-3.1638509E-3,9.492056E-3,-4.5856407E-1,1.5503072E-2,7.0119184E-3,-6.421929E-4,1.0720896E-2,5.369424E-3,-6.1671613E-3,1.19287E-2,-2.4215478E-4,3.9065766E-4,-7.3822737E-3,-3.132957E-3,-1.656997E-2,3.3564188E-3,-8.118762E-3],"categories":[],"categories_nodes":[],"categories_segments":[],"categories_sizes":[],"default_left":[0,0,0,0,0,0,0,0,0,0,0,0,0,0,0,0,0,0,0,0,0,0,0,0,0,0,0,0,0,0,0,0,0,0,0,0,0,0,0,0,0],"id":2,"left_children":[1,3,5,7,9,11,13,15,-1,17,-1,19,21,23,25,-1,27,-1,-1,29,31,33,35,37,-1,-1,39,-1,-1,-1,-1,-1,-1,-1,-1,-1,-1,-1,-1,-1,-1],"loss_changes":[9.281633E0,4.858773E0,8.226523E0,2.2676458E0,1.1130284E0,5.409702E0,7.3251343E0,2.829627E0,0E0,8.7556994E-1,0E0,7.331583E0,8.275249E0,6.889982E-1,4.586471E0,0E0,6.1120987E-1,0E0,0E0,4.6125655E0,4.252981E0,5.9886703E0,5.005606E0,1.0558071E0,0E0,0E0,2.5720973E0,0E0,0E0,0E0,0E0,0E0,0E0,0E0,0E0,0E0,0E0,0E0,0E0,0E0,0E0],"parents":[2147483647,0,0,1,1,2,2,3,3,4,4,5,5,6,6,7,7,9,9,11,11,12,12,13,13,14,14,16,16,19,19,20,20,21,21,22,22,23,23,26,26],"right_children":[2,4,6,8,10,12,14,16,-1,18,-1,20,22,24,26,-1,28,-1,-1,30,32,34,36,38,-1,-1,40,-1,-1,-1,-1,-1,-1,-1,-1,-1,-1,-1,-1,-1,-1],"split_conditions":[-2.228582E-2,2.7761731E-2,1.9400645E-2,1.0547368E-1,4.6495102E1,2.64484E8,6.3431376E-1,3.2273827E1,-1.1551486E-3,4.91E0,-7.6623494E-3,1.8030584E-2,2.8034E8,5.9633442E1,-2.7985195E-2,-1.0804981E-3,5.6800003E0,-3.2446205E-3,5.694517E-3,1.8999996E0,4.2833385E1,1.7390542E-2,8.253866E1,2.3332098E-1,-3.1638509E-3,9.492056E-3,8.74176E-1,1.5503072E-2,7.0119184E-3,-6.421929E-4,1.0720896E-2,5.369424E-3,-6.1671613E-3,1.19287E-2,-2.4215478E-4,3.9065766E-4,-7.3822737E-3,-3.132957E-3,-1.656997E-2,3.3564188E-3,-8.118762E-3],"split_indices":[8,10,8,3,2,1,7,2,0,9,0,10,1,2,10,0,9,0,0,9,2,3,2,7,0,0,7,0,0,0,0,0,0,0,0,0,0,0,0,0,0],"split_type":[0,0,0,0,0,0,0,0,0,0,0,0,0,0,0,0,0,0,0,0,0,0,0,0,0,0,0,0,0,0,0,0,0,0,0,0,0,0,0,0,0],"sum_hessian":[6.1514087E2,1.6837114E1,5.983038E2,1.3116913E1,3.7202017E0,5.811776E2,1.7126118E1,1.1630659E1,1.4862528E0,2.479608E0,1.2405936E0,1.2844185E2,4.5273578E2,7.7019544E0,9.424163E0,1.4879557E0,1.0142704E1,1.2397072E0,1.239901E0,8.802432E1,4.0417534E1,1.611581E1,4.3661996E2,6.460753E0,1.2412013E0,2.2289503E0,7.1952124E0,5.935047E0,4.2076564E0,8.529749E1,2.7268295E0,2.7273998E0,3.7690132E1,9.669396E0,6.446414E0,4.291714E2,7.448593E0,1.2418041E0,5.218949E0,2.2307498E0,4.9644628E0],"tree_param":{"num_deleted":"0","num_feature":"11","num_nodes":"41","size_leaf_vector":"1"}},{"base_weights":[-1.6042488E-5,7.0504004E-1,-2.0986171E-2,9.733831E-1,-2.460496E-1,-4.706107E-4,-6.784808E-1,-1.0739734E-3,1.1093754E0,1.5863855E-1,-7.6469397E-3,6.4125043E-1,-2.0433292E-2,-1.5749872E0,-7.82858E-2,5.3925306E-1,1.5348913E-2,-3.2270576E-3,5.6919986E-3,1.1112475E0,6.1227128E-2,-6.6628587E-3,-1.2095755E0,-4.96891E-3,-1.768761E-2,7.2012794E-1,-3.6394587E-1,-3.155337E-3,8.843634E-3,1.3011393E-2,3.3005127E-3,-2.2226356E-3,1.0085987E-2,-2.1378305E-4,7.030865E-3,1.3211297E-3,-1.5535517E-2,1.153334E-3,1.0033489E-2,-8.056719E-3,3.0690038E-3],"categories":[],"categories_nodes":[],"categories_segments":[],"categories_sizes":[],"default_left":[0,0,0,0,0,0,0,0,0,0,0,0,0,0,0,0,0,0,0,0,0,0,0,0,0,0,0,0,0,0,0,0,0,0,0,0,0,0,0,0,0],"id":3,"left_children":[1,3,5,7,9,11,13,-1,15,17,-1,19,21,23,25,27,-1,-1,-1,29,31,33,35,-1,-1,37,39,-1,-1,-1,-1,-1,-1,-1,-1,-1,-1,-1,-1,-1,-1],"loss_changes":[9.124441E0,4.7887754E0,8.083712E0,2.1921644E0,1.1121396E0,7.4710727E0,9.633977E0,0E0,2.2329473E0,8.713796E-1,0E0,4.7284956E0,9.253359E0,6.293144E-1,2.9793925E0,2.324409E0,0E0,0E0,0E0,1.0036926E0,2.6235673E0,5.8650146E0,3.1907492E0,0E0,0E0,4.7954154E-1,3.044303E0,0E0,0E0,0E0,0E0,0E0,0E0,0E0,0E0,0E0,0E0,0E0,0E0,0E0,0E0],"parents":[2147483647,0,0,1,1,2,2,3,3,4,4,5,5,6,6,8,8,9,9,11,11,12,12,13,13,14,14,15,15,19,19,20,20,21,21,22,22,25,25,26,26],"right_children":[2,4,6,8,10,12,14,-1,16,18,-1,20,22,24,26,28,-1,-1,-1,30,32,34,36,-1,-1,38,40,-1,-1,-1,-1,-1,-1,-1,-1,-1,-1,-1,-1,-1,-1],"split_conditions":[-2.228582E-2,2.7761731E-2,1.9400645E-2,3.2273827E1,1.5683488E1,1.4449143E0,8.051784E0,-1.0739734E-3,-1.0866645E-2,7.494436E0,-7.6469397E-3,1.2150173E-3,8.253866E1,2.3332098E-1,-2.7985195E-2,5.41001E8,1.5348913E-2,-3.2270576E-3,5.6919986E-3,7.655145E1,3.0671194E-2,7.8312386E1,-2.7985195E-2,-4.96891E-3,-1.768761E-2,-1.5800018E0,5.4825733E1,-3.155337E-3,8.843634E-3,1.3011393E-2,3.3005127E-3,-2.2226356E-3,1.0085987E-2,-2.1378305E-4,7.030865E-3,1.3211297E-3,-1.5535517E-2,1.153334E-3,1.0033489E-2,-8.056719E-3,3.0690038E-3],"split_indices":[8,10,8,2,5,5,5,0,10,5,0,8,2,7,10,1,0,0,0,2,10,2,10,0,0,9,2,0,0,0,0,0,0,0,0,0,0,0,0,0,0],"split_type":[0,0,0,0,0,0,0,0,0,0,0,0,0,0,0,0,0,0,0,0,0,0,0,0,0,0,0,0,0,0,0,0,0,0,0,0,0,0,0,0,0],"sum_hessian":[6.1513617E2,1.6825033E1,5.9831116E2,1.3104307E1,3.720726E0,5.811776E2,1.7133553E1,1.4880993E0,1.1616207E1,2.4798644E0,1.2408617E0,1.65949E1,5.645827E2,6.219464E0,1.0914089E1,5.9335313E0,5.6826763E0,1.2400324E0,1.2398319E0,8.660978E0,7.9339223E0,5.591137E2,5.4690113E0,1.4905877E0,4.728876E0,2.4751558E0,8.438933E0,1.731232E0,4.202299E0,6.431941E0,2.229037E0,6.695697E0,1.2382255E0,5.4870703E2,1.0406628E1,1.2416896E0,4.2273216E0,1.2382337E0,1.2369221E0,4.9672284E0,3.4717045E0],"tree_param":{"num_deleted":"0","num_feature":"11","num_nodes":"41","size_leaf_vector":"1"}},{"base_weights":[9.052305E-6,2.0950008E-2,-1.1616374E0,4.2264808E-2,-6.723574E-1,-1.3159853E0,-1.0898759E-3,6.993169E-1,2.1738762E-2,-1.4929194E0,-2.6631234E-2,-1.5306371E-2,-6.361394E-1,9.6596545E-1,-2.4465966E-1,6.693086E-1,-1.4855841E-3,-1.650099E-2,-4.8543406E-3,6.5129447E-1,-4.8976976E-1,5.6513217E-3,-1.3862494E-2,3.628439E-3,1.14639355E-2,1.5777441E-3,-7.6018916E-3,1.1552991E-2,1.2018804E-3,4.447096E-4,-1.8434727E-3,2.653635E-4,1.1517079E-2,5.444049E-3,-9.862929E-3],"categories":[],"categories_nodes":[],"categories_segments":[],"categories_sizes":[],"default_left":[0,0,0,0,0,0,0,0,0,0,0,0,0,0,0,0,0,0,0,0,0,0,0,0,0,0,0,0,0,0,0,0,0,0,0],"id":4,"left_children":[1,3,5,7,9,11,-1,13,15,17,19,-1,21,23,25,27,29,-1,-1,31,33,-1,-1,-1,-1,-1,-1,-1,-1,-1,-1,-1,-1,-1,-1],"loss_changes":[1.5012277E1,8.986673E0,1.6320887E0,7.9292707E0,9.571919E0,4.039135E-1,0E0,4.7199106E0,8.607257E0,4.6114922E-1,3.8259726E0,0E0,4.3666115E0,1.1174488E0,1.0994356E0,5.1490393E0,4.6590824E0,0E0,0E0,1.5209973E0,4.2376175E0,0E0,0E0,0E0,0E0,0E0,0E0,0E0,0E0,0E0,0E0,0E0,0E0,0E0,0E0],"parents":[2147483647,0,0,1,1,2,2,3,3,4,4,5,5,7,7,8,8,9,9,10,10,12,12,13,13,14,14,15,15,16,16,19,19,20,20],"right_children":[2,4,6,8,10,12,-1,14,16,18,20,-1,22,24,26,28,30,-1,-1,32,34,-1,-1,-1,-1,-1,-1,-1,-1,-1,-1,-1,-1,-1,-1],"split_conditions":[1.0296981E11,1.9400645E-2,2.01912E8,-2.228582E-2,6.113868E10,1.8971406E-3,-1.0898759E-3,2.7761731E-2,1.381912E10,7.38379E8,8.74176E-1,-1.5306371E-2,3.9282697E-3,-6.878673E-2,1.284003E1,3.298953E-4,2.969618E-2,-1.650099E-2,-4.8543406E-3,5.0199497E-2,-2.0302817E-2,5.6513217E-3,-1.3862494E-2,3.628439E-3,1.14639355E-2,1.5777441E-3,-7.6018916E-3,1.1552991E-2,1.2018804E-3,4.447096E-4,-1.8434727E-3,2.653635E-4,1.1517079E-2,5.444049E-3,-9.862929E-3],"split_indices":[6,8,1,8,6,8,0,10,6,1,7,0,0,0,4,8,10,0,0,0,10,0,0,0,0,0,0,0,0,0,0,0,0,0,0],"split_type":[0,0,0,0,0,0,0,0,0,0,0,0,0,0,0,0,0,0,0,0,0,0,0,0,0,0,0,0,0,0,0,0,0,0,0],"sum_hessian":[6.151287E2,6.0520074E2,9.927965E0,5.8806067E2,1.714009E1,8.4402275E0,1.487737E0,1.6812477E1,5.7124817E2,6.9703975E0,1.0169693E1,5.4636955E0,2.9765322E0,1.309125E1,3.7212272E0,1.8814684E1,5.524335E2,5.4779344E0,1.492463E0,3.9628098E0,6.206883E0,1.2389706E0,1.7375615E0,3.7078717E0,9.383379E0,2.4795728E0,1.2416545E0,9.395466E0,9.419219E0,4.4208588E2,1.1034761E2,2.2307646E0,1.732045E0,1.9820889E0,4.224794E0],"tree_param":{"num_deleted":"0","num_feature":"11","num_nodes":"35","size_leaf_vector":"1"}},{"base_weights":[-2.0034779E-5,1.9281349E-1,-7.423823E-2,6.933508E-1,1.3397996E-1,-4.8995264E-2,-6.661901E-1,9.583066E-1,-2.4346782E-1,-2.8310046E-2,4.3040824E-1,5.3636E-1,-6.841665E-2,-1.5478075E0,-7.531179E-2,-1.1130607E-3,1.0934931E0,1.599765E-1,-7.612548E-3,1.6613051E-1,-2.17475E-1,5.180612E-1,-5.537483E-1,1.1618725E0,6.043382E-2,-2.1033546E-1,4.496525E-2,-4.8477603E-3,-1.7398808E-2,7.1309185E-1,-3.5724294E-1,5.28342E-3,1.5165627E-2,-3.190304E-3,5.6779627E-3,8.8999455E-4,1.2631731E-2,-4.8293276E-3,2.3134372E-3,9.339793E-3,3.283555E-3,-1.2174201E-2,-6.0255807E-5,1.4177812E-2,1.0368779E-3,-2.213579E-3,1.0029823E-2,-7.681713E-3,-1.4228375E-3,1.24955E-3,-3.177861E-3,1.1176026E-3,9.96023E-3,-7.938825E-3,3.0589704E-3],"categories":[],"categories_nodes":[],"categories_segments":[],"categories_sizes":[],"default_left":[0,0,0,0,0,0,0,0,0,0,0,0,0,0,0,0,0,0,0,0,0,0,0,0,0,0,0,0,0,0,0,0,0,0,0,0,0,0,0,0,0,0,0,0,0,0,0,0,0,0,0,0,0,0,0],"id":5,"left_children":[1,3,5,7,9,11,13,15,17,19,21,23,25,27,29,-1,31,33,-1,35,37,39,41,43,45,47,49,-1,-1,51,53,-1,-1,-1,-1,-1,-1,-1,-1,-1,-1,-1,-1,-1,-1,-1,-1,-1,-1,-1,-1,-1,-1,-1,-1],"loss_changes":[8.832028E0,4.957715E0,6.6259346E0,4.651374E0,7.4547787E0,4.9076476E0,9.336112E0,2.157301E0,1.108122E0,3.7478127E0,5.0138006E0,4.059601E0,6.696746E0,6.328411E-1,2.9032655E0,0E0,2.2090874E0,8.6099225E-1,0E0,4.1462264E0,6.2574534E0,3.7040167E0,1.7973292E0,1.4613695E0,2.594681E0,6.903926E0,6.767054E0,0E0,0E0,4.7945535E-1,2.9771304E0,0E0,0E0,0E0,0E0,0E0,0E0,0E0,0E0,0E0,0E0,0E0,0E0,0E0,0E0,0E0,0E0,0E0,0E0,0E0,0E0,0E0,0E0,0E0,0E0],"parents":[2147483647,0,0,1,1,2,2,3,3,4,4,5,5,6,6,7,7,8,8,9,9,10,10,11,11,12,12,13,13,14,14,16,16,17,17,19,19,20,20,21,21,22,22,23,23,24,24,25,25,26,26,29,29,30,30],"right_children":[2,4,6,8,10,12,14,16,18,20,22,24,26,28,30,-1,32,34,-1,36,38,40,42,44,46,48,50,-1,-1,52,54,-1,-1,-1,-1,-1,-1,-1,-1,-1,-1,-1,-1,-1,-1,-1,-1,-1,-1,-1,-1,-1,-1,-1,-1],"split_conditions":[-2.9193282E-3,-2.228582E-2,1.9400645E-2,2.7761731E-2,-7.8024543E-3,1.4449143E0,6.062295E0,3.2273827E1,4.6495102E1,7.522381E-1,7.6286575E1,1.2150173E-3,2.160639E-3,2.3332098E-1,-2.7985195E-2,-1.1130607E-3,-1.0866645E-2,-6.6507E-2,-7.612548E-3,4.670183E-2,1.2673973E2,-2.358469E-3,7.772592E1,4.3094E8,3.0671194E-2,1.889193E8,2.969618E-2,-4.8477603E-3,-1.7398808E-2,-4.1456386E-2,5.4825733E1,5.28342E-3,1.5165627E-2,-3.190304E-3,5.6779627E-3,8.8999455E-4,1.2631731E-2,-4.8293276E-3,2.3134372E-3,9.339793E-3,3.283555E-3,-1.2174201E-2,-6.0255807E-5,1.4177812E-2,1.0368779E-3,-2.213579E-3,1.0029823E-2,-7.681713E-3,-1.4228375E-3,1.24955E-3,-3.177861E-3,1.1176026E-3,9.96023E-3,-7.938825E-3,3.0589704E-3],"split_indices":[8,8,8,10,0,5,4,2,2,7,2,8,8,7,10,0,10,0,0,10,5,0,2,1,10,1,10,0,0,10,2,0,0,0,0,0,0,0,0,0,0,0,0,0,0,0,0,0,0,0,0,0,0,0,0],"split_type":[0,0,0,0,0,0,0,0,0,0,0,0,0,0,0,0,0,0,0,0,0,0,0,0,0,0,0,0,0,0,0,0,0,0,0,0,0,0,0,0,0,0,0,0,0,0,0,0,0,0,0,0,0,0,0],"sum_hessian":[6.151168E2,1.705073E2,4.4460953E2,1.679928E1,1.5370802E2,4.274637E2,1.7145828E1,1.3077655E1,3.7216258E0,9.991213E1,5.3795887E1,1.2872518E1,4.145912E2,6.230354E0,1.0915475E1,1.4872208E0,1.1590434E1,2.4801805E0,1.2414453E0,4.9329082E1,5.058305E1,4.983131E1,3.9645798E0,4.9393787E0,7.933139E0,1.8374481E2,2.3084636E2,1.4927319E0,4.7376223E0,2.4723587E0,8.443116E0,5.924762E0,5.6656723E0,1.2406664E0,1.2395141E0,4.7098778E1,2.2303023E0,3.1736319E1,1.8846733E1,1.4380231E1,3.5451077E1,1.2397225E0,2.7248573E0,3.7038298E0,1.2355489E0,6.6963077E0,1.2368313E0,1.8859663E1,1.6488515E2,1.896766E2,4.1169765E1,1.2374136E0,1.234945E0,4.9721103E0,3.4710057E0],"tree_param":{"num_deleted":"0","num_feature":"11","num_nodes":"55","size_leaf_vector":"1"}},{"base_weights":[1.5880058E-5,2.0741837E-2,-1.1486005E0,4.1690968E-2,-6.602389E-1,-5.3442436E-1,-1.422141E0,6.8774825E-1,2.153791E-2,-1.4674914E0,-2.4383355E-2,-1.1841571E-2,4.301535E-3,-4.8446013E-3,-1.589394E-2,9.203173E-1,1.3512681E-1,6.610153E-1,-1.3735596E-3,-4.817771E-3,-1.6201159E-2,6.4645886E-1,-4.8248187E-1,1.2571267E-2,3.8190691E-3,-9.105141E-3,9.04379E-3,1.1420417E-2,1.1833062E-3,2.7578133E-3,-2.2735706E-4,-1.2407365E-3,1.2012713E-2,-1.1790637E-2,6.829274E-4],"categories":[],"categories_nodes":[],"categories_segments":[],"categories_sizes":[],"default_left":[0,0,0,0,0,0,0,0,0,0,0,0,0,0,0,0,0,0,0,0,0,0,0,0,0,0,0,0,0,0,0,0,0,0,0],"id":6,"left_children":[1,3,5,7,9,11,13,15,17,19,21,-1,-1,-1,-1,23,25,27,29,-1,-1,31,33,-1,-1,-1,-1,-1,-1,-1,-1,-1,-1,-1,-1],"loss_changes":[1.469096E1,8.675098E0,1.0775604E0,7.654218E0,9.280806E0,3.6256716E0,3.223982E-1,2.161497E0,8.384893E0,4.200878E-1,3.7445834E0,0E0,0E0,0E0,0E0,1.7586555E0,6.0036206E0,5.0322886E0,3.2829635E0,0E0,0E0,2.2694151E0,2.846747E0,0E0,0E0,0E0,0E0,0E0,0E0,0E0,0E0,0E0,0E0,0E0,0E0],"parents":[2147483647,0,0,1,1,2,2,3,3,4,4,5,5,6,6,7,7,8,8,9,9,10,10,15,15,16,16,17,17,18,18,21,21,22,22],"right_children":[2,4,6,8,10,12,14,16,18,20,22,-1,-1,-1,-1,24,26,28,30,-1,-1,32,34,-1,-1,-1,-1,-1,-1,-1,-1,-1,-1,-1,-1],"split_conditions":[1.0296981E11,1.9400645E-2,3.9282697E-3,-2.228582E-2,6.113868E10,5.877769E-4,-8.291334E-4,7.094919E10,1.381912E10,2.3332098E-1,8.74176E-1,-1.1841571E-2,4.301535E-3,-4.8446013E-3,-1.589394E-2,4.91E0,1.7496714E1,3.298953E-4,-3.5403427E-2,-4.817771E-3,-1.6201159E-2,-1.6199989E0,1.7496714E1,1.2571267E-2,3.8190691E-3,-9.105141E-3,9.04379E-3,1.1420417E-2,1.1833062E-3,2.7578133E-3,-2.2735706E-4,-1.2407365E-3,1.2012713E-2,-1.1790637E-2,6.829274E-4],"split_indices":[6,8,0,8,6,8,8,6,6,7,7,0,0,0,0,9,4,8,0,0,0,9,4,0,0,0,0,0,0,0,0,0,0,0,0],"split_type":[0,0,0,0,0,0,0,0,0,0,0,0,0,0,0,0,0,0,0,0,0,0,0,0,0,0,0,0,0,0,0,0,0,0,0],"sum_hessian":[6.151064E2,6.051685E2,9.937889E0,5.8801794E2,1.715052E1,3.9724164E0,5.965473E0,1.6785637E1,5.7123236E2,6.9805017E0,1.0170019E1,2.2375653E0,1.7348511E0,1.4928099E0,4.472663E0,1.1345536E1,5.440101E0,1.8795105E1,5.5243726E2,1.4932259E0,5.4872756E0,3.9599159E0,6.210103E0,6.1582685E0,5.187268E0,2.227981E0,3.2121198E0,9.378094E0,9.417011E0,3.8680626E1,5.137566E2,1.9826908E0,1.9772251E0,2.2383962E0,3.9717069E0],"tree_param":{"num_deleted":"0","num_feature":"11","num_nodes":"35","size_leaf_vector":"1"}},{"base_weights":[-1.3254168E-5,2.0552276E-2,-1.1389742E0,6.3421285E-1,-6.838009E-4,-1.2916507E0,-1.0149723E-3,-1.4632167E-1,8.330318E-1,1.2653695E-2,-1.1984334E0,-1.48305055E-2,-7.048775E-1,6.9534904E-3,-7.0615864E-1,1.1964078E0,-9.296014E-4,3.7295336E-1,-2.343435E-2,1.3072891E-3,-1.5387908E-2,7.917788E-4,-1.2832021E-2,-1.2151203E-2,1.1854095E-3,3.3006275E-3,1.4623049E-2,1.0538173E-2,-1.2151589E-2,8.6236E-3,1.2641134E-3,-3.8047234E-4,8.331656E-3],"categories":[],"categories_nodes":[],"categories_segments":[],"categories_sizes":[],"default_left":[0,0,0,0,0,0,0,0,0,0,0,0,0,0,0,0,0,0,0,0,0,0,0,0,0,0,0,0,0,0,0,0,0],"id":7,"left_children":[1,3,5,7,9,11,-1,13,15,17,19,-1,21,-1,23,25,27,29,31,-1,-1,-1,-1,-1,-1,-1,-1,-1,-1,-1,-1,-1,-1],"loss_changes":[1.4454321E1,7.899578E0,1.60254E0,3.2683458E0,9.390416E0,1.6560555E-2,0E0,2.8313437E0,4.9433527E0,7.568365E0,3.1297398E0,0E0,2.020322E0,0E0,1.6042761E0,2.1342354E0,8.899112E0,6.284829E0,6.6584907E0,0E0,0E0,0E0,0E0,0E0,0E0,0E0,0E0,0E0,0E0,0E0,0E0,0E0,0E0],"parents":[2147483647,0,0,1,1,2,2,3,3,4,4,5,5,7,7,8,8,9,9,10,10,12,12,14,14,15,15,16,16,17,17,18,18],"right_children":[2,4,6,8,10,12,-1,14,16,18,20,-1,22,-1,24,26,28,30,32,-1,-1,-1,-1,-1,-1,-1,-1,-1,-1,-1,-1,-1,-1],"split_conditions":[1.0296981E11,1.381912E10,2.01912E8,-7.5E-1,8.253866E1,1.723549E8,-1.0149723E-3,-1.4984349E-2,7.655145E1,-3.5403427E-2,-2.7985195E-2,-1.48305055E-2,1.1707845E-2,6.9534904E-3,2.8654277E-2,1.1843061E0,8.4956E9,5.0536096E10,7.901628E1,1.3072891E-3,-1.5387908E-2,7.917788E-4,-1.2832021E-2,-1.2151203E-2,1.1854095E-3,3.3006275E-3,1.4623049E-2,1.0538173E-2,-1.2151589E-2,8.6236E-3,1.2641134E-3,-3.8047234E-4,8.331656E-3],"split_indices":[6,6,1,9,2,1,0,10,2,0,10,0,0,0,7,5,6,6,2,0,0,0,0,0,0,0,0,0,0,0,0,0,0],"split_type":[0,0,0,0,0,0,0,0,0,0,0,0,0,0,0,0,0,0,0,0,0,0,0,0,0,0,0,0,0,0,0,0,0],"sum_hessian":[6.1509125E2,6.051464E2,9.944808E0,1.9275515E1,5.858709E2,8.455495E0,1.4893134E0,3.966734E0,1.530878E1,5.8039734E2,5.4735584E0,5.2240047E0,3.2314906E0,1.4878349E0,2.478899E0,1.0360058E1,4.948722E0,5.199087E1,5.284065E2,1.2414318E0,4.232126E0,1.7381328E0,1.4933577E0,1.2401396E0,1.2387593E0,2.959323E0,7.4007354E0,2.7189775E0,2.2297442E0,1.6580118E1,3.541075E1,5.204831E2,7.923425E0],"tree_param":{"num_deleted":"0","num_feature":"11","num_nodes":"33","size_leaf_vector":"1"}},{"base_weights":[-3.1839387E-5,2.0374266E-2,-1.1294744E0,4.1136004E-2,-6.543098E-1,-2.5746783E-3,-1.3237967E0,6.795617E-1,2.1241665E-2,-1.4543198E0,-2.3821823E-2,-1.4508368E-2,-3.1003237E-3,9.098854E-1,1.3299064E-1,6.5029305E-1,-1.2653688E-3,-4.785652E-3,-1.6051343E-2,6.4275825E-1,-4.7875246E-1,1.1494221E-2,1.732683E-3,-9.043571E-3,8.974623E-3,1.1256627E-2,1.1513946E-3,1.2764186E-4,-1.1879146E-2,-1.2298371E-3,1.1945535E-2,-1.1699811E-2,6.8052486E-4],"categories":[],"categories_nodes":[],"categories_segments":[],"categories_sizes":[],"default_left":[0,0,0,0,0,0,0,0,0,0,0,0,0,0,0,0,0,0,0,0,0,0,0,0,0,0,0,0,0,0,0,0,0],"id":8,"left_children":[1,3,5,7,9,-1,11,13,15,17,19,-1,-1,21,23,25,27,-1,-1,29,31,-1,-1,-1,-1,-1,-1,-1,-1,-1,-1,-1,-1],"loss_changes":[1.4222119E1,8.517325E0,1.5148392E0,7.4661565E0,9.122383E0,0E0,6.7246056E-1,2.1155796E0,8.102182E0,4.068737E-1,3.6948657E0,0E0,0E0,1.9760952E0,5.9173837E0,4.899268E0,9.228913E0,0E0,0E0,2.241707E0,2.8054621E0,0E0,0E0,0E0,0E0,0E0,0E0,0E0,0E0,0E0,0E0,0E0,0E0],"parents":[2147483647,0,0,1,1,2,2,3,3,4,4,6,6,7,7,8,8,9,9,10,10,13,13,14,14,15,15,16,16,19,19,20,20],"right_children":[2,4,6,8,10,-1,12,14,16,18,20,-1,-1,22,24,26,28,-1,-1,30,32,-1,-1,-1,-1,-1,-1,-1,-1,-1,-1,-1,-1],"split_conditions":[1.0296981E11,1.9400645E-2,5.1970016E1,-2.228582E-2,6.113868E10,-2.5746783E-3,3.5000038E-1,7.094919E10,1.381912E10,2.3332098E-1,8.74176E-1,-1.4508368E-2,-3.1003237E-3,4.9172596E1,1.3432046E0,3.298953E-4,8.253866E1,-4.785652E-3,-1.6051343E-2,-1.6199989E0,1.3862948E0,1.1494221E-2,1.732683E-3,-9.043571E-3,8.974623E-3,1.1256627E-2,1.1513946E-3,1.2764186E-4,-1.1879146E-2,-1.2298371E-3,1.1945535E-2,-1.1699811E-2,6.8052486E-4],"split_indices":[6,8,2,8,6,0,9,6,6,7,7,0,0,2,7,8,2,0,0,9,7,0,0,0,0,0,0,0,0,0,0,0,0],"split_type":[0,0,0,0,0,0,0,0,0,0,0,0,0,0,0,0,0,0,0,0,0,0,0,0,0,0,0,0,0,0,0,0,0],"sum_hessian":[6.150794E2,6.051283E2,9.951142E0,5.879739E2,1.7154417E1,2.2371323E0,7.7140102E0,1.6766441E1,5.7120746E2,6.984855E0,1.0169561E1,6.47185E0,1.2421603E0,1.13280945E1,5.438348E0,1.8767923E1,5.524395E2,1.4937365E0,5.4911184E0,3.957713E0,6.2118483E0,8.1254225E0,3.2026715E0,2.2297337E0,3.208614E0,9.354771E0,9.413154E0,5.469621E2,5.4773984E0,1.9829868E0,1.974726E0,2.2402408E0,3.9716077E0],"tree_param":{"num_deleted":"0","num_feature":"11","num_nodes":"33","size_leaf_vector":"1"}},{"base_weights":[-7.574217E-5,2.015974E-2,-1.1193593E0,4.07505E-2,-6.4884347E-1,-2.5565492E-3,-1.311667E0,6.7403215E-1,2.1031152E-2,-1.4417588E0,-2.3610752E-2,-1.5466246E-2,-6.973247E-1,9.377588E-1,-2.536355E-1,6.448881E-1,-1.2739401E-3,-4.7561186E-3,-1.5908156E-2,6.388145E-1,-4.7539958E-1,5.7143765E-3,-1.4139717E-2,1.074436E-2,-1.3138625E-3,1.4661616E-3,-7.61133E-3,1.1169318E-2,1.1411E-3,1.2636896E-4,-1.177154E-2,1.4413883E-3,1.0740584E-2,5.44376E-3,-9.65776E-3],"categories":[],"categories_nodes":[],"categories_segments":[],"categories_sizes":[],"default_left":[0,0,0,0,0,0,0,0,0,0,0,0,0,0,0,0,0,0,0,0,0,0,0,0,0,0,0,0,0,0,0,0,0,0,0],"id":9,"left_children":[1,3,5,7,9,-1,11,13,15,17,19,-1,21,23,25,27,29,-1,-1,31,33,-1,-1,-1,-1,-1,-1,-1,-1,-1,-1,-1,-1,-1,-1],"loss_changes":[1.3975807E1,8.375643E0,1.4846907E0,7.340491E0,8.967307E0,0E0,1.8018913E-1,4.581065E0,7.962963E0,3.937912E-1,3.6461535E0,0E0,4.6572776E0,2.1921978E0,1.0697124E0,4.821827E0,9.067709E0,0E0,0E0,9.1207147E-1,4.1329E0,0E0,0E0,0E0,0E0,0E0,0E0,0E0,0E0,0E0,0E0,0E0,0E0,0E0,0E0],"parents":[2147483647,0,0,1,1,2,2,3,3,4,4,6,6,7,7,8,8,9,9,10,10,12,12,13,13,14,14,15,15,16,16,19,19,20,20],"right_children":[2,4,6,8,10,-1,12,14,16,18,20,-1,22,24,26,28,30,-1,-1,32,34,-1,-1,-1,-1,-1,-1,-1,-1,-1,-1,-1,-1,-1,-1],"split_conditions":[1.0296981E11,1.9400645E-2,5.1970016E1,-2.228582E-2,6.113868E10,-2.5565492E-3,1.8971406E-3,2.7761731E-2,1.381912E10,2.3332098E-1,8.74176E-1,-1.5466246E-2,3.472166E-3,1.0547368E-1,4.6495102E1,3.298953E-4,8.253866E1,-4.7561186E-3,-1.5908156E-2,7.262815E-1,-2.0302817E-2,5.7143765E-3,-1.4139717E-2,1.074436E-2,-1.3138625E-3,1.4661616E-3,-7.61133E-3,1.1169318E-2,1.1411E-3,1.2636896E-4,-1.177154E-2,1.4413883E-3,1.0740584E-2,5.44376E-3,-9.65776E-3],"split_indices":[6,8,2,8,6,0,8,10,6,7,7,0,8,3,2,8,2,0,0,7,10,0,0,0,0,0,0,0,0,0,0,0,0,0,0],"split_type":[0,0,0,0,0,0,0,0,0,0,0,0,0,0,0,0,0,0,0,0,0,0,0,0,0,0,0,0,0,0,0,0,0,0,0],"sum_hessian":[6.150578E2,6.051002E2,9.957595E0,5.879434E2,1.7156792E1,2.2375553E0,7.7200394E0,1.6752726E1,5.7119073E2,6.9883122E0,1.0168479E1,4.486594E0,3.2334452E0,1.3035878E1,3.7168481E0,1.8753622E1,5.524371E2,1.494189E0,5.4941235E0,3.9552357E0,6.2132435E0,1.2402725E0,1.9931728E0,1.1553903E1,1.4819753E0,2.4755435E0,1.2413046E0,9.341498E0,9.412124E0,5.4695575E2,5.4813147E0,2.474273E0,1.4809626E0,1.981806E0,4.231437E0],"tree_param":{"num_deleted":"0","num_feature":"11","num_nodes":"35","size_leaf_vector":"1"}},{"base_weights":[-1.3164752E-4,1.9945145E-2,-1.1100898E0,4.0352315E-2,-6.429786E-1,-1.2598449E0,-9.485223E-4,6.680691E-1,2.082284E-2,-1.4294398E0,-2.266028E-2,-1.4689442E0,-6.0329914E-1,8.966129E-1,1.271367E-1,6.3954395E-1,-1.2821837E-3,-1.5863875E-2,-4.488114E-3,6.3516563E-1,-4.7112793E-1,-2.7870687E-3,-1.698936E-2,5.6562535E-3,-1.33676445E-2,1.1345442E-2,1.6716644E-3,-9.003597E-3,8.867463E-3,1.1083208E-2,1.1308972E-3,1.2510929E-4,-1.1665649E-2,-1.246875E-3,1.1842357E-2,5.6884335E-3,-7.820408E-3],"categories":[],"categories_nodes":[],"categories_segments":[],"categories_sizes":[],"default_left":[0,0,0,0,0,0,0,0,0,0,0,0,0,0,0,0,0,0,0,0,0,0,0,0,0,0,0,0,0,0,0,0,0,0,0,0,0],"id":10,"left_children":[1,3,5,7,9,11,-1,13,15,17,19,21,23,25,27,29,31,-1,-1,33,35,-1,-1,-1,-1,-1,-1,-1,-1,-1,-1,-1,-1,-1,-1,-1,-1],"loss_changes":[1.3750034E1,8.225091E0,1.5471888E0,7.2055283E0,8.826522E0,4.1410732E-1,0E0,2.0787907E0,7.8263445E0,5.1789093E-1,3.5939069E0,1.3022556E0,4.1726065E0,1.9457598E0,5.819609E0,4.746008E0,8.909876E0,0E0,0E0,2.2141387E0,2.7776856E0,0E0,0E0,0E0,0E0,0E0,0E0,0E0,0E0,0E0,0E0,0E0,0E0,0E0,0E0,0E0,0E0],"parents":[2147483647,0,0,1,1,2,2,3,3,4,4,5,5,7,7,8,8,9,9,10,10,11,11,12,12,13,13,14,14,15,15,16,16,19,19,20,20],"right_children":[2,4,6,8,10,12,-1,14,16,18,20,22,24,26,28,30,32,-1,-1,34,36,-1,-1,-1,-1,-1,-1,-1,-1,-1,-1,-1,-1,-1,-1,-1,-1],"split_conditions":[1.0296981E11,1.9400645E-2,2.01912E8,-2.228582E-2,6.113868E10,1.8971406E-3,-9.485223E-4,7.094919E10,1.381912E10,7.38379E8,8.74176E-1,-1.9999981E-1,3.9282697E-3,4.9172596E1,1.3432046E0,3.298953E-4,8.253866E1,-1.5863875E-2,-4.488114E-3,-1.6199989E0,2.432579E8,-2.7870687E-3,-1.698936E-2,5.6562535E-3,-1.33676445E-2,1.1345442E-2,1.6716644E-3,-9.003597E-3,8.867463E-3,1.1083208E-2,1.1308972E-3,1.2510929E-4,-1.1665649E-2,-1.246875E-3,1.1842357E-2,5.6884335E-3,-7.820408E-3],"split_indices":[6,8,1,8,6,8,0,6,6,1,7,9,0,2,7,8,2,0,0,9,1,0,0,0,0,0,0,0,0,0,0,0,0,0,0,0,0],"split_type":[0,0,0,0,0,0,0,0,0,0,0,0,0,0,0,0,0,0,0,0,0,0,0,0,0,0,0,0,0,0,0,0,0,0,0,0,0],"sum_hessian":[6.1503156E2,6.0506915E2,9.96239E0,5.8791034E2,1.7158857E1,8.4718E0,1.4905899E0,1.6737123E1,5.711732E2,6.9910264E0,1.0167831E1,5.486921E0,2.9848793E0,1.1303757E1,5.433367E0,1.873887E1,5.524343E2,5.493997E0,1.4970293E0,3.9530604E0,6.214771E0,1.2467324E0,4.2401886E0,1.2390444E0,1.7458348E0,8.104784E0,3.198973E0,2.2306943E0,3.2026722E0,9.327774E0,9.411097E0,5.469495E2,5.4848185E0,1.9824616E0,1.9705989E0,1.2394264E0,4.975344E0],"tree_param":{"num_deleted":"0","num_feature":"11","num_nodes":"37","size_leaf_vector":"1"}},{"base_weights":[-1.733977E-4,1.9749809E-2,-1.101199E0,3.9974317E-2,-6.371464E-1,-2.496638E-3,-1.2910172E0,6.6266716E-1,2.0616567E-2,-1.4172806E0,-2.167472E-2,-1.5210664E-2,-6.877978E-1,9.250287E-1,-2.5739002E-1,6.342592E-1,-1.2902399E-3,-4.640944E-3,-1.5652811E-2,6.3129413E-1,-4.6658802E-1,5.661659E-3,-1.3954558E-2,-1.2540219E-3,1.0594671E-2,1.3990495E-3,-7.5810566E-3,1.0998264E-2,1.1207848E-3,1.2386135E-4,-1.1561425E-2,1.7907051E-4,1.1265482E-2,5.437716E-3,-9.528798E-3],"categories":[],"categories_nodes":[],"categories_segments":[],"categories_sizes":[],"default_left":[0,0,0,0,0,0,0,0,0,0,0,0,0,0,0,0,0,0,0,0,0,0,0,0,0,0,0,0,0,0,0,0,0,0,0],"id":11,"left_children":[1,3,5,7,9,-1,11,13,15,17,19,-1,21,23,25,27,29,-1,-1,31,33,-1,-1,-1,-1,-1,-1,-1,-1,-1,-1,-1,-1,-1,-1],"loss_changes":[1.3534388E1,8.076926E0,1.4502182E0,7.084626E0,8.689011E0,0E0,1.6493225E-1,4.516079E0,7.692269E0,4.0119934E-1,3.5387526E0,0E0,4.54803E0,2.1110163E0,1.0439624E0,4.6717625E0,8.75532E0,0E0,0E0,1.4836749E0,4.0639105E0,0E0,0E0,0E0,0E0,0E0,0E0,0E0,0E0,0E0,0E0,0E0,0E0,0E0,0E0],"parents":[2147483647,0,0,1,1,2,2,3,3,4,4,6,6,7,7,8,8,9,9,10,10,12,12,13,13,14,14,15,15,16,16,19,19,20,20],"right_children":[2,4,6,8,10,-1,12,14,16,18,20,-1,22,24,26,28,30,-1,-1,32,34,-1,-1,-1,-1,-1,-1,-1,-1,-1,-1,-1,-1,-1,-1],"split_conditions":[1.0296981E11,1.9400645E-2,5.1970016E1,-2.228582E-2,6.113868E10,-2.496638E-3,1.8971406E-3,2.7761731E-2,1.381912E10,2.3332098E-1,8.74176E-1,-1.5210664E-2,3.472166E-3,3.2273827E1,1.284003E1,3.298953E-4,8.253866E1,-4.640944E-3,-1.5652811E-2,5.0199497E-2,-2.0302817E-2,5.661659E-3,-1.3954558E-2,-1.2540219E-3,1.0594671E-2,1.3990495E-3,-7.5810566E-3,1.0998264E-2,1.1207848E-3,1.2386135E-4,-1.1561425E-2,1.7907051E-4,1.1265482E-2,5.437716E-3,-9.528798E-3],"split_indices":[6,8,2,8,6,0,8,10,6,7,7,0,8,2,4,8,2,0,0,0,10,0,0,0,0,0,0,0,0,0,0,0,0,0,0],"split_type":[0,0,0,0,0,0,0,0,0,0,0,0,0,0,0,0,0,0,0,0,0,0,0,0,0,0,0,0,0,0,0,0,0,0,0],"sum_hessian":[6.1500397E2,6.050378E2,9.966178E0,5.878774E2,1.7160412E1,2.2386672E0,7.7275105E0,1.6722475E1,5.711549E2,6.9933352E0,1.0167076E1,4.4925933E0,3.2349174E0,1.3007796E1,3.7146788E0,1.8723684E1,5.524312E2,1.4957621E0,5.497573E0,3.9504118E0,6.216665E0,1.2391317E0,1.9957857E0,1.4835255E0,1.152427E1,2.4730315E0,1.2416475E0,9.313612E0,9.410073E0,5.469433E2,5.4879184E0,2.2276087E0,1.7228032E0,1.9815124E0,4.2351522E0],"tree_param":{"num_deleted":"0","num_feature":"11","num_nodes":"35","size_leaf_vector":"1"}},{"base_weights":[-2.2819146E-4,1.9538864E-2,-1.0922254E0,3.958386E-2,-6.314836E-1,-1.2401032E0,-9.116438E-4,6.568359E-1,2.0412495E-2,-1.4743639E0,-6.588942E-2,-1.445612E0,-5.9420496E-1,8.83192E-1,1.2233427E-1,6.2903285E-1,-1.2979264E-3,-5.8658826E-3,-1.6497735E-2,-3.6963E-1,5.2385795E-1,-5.964159E-3,-1.6325388E-2,5.605545E-3,-1.318422E-2,1.1201068E-2,1.596247E-3,-8.96634E-3,8.777428E-3,1.0914459E-2,1.1107628E-3,1.2262695E-4,-1.1458827E-2,1.0170386E-3,-1.1585598E-2,1.2020644E-2,-4.9676397E-3],"categories":[],"categories_nodes":[],"categories_segments":[],"categories_sizes":[],"default_left":[0,0,0,0,0,0,0,0,0,0,0,0,0,0,0,0,0,0,0,0,0,0,0,0,0,0,0,0,0,0,0,0,0,0,0,0,0],"id":12,"left_children":[1,3,5,7,9,11,-1,13,15,17,19,21,23,25,27,29,31,-1,-1,33,35,-1,-1,-1,-1,-1,-1,-1,-1,-1,-1,-1,-1,-1,-1,-1,-1],"loss_changes":[1.3317442E1,7.9331713E0,1.5108137E0,6.9546914E0,8.560461E0,3.9913368E-1,0E0,2.0341582E0,7.560679E0,1.6061497E-1,2.3279052E0,5.694008E-2,4.072301E0,1.9258814E0,5.735139E0,4.5990467E0,8.60396E0,0E0,0E0,3.26017E0,3.6871343E0,0E0,0E0,0E0,0E0,0E0,0E0,0E0,0E0,0E0,0E0,0E0,0E0,0E0,0E0,0E0,0E0],"parents":[2147483647,0,0,1,1,2,2,3,3,4,4,5,5,7,7,8,8,9,9,10,10,11,11,12,12,13,13,14,14,15,15,16,16,19,19,20,20],"right_children":[2,4,6,8,10,12,-1,14,16,18,20,22,24,26,28,30,32,-1,-1,34,36,-1,-1,-1,-1,-1,-1,-1,-1,-1,-1,-1,-1,-1,-1,-1,-1],"split_conditions":[1.0296981E11,1.9400645E-2,2.01912E8,-2.228582E-2,6.062295E0,1.8971406E-3,-9.116438E-4,7.094919E10,1.381912E10,4.032044E10,7.69747E-2,-3.6746943E-1,3.9282697E-3,4.9172596E1,1.7496714E1,3.298953E-4,8.253866E1,-5.8658826E-3,-1.6497735E-2,5.82664E8,2.7533606E-1,-5.964159E-3,-1.6325388E-2,5.605545E-3,-1.318422E-2,1.1201068E-2,1.596247E-3,-8.96634E-3,8.777428E-3,1.0914459E-2,1.1107628E-3,1.2262695E-4,-1.1458827E-2,1.0170386E-3,-1.1585598E-2,1.2020644E-2,-4.9676397E-3],"split_indices":[6,8,1,8,4,8,0,6,6,6,3,3,0,2,4,8,2,0,0,1,3,0,0,0,0,0,0,0,0,0,0,0,0,0,0,0,0],"split_type":[0,0,0,0,0,0,0,0,0,0,0,0,0,0,0,0,0,0,0,0,0,0,0,0,0,0,0,0,0,0,0,0,0,0,0,0,0],"sum_hessian":[6.1497174E2,6.0500226E2,9.969489E0,5.878418E2,1.7160467E1,8.478279E0,1.4912093E0,1.6705961E1,5.7113586E2,6.245829E0,1.0914638E1,5.492547E0,2.9857326E0,1.1277633E1,5.428329E0,1.8708078E1,5.5242773E2,1.7471802E0,4.4986486E0,7.4505715E0,3.464066E0,1.7469426E0,3.7456043E0,1.2378978E0,1.7478349E0,8.083011E0,3.1946228E0,2.2314203E0,3.1969087E0,9.299026E0,9.409053E0,5.4693713E2,5.490625E0,5.209389E0,2.2411823E0,1.9743366E0,1.4897293E0],"tree_param":{"num_deleted":"0","num_feature":"11","num_nodes":"37","size_leaf_vector":"1"}},{"base_weights":[-2.959462E-4,1.9324197E-2,-1.083879E0,6.024713E-1,-7.669486E-4,-1.2305647E0,-9.061496E-4,-1.5274587E-1,7.964183E-1,3.607688E-1,-3.6525328E-2,-6.636341E-1,-1.4185378E-2,6.8829623E-3,-7.101484E-1,2.340164E-1,1.1613847E0,8.4403044E-1,1.1782881E-1,-6.8345195E-1,-2.109185E-2,-1.3252988E-2,3.3134066E-3,1.1088904E-3,-1.2127785E-2,8.632415E-3,-4.10984E-3,3.7498714E-3,1.2852288E-2,3.5416135E-3,1.0954163E-2,3.3912335E-3,-6.574272E-3,1.7761564E-3,-1.0716559E-2,2.4699888E-4,-2.0126328E-3],"categories":[],"categories_nodes":[],"categories_segments":[],"categories_sizes":[],"default_left":[0,0,0,0,0,0,0,0,0,0,0,0,0,0,0,0,0,0,0,0,0,0,0,0,0,0,0,0,0,0,0,0,0,0,0,0,0],"id":13,"left_children":[1,3,5,7,9,11,-1,13,15,17,19,21,-1,-1,23,25,27,29,31,33,35,-1,-1,-1,-1,-1,-1,-1,-1,-1,-1,-1,-1,-1,-1,-1,-1],"loss_changes":[1.3115828E1,7.100022E0,1.4870567E0,3.077938E0,7.5990705E0,6.8923E-2,0E0,2.815543E0,3.0575123E0,6.111815E0,5.325982E0,3.230331E0,0E0,0E0,1.5694182E0,3.4537568E0,4.5147896E-1,1.7715855E0,6.4623837E0,4.3457203E0,4.323597E0,0E0,0E0,0E0,0E0,0E0,0E0,0E0,0E0,0E0,0E0,0E0,0E0,0E0,0E0,0E0,0E0],"parents":[2147483647,0,0,1,1,2,2,3,3,4,4,5,5,7,7,8,8,9,9,10,10,11,11,14,14,15,15,16,16,17,17,18,18,19,19,20,20],"right_children":[2,4,6,8,10,12,-1,14,16,18,20,22,-1,-1,24,26,28,30,32,34,36,-1,-1,-1,-1,-1,-1,-1,-1,-1,-1,-1,-1,-1,-1,-1,-1],"split_conditions":[1.0296981E11,1.381912E10,2.01912E8,-7.5E-1,-3.5403427E-2,-1.9999981E-1,-9.061496E-4,-1.4984349E-2,-3.9277184E-3,5.0536096E10,-3.5100002E0,-6.2999916E-1,-1.4185378E-2,6.8829623E-3,-1.1100006E0,1.197549E0,1.1843061E0,4.6213565E0,6.46746E8,3.724703E8,2.969618E-2,-1.3252988E-2,3.3134066E-3,1.1088904E-3,-1.2127785E-2,8.632415E-3,-4.10984E-3,3.7498714E-3,1.2852288E-2,3.5416135E-3,1.0954163E-2,3.3912335E-3,-6.574272E-3,1.7761564E-3,-1.0716559E-2,2.4699888E-4,-2.0126328E-3],"split_indices":[6,6,1,9,0,9,0,10,10,6,9,9,0,0,9,5,5,5,1,1,10,0,0,0,0,0,0,0,0,0,0,0,0,0,0,0,0],"split_type":[0,0,0,0,0,0,0,0,0,0,0,0,0,0,0,0,0,0,0,0,0,0,0,0,0,0,0,0,0,0,0,0,0,0,0,0,0],"sum_hessian":[6.149383E2,6.049665E2,9.971797E0,1.9183283E1,5.857832E2,8.480485E0,1.4913118E0,3.9632154E0,1.5220068E1,5.1905243E1,5.33878E2,3.2397652E0,5.2407203E0,1.4860885E0,2.4771268E0,6.6357636E0,8.584305E0,1.653641E1,3.5368835E1,1.1431206E1,5.224468E2,1.7464031E0,1.493362E0,1.2365792E0,1.2405477E0,3.1876845E0,3.4480789E0,1.7159699E0,6.868335E0,6.425005E0,1.0111405E1,2.7952454E1,7.4163795E0,3.7207506E0,7.7104554E0,4.1726028E2,1.051865E2],"tree_param":{"num_deleted":"0","num_feature":"11","num_nodes":"37","size_leaf_vector":"1"}},{"base_weights":[-3.0461114E-4,1.916113E-2,-1.0750366E0,3.8955938E-2,-6.2364143E-1,-1.2204427E0,-9.006885E-4,6.4940363E-1,2.0018457E-2,-1.3897479E0,-1.9196939E-2,-1.42453415E-2,-5.818411E-1,8.739541E-1,1.1991866E-1,6.19217E-1,-1.323005E-3,-1.5451381E-2,-4.2932937E-3,6.256106E-1,-4.5830947E-1,5.612912E-3,-1.3008013E-2,1.10867405E-2,1.5819868E-3,-8.895166E-3,8.698399E-3,1.0779485E-2,1.0669188E-3,1.2120052E-4,-1.13555025E-2,1.7386569E-4,1.11746555E-2,-1.1423159E-2,7.9902215E-4],"categories":[],"categories_nodes":[],"categories_segments":[],"categories_sizes":[],"default_left":[0,0,0,0,0,0,0,0,0,0,0,0,0,0,0,0,0,0,0,0,0,0,0,0,0,0,0,0,0,0,0,0,0,0,0],"id":14,"left_children":[1,3,5,7,9,11,-1,13,15,17,19,-1,21,23,25,27,29,-1,-1,31,33,-1,-1,-1,-1,-1,-1,-1,-1,-1,-1,-1,-1,-1,-1],"loss_changes":[1.2905898E1,7.734419E0,1.461873E0,6.793531E0,8.383163E0,4.0713215E-1,0E0,1.997755E0,7.316689E0,5.298662E-1,3.4481986E0,0E0,4.007079E0,1.8840961E0,5.637671E0,4.5114264E0,8.452044E0,0E0,0E0,1.4602665E0,2.749043E0,0E0,0E0,0E0,0E0,0E0,0E0,0E0,0E0,0E0,0E0,0E0,0E0,0E0,0E0],"parents":[2147483647,0,0,1,1,2,2,3,3,4,4,5,5,7,7,8,8,9,9,10,10,12,12,13,13,14,14,15,15,16,16,19,19,20,20],"right_children":[2,4,6,8,10,12,-1,14,16,18,20,-1,22,24,26,28,30,-1,-1,32,34,-1,-1,-1,-1,-1,-1,-1,-1,-1,-1,-1,-1,-1,-1],"split_conditions":[1.0296981E11,1.9400645E-2,2.01912E8,-2.228582E-2,6.113868E10,1.8971406E-3,-9.006885E-4,7.094919E10,1.381912E10,7.38379E8,8.74176E-1,-1.42453415E-2,3.9282697E-3,4.9172596E1,1.7496714E1,3.298953E-4,8.253866E1,-1.5451381E-2,-4.2932937E-3,5.0199497E-2,1.7496714E1,5.612912E-3,-1.3008013E-2,1.10867405E-2,1.5819868E-3,-8.895166E-3,8.698399E-3,1.0779485E-2,1.0669188E-3,1.2120052E-4,-1.13555025E-2,1.7386569E-4,1.11746555E-2,-1.1423159E-2,7.9902215E-4],"split_indices":[6,8,1,8,6,8,0,6,6,1,7,0,0,2,4,8,2,0,0,0,4,0,0,0,0,0,0,0,0,0,0,0,0,0,0],"split_type":[0,0,0,0,0,0,0,0,0,0,0,0,0,0,0,0,0,0,0,0,0,0,0,0,0,0,0,0,0,0,0,0,0,0,0],"sum_hessian":[6.149187E2,6.0494403E2,9.974685E0,5.877829E2,1.7161106E1,8.483272E0,1.4914132E0,1.6683998E1,5.7109894E2,6.9954586E0,1.0165647E1,5.496067E0,2.987204E0,1.12586975E1,5.425301E0,1.867762E1,5.524213E2,5.497222E0,1.4982369E0,3.9462E0,6.219447E0,1.2380427E0,1.7491612E0,8.06497E0,3.193727E0,2.2331762E0,3.1921246E0,9.273887E0,9.403733E0,5.4692834E2,5.4929748E0,2.2272944E0,1.7189053E0,2.244505E0,3.9749422E0],"tree_param":{"num_deleted":"0","num_feature":"11","num_nodes":"35","size_leaf_vector":"1"}},{"base_weights":[-3.474784E-4,3.45931E-1,-3.347215E-2,7.501461E-1,8.594779E-2,5.843718E-1,-5.3142928E-2,-1.608364E-1,8.805044E-1,3.0891693E-1,-7.848386E-1,-3.1623514E-3,7.362481E-1,-4.0171087E-2,-1.1256058E0,1.0262819E-3,-3.5251512E-3,-1.5980893E-1,1.0508393E0,4.236932E-1,-7.840346E-3,1.2456229E-3,-9.9517846E-1,1.23788435E-2,2.3760763E-1,-5.585735E-2,6.939413E-1,1.6814078E-3,-1.46506755E-2,-3.6003557E-3,1.112944E-3,1.954726E-3,1.2502576E-2,-1.0802072E-3,8.525944E-3,8.9990965E-4,-1.2970188E-2,7.6101134E-3,-5.2390024E-3,-4.5004408E-4,-8.667161E-3,-9.244473E-3,1.02981925E-2],"categories":[],"categories_nodes":[],"categories_segments":[],"categories_sizes":[],"default_left":[0,0,0,0,0,0,0,0,0,0,0,0,0,0,0,0,0,0,0,0,0,0,0,0,0,0,0,0,0,0,0,0,0,0,0,0,0,0,0,0,0,0,0],"id":15,"left_children":[1,3,5,7,9,11,13,15,17,19,21,-1,23,25,27,-1,-1,29,31,33,-1,-1,35,-1,37,39,41,-1,-1,-1,-1,-1,-1,-1,-1,-1,-1,-1,-1,-1,-1,-1,-1],"loss_changes":[7.0759616E0,5.595542E0,6.87373E0,2.6297998E0,6.8257437E0,2.6204238E0,7.5585203E0,2.1133584E-1,3.4433212E0,3.8085501E0,1.5001607E0,0E0,3.5172462E0,6.2694626E0,3.0987568E0,0E0,0E0,2.2835496E-1,2.4874306E0,5.9593925E0,0E0,0E0,2.0670452E0,0E0,3.9376369E0,4.6310644E0,7.14561E0,0E0,0E0,0E0,0E0,0E0,0E0,0E0,0E0,0E0,0E0,0E0,0E0,0E0,0E0,0E0,0E0],"parents":[2147483647,0,0,1,1,2,2,3,3,4,4,5,5,6,6,7,7,8,8,9,9,10,10,12,12,13,13,14,14,17,17,18,18,19,19,22,22,24,24,25,25,26,26],"right_children":[2,4,6,8,10,12,14,16,18,20,22,-1,24,26,28,-1,-1,30,32,34,-1,-1,36,-1,38,40,42,-1,-1,-1,-1,-1,-1,-1,-1,-1,-1,-1,-1,-1,-1,-1,-1],"split_conditions":[-3.5403427E-2,1.3865992E1,1.4449143E0,3.2273827E1,6.46746E8,2.4682E8,8.253866E1,-9.1336906E-2,5.41001E8,5.8001375E-1,-4.9183524E-1,-3.1623514E-3,6.4212517E-3,7.8312386E1,-2.7985195E-2,1.0262819E-3,-3.5251512E-3,-4.5197632E-2,1.3057216E-1,1.4490043E0,-7.840346E-3,1.2456229E-3,6.864055E-1,1.23788435E-2,7.6286575E1,7.688528E1,5.1155698E-2,1.6814078E-3,-1.46506755E-2,-3.6003557E-3,1.112944E-3,1.954726E-3,1.2502576E-2,-1.0802072E-3,8.525944E-3,8.9990965E-4,-1.2970188E-2,7.6101134E-3,-5.2390024E-3,-4.5004408E-4,-8.667161E-3,-9.244473E-3,1.02981925E-2],"split_indices":[0,5,5,2,1,1,2,3,1,3,3,0,0,2,10,0,0,3,7,7,0,0,7,0,2,2,3,0,0,0,0,0,0,0,0,0,0,0,0,0,0,0,0],"split_type":[0,0,0,0,0,0,0,0,0,0,0,0,0,0,0,0,0,0,0,0,0,0,0,0,0,0,0,0,0,0,0,0,0,0,0,0,0,0,0,0,0,0,0],"sum_hessian":[6.148815E2,5.2859184E1,5.620223E2,1.9952381E1,3.2906803E1,1.645564E1,5.4556665E2,2.4684343E0,1.7483948E1,2.6712246E1,6.194558E0,2.218432E0,1.4237209E1,5.400717E2,5.494913E0,1.2352085E0,1.2332257E0,2.4686384E0,1.5015308E1,2.4727797E1,1.9844487E0,1.2402335E0,4.9543242E0,6.3582444E0,7.878965E0,5.296777E2,1.0394059E1,1.247014E0,4.247899E0,1.2312477E0,1.2373908E0,3.2131832E0,1.1802125E1,1.1374651E1,1.3353146E1,1.2308954E0,3.7234292E0,4.669886E0,3.2090793E0,5.237234E2,5.9542747E0,1.485246E0,8.908813E0],"tree_param":{"num_deleted":"0","num_feature":"11","num_nodes":"43","size_leaf_vector":"1"}},{"base_weights":[-3.6147723E-4,1.8244189E-1,-7.06201E-2,3.0938601E-1,-8.1022404E-2,-4.873971E-2,-6.581479E-1,1.4718543E-1,6.174165E-1,6.133823E-1,-2.2359489E-1,-3.8264312E-3,-3.8059962E-1,-1.5459909E-2,-4.4524167E-3,-6.701519E-1,2.3747022E-1,7.8184235E-1,-1.427777E-2,1.015593E0,-4.195601E-1,-9.033968E-1,-3.092305E-3,-2.5128275E-1,5.688037E-2,1.2190827E-1,-8.276253E-1,-3.9095667E-1,7.7436423E-1,-1.1224086E-2,3.3599182E-3,5.076333E-3,-2.9748862E-5,1.1771161E-2,3.920799E-3,5.8764247E-3,-5.319805E-3,1.18858734E-4,1.31596E-2,1.2221173E-3,-7.741063E-3,-1.3610976E-2,-3.2247698E-3,1.005553E-2,-1.0463054E-3,7.4903755E-3,-3.8795567E-3,-2.1781557E-4,2.3607719E-3,-1.3136793E-2,2.6840654E-3,-1.2285615E-2,-3.37288E-3,-6.77324E-3,5.7851127E-3,1.2625078E-3,1.0478758E-2],"categories":[],"categories_nodes":[],"categories_segments":[],"categories_sizes":[],"default_left":[0,0,0,0,0,0,0,0,0,0,0,0,0,0,0,0,0,0,0,0,0,0,0,0,0,0,0,0,0,0,0,0,0,0,0,0,0,0,0,0,0,0,0,0,0,0,0,0,0,0,0,0,0,0,0,0,0],"id":16,"left_children":[1,3,5,7,9,11,13,15,17,19,21,23,25,-1,27,29,31,33,35,37,39,41,43,45,47,49,51,53,55,-1,-1,-1,-1,-1,-1,-1,-1,-1,-1,-1,-1,-1,-1,-1,-1,-1,-1,-1,-1,-1,-1,-1,-1,-1,-1,-1,-1],"loss_changes":[7.92271E0,5.7530065E0,5.6962385E0,5.6939726E0,5.7288322E0,6.4177856E0,9.232128E0,5.852888E0,4.126895E0,4.5342016E0,7.131138E0,5.7280254E0,1.1631134E1,0E0,3.3644764E0,3.9886792E0,4.563047E0,4.385151E0,3.1688797E0,2.2180915E0,7.628327E-1,2.659402E0,3.8883696E0,1.0559652E1,4.32187E0,5.618058E0,4.9511642E0,2.4635513E0,5.251932E-1,0E0,0E0,0E0,0E0,0E0,0E0,0E0,0E0,0E0,0E0,0E0,0E0,0E0,0E0,0E0,0E0,0E0,0E0,0E0,0E0,0E0,0E0,0E0,0E0,0E0,0E0,0E0,0E0],"parents":[2147483647,0,0,1,1,2,2,3,3,4,4,5,5,6,6,7,7,8,8,9,9,10,10,11,11,12,12,14,14,15,15,16,16,17,17,18,18,19,19,20,20,21,21,22,22,23,23,24,24,25,25,26,26,27,27,28,28],"right_children":[2,4,6,8,10,12,14,16,18,20,22,24,26,-1,28,30,32,34,36,38,40,42,44,46,48,50,52,54,56,-1,-1,-1,-1,-1,-1,-1,-1,-1,-1,-1,-1,-1,-1,-1,-1,-1,-1,-1,-1,-1,-1,-1,-1,-1,-1,-1,-1],"split_conditions":[-2.9193282E-3,2.1462265E-2,2.0655675E-2,-1.16083E-2,5.2141767E0,3.9999962E-1,6.062295E0,-2.0000458E-2,5.6468E8,-7.598421E-3,6.912223E-2,0E0,-8.291334E-4,-1.5459909E-2,-1.5800018E0,1.9844383E1,-3.4611136E-2,7.5E-1,6.2756487E-3,4.2416245E1,3.9888E8,4.37372E8,8.7771036E-2,2.7224636E0,5.382996E-2,3.8796627E1,3.82652E8,6.0728798E1,5.67316E8,-1.1224086E-2,3.3599182E-3,5.076333E-3,-2.9748862E-5,1.1771161E-2,3.920799E-3,5.8764247E-3,-5.319805E-3,1.18858734E-4,1.31596E-2,1.2221173E-3,-7.741063E-3,-1.3610976E-2,-3.2247698E-3,1.005553E-2,-1.0463054E-3,7.4903755E-3,-3.8795567E-3,-2.1781557E-4,2.3607719E-3,-1.3136793E-2,2.6840654E-3,-1.2285615E-2,-3.37288E-3,-6.77324E-3,5.7851127E-3,1.2625078E-3,1.0478758E-2],"split_indices":[8,3,8,0,4,9,4,9,1,0,3,8,8,0,9,4,0,9,0,2,1,1,3,5,3,2,1,2,1,0,0,0,0,0,0,0,0,0,0,0,0,0,0,0,0,0,0,0,0,0,0,0,0,0,0,0,0],"split_type":[0,0,0,0,0,0,0,0,0,0,0,0,0,0,0,0,0,0,0,0,0,0,0,0,0,0,0,0,0,0,0,0,0,0,0,0,0,0,0,0,0,0,0,0,0,0,0,0,0,0,0,0,0,0,0,0,0],"sum_hessian":[6.1486163E2,1.7026321E2,4.4459842E2,1.1478327E2,5.547994E1,4.296795E2,1.4918929E1,7.6158226E1,3.8625046E1,8.88806E0,4.659188E1,3.7935046E2,5.032903E1,5.747596E0,9.171333E0,6.936877E0,6.922135E1,3.045906E1,8.165983E0,6.409213E0,2.4788465E0,1.0652769E1,3.593911E1,7.411197E1,3.052385E2,2.403652E1,2.6292507E1,6.4622946E0,2.7090385E0,4.7059984E0,2.2308786E0,3.207302E1,3.714833E1,1.4119658E1,1.6339403E1,3.7134037E0,4.4525795E0,1.7156758E0,4.693537E0,1.2397387E0,1.2391078E0,5.207124E0,5.445645E0,2.4727254E0,3.3466385E1,8.370089E0,6.574188E1,2.1273347E2,9.2505035E1,1.4879899E0,2.254853E1,1.3636635E1,1.2655872E1,5.2213306E0,1.2409639E0,1.2377222E0,1.4713163E0],"tree_param":{"num_deleted":"0","num_feature":"11","num_nodes":"57","size_leaf_vector":"1"}},{"base_weights":[-3.77715E-4,1.8908907E-2,-1.0649177E0,3.8358107E-2,-6.1268634E-1,-1.2091815E0,-8.8391145E-4,6.3782674E-1,1.9797716E-2,-1.3671552E0,-1.751237E-2,-1.4097435E0,-5.7899594E-1,8.9850616E-1,-2.6958787E-1,6.089106E-1,-1.1481497E-3,-1.5206377E-2,-4.208353E-3,-3.7655866E-1,6.661626E-1,-2.549125E-3,-1.6359186E-2,5.58044E-3,-1.2936197E-2,1.0327851E-2,-1.389413E-3,1.2511363E-3,-7.599904E-3,1.0626948E-2,1.0340418E-3,4.3395883E-4,-1.7828441E-3,-9.311559E-3,1.9958315E-3,1.1624849E-2,-2.8502285E-3],"categories":[],"categories_nodes":[],"categories_segments":[],"categories_sizes":[],"default_left":[0,0,0,0,0,0,0,0,0,0,0,0,0,0,0,0,0,0,0,0,0,0,0,0,0,0,0,0,0,0,0,0,0,0,0,0,0],"id":17,"left_children":[1,3,5,7,9,11,-1,13,15,17,19,21,23,25,27,29,31,-1,-1,33,35,-1,-1,-1,-1,-1,-1,-1,-1,-1,-1,-1,-1,-1,-1,-1,-1],"loss_changes":[1.2664175E1,7.465942E0,1.4394283E0,6.537524E0,8.129904E0,3.8253403E-1,0E0,4.4166927E0,7.059589E0,5.2123165E-1,2.9912288E0,1.2801752E0,3.9613614E0,2.0854597E0,1.0062976E0,4.3960376E0,4.374377E0,0E0,0E0,2.7288117E0,2.3165941E0,0E0,0E0,0E0,0E0,0E0,0E0,0E0,0E0,0E0,0E0,0E0,0E0,0E0,0E0,0E0,0E0],"parents":[2147483647,0,0,1,1,2,2,3,3,4,4,5,5,7,7,8,8,9,9,10,10,11,11,12,12,13,13,14,14,15,15,16,16,19,19,20,20],"right_children":[2,4,6,8,10,12,-1,14,16,18,20,22,24,26,28,30,32,-1,-1,34,36,-1,-1,-1,-1,-1,-1,-1,-1,-1,-1,-1,-1,-1,-1,-1,-1],"split_conditions":[1.0296981E11,1.9400645E-2,2.01912E8,-2.228582E-2,6.113868E10,1.8971406E-3,-8.8391145E-4,2.7761731E-2,1.381912E10,7.38379E8,-1.5800018E0,-1.9999981E-1,3.9282697E-3,1.0547368E-1,1.284003E1,3.298953E-4,2.969618E-2,-1.5206377E-2,-4.208353E-3,1.7496714E1,1.4391594E1,-2.549125E-3,-1.6359186E-2,5.58044E-3,-1.2936197E-2,1.0327851E-2,-1.389413E-3,1.2511363E-3,-7.599904E-3,1.0626948E-2,1.0340418E-3,4.3395883E-4,-1.7828441E-3,-9.311559E-3,1.9958315E-3,1.1624849E-2,-2.8502285E-3],"split_indices":[6,8,1,8,6,8,0,10,6,1,9,9,0,3,4,8,10,0,0,4,4,0,0,0,0,0,0,0,0,0,0,0,0,0,0,0,0],"split_type":[0,0,0,0,0,0,0,0,0,0,0,0,0,0,0,0,0,0,0,0,0,0,0,0,0,0,0,0,0,0,0,0,0,0,0,0,0],"sum_hessian":[6.148397E2,6.048634E2,9.976273E0,5.87705E2,1.7158388E1,8.484584E0,1.4916886E0,1.664771E1,5.710573E2,6.9946246E0,1.0163763E1,5.497824E0,2.98676E0,1.2940127E1,3.7075844E0,1.8643E1,5.524143E2,5.4962907E0,1.4983337E0,6.958549E0,3.2052145E0,1.2487694E0,4.249055E0,1.23726E0,1.7495E0,1.1461177E1,1.4789499E0,2.4669392E0,1.2406453E0,9.243255E0,9.399744E0,4.420165E2,1.1039783E2,3.2316003E0,3.7269485E0,1.9602338E0,1.2449806E0],"tree_param":{"num_deleted":"0","num_feature":"11","num_nodes":"37","size_leaf_vector":"1"}},{"base_weights":[-4.258798E-4,1.8713031E-2,-1.0567213E0,3.799909E-2,-6.0764015E-1,-1.1998441E0,-8.78586E-4,6.322426E-1,1.9618556E-2,-1.3561064E0,-1.7206512E-2,-1.3984438E0,-5.751091E-1,8.540273E-1,1.1147954E-1,6.039522E-1,-1.1390786E-3,-1.5080614E-2,-4.182944E-3,6.1963105E-1,-4.504798E-1,-2.5348663E-3,-1.6225431E-2,5.5513345E-3,-1.2852501E-2,1.08807655E-2,1.4512554E-3,-8.834317E-3,8.543701E-3,1.0547959E-2,1.0247937E-3,1.2081062E-4,-1.11605665E-2,-1.1975039E-3,1.1560599E-2,-1.125751E-2,8.072373E-4],"categories":[],"categories_nodes":[],"categories_segments":[],"categories_sizes":[],"default_left":[0,0,0,0,0,0,0,0,0,0,0,0,0,0,0,0,0,0,0,0,0,0,0,0,0,0,0,0,0,0,0,0,0,0,0,0,0],"id":18,"left_children":[1,3,5,7,9,11,-1,13,15,17,19,21,23,25,27,29,31,-1,-1,33,35,-1,-1,-1,-1,-1,-1,-1,-1,-1,-1,-1,-1,-1,-1,-1,-1],"loss_changes":[1.24690275E1,7.3413854E0,1.4166527E0,6.417345E0,7.999987E0,3.7252712E-1,0E0,1.9409871E0,6.9391756E0,5.082998E-1,3.3590374E0,1.2560797E0,3.9130564E0,1.8686113E0,5.496769E0,4.3289948E0,8.170453E0,0E0,0E0,2.097911E0,2.6813698E0,0E0,0E0,0E0,0E0,0E0,0E0,0E0,0E0,0E0,0E0,0E0,0E0,0E0,0E0,0E0,0E0],"parents":[2147483647,0,0,1,1,2,2,3,3,4,4,5,5,7,7,8,8,9,9,10,10,11,11,12,12,13,13,14,14,15,15,16,16,19,19,20,20],"right_children":[2,4,6,8,10,12,-1,14,16,18,20,22,24,26,28,30,32,-1,-1,34,36,-1,-1,-1,-1,-1,-1,-1,-1,-1,-1,-1,-1,-1,-1,-1,-1],"split_conditions":[1.0296981E11,1.9400645E-2,2.01912E8,-2.228582E-2,6.113868E10,1.8971406E-3,-8.78586E-4,7.094919E10,1.381912E10,7.38379E8,8.74176E-1,-1.9999981E-1,3.472166E-3,4.9172596E1,1.3432046E0,3.298953E-4,8.253866E1,-1.5080614E-2,-4.182944E-3,-1.6199989E0,1.3862948E0,-2.5348663E-3,-1.6225431E-2,5.5513345E-3,-1.2852501E-2,1.08807655E-2,1.4512554E-3,-8.834317E-3,8.543701E-3,1.0547959E-2,1.0247937E-3,1.2081062E-4,-1.11605665E-2,-1.1975039E-3,1.1560599E-2,-1.125751E-2,8.072373E-4],"split_indices":[6,8,1,8,6,8,0,6,6,1,7,9,8,2,7,8,2,0,0,9,7,0,0,0,0,0,0,0,0,0,0,0,0,0,0,0,0],"split_type":[0,0,0,0,0,0,0,0,0,0,0,0,0,0,0,0,0,0,0,0,0,0,0,0,0,0,0,0,0,0,0,0,0,0,0,0,0],"sum_hessian":[6.1480145E2,6.0482495E2,9.976479E0,5.876693E2,1.7155611E1,8.484694E0,1.491785E0,1.6629797E1,5.7103955E2,6.9934855E0,1.0162126E1,5.498343E0,2.9863503E0,1.1213986E1,5.415811E0,1.8625677E1,5.524139E2,5.495051E0,1.4984348E0,3.940358E0,6.2217674E0,1.2488606E0,4.249482E0,1.2365562E0,1.7497941E0,8.028455E0,3.1855319E0,2.2343247E0,3.1814861E0,9.226919E0,9.398758E0,5.4691797E2,5.4959183E0,1.9833673E0,1.9569907E0,2.2466092E0,3.9751585E0],"tree_param":{"num_deleted":"0","num_feature":"11","num_nodes":"37","size_leaf_vector":"1"}},{"base_weights":[-4.7604626E-4,1.8516429E-2,-1.0486585E0,3.764336E-2,-6.0277325E-1,-1.1906713E0,-8.73292E-4,6.2722844E-1,1.9424252E-2,-1.4116303E0,-6.0225163E-2,-1.3873572E0,-5.712707E-1,8.866846E-1,-2.7300724E-1,5.990462E-1,-1.1476116E-3,-5.4592667E-3,-1.587774E-2,6.8952316E-1,-3.2832593E-1,-5.59786E-3,-1.5742738E-2,5.522425E-3,-1.2770028E-2,-1.3870987E-3,1.0198353E-2,1.23033E-3,-7.6380395E-3,1.0469962E-2,1.0156274E-3,1.19606244E-4,-1.106405E-2,8.7750104E-4,9.819699E-3,-7.492999E-3,3.0884354E-3],"categories":[],"categories_nodes":[],"categories_segments":[],"categories_sizes":[],"default_left":[0,0,0,0,0,0,0,0,0,0,0,0,0,0,0,0,0,0,0,0,0,0,0,0,0,0,0,0,0,0,0,0,0,0,0,0,0],"id":19,"left_children":[1,3,5,7,9,11,-1,13,15,17,19,21,23,25,27,29,31,-1,-1,33,35,-1,-1,-1,-1,-1,-1,-1,-1,-1,-1,-1,-1,-1,-1,-1,-1],"loss_changes":[1.2277643E1,7.2214046E0,1.3944683E0,6.3107076E0,7.880555E0,3.628626E-1,0E0,4.355825E0,6.8213634E0,2.3760796E-1,2.6201231E0,1.2394333E-1,3.8655367E0,2.040268E0,1.0085046E0,4.2632647E0,8.031011E0,0E0,0E0,5.2262235E-1,2.7660322E0,0E0,0E0,0E0,0E0,0E0,0E0,0E0,0E0,0E0,0E0,0E0,0E0,0E0,0E0,0E0,0E0],"parents":[2147483647,0,0,1,1,2,2,3,3,4,4,5,5,7,7,8,8,9,9,10,10,11,11,12,12,13,13,14,14,15,15,16,16,19,19,20,20],"right_children":[2,4,6,8,10,12,-1,14,16,18,20,22,24,26,28,30,32,-1,-1,34,36,-1,-1,-1,-1,-1,-1,-1,-1,-1,-1,-1,-1,-1,-1,-1,-1],"split_conditions":[1.0296981E11,1.9400645E-2,2.01912E8,-2.228582E-2,6.062295E0,1.8971406E-3,-8.73292E-4,2.7761731E-2,1.381912E10,4.032044E10,-2.7985195E-2,-3.6746943E-1,3.9282697E-3,3.2273827E1,4.6495102E1,3.298953E-4,8.253866E1,-5.4592667E-3,-1.587774E-2,7.157084E10,5.4825733E1,-5.59786E-3,-1.5742738E-2,5.522425E-3,-1.2770028E-2,-1.3870987E-3,1.0198353E-2,1.23033E-3,-7.6380395E-3,1.0469962E-2,1.0156274E-3,1.19606244E-4,-1.106405E-2,8.7750104E-4,9.819699E-3,-7.492999E-3,3.0884354E-3],"split_indices":[6,8,1,8,4,8,0,10,6,6,10,3,0,2,2,8,2,0,0,6,2,0,0,0,0,0,0,0,0,0,0,0,0,0,0,0,0],"split_type":[0,0,0,0,0,0,0,0,0,0,0,0,0,0,0,0,0,0,0,0,0,0,0,0,0,0,0,0,0,0,0,0,0,0,0,0,0],"sum_hessian":[6.147567E2,6.0478076E2,9.975951E0,5.8762946E2,1.7151264E1,8.484071E0,1.4918804E0,1.6612385E1,5.710171E2,6.242616E0,1.0908649E1,5.498292E0,2.985779E0,1.2907406E1,3.7049794E0,1.860801E1,5.5240906E2,1.7484987E0,4.4941173E0,2.4592984E0,8.44935E0,1.7490842E0,3.7492077E0,1.2358375E0,1.7499415E0,1.478641E0,1.1428765E1,2.4651153E0,1.239864E0,9.210234E0,9.397776E0,5.469119E2,5.4971395E0,1.2294638E0,1.2298347E0,4.9818745E0,3.4674764E0],"tree_param":{"num_deleted":"0","num_feature":"11","num_nodes":"37","size_leaf_vector":"1"}},{"base_weights":[-5.384992E-4,1.8312981E-2,-1.040947E0,3.7274912E-2,-5.976855E-1,-4.6543983E-1,-1.3019756E0,6.2175316E-1,1.9231908E-2,-1.3355224E0,-1.5866892E-2,-1.0802397E-2,4.354659E-3,-4.1317176E-3,-1.4692733E-2,8.796588E-1,-2.7161348E-1,5.941915E-1,-1.155899E-3,-4.1480465E-3,-1.4843244E-2,6.1575204E-1,-4.454288E-1,2.8341275E-3,1.0647311E-2,1.2025338E-3,-7.5626364E-3,1.039293E-2,1.0065428E-3,4.294089E-4,-1.7648002E-3,-1.1905548E-3,1.1495532E-2,5.4775076E-3,-9.255356E-3],"categories":[],"categories_nodes":[],"categories_segments":[],"categories_sizes":[],"default_left":[0,0,0,0,0,0,0,0,0,0,0,0,0,0,0,0,0,0,0,0,0,0,0,0,0,0,0,0,0,0,0,0,0,0,0],"id":20,"left_children":[1,3,5,7,9,11,13,15,17,19,21,-1,-1,-1,-1,23,25,27,29,-1,-1,31,33,-1,-1,-1,-1,-1,-1,-1,-1,-1,-1,-1,-1],"loss_changes":[1.2095145E1,7.0975885E0,1.0427141E0,6.1951385E0,7.7694683E0,3.2292528E0,4.3291092E-1,4.2926226E0,6.705695E0,4.7884655E-1,3.3018599E0,0E0,0E0,0E0,0E0,1.2308111E0,9.845871E-1,4.198811E0,4.2860723E0,0E0,0E0,2.0732636E0,3.9506378E0,0E0,0E0,0E0,0E0,0E0,0E0,0E0,0E0,0E0,0E0,0E0,0E0],"parents":[2147483647,0,0,1,1,2,2,3,3,4,4,5,5,6,6,7,7,8,8,9,9,10,10,15,15,16,16,17,17,18,18,21,21,22,22],"right_children":[2,4,6,8,10,12,14,16,18,20,22,-1,-1,-1,-1,24,26,28,30,-1,-1,32,34,-1,-1,-1,-1,-1,-1,-1,-1,-1,-1,-1,-1],"split_conditions":[1.0296981E11,1.9400645E-2,3.9282697E-3,-2.228582E-2,6.113868E10,5.877769E-4,-8.291334E-4,2.7761731E-2,1.381912E10,2.3332098E-1,8.74176E-1,-1.0802397E-2,4.354659E-3,-4.1317176E-3,-1.4692733E-2,-6.878673E-2,1.284003E1,3.298953E-4,2.969618E-2,-4.1480465E-3,-1.4843244E-2,-1.6199989E0,-2.0302817E-2,2.8341275E-3,1.0647311E-2,1.2025338E-3,-7.5626364E-3,1.039293E-2,1.0065428E-3,4.294089E-4,-1.7648002E-3,-1.1905548E-3,1.1495532E-2,5.4775076E-3,-9.255356E-3],"split_indices":[6,8,0,8,6,8,8,10,6,7,7,0,0,0,0,0,4,8,10,0,0,9,10,0,0,0,0,0,0,0,0,0,0,0,0],"split_type":[0,0,0,0,0,0,0,0,0,0,0,0,0,0,0,0,0,0,0,0,0,0,0,0,0,0,0,0,0,0,0,0,0,0,0],"sum_hessian":[6.1471075E2,6.047357E2,9.974994E0,5.875878E2,1.7147894E1,3.9809744E0,5.9940195E0,1.6593838E1,5.70994E2,6.989143E0,1.01587515E1,2.2478964E0,1.7330781E0,1.4991503E0,4.494869E0,1.2888427E1,3.7054102E0,1.8590008E1,5.52404E2,1.4993699E0,5.489773E0,3.9367678E0,6.2219834E0,3.6525133E0,9.235913E0,2.4645553E0,1.2408551E0,9.193211E0,9.396797E0,4.4199127E2,1.1041271E2,1.9834304E0,1.9533374E0,1.9816737E0,4.2403097E0],"tree_param":{"num_deleted":"0","num_feature":"11","num_nodes":"35","size_leaf_vector":"1"}},{"base_weights":[-5.6615967E-4,1.8139279E-2,-1.0328718E0,2.5560275E-1,-3.0316638E-2,-1.1744083E0,-8.025372E-4,1.6315758E-1,1.0617404E0,5.673546E-1,-5.158452E-2,-1.3688974E0,-5.624851E-1,-8.8387185E-1,2.4444756E-1,1.5392867E-2,1.590357E-1,1.1038201E0,9.975396E-2,-3.738727E-2,-1.096842E0,-2.420647E-3,-1.591029E-2,5.4710996E-3,-1.2596047E-2,3.1843667E-3,-1.517468E-2,1.4791805E-3,7.4622105E-3,7.743317E-3,-4.5650685E-3,1.2753789E-2,1.9664613E-3,4.8770015E-3,-4.7123306E-3,-5.3536013E-4,8.780832E-3,-1.2586969E-2,-2.316748E-3],"categories":[],"categories_nodes":[],"categories_segments":[],"categories_sizes":[],"default_left":[0,0,0,0,0,0,0,0,0,0,0,0,0,0,0,0,0,0,0,0,0,0,0,0,0,0,0,0,0,0,0,0,0,0,0,0,0,0,0],"id":21,"left_children":[1,3,5,7,9,11,-1,13,15,17,19,21,23,25,27,-1,29,31,33,35,37,-1,-1,-1,-1,-1,-1,-1,-1,-1,-1,-1,-1,-1,-1,-1,-1,-1,-1],"loss_changes":[1.1907121E1,6.9771676E0,1.3854647E0,7.484462E0,6.434926E0,3.5844994E-1,0E0,8.162685E0,4.2340603E0,4.254602E0,7.193958E0,1.2411938E0,3.7710686E0,5.7723856E0,4.124007E0,0E0,2.137332E0,9.948559E-1,2.5326228E0,7.173353E0,6.1831474E-1,0E0,0E0,0E0,0E0,0E0,0E0,0E0,0E0,0E0,0E0,0E0,0E0,0E0,0E0,0E0,0E0,0E0,0E0],"parents":[2147483647,0,0,1,1,2,2,3,3,4,4,5,5,7,7,8,8,9,9,10,10,11,11,12,12,13,13,14,14,16,16,17,17,18,18,19,19,20,20],"right_children":[2,4,6,8,10,12,-1,14,16,18,20,22,24,26,28,-1,30,32,34,36,38,-1,-1,-1,-1,-1,-1,-1,-1,-1,-1,-1,-1,-1,-1,-1,-1,-1,-1],"split_conditions":[1.0296981E11,-6.630072E-3,2.01912E8,6.6455165E-3,1.381912E10,1.8971406E-3,-8.025372E-4,1.0000229E-2,1.1200008E0,3.298953E-4,8.253866E1,-1.9999981E-1,3.9282697E-3,-4.8999977E-1,1.2673973E2,1.5392867E-2,1.2826666E-2,4.46708E8,7.59074E1,7.901628E1,5.699997E-1,-2.420647E-3,-1.591029E-2,5.4710996E-3,-1.2596047E-2,3.1843667E-3,-1.517468E-2,1.4791805E-3,7.4622105E-3,7.743317E-3,-4.5650685E-3,1.2753789E-2,1.9664613E-3,4.8770015E-3,-4.7123306E-3,-5.3536013E-4,8.780832E-3,-1.2586969E-2,-2.316748E-3],"split_indices":[6,8,1,0,6,8,0,9,9,8,2,9,0,9,5,0,0,1,2,2,9,0,0,0,0,0,0,0,0,0,0,0,0,0,0,0,0,0,0],"split_type":[0,0,0,0,0,0,0,0,0,0,0,0,0,0,0,0,0,0,0,0,0,0,0,0,0,0,0,0,0,0,0,0,0,0,0,0,0,0,0],"sum_hessian":[6.146682E2,6.0469354E2,9.974653E0,1.0175537E2,5.0293817E2,8.481658E0,1.4929948E0,9.2365585E1,9.389782E0,1.639958E1,4.865386E2,5.4973726E0,2.9842854E0,5.943188E0,8.64224E1,5.679849E0,3.709933E0,7.003757E0,9.395823E0,4.8104062E2,5.497982E0,1.249356E0,4.248017E0,1.2345134E0,1.749772E0,2.2227411E0,3.720447E0,7.3565E1,1.2857397E1,1.726329E0,1.983604E0,5.5485673E0,1.4551896E0,5.681501E0,3.7143223E0,4.736274E2,7.4131866E0,4.2483454E0,1.2496369E0],"tree_param":{"num_deleted":"0","num_feature":"11","num_nodes":"39","size_leaf_vector":"1"}},{"base_weights":[-5.641638E-4,3.329261E-1,-3.240611E-2,9.4464767E-1,1.609504E-1,5.564785E-1,-5.105745E-2,5.5226684E-2,1.3159267E0,3.7585735E-1,-3.4747353E-1,-1.6426846E-1,7.8138655E-1,-3.8506996E-2,-1.0880793E0,6.208841E-3,-7.835042E-3,1.5333793E-2,4.406818E-4,1.3595095E-1,8.88957E-1,-1.4678817E-2,-2.2771165E-2,6.767846E-3,-7.182228E-1,1.1676902E0,4.6413857E-2,-5.386708E-2,6.813822E-1,1.8478176E-3,-1.4259952E-2,-5.656613E-3,5.843675E-3,1.2674981E-2,-1.4783556E-3,3.4632334E-3,-7.28283E-3,-1.2146912E-2,1.0146402E-3,4.192514E-3,1.4263614E-2,-1.1559845E-2,1.003753E-2,-6.540124E-3,-3.9397812E-4,-9.206718E-3,1.0152043E-2],"categories":[],"categories_nodes":[],"categories_segments":[],"categories_sizes":[],"default_left":[0,0,0,0,0,0,0,0,0,0,0,0,0,0,0,0,0,0,0,0,0,0,0,0,0,0,0,0,0,0,0,0,0,0,0,0,0,0,0,0,0,0,0,0,0,0,0],"id":22,"left_children":[1,3,5,7,9,11,13,15,17,19,21,23,25,27,29,-1,-1,-1,-1,31,33,-1,35,-1,37,39,41,43,45,-1,-1,-1,-1,-1,-1,-1,-1,-1,-1,-1,-1,-1,-1,-1,-1,-1,-1],"loss_changes":[6.54824E0,5.5022173E0,6.2109227E0,3.7542706E0,4.8462195E0,2.943222E0,7.071198E0,2.6009154E0,2.1815338E0,3.6724539E0,4.8204603E0,2.795207E0,3.752802E0,6.019152E0,3.0586348E0,0E0,0E0,0E0,0E0,7.3082476E0,3.9697366E0,0E0,3.210398E0,0E0,1.5366861E0,1.0955353E0,7.6766434E0,4.5822372E0,7.018498E0,0E0,0E0,0E0,0E0,0E0,0E0,0E0,0E0,0E0,0E0,0E0,0E0,0E0,0E0,0E0,0E0,0E0,0E0],"parents":[2147483647,0,0,1,1,2,2,3,3,4,4,5,5,6,6,7,7,8,8,9,9,10,10,11,11,12,12,13,13,14,14,19,19,20,20,22,22,24,24,25,25,26,26,27,27,28,28],"right_children":[2,4,6,8,10,12,14,16,18,20,22,24,26,28,30,-1,-1,-1,-1,32,34,-1,36,-1,38,40,42,44,46,-1,-1,-1,-1,-1,-1,-1,-1,-1,-1,-1,-1,-1,-1,-1,-1,-1,-1],"split_conditions":[-3.5403427E-2,2.2810489E-1,1.4449143E0,1.3057216E-1,1.7390542E-2,-7.5E-1,8.253866E1,-4.526649E-2,3.9500008E0,4.7964638E1,4.0157408E-2,-1.4984349E-2,7.655145E1,7.8312386E1,-2.7985195E-2,6.208841E-3,-7.835042E-3,1.5333793E-2,4.406818E-4,-1.8822043E-1,1.6681863E-2,-1.4678817E-2,1.847952E-2,6.767846E-3,2.8654277E-2,1.1843061E0,1.0778841E-2,-3.5100002E0,5.1155698E-2,1.8478176E-3,-1.4259952E-2,-5.656613E-3,5.843675E-3,1.2674981E-2,-1.4783556E-3,3.4632334E-3,-7.28283E-3,-1.2146912E-2,1.0146402E-3,4.192514E-3,1.4263614E-2,-1.1559845E-2,1.003753E-2,-6.540124E-3,-3.9397812E-4,-9.206718E-3,1.0152043E-2],"split_indices":[0,7,5,7,3,9,2,0,9,5,3,10,2,2,10,0,0,0,0,3,10,0,10,0,7,5,3,9,3,0,0,0,0,0,0,0,0,0,0,0,0,0,0,0,0,0,0],"split_type":[0,0,0,0,0,0,0,0,0,0,0,0,0,0,0,0,0,0,0,0,0,0,0,0,0,0,0,0,0,0,0,0,0,0,0,0,0,0,0,0,0,0,0,0,0,0,0],"sum_hessian":[6.146384E2,5.2747063E1,5.6189136E2,1.0588961E1,4.21581E1,1.6364794E1,5.4552655E2,3.4567819E0,7.1321793E0,2.981589E1,1.2342211E1,3.9562142E0,1.2408579E1,5.400281E2,5.4985037E0,2.219583E0,1.2371988E0,5.91522E0,1.2169596E0,2.1178547E1,8.637343E0,1.9821081E0,1.0360103E1,1.4829539E0,2.4732604E0,7.747644E0,4.6609354E0,5.296522E2,1.0375873E1,1.2485688E0,4.2499347E0,8.155941E0,1.3022606E1,6.16422E0,2.473123E0,7.1359744E0,3.224128E0,1.2401991E0,1.2330612E0,2.6630805E0,5.0845633E0,1.9740597E0,2.6868758E0,1.142852E1,5.182237E2,1.4860692E0,8.889803E0],"tree_param":{"num_deleted":"0","num_feature":"11","num_nodes":"47","size_leaf_vector":"1"}},{"base_weights":[-5.559275E-4,1.7576854E-1,-6.8260744E-2,3.003897E-1,-8.258178E-2,-2.7994262E-2,-3.7696064E-1,1.3819978E-1,6.0853827E-1,6.013959E-1,-2.2269304E-1,-9.544333E-4,-5.8991545E-1,1.1874781E-1,-8.1731963E-1,-6.628137E-1,2.2696388E-1,9.26327E-1,2.6881114E-1,1.000403E0,-4.1899237E-1,-8.947568E-1,-4.445634E-3,3.724945E-2,-4.04749E-1,-1.3873832E0,-5.5719066E-2,-1.3040769E-2,2.6425627E-1,-3.2212764E-1,-1.1524525E0,3.3571906E-3,-1.1115819E-2,3.912215E-3,-2.4188894E-3,4.2900695E-3,1.4172544E-2,3.870114E-3,-4.2222673E-3,2.6930098E-5,1.3002919E-2,1.2149038E-3,-7.724113E-3,7.1606395E-4,-1.0711071E-2,1.5691004E-3,-7.231276E-3,1.3618128E-4,6.5942584E-3,-8.237677E-3,-2.0016918E-3,-4.0927758E-3,-1.5717106E-2,6.824692E-3,-3.1972076E-3,7.143462E-3,-4.6814478E-4,-4.7254637E-3,5.716806E-3,-1.2950609E-2,-1.019344E-3],"categories":[],"categories_nodes":[],"categories_segments":[],"categories_sizes":[],"default_left":[0,0,0,0,0,0,0,0,0,0,0,0,0,0,0,0,0,0,0,0,0,0,0,0,0,0,0,0,0,0,0,0,0,0,0,0,0,0,0,0,0,0,0,0,0,0,0,0,0,0,0,0,0,0,0,0,0,0,0,0,0],"id":23,"left_children":[1,3,5,7,9,11,13,15,17,19,21,23,25,27,29,31,33,35,37,39,41,43,45,47,49,51,53,-1,55,57,59,-1,-1,-1,-1,-1,-1,-1,-1,-1,-1,-1,-1,-1,-1,-1,-1,-1,-1,-1,-1,-1,-1,-1,-1,-1,-1,-1,-1,-1,-1],"loss_changes":[7.361174E0,5.5328283E0,5.5275364E0,5.694627E0,5.544104E0,6.0042677E0,1.1301619E1,5.6285334E0,4.0238447E0,4.437066E0,6.975707E0,5.84725E0,7.6515336E0,5.5245857E0,4.160799E0,3.9317198E0,5.4936233E0,4.284769E0,1.8409147E0,2.2074795E0,7.583814E-1,2.063774E0,4.3954973E0,5.082612E0,2.6435394E0,6.61335E-1,2.5385854E0,0E0,3.3279026E0,1.9386477E0,2.2498016E0,0E0,0E0,0E0,0E0,0E0,0E0,0E0,0E0,0E0,0E0,0E0,0E0,0E0,0E0,0E0,0E0,0E0,0E0,0E0,0E0,0E0,0E0,0E0,0E0,0E0,0E0,0E0,0E0,0E0,0E0],"parents":[2147483647,0,0,1,1,2,2,3,3,4,4,5,5,6,6,7,7,8,8,9,9,10,10,11,11,12,12,13,13,14,14,15,15,16,16,17,17,18,18,19,19,20,20,21,21,22,22,23,23,24,24,25,25,26,26,28,28,29,29,30,30],"right_children":[2,4,6,8,10,12,14,16,18,20,22,24,26,28,30,32,34,36,38,40,42,44,46,48,50,52,54,-1,56,58,60,-1,-1,-1,-1,-1,-1,-1,-1,-1,-1,-1,-1,-1,-1,-1,-1,-1,-1,-1,-1,-1,-1,-1,-1,-1,-1,-1,-1,-1,-1],"split_conditions":[-2.9193282E-3,2.1462265E-2,3.9999962E-1,-1.16083E-2,5.2141767E0,1.9400645E-2,-8.291334E-4,-2.0000458E-2,7.5E-1,-7.598421E-3,6.912223E-2,5.4865756E0,6.062295E0,3.8796627E1,8.304353E-4,-1.5112971E-1,2.594549E-2,3.2999992E-1,-3.7988634E-3,4.2416245E1,3.768023E0,2.800007E-1,5.4214683E0,1.5356883E-2,-2.3167923E-2,2.3332098E-1,-2.7985195E-2,-1.3040769E-2,5.6821136E1,1.319664E2,4.2126782E-2,3.3571906E-3,-1.1115819E-2,3.912215E-3,-2.4188894E-3,4.2900695E-3,1.4172544E-2,3.870114E-3,-4.2222673E-3,2.6930098E-5,1.3002919E-2,1.2149038E-3,-7.724113E-3,7.1606395E-4,-1.0711071E-2,1.5691004E-3,-7.231276E-3,1.3618128E-4,6.5942584E-3,-8.237677E-3,-2.0016918E-3,-4.0927758E-3,-1.5717106E-2,6.824692E-3,-3.1972076E-3,7.143462E-3,-4.6814478E-4,-4.7254637E-3,5.716806E-3,-1.2950609E-2,-1.019344E-3],"split_indices":[8,3,9,0,4,8,8,9,9,0,3,7,4,2,0,3,10,9,8,2,4,9,7,8,10,7,10,0,2,4,0,0,0,0,0,0,0,0,0,0,0,0,0,0,0,0,0,0,0,0,0,0,0,0,0,0,0,0,0,0,0],"split_type":[0,0,0,0,0,0,0,0,0,0,0,0,0,0,0,0,0,0,0,0,0,0,0,0,0,0,0,0,0,0,0,0,0,0,0,0,0,0,0,0,0,0,0,0,0,0,0,0,0,0,0,0,0,0,0,0,0,0,0,0,0],"sum_hessian":[6.146112E2,1.7007826E2,4.4453296E2,1.1462402E2,5.5454235E1,3.942041E2,5.0328873E1,7.604646E1,3.8577564E1,8.868555E0,4.6585682E1,3.7706146E2,1.7142622E1,2.4020046E1,2.6308825E1,6.9412246E0,6.910524E1,1.9040218E1,1.9537346E1,6.3895903E0,2.4789653E0,1.0659976E1,3.5925705E1,3.4529965E2,3.1761803E1,6.236061E0,1.0906561E1,1.489831E0,2.2530216E1,1.1410247E1,1.4898579E1,2.230393E0,4.7108316E0,5.1298813E1,1.7806421E1,1.0389402E1,8.650817E0,1.7059345E1,2.4780016E0,1.7098879E0,4.6797023E0,1.2395567E0,1.2394085E0,1.7367742E0,8.923202E0,2.9977045E1,5.94866E0,3.33649E2,1.1650671E1,9.426957E0,2.2334846E1,1.4995112E0,4.73655E0,2.4555058E0,8.451056E0,8.67782E0,1.3852396E1,1.0170044E1,1.240203E0,1.2912865E1,1.9857134E0],"tree_param":{"num_deleted":"0","num_feature":"11","num_nodes":"61","size_leaf_vector":"1"}},{"base_weights":[-6.086216E-4,1.7924886E-2,-1.0234859E0,5.5915016E-1,-5.799973E-4,-2.1235128E-3,-1.2074543E-2,8.1402886E-1,-1.5696904E-2,1.1459716E-2,-1.0771525E0,-1.359717E-3,1.291617E-2,-1.0998739E0,8.9983636E-1,3.3842653E-1,-2.1130813E-2,1.8406519E-3,-1.4121798E-2,7.1378145E-3,-7.618574E-3,-1.3304374E-2,-3.5069166E-3,1.0851418E-2,3.8445988E-3,9.897317E-3,1.6116255E-3,-3.5151132E-4,8.034576E-3],"categories":[],"categories_nodes":[],"categories_segments":[],"categories_sizes":[],"default_left":[0,0,0,0,0,0,0,0,0,0,0,0,0,0,0,0,0,0,0,0,0,0,0,0,0,0,0,0,0],"id":24,"left_children":[1,3,5,7,9,-1,-1,11,13,15,17,19,-1,21,23,25,27,-1,-1,-1,-1,-1,-1,-1,-1,-1,-1,-1,-1],"loss_changes":[1.1688223E1,6.06568E0,1.3809328E0,2.946426E0,7.615448E0,0E0,0E0,5.411166E0,8.068664E0,6.199235E0,3.0056062E0,3.877605E0,0E0,1.7515564E-1,4.6014786E-3,5.9282084E0,6.1481547E0,0E0,0E0,0E0,0E0,0E0,0E0,0E0,0E0,0E0,0E0,0E0,0E0],"parents":[2147483647,0,0,1,1,2,2,3,3,4,4,7,7,8,8,9,9,10,10,11,11,13,13,14,14,15,15,16,16],"right_children":[2,4,6,8,10,-1,-1,12,14,16,18,20,-1,22,24,26,28,-1,-1,-1,-1,-1,-1,-1,-1,-1,-1,-1,-1],"split_conditions":[1.0296981E11,1.381912E10,5.1970016E1,7.6286575E1,8.253866E1,-2.1235128E-3,-1.2074543E-2,1.1843061E0,1.0778841E-2,-3.5403427E-2,-2.7985195E-2,-7.789983E-3,1.291617E-2,-1.0866645E-2,5.803456E-3,2.2810489E-1,7.901628E1,1.8406519E-3,-1.4121798E-2,7.1378145E-3,-7.618574E-3,-1.3304374E-2,-3.5069166E-3,1.0851418E-2,3.8445988E-3,9.897317E-3,1.6116255E-3,-3.5151132E-4,8.034576E-3],"split_indices":[6,6,2,2,2,0,0,5,3,0,10,10,0,10,0,7,2,0,0,0,0,0,0,0,0,0,0,0,0],"split_type":[0,0,0,0,0,0,0,0,0,0,0,0,0,0,0,0,0,0,0,0,0,0,0,0,0,0,0,0,0],"sum_hessian":[6.145809E2,6.0460846E2,9.97242E0,1.9022673E1,5.8558575E2,2.2419076E0,7.730512E0,1.289094E1,6.1317315E0,5.8008777E2,5.4979835E0,5.12986E0,7.7610803E0,2.7151253E0,3.4166064E0,5.172897E1,5.283588E2,1.2485158E0,4.249468E0,2.675426E0,2.454434E0,1.4829032E0,1.2322221E0,1.6998774E0,1.716729E0,1.0086322E1,4.1642647E1,5.204668E2,7.892025E0],"tree_param":{"num_deleted":"0","num_feature":"11","num_nodes":"29","size_leaf_vector":"1"}},{"base_weights":[-5.972355E-4,1.7775428E-2,-1.0145313E0,3.631671E-2,-5.8472E-1,-2.1087003E-3,-1.1967691E0,6.093427E-1,1.8667715E-2,-1.3767352E0,-5.4535735E-2,-1.4125183E-2,-6.3435894E-1,8.644505E-1,-2.7084914E-1,5.761478E-1,-1.0277372E-3,-4.0660426E-3,-1.5595845E-2,6.7827535E-1,-3.1648803E-1,5.59821E-3,-1.313759E-2,9.9817505E-3,-1.5355238E-3,1.2261342E-3,-7.5832224E-3,1.01425685E-2,9.327776E-4,1.1632037E-4,-1.0684205E-2,8.07318E-4,9.713985E-3,-7.3452746E-3,3.141904E-3],"categories":[],"categories_nodes":[],"categories_segments":[],"categories_sizes":[],"default_left":[0,0,0,0,0,0,0,0,0,0,0,0,0,0,0,0,0,0,0,0,0,0,0,0,0,0,0,0,0,0,0,0,0,0,0],"id":25,"left_children":[1,3,5,7,9,-1,11,13,15,17,19,-1,21,23,25,27,29,-1,-1,31,33,-1,-1,-1,-1,-1,-1,-1,-1,-1,-1,-1,-1,-1,-1],"loss_changes":[1.1484898E1,6.7861557E0,1.3546524E0,5.9397E0,7.541402E0,0E0,1.6330814E-1,4.1750073E0,6.279821E0,6.4872074E-1,2.5002122E0,0E0,4.1720667E0,2.0380774E0,9.9543667E-1,4.0341663E0,7.490106E0,0E0,0E0,5.264615E-1,2.7230036E0,0E0,0E0,0E0,0E0,0E0,0E0,0E0,0E0,0E0,0E0,0E0,0E0,0E0,0E0],"parents":[2147483647,0,0,1,1,2,2,3,3,4,4,6,6,7,7,8,8,9,9,10,10,12,12,13,13,14,14,15,15,16,16,19,19,20,20],"right_children":[2,4,6,8,10,-1,12,14,16,18,20,-1,22,24,26,28,30,-1,-1,32,34,-1,-1,-1,-1,-1,-1,-1,-1,-1,-1,-1,-1,-1,-1],"split_conditions":[1.0296981E11,1.9400645E-2,5.1970016E1,-2.228582E-2,8.051784E0,-2.1087003E-3,1.8971406E-3,2.7761731E-2,1.381912E10,2.3332098E-1,-2.7985195E-2,-1.4125183E-2,3.472166E-3,1.0547368E-1,4.6495102E1,3.298953E-4,8.253866E1,-4.0660426E-3,-1.5595845E-2,7.157084E10,5.4825733E1,5.59821E-3,-1.313759E-2,9.9817505E-3,-1.5355238E-3,1.2261342E-3,-7.5832224E-3,1.01425685E-2,9.327776E-4,1.1632037E-4,-1.0684205E-2,8.07318E-4,9.713985E-3,-7.3452746E-3,3.141904E-3],"split_indices":[6,8,2,8,5,0,8,10,6,7,10,0,8,3,2,8,2,0,0,6,2,0,0,0,0,0,0,0,0,0,0,0,0,0,0],"split_type":[0,0,0,0,0,0,0,0,0,0,0,0,0,0,0,0,0,0,0,0,0,0,0,0,0,0,0,0,0,0,0,0,0,0,0],"sum_hessian":[6.145493E2,6.045768E2,9.972569E0,5.8743854E2,1.7138197E1,2.2421036E0,7.730466E0,1.6550568E1,5.70888E2,6.2319274E0,1.0906269E1,4.4946885E0,3.2357774E0,1.2845433E1,3.7051344E0,1.8516802E1,5.523712E2,1.4995548E0,4.7323728E0,2.4534469E0,8.452822E0,1.2371858E0,1.9985914E0,1.1371194E1,1.4742396E0,2.4644399E0,1.2406944E0,9.131393E0,9.385408E0,5.4687415E2,5.497079E0,1.2271898E0,1.2262572E0,4.9843373E0,3.4684846E0],"tree_param":{"num_deleted":"0","num_feature":"11","num_nodes":"35","size_leaf_vector":"1"}},{"base_weights":[-6.47098E-4,1.758174E-2,-1.0068194E0,3.596109E-2,-5.7979894E-1,-1.1474893E0,-6.884308E-4,6.040489E-1,1.8482957E-2,-1.3024023E0,-1.116595E-2,-1.3397725E0,-5.459363E-1,8.243765E-1,9.13418E-2,5.7152325E-1,-1.0365248E-3,-1.4543977E-2,-3.8660218E-3,6.1353385E-1,-4.3635628E-1,-5.3067254E-3,-1.5260992E-2,5.4696337E-3,-1.2358228E-2,1.0576721E-2,1.2499946E-3,-8.900985E-3,8.313651E-3,1.006948E-2,9.244313E-4,1.15161005E-4,-1.0594575E-2,1.7697766E-4,1.096725E-2,-1.1015192E-2,8.5695816E-4],"categories":[],"categories_nodes":[],"categories_segments":[],"categories_sizes":[],"default_left":[0,0,0,0,0,0,0,0,0,0,0,0,0,0,0,0,0,0,0,0,0,0,0,0,0,0,0,0,0,0,0,0,0,0,0,0,0],"id":26,"left_children":[1,3,5,7,9,11,-1,13,15,17,19,21,23,25,27,29,31,-1,-1,33,35,-1,-1,-1,-1,-1,-1,-1,-1,-1,-1,-1,-1,-1,-1,-1,-1],"loss_changes":[1.1306719E1,6.669201E0,1.3683987E0,5.831062E0,7.4359374E0,3.6455727E-1,0E0,1.9050603E0,6.1738815E0,5.480242E-1,3.2308965E0,1.6892242E-1,3.6789014E0,1.8480978E0,5.383796E0,3.974162E0,7.3641863E0,0E0,0E0,1.400982E0,2.6023278E0,0E0,0E0,0E0,0E0,0E0,0E0,0E0,0E0,0E0,0E0,0E0,0E0,0E0,0E0,0E0,0E0],"parents":[2147483647,0,0,1,1,2,2,3,3,4,4,5,5,7,7,8,8,9,9,10,10,11,11,12,12,13,13,14,14,15,15,16,16,19,19,20,20],"right_children":[2,4,6,8,10,12,-1,14,16,18,20,22,24,26,28,30,32,-1,-1,34,36,-1,-1,-1,-1,-1,-1,-1,-1,-1,-1,-1,-1,-1,-1,-1,-1],"split_conditions":[1.0296981E11,1.9400645E-2,2.01912E8,-2.228582E-2,6.113868E10,1.8971406E-3,-6.884308E-4,7.094919E10,1.381912E10,7.38379E8,8.74176E-1,-3.6746943E-1,3.9282697E-3,4.9172596E1,1.7496714E1,3.298953E-4,8.253866E1,-1.4543977E-2,-3.8660218E-3,5.0199497E-2,1.7496714E1,-5.3067254E-3,-1.5260992E-2,5.4696337E-3,-1.2358228E-2,1.0576721E-2,1.2499946E-3,-8.900985E-3,8.313651E-3,1.006948E-2,9.244313E-4,1.15161005E-4,-1.0594575E-2,1.7697766E-4,1.096725E-2,-1.1015192E-2,8.5695816E-4],"split_indices":[6,8,1,8,6,8,0,6,6,1,7,3,0,2,4,8,2,0,0,0,4,0,0,0,0,0,0,0,0,0,0,0,0,0,0,0,0],"split_type":[0,0,0,0,0,0,0,0,0,0,0,0,0,0,0,0,0,0,0,0,0,0,0,0,0,0,0,0,0,0,0,0,0,0,0,0,0],"sum_hessian":[6.1449536E2,6.045257E2,9.969675E0,5.8739343E2,1.7132275E1,8.475258E0,1.4944164E0,1.6530966E1,5.708624E2,6.9764204E0,1.0155855E1,5.492441E0,2.9828172E0,1.1137091E1,5.393875E0,1.8497519E1,5.523649E2,5.47896E0,1.4974606E0,3.9335809E0,6.222274E0,1.7483842E0,3.7440567E0,1.2344322E0,1.7483851E0,7.967136E0,3.1699545E0,2.2315416E0,3.1623333E0,9.113047E0,9.384471E0,5.468683E2,5.49661E0,2.2256718E0,1.7079091E0,2.248021E0,3.9742532E0],"tree_param":{"num_deleted":"0","num_feature":"11","num_nodes":"37","size_leaf_vector":"1"}},{"base_weights":[-6.953736E-4,1.739835E-2,-9.9965805E-1,3.5624497E-2,-5.751953E-1,-1.1393691E0,-6.8429037E-4,5.992983E-1,1.8300004E-2,-1.3567154E0,-5.259678E-2,-1.3300203E0,-5.4240644E-1,8.532973E-1,-2.7407175E-1,5.6694525E-1,-1.0451304E-3,-5.148795E-3,-1.53116975E-2,6.7404544E-1,-3.1233606E-1,-2.2390801E-3,-1.55102275E-2,5.4412745E-3,-1.2282778E-2,-1.5384988E-3,9.860671E-3,-6.0008955E-3,2.6083689E-3,9.997242E-3,9.161599E-4,1.1401255E-4,-1.0506196E-2,8.0283557E-4,9.65469E-3,-7.2472864E-3,3.102798E-3],"categories":[],"categories_nodes":[],"categories_segments":[],"categories_sizes":[],"default_left":[0,0,0,0,0,0,0,0,0,0,0,0,0,0,0,0,0,0,0,0,0,0,0,0,0,0,0,0,0,0,0,0,0,0,0,0,0],"id":27,"left_children":[1,3,5,7,9,11,-1,13,15,17,19,21,23,25,27,29,31,-1,-1,33,35,-1,-1,-1,-1,-1,-1,-1,-1,-1,-1,-1,-1,-1,-1,-1,-1],"loss_changes":[1.1141432E1,6.560027E0,1.3487358E0,5.7344694E0,7.331253E0,3.5655308E-1,0E0,4.1186786E0,6.0698442E0,2.7239513E-1,2.4568975E0,1.2392464E0,3.6353335E0,1.9983282E0,9.765805E-1,3.9152708E0,7.2407255E0,0E0,0E0,5.1959634E-1,2.6516075E0,0E0,0E0,0E0,0E0,0E0,0E0,0E0,0E0,0E0,0E0,0E0,0E0,0E0,0E0,0E0,0E0],"parents":[2147483647,0,0,1,1,2,2,3,3,4,4,5,5,7,7,8,8,9,9,10,10,11,11,12,12,13,13,14,14,15,15,16,16,19,19,20,20],"right_children":[2,4,6,8,10,12,-1,14,16,18,20,22,24,26,28,30,32,-1,-1,34,36,-1,-1,-1,-1,-1,-1,-1,-1,-1,-1,-1,-1,-1,-1,-1,-1],"split_conditions":[1.0296981E11,1.9400645E-2,2.01912E8,-2.228582E-2,8.051784E0,1.8971406E-3,-6.8429037E-4,2.7761731E-2,1.381912E10,4.032044E10,-2.7985195E-2,-1.9999981E-1,3.9282697E-3,3.2273827E1,7.7664E8,3.298953E-4,8.253866E1,-5.148795E-3,-1.53116975E-2,7.157084E10,5.4825733E1,-2.2390801E-3,-1.55102275E-2,5.4412745E-3,-1.2282778E-2,-1.5384988E-3,9.860671E-3,-6.0008955E-3,2.6083689E-3,9.997242E-3,9.161599E-4,1.1401255E-4,-1.0506196E-2,8.0283557E-4,9.65469E-3,-7.2472864E-3,3.102798E-3],"split_indices":[6,8,1,8,5,8,0,10,6,6,10,9,0,2,1,8,2,0,0,6,2,0,0,0,0,0,0,0,0,0,0,0,0,0,0,0,0],"split_type":[0,0,0,0,0,0,0,0,0,0,0,0,0,0,0,0,0,0,0,0,0,0,0,0,0,0,0,0,0,0,0,0,0,0,0,0,0],"sum_hessian":[6.144394E2,6.0447345E2,9.965949E0,5.873485E2,1.712494E1,8.471475E0,1.494475E0,1.6512167E1,5.7083636E2,6.2228627E0,1.0902078E1,5.4901214E0,2.9813528E0,1.280974E1,3.7024264E0,1.8477964E1,5.523584E2,1.7464888E0,4.476374E0,2.4507675E0,8.45131E0,1.2495079E0,4.2406135E0,1.2336731E0,1.7476797E0,1.4734997E0,1.1336241E1,2.224672E0,1.4777544E0,9.094425E0,9.383539E0,5.4686255E2,5.495836E0,1.2267696E0,1.2239978E0,4.98528E0,3.4660301E0],"tree_param":{"num_deleted":"0","num_feature":"11","num_nodes":"37","size_leaf_vector":"1"}},{"base_weights":[-7.4343855E-4,1.721181E-2,-9.9239165E-1,2.4578823E-1,-2.936761E-2,-1.1311395E0,-6.8017497E-4,1.53992E-1,1.0476642E0,-7.837165E-1,-1.3039467E-2,-1.3200943E0,-5.3891873E-1,-8.7612903E-1,2.3420861E-1,1.5220519E-2,1.534594E-1,-1.7043659E-1,-1.3907562E0,6.7590033E-3,-6.0993886E-1,-2.2266412E-3,-1.5393954E-2,5.4131043E-3,-1.220837E-2,3.1399569E-3,-1.5016925E-2,1.3818621E-3,7.340049E-3,7.6357317E-3,-4.5428947E-3,-8.266772E-3,5.3010443E-3,-1.6425353E-2,-3.2292914E-3,8.756052E-3,-5.3761683E-5,-1.4456811E-2,2.842563E-5],"categories":[],"categories_nodes":[],"categories_segments":[],"categories_sizes":[],"default_left":[0,0,0,0,0,0,0,0,0,0,0,0,0,0,0,0,0,0,0,0,0,0,0,0,0,0,0,0,0,0,0,0,0,0,0,0,0,0,0],"id":28,"left_children":[1,3,5,7,9,11,-1,13,15,17,19,21,23,25,27,-1,29,31,33,35,37,-1,-1,-1,-1,-1,-1,-1,-1,-1,-1,-1,-1,-1,-1,-1,-1,-1,-1],"loss_changes":[1.097413E1,6.453103E0,1.3289003E0,7.390572E0,6.195462E0,3.4793186E-1,0E0,7.9089375E0,4.16368E0,3.7305999E0,5.844052E0,1.2184439E0,3.5924451E0,5.643002E0,4.0873914E0,0E0,2.0915666E0,3.3993833E0,8.720226E-1,5.0581756E0,8.134511E0,0E0,0E0,0E0,0E0,0E0,0E0,0E0,0E0,0E0,0E0,0E0,0E0,0E0,0E0,0E0,0E0,0E0,0E0],"parents":[2147483647,0,0,1,1,2,2,3,3,4,4,5,5,7,7,8,8,9,9,10,10,11,11,12,12,13,13,14,14,16,16,17,17,18,18,19,19,20,20],"right_children":[2,4,6,8,10,12,-1,14,16,18,20,22,24,26,28,-1,30,32,34,36,38,-1,-1,-1,-1,-1,-1,-1,-1,-1,-1,-1,-1,-1,-1,-1,-1,-1,-1],"split_conditions":[1.0296981E11,-6.630072E-3,2.01912E8,6.6455165E-3,-5.9029604E-3,1.8971406E-3,-6.8017497E-4,1.0000229E-2,1.1200008E0,2.4244369E-3,2.0655675E-2,-1.9999981E-1,3.9282697E-3,-4.8999977E-1,1.2673973E2,1.5220519E-2,1.2826666E-2,4.54414E8,1.582792E-1,8.4956E9,8.051784E0,-2.2266412E-3,-1.5393954E-2,5.4131043E-3,-1.220837E-2,3.1399569E-3,-1.5016925E-2,1.3818621E-3,7.340049E-3,7.6357317E-3,-4.5428947E-3,-8.266772E-3,5.3010443E-3,-1.6425353E-2,-3.2292914E-3,8.756052E-3,-5.3761683E-5,-1.4456811E-2,2.842563E-5],"split_indices":[6,8,1,0,8,8,0,9,9,3,8,9,0,9,5,0,0,1,3,6,5,0,0,0,0,0,0,0,0,0,0,0,0,0,0,0,0,0,0],"split_type":[0,0,0,0,0,0,0,0,0,0,0,0,0,0,0,0,0,0,0,0,0,0,0,0,0,0,0,0,0,0,0,0,0,0,0,0,0,0,0],"sum_hessian":[6.1438165E2,6.0442035E2,9.961276E0,1.0159458E2,5.028258E2,8.466743E0,1.494533E0,9.2228584E1,9.365997E0,9.657513E0,4.9316827E2,5.486996E0,2.9797473E0,5.9462557E0,8.6282326E1,5.660759E0,3.7052386E0,5.4411726E0,4.21634E0,4.7829254E2,1.487574E1,1.2495105E0,4.2374854E0,1.2329003E0,1.746847E0,2.2202759E0,3.72598E0,7.34478E1,1.2834529E1,1.7210729E0,1.9841657E0,2.7164495E0,2.7247233E0,2.9763534E0,1.2399867E0,5.6081686E0,4.726844E2,5.7180123E0,9.157728E0],"tree_param":{"num_deleted":"0","num_feature":"11","num_nodes":"39","size_leaf_vector":"1"}},{"base_weights":[-7.980135E-4,1.7019212E-2,-9.8523563E-1,3.4942955E-2,-5.660726E-1,-1.123045E0,-6.7608384E-4,5.924516E-1,1.7831992E-2,-1.2740985E0,-9.877877E-3,-1.310342E0,-5.3547263E-1,8.450063E-1,-2.738632E-1,5.597041E-1,-1.2459873E-3,-1.4247775E-2,-3.7341018E-3,-3.5981506E-1,6.5706563E-1,-2.2142734E-3,-1.5279972E-2,5.3851204E-3,-1.2134983E-2,9.781438E-3,-1.6008117E-3,-5.9769186E-3,2.5836232E-3,9.903872E-3,8.7944133E-4,4.2154174E-4,-1.7374989E-3,-8.963372E-3,1.9787531E-3,1.139082E-2,-2.6834707E-3],"categories":[],"categories_nodes":[],"categories_segments":[],"categories_sizes":[],"default_left":[0,0,0,0,0,0,0,0,0,0,0,0,0,0,0,0,0,0,0,0,0,0,0,0,0,0,0,0,0,0,0,0,0,0,0,0,0],"id":29,"left_children":[1,3,5,7,9,11,-1,13,15,17,19,21,23,25,27,29,31,-1,-1,33,35,-1,-1,-1,-1,-1,-1,-1,-1,-1,-1,-1,-1,-1,-1,-1,-1],"loss_changes":[1.0809818E1,6.346773E0,1.3095388E0,5.60127E0,7.1200013E0,3.3957958E-1,0E0,4.057319E0,5.9117255E0,5.483532E-1,2.8390598E0,1.1982765E0,3.550223E0,2.0011072E0,9.648684E-1,3.864479E0,4.149996E0,0E0,0E0,2.5591412E0,2.175302E0,0E0,0E0,0E0,0E0,0E0,0E0,0E0,0E0,0E0,0E0,0E0,0E0,0E0,0E0,0E0,0E0],"parents":[2147483647,0,0,1,1,2,2,3,3,4,4,5,5,7,7,8,8,9,9,10,10,11,11,12,12,13,13,14,14,15,15,16,16,19,19,20,20],"right_children":[2,4,6,8,10,12,-1,14,16,18,20,22,24,26,28,30,32,-1,-1,34,36,-1,-1,-1,-1,-1,-1,-1,-1,-1,-1,-1,-1,-1,-1,-1,-1],"split_conditions":[1.0296981E11,1.9400645E-2,2.01912E8,-2.228582E-2,6.113868E10,1.8971406E-3,-6.7608384E-4,2.7761731E-2,1.381912E10,7.38379E8,-1.5800018E0,-1.9999981E-1,3.9282697E-3,1.0547368E-1,7.7664E8,3.298953E-4,2.969618E-2,-1.4247775E-2,-3.7341018E-3,7.3879E10,1.8399487E1,-2.2142734E-3,-1.5279972E-2,5.3851204E-3,-1.2134983E-2,9.781438E-3,-1.6008117E-3,-5.9769186E-3,2.5836232E-3,9.903872E-3,8.7944133E-4,4.2154174E-4,-1.7374989E-3,-8.963372E-3,1.9787531E-3,1.139082E-2,-2.6834707E-3],"split_indices":[6,8,1,8,6,8,0,10,6,1,9,9,0,3,1,8,10,0,0,6,5,0,0,0,0,0,0,0,0,0,0,0,0,0,0,0,0],"split_type":[0,0,0,0,0,0,0,0,0,0,0,0,0,0,0,0,0,0,0,0,0,0,0,0,0,0,0,0,0,0,0,0,0,0,0,0,0],"sum_hessian":[6.1434106E2,6.043851E2,9.955985E0,5.872729E2,1.7112192E1,8.461395E0,1.4945903E0,1.6486496E1,5.707864E2,6.9606576E0,1.0151535E1,5.483392E0,2.9780035E0,1.2784158E1,3.7023382E0,1.8448742E1,5.5233765E2,5.4645925E0,1.4960651E0,6.960137E0,3.1913981E0,1.2495099E0,4.2338815E0,1.2321141E0,1.7458895E0,1.1312473E1,1.4716841E0,2.2253408E0,1.4769973E0,9.069549E0,9.379194E0,4.419127E2,1.10424934E2,3.2379036E0,3.7222333E0,1.9465923E0,1.2448057E0],"tree_param":{"num_deleted":"0","num_feature":"11","num_nodes":"37","size_leaf_vector":"1"}},{"base_weights":[-8.335634E-4,1.6950908E-1,-6.6183954E-2,5.100451E-2,4.1888914E-1,-2.6138784E-2,-3.7315887E-1,-6.787564E-1,1.3816816E-1,5.066523E-1,-5.7061434E-1,-2.099611E-3,-6.00763E-1,1.1618451E-1,-8.073332E-1,-1.0370888E0,3.6435503E-1,3.2780558E-1,-2.4181272E-1,9.200433E-1,3.1938145E-1,-1.2081441E-2,-3.0499438E-2,-2.4785456E-1,5.8146063E-2,-1.4253311E-2,2.9523538E-3,-1.2952363E-2,2.608052E-1,-3.1970942E-1,-1.1369797E0,-5.2213273E-4,-1.6404994E-2,7.939828E-3,-3.2274383E-3,9.706928E-3,1.8173768E-3,-3.9622006E-3,5.57389E-3,4.9613705E-3,1.2313733E-2,4.4191917E-3,-7.242165E-3,5.262286E-3,-5.1863035E-3,7.13163E-3,-3.7791596E-3,1.3172161E-3,-2.5187691E-3,-3.6733367E-3,7.5154416E-3,7.0808604E-3,-4.82836E-4,-4.697477E-3,5.711377E-3,-1.27821835E-2,-9.738194E-4],"categories":[],"categories_nodes":[],"categories_segments":[],"categories_sizes":[],"default_left":[0,0,0,0,0,0,0,0,0,0,0,0,0,0,0,0,0,0,0,0,0,0,0,0,0,0,0,0,0,0,0,0,0,0,0,0,0,0,0,0,0,0,0,0,0,0,0,0,0,0,0,0,0,0,0,0,0],"id":30,"left_children":[1,3,5,7,9,11,13,15,17,19,21,23,25,27,29,31,33,35,37,39,41,-1,43,45,47,-1,49,-1,51,53,55,-1,-1,-1,-1,-1,-1,-1,-1,-1,-1,-1,-1,-1,-1,-1,-1,-1,-1,-1,-1,-1,-1,-1,-1,-1,-1],"loss_changes":[6.860549E0,5.0286074E0,5.465547E0,7.534356E0,5.057255E0,5.456196E0,1.099794E1,5.1061835E0,7.66879E0,3.6514845E0,1.6653668E0,5.643837E0,7.899832E0,5.4413953E0,4.0280666E0,5.6643486E0,1.4295009E0,6.461206E0,4.618928E0,1.4158211E0,5.0011663E0,0E0,1.2789786E0,9.649892E0,7.0170093E0,0E0,3.0908668E0,0E0,3.2846293E0,1.9271435E0,2.2115364E0,0E0,0E0,0E0,0E0,0E0,0E0,0E0,0E0,0E0,0E0,0E0,0E0,0E0,0E0,0E0,0E0,0E0,0E0,0E0,0E0,0E0,0E0,0E0,0E0,0E0,0E0],"parents":[2147483647,0,0,1,1,2,2,3,3,4,4,5,5,6,6,7,7,8,8,9,9,10,10,11,11,12,12,13,13,14,14,15,15,16,16,17,17,18,18,19,19,20,20,22,22,23,23,24,24,26,26,28,28,29,29,30,30],"right_children":[2,4,6,8,10,12,14,16,18,20,22,24,26,28,30,32,34,36,38,40,42,-1,44,46,48,-1,50,-1,52,54,56,-1,-1,-1,-1,-1,-1,-1,-1,-1,-1,-1,-1,-1,-1,-1,-1,-1,-1,-1,-1,-1,-1,-1,-1,-1,-1],"split_conditions":[-2.9193282E-3,-7.8024543E-3,3.9999962E-1,-2.0000458E-2,7.6286575E1,2.0655675E-2,-8.291334E-4,2.7698593E1,1.8030584E-2,-2.358469E-3,7.772592E1,0E0,6.062295E0,3.8796627E1,8.304353E-4,-4.8999977E-1,-1.8703107E-2,6.399994E-1,4.436725E-2,-5.6645676E-4,3.9851878E-2,-1.2081441E-2,7.965488E1,2.7224636E0,3.0158501E-2,-1.4253311E-2,-1.5800018E0,-1.2952363E-2,5.6821136E1,5.6252037E-3,4.2126782E-2,-5.2213273E-4,-1.6404994E-2,7.939828E-3,-3.2274383E-3,9.706928E-3,1.8173768E-3,-3.9622006E-3,5.57389E-3,4.9613705E-3,1.2313733E-2,4.4191917E-3,-7.242165E-3,5.262286E-3,-5.1863035E-3,7.13163E-3,-3.7791596E-3,1.3172161E-3,-2.5187691E-3,-3.6733367E-3,7.5154416E-3,7.0808604E-3,-4.82836E-4,-4.697477E-3,5.711377E-3,-1.27821835E-2,-9.738194E-4],"split_indices":[8,0,9,9,2,8,8,5,10,0,2,8,4,2,0,9,0,9,10,10,10,0,2,5,10,0,9,0,2,8,0,0,0,0,0,0,0,0,0,0,0,0,0,0,0,0,0,0,0,0,0,0,0,0,0,0,0],"split_type":[0,0,0,0,0,0,0,0,0,0,0,0,0,0,0,0,0,0,0,0,0,0,0,0,0,0,0,0,0,0,0,0,0,0,0,0,0,0,0,0,0,0,0,0,0,0,0,0,0,0,0,0,0,0,0,0,0],"sum_hessian":[6.142853E2,1.6988037E2,4.4440488E2,1.159743E2,5.3906082E1,3.940817E2,5.032318E1,1.1649975E1,1.04324326E2,4.9962658E1,3.943422E0,3.792208E2,1.4860896E1,2.4002813E1,2.6320368E1,8.675513E0,2.974461E0,6.968425E1,3.464007E1,1.4357124E1,3.5605534E1,1.2413523E0,2.7020698E0,7.4048225E1,3.0517258E2,5.7062454E0,9.154651E0,1.4914048E0,2.2511408E1,1.1410881E1,1.4909488E1,3.7087274E0,4.966786E0,1.7344128E0,1.2400484E0,1.18561945E1,5.7828056E1,2.9453775E1,5.1862974E0,7.1776533E0,7.1794715E0,3.238006E1,3.225476E0,1.2258747E0,1.4761951E0,8.292448E0,6.5755775E1,2.471042E2,5.8068367E1,6.465724E0,2.6889272E0,8.671721E0,1.3839687E1,1.017062E1,1.2402607E0,1.2924102E1,1.9853861E0],"tree_param":{"num_deleted":"0","num_feature":"11","num_nodes":"57","size_leaf_vector":"1"}},{"base_weights":[-8.6355E-4,1.680063E-2,-9.7722596E-1,-1.2460733E-2,3.3584827E-1,-1.9445916E-3,-1.1563262E0,2.5133516E-3,-8.1659025E-1,2.2450708E-1,9.846594E-1,-1.2771918E0,-2.3860757E-3,5.5445615E-2,-2.0873855E-1,-2.3862395E-1,-1.6565006E-2,4.8469543E-1,-7.3442005E-2,1.2924678E-2,-1.1335877E-3,-6.362901E-1,-1.5127351E-2,3.0837153E-4,5.7294113E-3,-4.3163614E-4,-5.3961105E-3,-6.0215937E-3,6.9052544E-3,9.481367E-3,4.307434E-5,-3.936472E-3,3.3285208E-3,1.988807E-3,-1.1309088E-2],"categories":[],"categories_nodes":[],"categories_segments":[],"categories_sizes":[],"default_left":[0,0,0,0,0,0,0,0,0,0,0,0,0,0,0,0,0,0,0,0,0,0,0,0,0,0,0,0,0,0,0,0,0,0,0],"id":31,"left_children":[1,3,5,7,9,-1,11,13,15,17,19,21,-1,23,25,27,-1,29,31,-1,-1,33,-1,-1,-1,-1,-1,-1,-1,-1,-1,-1,-1,-1,-1],"loss_changes":[1.0627349E1,5.6550903E0,1.3102655E0,6.6897964E0,3.4549518E0,0E0,6.6125584E-1,6.119797E0,4.5351133E0,3.5030754E0,2.5658102E0,1.6448498E-1,0E0,5.555006E0,5.984223E0,2.8426623E0,0E0,5.3410463E0,2.95669E0,0E0,0E0,1.7667325E0,0E0,0E0,0E0,0E0,0E0,0E0,0E0,0E0,0E0,0E0,0E0,0E0,0E0],"parents":[2147483647,0,0,1,1,2,2,3,3,4,4,6,6,7,7,8,8,9,9,10,10,11,11,13,13,14,14,15,15,17,17,18,18,21,21],"right_children":[2,4,6,8,10,-1,12,14,16,18,20,22,-1,24,26,28,-1,30,32,-1,-1,34,-1,-1,-1,-1,-1,-1,-1,-1,-1,-1,-1,-1,-1],"split_conditions":[1.0296981E11,1.8999996E0,5.1970016E1,1.6399994E0,1.3908524E2,-1.9445916E-3,3.5000038E-1,2.969618E-2,9.722972E-1,6.5609703E10,1.9617451E2,1.6646121E2,-2.3860757E-3,2.594549E-2,1.4090263E-2,-7.8024543E-3,-1.6565006E-2,4.9172596E1,1.4546402E0,1.2924678E-2,-1.1335877E-3,7.561726E-3,-1.5127351E-2,3.0837153E-4,5.7294113E-3,-4.3163614E-4,-5.3961105E-3,-6.0215937E-3,6.9052544E-3,9.481367E-3,4.307434E-5,-3.936472E-3,3.3285208E-3,1.988807E-3,-1.1309088E-2],"split_indices":[6,9,2,9,5,0,9,10,7,6,5,4,0,10,0,0,0,2,7,0,0,0,0,0,0,0,0,0,0,0,0,0,0,0,0],"split_type":[0,0,0,0,0,0,0,0,0,0,0,0,0,0,0,0,0,0,0,0,0,0,0,0,0,0,0,0,0,0,0,0,0,0,0],"sum_hessian":[6.1424615E2,6.0429614E2,9.950029E0,5.5440955E2,4.988657E1,2.2410703E0,7.708959E0,5.45253E2,9.156546E0,4.3728447E1,6.1581244E0,6.465708E0,1.2432516E0,4.365952E2,1.086578E2,6.1847496E0,2.9717958E0,2.3008856E1,2.071959E1,4.671474E0,1.4866502E0,2.7323883E0,3.7333193E0,4.1778772E2,1.880747E1,7.317172E1,3.5486076E1,4.6983967E0,1.4863527E0,1.1215407E1,1.1793448E1,1.160482E1,9.114769E0,1.2387136E0,1.4936746E0],"tree_param":{"num_deleted":"0","num_feature":"11","num_nodes":"35","size_leaf_vector":"1"}},{"base_weights":[-8.928375E-4,1.6716859E-1,-6.534736E-2,2.8926978E-1,-8.5606985E-2,-2.5642784E-2,-3.6963868E-1,1.2825052E-1,5.9542346E-1,5.86325E-1,-2.2283052E-1,-1.846304E-3,-5.947662E-1,1.1508175E-1,-7.9944295E-1,-6.5139276E-1,2.1497709E-1,9.11386E-1,2.582298E-1,9.8250294E-1,-4.2104048E-1,-8.872776E-1,-6.75515E-3,3.5198726E-2,-3.95746E-1,-1.4139704E-2,4.2820047E-3,-1.2838941E-2,2.5856876E-1,-3.166444E-1,-1.1256971E0,-1.0940865E-2,3.3383286E-3,3.7538686E-3,-2.4161523E-3,4.186675E-3,1.39898425E-2,3.7471808E-3,-4.1965637E-3,-1.225759E-4,1.283458E-2,1.1884838E-3,-7.728005E-3,7.4000855E-4,-1.0629353E-2,1.5203619E-3,-7.1336394E-3,2.2940707E-4,1.0962282E-2,-8.119372E-3,-1.9275985E-3,-3.6320135E-3,7.4751065E-3,7.021798E-3,-4.7777814E-4,-8.898626E-3,-4.1896512E-4,-1.2652578E-2,-9.714372E-4],"categories":[],"categories_nodes":[],"categories_segments":[],"categories_sizes":[],"default_left":[0,0,0,0,0,0,0,0,0,0,0,0,0,0,0,0,0,0,0,0,0,0,0,0,0,0,0,0,0,0,0,0,0,0,0,0,0,0,0,0,0,0,0,0,0,0,0,0,0,0,0,0,0,0,0,0,0,0,0],"id":32,"left_children":[1,3,5,7,9,11,13,15,17,19,21,23,25,27,29,31,33,35,37,39,41,43,45,47,49,-1,51,-1,53,55,57,-1,-1,-1,-1,-1,-1,-1,-1,-1,-1,-1,-1,-1,-1,-1,-1,-1,-1,-1,-1,-1,-1,-1,-1,-1,-1,-1,-1],"loss_changes":[6.6751876E0,5.2970805E0,5.3717046E0,5.6130905E0,5.331971E0,5.3492994E0,1.0786655E1,5.3402414E0,3.9734774E0,4.3415594E0,6.8234477E0,5.561978E0,7.785565E0,5.350321E0,3.9490852E0,3.8313107E0,5.214793E0,4.2190037E0,1.7764883E0,2.2203093E0,7.523773E-1,2.0484266E0,4.249111E0,4.5067754E0,2.6115556E0,0E0,3.0447004E0,0E0,3.2280703E0,1.9178005E0,2.1623497E0,0E0,0E0,0E0,0E0,0E0,0E0,0E0,0E0,0E0,0E0,0E0,0E0,0E0,0E0,0E0,0E0,0E0,0E0,0E0,0E0,0E0,0E0,0E0,0E0,0E0,0E0,0E0,0E0],"parents":[2147483647,0,0,1,1,2,2,3,3,4,4,5,5,6,6,7,7,8,8,9,9,10,10,11,11,12,12,13,13,14,14,15,15,16,16,17,17,18,18,19,19,20,20,21,21,22,22,23,23,24,24,26,26,28,28,29,29,30,30],"right_children":[2,4,6,8,10,12,14,16,18,20,22,24,26,28,30,32,34,36,38,40,42,44,46,48,50,-1,52,-1,54,56,58,-1,-1,-1,-1,-1,-1,-1,-1,-1,-1,-1,-1,-1,-1,-1,-1,-1,-1,-1,-1,-1,-1,-1,-1,-1,-1,-1,-1],"split_conditions":[-2.9193282E-3,2.1462265E-2,3.9999962E-1,-1.16083E-2,5.2141767E0,2.0655675E-2,-8.291334E-4,-2.0000458E-2,7.5E-1,-7.598421E-3,6.912223E-2,5.4865756E0,6.062295E0,3.8796627E1,8.304353E-4,1.9844383E1,2.594549E-2,3.2999992E-1,-3.7988634E-3,4.2416245E1,3.768023E0,2.800007E-1,5.4214683E0,3.800001E-1,-2.3167923E-2,-1.4139704E-2,-1.5800018E0,-1.2838941E-2,5.6821136E1,2.665761E-4,4.2126782E-2,-1.0940865E-2,3.3383286E-3,3.7538686E-3,-2.4161523E-3,4.186675E-3,1.39898425E-2,3.7471808E-3,-4.1965637E-3,-1.225759E-4,1.283458E-2,1.1884838E-3,-7.728005E-3,7.4000855E-4,-1.0629353E-2,1.5203619E-3,-7.1336394E-3,2.2940707E-4,1.0962282E-2,-8.119372E-3,-1.9275985E-3,-3.6320135E-3,7.4751065E-3,7.021798E-3,-4.7777814E-4,-8.898626E-3,-4.1896512E-4,-1.2652578E-2,-9.714372E-4],"split_indices":[8,3,9,0,4,8,8,9,9,0,3,7,4,2,0,4,10,9,8,2,4,9,7,9,10,0,9,0,2,8,0,0,0,0,0,0,0,0,0,0,0,0,0,0,0,0,0,0,0,0,0,0,0,0,0,0,0,0,0],"split_type":[0,0,0,0,0,0,0,0,0,0,0,0,0,0,0,0,0,0,0,0,0,0,0,0,0,0,0,0,0,0,0,0,0,0,0,0,0,0,0,0,0,0,0,0,0,0,0,0,0,0,0,0,0,0,0,0,0,0,0],"sum_hessian":[6.142205E2,1.6982307E2,4.4439743E2,1.1441261E2,5.5410458E1,3.9406348E2,5.0333958E1,7.590818E1,3.8504433E1,8.841956E0,4.65685E1,3.7921094E2,1.4852518E1,2.3999868E1,2.633409E1,6.946906E0,6.896127E1,1.8998915E1,1.950552E1,6.363853E0,2.4781034E0,1.0665378E1,3.5903126E1,3.4744543E2,3.1765514E1,5.6988807E0,9.153637E0,1.4932367E0,2.2506632E1,1.1413973E1,1.4920116E1,4.716939E0,2.229967E0,5.116416E1,1.7797115E1,1.0374304E1,8.62461E0,1.7026842E1,2.4786763E0,1.7009372E0,4.6629157E0,1.238839E0,1.2392644E0,1.7372239E0,8.928154E0,2.9956127E1,5.946998E0,3.444872E2,2.958222E0,9.430268E0,2.2335247E1,6.4672685E0,2.6863687E0,8.665818E0,1.3840814E1,2.9728198E0,8.441154E0,1.2934895E1,1.9852217E0],"tree_param":{"num_deleted":"0","num_feature":"11","num_nodes":"59","size_leaf_vector":"1"}},{"base_weights":[-9.42237E-4,1.6558848E-2,-9.6851134E-1,-1.2323727E-2,3.316743E-1,-3.457071E-1,-1.1850356E0,2.5440431E-3,-8.103141E-1,2.2109058E-1,9.766961E-1,3.583754E-3,-8.594326E-3,-2.1030188E-3,-1.3394103E0,5.4906685E-2,-2.063887E-1,-2.3747587E-1,-1.6416043E-2,-4.8306873E-1,3.7949386E-1,1.282391E-2,-1.1212551E-3,-4.3512126E-3,-1.5217217E-2,3.0524682E-4,5.6787124E-3,-4.2774572E-4,-5.332268E-3,8.478039E-3,-1.1996431E-2,6.831046E-3,-8.20049E-3,7.99353E-3,-8.317314E-5],"categories":[],"categories_nodes":[],"categories_segments":[],"categories_sizes":[],"default_left":[0,0,0,0,0,0,0,0,0,0,0,0,0,0,0,0,0,0,0,0,0,0,0,0,0,0,0,0,0,0,0,0,0,0,0],"id":33,"left_children":[1,3,5,7,9,11,13,15,17,19,21,-1,-1,-1,23,25,27,29,-1,31,33,-1,-1,-1,-1,-1,-1,-1,-1,-1,-1,-1,-1,-1,-1],"loss_changes":[1.0433146E1,5.5125036E0,1.0664501E0,6.5912657E0,3.411273E0,1.8400832E0,8.7855625E-1,5.9871E0,4.4489746E0,5.1694627E0,2.5235243E0,0E0,0E0,0E0,4.045353E-1,5.455117E0,5.8418393E0,8.519809E0,0E0,3.9591205E0,6.039852E0,0E0,0E0,0E0,0E0,0E0,0E0,0E0,0E0,0E0,0E0,0E0,0E0,0E0,0E0],"parents":[2147483647,0,0,1,1,2,2,3,3,4,4,5,5,6,6,7,7,8,8,9,9,10,10,14,14,15,15,16,16,17,17,19,19,20,20],"right_children":[2,4,6,8,10,12,14,16,18,20,22,-1,-1,-1,24,26,28,30,-1,32,34,-1,-1,-1,-1,-1,-1,-1,-1,-1,-1,-1,-1,-1,-1],"split_conditions":[1.0296981E11,1.8999996E0,-3.6746943E-1,1.6399994E0,1.3908524E2,-1.9999981E-1,-3.4114387E-2,2.969618E-2,9.722972E-1,-2.1774985E-1,1.9617451E2,3.583754E-3,-8.594326E-3,-2.1030188E-3,3.9282697E-3,2.594549E-2,1.4090263E-2,-3.042583E-2,-1.6416043E-2,2.17E0,-3.5403427E-2,1.282391E-2,-1.1212551E-3,-4.3512126E-3,-1.5217217E-2,3.0524682E-4,5.6787124E-3,-4.2774572E-4,-5.332268E-3,8.478039E-3,-1.1996431E-2,6.831046E-3,-8.20049E-3,7.99353E-3,-8.317314E-5],"split_indices":[6,9,3,9,5,9,10,10,7,3,5,0,0,0,0,10,0,3,0,9,0,0,0,0,0,0,0,0,0,0,0,0,0,0,0],"split_type":[0,0,0,0,0,0,0,0,0,0,0,0,0,0,0,0,0,0,0,0,0,0,0,0,0,0,0,0,0,0,0,0,0,0,0],"sum_hessian":[6.141772E2,6.042309E2,9.946253E0,5.54379E2,4.985189E1,3.2357256E0,6.7105274E0,5.452176E2,9.161418E0,4.370226E1,6.149632E0,1.4925382E0,1.7431873E0,1.2404584E0,5.470069E0,4.3654745E2,1.0867015E2,6.185021E0,2.9763975E0,7.649202E0,3.605306E1,4.6627507E0,1.4868814E0,1.4860007E0,3.9840684E0,4.1775064E2,1.879683E1,7.317157E1,3.549858E1,2.9624152E0,3.2226057E0,1.4845494E0,6.1646523E0,1.6801702E1,1.9251354E1],"tree_param":{"num_deleted":"0","num_feature":"11","num_nodes":"35","size_leaf_vector":"1"}},{"base_weights":[-9.781864E-4,1.639203E-2,-9.6162397E-1,2.3735878E-1,-2.8580764E-2,-3.435012E-1,-1.176493E0,1.4633296E-1,1.0338427E0,-7.809335E-1,-1.2293017E-2,3.5625733E-3,-8.541718E-3,-1.4990057E-2,-4.305583E-1,-8.5985684E-1,2.2492012E-1,1.504919E-2,1.4851362E-1,-1.7320637E-1,-1.3809353E0,8.156739E-3,-5.509723E-1,-1.1726518E-2,5.8947634E-3,3.123078E-3,-1.475312E-2,1.2988595E-3,7.203845E-3,7.5530773E-3,-4.5381617E-3,-5.627922E-3,6.7450562E-3,-1.6282959E-2,-3.2471209E-3,8.657651E-3,-3.857529E-5,-1.2440983E-2,-7.825117E-5],"categories":[],"categories_nodes":[],"categories_segments":[],"categories_sizes":[],"default_left":[0,0,0,0,0,0,0,0,0,0,0,0,0,0,0,0,0,0,0,0,0,0,0,0,0,0,0,0,0,0,0,0,0,0,0,0,0,0,0],"id":34,"left_children":[1,3,5,7,9,11,13,15,17,19,21,-1,-1,-1,23,25,27,-1,29,31,33,35,37,-1,-1,-1,-1,-1,-1,-1,-1,-1,-1,-1,-1,-1,-1,-1,-1],"loss_changes":[1.028049E1,6.021002E0,1.0491648E0,7.276626E0,6.1634398E0,1.8176268E0,1.2087593E0,7.5559483E0,4.0901413E0,3.6473637E0,5.4473534E0,0E0,0E0,0E0,3.514287E0,5.4765644E0,4.0103264E0,0E0,2.0611606E0,2.506017E0,8.3509445E-1,4.9182024E0,6.7989783E0,0E0,0E0,0E0,0E0,0E0,0E0,0E0,0E0,0E0,0E0,0E0,0E0,0E0,0E0,0E0,0E0],"parents":[2147483647,0,0,1,1,2,2,3,3,4,4,5,5,6,6,7,7,8,8,9,9,10,10,14,14,15,15,16,16,18,18,19,19,20,20,21,21,22,22],"right_children":[2,4,6,8,10,12,14,16,18,20,22,-1,-1,-1,24,26,28,-1,30,32,34,36,38,-1,-1,-1,-1,-1,-1,-1,-1,-1,-1,-1,-1,-1,-1,-1,-1],"split_conditions":[1.0296981E11,-6.630072E-3,-3.6746943E-1,6.6455165E-3,-5.9029604E-3,-1.9999981E-1,1.8971406E-3,1.0000229E-2,1.1200008E0,2.4244369E-3,1.9400645E-2,3.5625733E-3,-8.541718E-3,-1.4990057E-2,-6.2999916E-1,-4.8999977E-1,1.2673973E2,1.504919E-2,1.2826666E-2,-9.942423E-3,1.582792E-1,8.4956E9,6.113868E10,-1.1726518E-2,5.8947634E-3,3.123078E-3,-1.475312E-2,1.2988595E-3,7.203845E-3,7.5530773E-3,-4.5381617E-3,-5.627922E-3,6.7450562E-3,-1.6282959E-2,-3.2471209E-3,8.657651E-3,-3.857529E-5,-1.2440983E-2,-7.825117E-5],"split_indices":[6,8,3,0,8,9,8,9,9,3,8,0,0,0,9,9,5,0,0,0,3,6,6,0,0,0,0,0,0,0,0,0,0,0,0,0,0,0,0],"split_type":[0,0,0,0,0,0,0,0,0,0,0,0,0,0,0,0,0,0,0,0,0,0,0,0,0,0,0,0,0,0,0,0,0,0,0,0,0,0,0],"sum_hessian":[6.14147E2,6.0420483E2,9.942181E0,1.0145311E2,5.027517E2,3.2348905E0,6.70729E0,9.211007E1,9.343036E0,9.658673E0,4.9309302E2,1.4923441E0,1.7425464E0,3.9778562E0,2.729434E0,5.9527445E0,8.6157326E1,5.6414332E0,3.701603E0,5.438662E0,4.220011E0,4.7600732E2,1.7085697E1,1.4933648E0,1.2360693E0,2.219037E0,3.7337077E0,7.335028E1,1.2807042E1,1.7174482E0,1.9841547E0,3.956476E0,1.4821862E0,2.9803998E0,1.2396113E0,5.594529E0,4.704128E2,6.939483E0,1.01462145E1],"tree_param":{"num_deleted":"0","num_feature":"11","num_nodes":"39","size_leaf_vector":"1"}},{"base_weights":[-1.0221326E-3,1.6217327E-2,-9.5490646E-1,2.4149844E-1,-2.7115569E-2,-1.8563335E-3,-1.1317952E0,1.540746E-1,1.0519338E0,5.327956E-1,-4.6711806E-2,-1.2521642E0,-2.2695684E-3,-8.034594E-1,2.2898485E-1,1.4592626E-2,2.7660307E-1,1.05403E0,8.460979E-2,-3.340187E-2,-1.0371193E0,-6.202189E-1,-1.4856208E-2,3.1022888E-3,-1.4229376E-2,1.2746906E-2,1.815917E-3,7.5099836E-3,-2.9531561E-3,4.50995E-3,1.3078453E-2,6.1435895E-3,-3.3508167E-3,-4.895615E-4,8.589061E-3,2.005465E-3,-1.3702917E-2,-1.1107181E-2,2.028837E-3],"categories":[],"categories_nodes":[],"categories_segments":[],"categories_sizes":[],"default_left":[0,0,0,0,0,0,0,0,0,0,0,0,0,0,0,0,0,0,0,0,0,0,0,0,0,0,0,0,0,0,0,0,0,0,0,0,0,0,0],"id":35,"left_children":[1,3,5,7,9,-1,11,13,15,17,19,21,-1,23,25,-1,27,29,31,33,35,37,-1,-1,-1,-1,-1,-1,-1,-1,-1,-1,-1,-1,-1,-1,-1,-1,-1],"loss_changes":[1.0130487E1,5.9142203E0,1.2780266E0,6.761972E0,5.603555E0,0E0,6.6285706E-1,6.5953035E0,2.5473166E0,3.9461098E0,6.453208E0,1.7814541E-1,0E0,5.0686626E0,3.915421E0,0E0,1.4297056E0,6.1914444E-1,2.5125253E0,6.7966714E0,2.9522977E0,1.7301557E0,0E0,0E0,0E0,0E0,0E0,0E0,0E0,0E0,0E0,0E0,0E0,0E0,0E0,0E0,0E0,0E0,0E0],"parents":[2147483647,0,0,1,1,2,2,3,3,4,4,6,6,7,7,8,8,9,9,10,10,11,11,13,13,14,14,16,16,17,17,18,18,19,19,20,20,21,21],"right_children":[2,4,6,8,10,-1,12,14,16,18,20,22,-1,24,26,-1,28,30,32,34,36,38,-1,-1,-1,-1,-1,-1,-1,-1,-1,-1,-1,-1,-1,-1,-1,-1,-1],"split_conditions":[1.0296981E11,-6.8049924E-3,5.1970016E1,6.6455165E-3,1.381912E10,-1.8563335E-3,3.5000038E-1,1.0000229E-2,1.0999994E0,3.298953E-4,8.253866E1,1.6646121E2,-2.2695684E-3,-4.8999977E-1,3.199997E-1,1.4592626E-2,1.2826666E-2,-1.21028E-2,6.4212517E-3,7.901628E1,-2.7985195E-2,3.985703E0,-1.4856208E-2,3.1022888E-3,-1.4229376E-2,1.2746906E-2,1.815917E-3,7.5099836E-3,-2.9531561E-3,4.50995E-3,1.3078453E-2,6.1435895E-3,-3.3508167E-3,-4.895615E-4,8.589061E-3,2.005465E-3,-1.3702917E-2,-1.1107181E-2,2.028837E-3],"split_indices":[6,8,2,0,6,0,9,9,9,8,2,4,0,9,9,0,0,10,0,2,10,7,0,0,0,0,0,0,0,0,0,0,0,0,0,0,0,0,0],"split_type":[0,0,0,0,0,0,0,0,0,0,0,0,0,0,0,0,0,0,0,0,0,0,0,0,0,0,0,0,0,0,0,0,0,0,0,0,0,0,0],"sum_hessian":[6.141012E2,6.0416516E2,9.93602E0,9.672639E1,5.074388E2,2.2407281E0,7.695292E0,8.838245E1,8.34394E0,1.6273634E1,4.9116516E2,6.4530053E0,1.2422868E0,5.7070413E0,8.26754E1,4.891839E0,3.4521003E0,6.89873E0,9.374904E0,4.8567203E2,5.493148E0,2.7272549E0,3.7257504E0,2.2182734E0,3.4887679E0,2.4617624E0,8.021364E1,1.7157766E0,1.7363238E0,2.8660953E0,4.0326347E0,3.9390552E0,5.435848E0,4.7828E2,7.3920116E0,1.2495185E0,4.243629E0,1.4899455E0,1.2373093E0],"tree_param":{"num_deleted":"0","num_feature":"11","num_nodes":"39","size_leaf_vector":"1"}},{"base_weights":[-9.932424E-4,1.6121585E-2,-9.483617E-1,5.25127E-1,-1.1593433E-3,-1.0850089E0,-5.167752E-4,7.7896506E-1,-4.158535E-2,1.0329228E-2,-1.0289325E0,-1.2641376E0,-5.6523633E-1,-3.22473E-2,1.2584799E-2,-1.1048503E0,8.677671E-1,3.2105094E-1,-2.055286E-2,-1.2884438E-2,-2.9638496E-3,-4.917861E-3,-1.4535606E-2,1.4930252E-3,-1.1223404E-2,4.140365E-3,-4.9711294E-3,-3.5029124E-3,-1.3378867E-2,1.0571306E-2,3.590671E-3,9.6834665E-3,1.4536362E-3,-3.4326132E-4,7.906962E-3],"categories":[],"categories_nodes":[],"categories_segments":[],"categories_sizes":[],"default_left":[0,0,0,0,0,0,0,0,0,0,0,0,0,0,0,0,0,0,0,0,0,0,0,0,0,0,0,0,0,